0 1024 -0.00829342 1025 0.026865233 1026 -0.02245992 1027 -0.0044341646 1028 -0.0051668696 1029 -0.020994235 1030 -0.0039100014 1031 -0.02799397 1032 -0.01259204 1033 0.015710883 1034 0.003611032 1035 -0.02992709 1036 0.0065788664 1037 -0.00011181831 1038 -0.0031870194 1039 -0.014748275 1040 -0.010819599 1041 0.010827139 1042 0.0020392947 1043 0.02145711 1044 0.011022139 1045 0.01883296 1046 0.006790694 1047 0.020604607 1048 0.016218312 1049 -0.018913373 1050 -0.023230135 1051 0.004838284 1052 -0.005819585 1053 -0.01511386 1054 0.025345325 1055 0.00542422 1056 -0.030600846 1057 -0.0021947585 1058 0.012703363 1059 -0.017352335 1060 -0.004328456 1061 -0.0017252676 1062 0.015291426 1063 -0.0027683154 1064 -0.02630774 1065 -0.028006658 1066 0.02560563 1067 -0.008988913 1068 -0.016944814 1069 -0.010545172 1070 0.009750724 1071 -0.024859775 1072 -0.014430072 1073 0.0073213987 1074 -0.0039425306 1075 -0.009063836 1076 0.012720894 1077 -0.01927673 1078 -0.013205133 1079 -0.018612675 1080 0.013215642 1081 0.015414432 1082 0.025795482 1083 0.01625882 1084 0.026500702 1085 -0.008054808 1086 -0.017594453 1087 0.011604369 
1 1024 -0.0031512305 1025 0.025336951 1026 0.01483554 1027 -0.022041935 1028 -0.012522418 1029 -0.002599012 1030 -0.014023714 1031 -0.020628016 1032 0.02905269 1033 0.00058266893 1034 0.014810387 1035 -0.015743766 1036 0.008374557 1037 0.0229531 1038 -0.027483005 1039 0.009664081 1040 0.0037414804 1041 -0.016419575 1042 -0.019455772 1043 -0.0024387874 1044 0.011952985 1045 4.9930066e-05 1046 0.005657036 1047 -0.020081572 1048 -0.0076303 1049 0.030725993 1050 -0.01864684 1051 0.011827029 1052 0.008124791 1053 0.012275469 1054 -0.009214304 1055 -0.018660266 1056 -0.019209828 1057 -0.017513156 1058 0.016369443 1059 0.013903674 1060 -0.011378843 1061 0.022898328 1062 -0.0022953227 1063 -0.011140652 1064 0.011576403 1065 -0.030572686 1066 0.024303723 1067 0.017038994 1068 -0.001674626 1069 0.01864148 1070 0.029092334 1071 0.022629473 1072 -0.005268216 1073 -0.017988116 1074 -0.018486738 1075 -0.019714396 1076 -0.00974958 1077 -0.023289345 1078 0.024049338 1079 0.006958861 1080 0.003279511 1081 -0.00094579905 1082 -0.015067857 1083 -0.020949043 1084 -0.030784853 1085 0.02169801 1086 0.0028824918 1087 0.03015861 
2 1024 0.026728407 1025 0.028531123 1026 -0.008866262 1027 0.0059181675 1028 -0.026246682 1029 -0.023577355 1030 0.00506654 1031 0.025321048 1032 -0.019982032 1033 0.013912298 1034 0.0024416484 1035 -0.021752976 1036 0.02292981 1037 -0.030459117 1038 0.011261232 1039 -0.0046242513 1040 0.0016700737 1041 0.008369204 1042 0.0010631792 1043 0.0062278435 1044 -0.028754953 1045 0.0015150271 1046 0.0071246997 1047 -0.006761037 1048 0.0053828694 1049 -0.0044465177 1050 0.003915541 1051 0.014796507 1052 -0.0115539655 1053 -0.016198918 1054 -0.010602258 1055 0.0044494495 1056 0.01938197 1057 0.018826209 1058 -0.0005175173 1059 -0.011359688 1060 -0.011600502 1061 -0.0060179085 1062 0.015466157 1063 -0.009619229 1064 -0.006686434 1065 0.018434748 1066 -0.029853594 1067 -0.028969292 1068 0.01733638 1069 0.020543914 1070 -0.0065236464 1071 -0.0025045797 1072 -0.021048449 1073 0.010038022 1074 -0.010287993 1075 -0.019065313 1076 -0.0011925474 1077 -0.012627058 1078 -0.020981222 1079 0.006429229 1080 0.005704645 1081 -0.00056190416 1082 0.007882386 1083 -0.016896173 1084 0.0144035965 1085 -0.023453657 1086 0.030277524 1087 -0.023093678 
3 1024 0.010970771 1025 -0.02319673 1026 -0.013806213 1027 -0.019098371 1028 -0.0068846755 1029 0.009743519 1030 -0.030106768 1031 -0.006631594 1032 -0.024872396 1033 0.027786069 1034 -0.0005723722 1035 0.0052987076 1036 -0.028033465 1037 -0.029480543 1038 0.0051531047 1039 -0.0041808262 1040 -0.010879677 1041 -0.022612382 1042 -0.018085372 1043 0.006311938 1044 -0.028229658 1045 -0.011930283 1046 0.025704179 1047 0.020978302 1048 0.016705766 1049 0.024153054 1050 0.023829788 1051 0.0062610246 1052 0.014101259 1053 0.024787575 1054 -0.026260119 1055 0.01841288 1056 -0.0018227771 1057 0.010009311 1058 -0.02309421 1059 -0.013755124 1060 -0.0011302978 1061 -0.01057452 1062 -0.002925273 1063 0.006221086 1064 0.022397906 1065 -0.019293606 1066 -0.010381583 1067 -0.00675958 1068 -0.014589466 1069 0.01810116 1070 -0.014808852 1071 -0.029100556 1072 0.017003272 1073 0.027872518 1074 -0.015777878 1075 -0.028205816 1076 0.0007750951 1077 -0.009918924 1078 0.017926086 1079 0.0032902695 1080 0.00868158 1081 0.019680303 1082 0.018977553 1083 -0.022437666 1084 -0.007847413 1085 0.00196442 1086 -0.029123235 1087 -0.012677208 
4 1024 0.025174078 1025 0.020048946 1026 0.006481398 1027 0.018829528 1028 0.014572825 1029 0.02614459 1030 -0.0011784025 1031 0.014255859 1032 -0.029699825 1033 0.02545654 1034 -0.014781542 1035 -0.027694114 1036 0.019126985 1037 0.01805371 1038 -0.0073117726 1039 0.0040099286 1040 0.005256228 1041 0.019280113 1042 -0.0029080138 1043 0.020644363 1044 -0.015462633 1045 0.02129187 1046 -0.005791802 1047 -0.023631744 1048 0.010835573 1049 0.010578603 1050 -0.017438043 1051 -0.0035056397 1052 0.0055188313 1053 -0.030526683 1054 0.011955172 1055 0.0083776675 1056 -0.0036839694 1057 0.023435783 1058 0.021061622 1059 -0.013698019 1060 -0.010719653 1061 0.020123634 1062 0.016264841 1063 0.012656845 1064 0.006584827 1065 0.024548173 1066 0.001655858 1067 0.025647972 1068 0.012764886 1069 0.013880335 1070 -0.009777263 1071 0.0156545 1072 0.015700892 1073 0.0018131733 1074 -0.013960179 1075 0.0045104846 1076 -0.016799368 1077 -0.009521127 1078 -0.01953895 1079 0.009931702 1080 0.019040465 1081 -0.0030702837 1082 -0.0064184517 1083 0.010206282 1084 -0.001171466 1085 -0.025562022 1086 0.008723468 1087 -0.030507255 
5 1024 -0.018690202 1025 0.01894816 1026 0.017017446 1027 -0.0055474527 1028 -0.029726386 1029 -0.0010553822 1030 0.014856316 1031 -0.017438192 1032 0.0015374385 1033 -0.026203107 1034 0.0056725666 1035 0.019802928 1036 0.03055768 1037 0.009060841 1038 0.020879231 1039 -0.013422601 1040 0.009742223 1041 -0.014738757 1042 0.020108901 1043 -0.001450941 1044 -0.027990516 1045 0.0010550506 1046 0.018779114 1047 0.003990013 1048 -0.008573517 1049 -0.01854588 1050 -0.0022081248 1051 0.01640324 1052 -0.0134524815 1053 -0.003326647 1054 0.0012368858 1055 -0.00549512 1056 0.026532266 1057 0.02924274 1058 -0.017021827 1059 -0.0018943027 1060 -0.0013188906 1061 0.022941615 1062 -0.0057757236 1063 0.03012916 1064 0.0019291453 1065 0.017568838 1066 0.010467529 1067 0.017607428 1068 -0.030828178 1069 -0.0064412504 1070 0.0022435673 1071 0.023295771 1072 0.0027842037 1073 -0.007108815 1074 -0.027106889 1075 0.029516637 1076 -0.007241506 1077 -0.02422987 1078 -0.02227468 1079 -0.013335142 1080 0.026927773 1081 0.015866678 1082 0.023821019 1083 0.03119976 1084 -0.0017862767 1085 -0.008090273 1086 0.014221776 1087 -0.022998031 
6 1024 -0.00030801445 1025 -0.022202723 1026 -0.025355708 1027 0.019534878 1028 0.011190228 1029 -0.01128158 1030 0.0263105 1031 -0.014743157 1032 0.0061862804 1033 0.029396862 1034 -0.022404984 1035 -0.01790382 1036 0.019304767 1037 0.009092912 1038 0.0033455417 1039 -0.008296698 1040 0.01180508 1041 0.007177502 1042 -0.015076388 1043 0.021863729 1044 0.020357165 1045 0.017657999 1046 -0.01684631 1047 -0.029418 1048 -0.031240612 1049 -0.024455484 1050 -0.0048330426 1051 -0.014234912 1052 -0.0061230734 1053 0.017994076 1054 -0.012555491 1055 0.0010066591 1056 -0.011507779 1057 0.0040260404 1058 -0.025461543 1059 0.016528644 1060 0.013260603 1061 0.01783403 1062 -0.00340629 1063 -0.022598725 1064 -0.010022372 1065 0.017636415 1066 -0.015317459 1067 0.01069295 1068 -0.0025874525 1069 0.028465021 1070 -0.021031637 1071 0.02479418 1072 0.018904936 1073 0.009290688 1074 -0.024656266 1075 0.019815456 1076 -0.022294745 1077 0.007916 1078 0.020564858 1079 0.013699889 1080 -0.006832067 1081 -0.012798458 1082 0.018358715 1083 0.010609906 1084 0.030162875 1085 0.028260522 1086 0.026228528 1087 0.0076257586 
7 1024 -0.026067726 1025 -0.0042772815 1026 0.001078017 1027 -0.01873222 1028 0.0068960115 1029 0.011897109 1030 0.015774082 1031 0.02449705 1032 0.0053185783 1033 -0.012957804 1034 0.013176084 1035 0.01720152 1036 -0.028382193 1037 -0.018236518 1038 -0.014726266 1039 -0.011114482 1040 0.01329875 1041 0.013864428 1042 -0.026621476 1043 0.0006776303 1044 0.00047193468 1045 0.028582726 1046 -0.0273241 1047 0.021940697 1048 -0.018805776 1049 0.024131846 1050 -0.018092148 1051 0.0013203919 1052 0.0033829808 1053 0.021017827 1054 -0.019970551 1055 0.014285162 1056 0.011057176 1057 0.006888792 1058 0.017833155 1059 -0.026026 1060 -0.012543984 1061 -0.026649848 1062 -0.019786954 1063 0.0042591766 1064 0.017954469 1065 0.015731059 1066 -0.030061536 1067 0.014087167 1068 -0.012798235 1069 -0.009657428 1070 -0.012643274 1071 0.008956723 1072 -0.021679103 1073 0.014658619 1074 0.00540071 1075 0.0046481863 1076 0.0109890625 1077 0.030163132 1078 -0.019361172 1079 0.0043852255 1080 -0.025861163 1081 0.0010609813 1082 -0.028360635 1083 -0.014174812 1084 0.0150466785 1085 0.023235194 1086 0.012483381 1087 0.029476818 
8 1024 0.011273701 1025 0.010986336 1026 0.025657482 1027 -0.00998801 1028 -0.020714484 1029 0.020751439 1030 -0.014419358 1031 -0.02802081 1032 0.028055314 1033 0.0014985725 1034 0.02835694 1035 -2.40691e-05 1036 -0.016686272 1037 0.0047828928 1038 -0.0020419583 1039 0.02844321 1040 -0.02148068 1041 0.030907713 1042 0.024615522 1043 -0.0014596507 1044 -0.0072226226 1045 0.023756381 1046 0.02623764 1047 0.007839125 1048 -0.0056170337 1049 0.0127597675 1050 0.0053321384 1051 0.0075136162 1052 0.0077653974 1053 0.029542495 1054 0.0005772151 1055 -0.015461087 1056 -0.027054042 1057 0.00030664727 1058 -0.025731824 1059 -0.0049615838 1060 -0.0055612847 1061 -0.008345414 1062 0.0136215985 1063 -0.0031483993 1064 0.015217993 1065 0.024780843 1066 -0.023045696 1067 -0.027903162 1068 -0.019392967 1069 0.014222927 1070 -0.016142238 1071 -0.0018875115 1072 0.009765975 1073 0.030003283 1074 0.00036914274 1075 -0.0050668754 1076 0.004734818 1077 0.01572181 1078 -0.015387259 1079 0.021210644 1080 0.027615987 1081 -0.013926562 1082 -0.0061867125 1083 -0.0033895038 1084 0.020661037 1085 0.026466828 1086 0.02254393 1087 0.0043235905 
9 1024 -0.014306422 1025 0.01784506 1026 -0.027548417 1027 0.0042254627 1028 0.009614684 1029 0.008673966 1030 -0.012626868 1031 0.030952722 1032 -0.009607758 1033 -0.025337752 1034 0.028663013 1035 0.01648213 1036 -0.0077866465 1037 0.00087331235 1038 -0.024992459 1039 -0.021325786 1040 0.010332361 1041 -0.0075625107 1042 -0.013064273 1043 -0.024478316 1044 0.0038186535 1045 0.018922765 1046 0.002857484 1047 0.022921775 1048 -0.027373008 1049 -0.026955746 1050 -0.029888902 1051 -0.0116344355 1052 -0.022907663 1053 0.0012849458 1054 0.005763527 1055 -0.020462591 1056 0.008937754 1057 0.009549376 1058 0.013463251 1059 0.008594617 1060 -0.004332941 1061 -6.560609e-05 1062 0.013486382 1063 0.026692584 1064 -0.027536862 1065 0.025989752 1066 0.01643398 1067 0.0231178 1068 -0.0039274916 1069 -0.006894529 1070 0.017795589 1071 0.018839914 1072 0.018779557 1073 -0.02838165 1074 -0.011399206 1075 0.022064772 1076 0.014299639 1077 -0.024871487 1078 -0.027373657 1079 -0.008989435 1080 0.00012624264 1081 -0.017565358 1082 -0.012819305 1083 -0.009396326 1084 -0.0072508454 1085 0.0007106848 1086 -0.013304897 1087 0.0025280379 
10 1024 0.0031199567 1025 -0.029864937 1026 -0.024725597 1027 -0.00325815 1028 -0.006487835 1029 -0.026730865 1030 -0.026758663 1031 -0.02527012 1032 -0.017554041 1033 0.015006069 1034 -0.021505512 1035 0.030921299 1036 0.013779383 1037 0.00012555346 1038 -0.022261266 1039 0.025335416 1040 -0.022825852 1041 0.016318928 1042 -0.027549729 1043 -0.009056777 1044 0.009234291 1045 -0.028083973 1046 -0.02347489 1047 0.010890227 1048 -0.0005527958 1049 0.027524855 1050 -0.015563548 1051 -0.024891574 1052 0.030561522 1053 0.0024001338 1054 0.012262542 1055 0.011485461 1056 -0.004751105 1057 -0.017831158 1058 -0.0005167052 1059 0.0018235929 1060 -0.0049009733 1061 -0.018547371 1062 0.013342615 1063 0.015865877 1064 -0.019177034 1065 0.009915348 1066 -0.0017004162 1067 -0.00060556456 1068 0.0050153956 1069 -0.021563217 1070 -0.005756773 1071 -0.026577797 1072 0.007370252 1073 -0.018819388 1074 0.012796976 1075 -0.01820673 1076 0.0016444474 1077 0.0024216361 1078 0.008949205 1079 -0.020806301 1080 0.024820827 1081 -0.022739 1082 0.03018443 1083 -0.015370518 1084 -0.029105317 1085 0.03019192 1086 0.008932546 1087 0.025098197 
11 1024 -0.014310736 1025 -0.011279754 1026 0.01143603 1027 -0.025204867 1028 -0.009488922 1029 0.014126383 1030 0.012127269 1031 -0.0147845335 1032 -0.013529785 1033 0.021107715 1034 -0.0006981753 1035 -0.00715553 1036 -0.005440153 1037 -0.02277185 1038 -0.029396549 1039 0.004456084 1040 0.0041502677 1041 0.014020067 1042 -0.0036432147 1043 -0.016296979 1044 -0.020535506 1045 -0.0067943595 1046 0.019959722 1047 -0.0024197698 1048 0.029892929 1049 -0.02051957 1050 -0.03009786 1051 0.023820039 1052 -0.016346667 1053 -0.016641188 1054 -0.030120421 1055 -0.017518483 1056 -0.021348137 1057 -0.013420556 1058 -0.020360708 1059 0.030648395 1060 0.0057995245 1061 0.015143525 1062 0.02755779 1063 -0.003663633 1064 -0.021829166 1065 0.021712795 1066 0.0037924051 1067 0.024541147 1068 -0.0081939995 1069 -0.014787257 1070 -0.004429456 1071 -0.023152977 1072 -0.027532015 1073 0.017838713 1074 -0.013905641 1075 -0.020680279 1076 -0.026680984 1077 -0.020111885 1078 -0.020830281 1079 -0.011025853 1080 0.028847352 1081 -0.0048602484 1082 0.026249181 1083 0.016393766 1084 0.02745353 1085 0.018676668 1086 0.018339746 1087 0.005944386 
12 1024 0.003621392 1025 -0.022771355 1026 0.019578572 1027 -0.025762837 1028 -0.019253518 1029 0.023350041 1030 -0.027384147 1031 -0.020075861 1032 0.0039548203 1033 -0.008864906 1034 0.006266702 1035 -0.0147045925 1036 0.004142195 1037 0.00464968 1038 -0.012171701 1039 -0.027048074 1040 -0.019805685 1041 0.021069866 1042 0.008040354 1043 0.002785936 1044 0.003296487 1045 0.027635574 1046 -0.012364734 1047 -0.01738378 1048 -0.024745848 1049 0.019107625 1050 -0.018826567 1051 0.026669983 1052 0.027464751 1053 0.02391192 1054 0.025484186 1055 -0.02013056 1056 -0.007646393 1057 0.026993893 1058 -0.0023438074 1059 0.013144925 1060 0.0118072145 1061 0.013231609 1062 0.016772177 1063 0.022775333 1064 0.028296594 1065 -0.017647259 1066 0.013477389 1067 0.0068933256 1068 -0.009502053 1069 0.024985824 1070 0.0066950843 1071 0.0037996732 1072 -0.030286252 1073 0.028324466 1074 -0.022783075 1075 0.008258365 1076 0.014201004 1077 -0.021097705 1078 0.0029345974 1079 0.022077035 1080 -0.024206303 1081 -0.006772492 1082 -0.00829386 1083 0.011246406 1084 -0.023450185 1085 -0.02482998 1086 -0.012325421 1087 -0.025338344 
13 1024 0.0071899937 1025 -0.021969978 1026 -0.010761094 1027 0.027406383 1028 0.016315024 1029 -0.041373387 1030 0.035073828 1031 0.032759298 1032 -0.024743348 1033 0.016842283 1034 -0.0036228958 1035 0.03264896 1036 -0.040201627 1037 0.008236461 1038 0.011777009 1039 -0.01756295 1040 -0.021916308 1041 -0.032590378 1042 0.028556198 1043 0.012258201 1044 -0.026670866 1045 0.022866735 1046 0.011009316 1047 -0.011936343 1048 0.013407847 1049 -0.012082332 1050 0.0045081223 1051 -0.013461622 1052 -0.0011271602 1053 0.028341465 1054 -0.0071809897 1055 0.009522996 1056 0.026308872 1057 -0.023646798 1058 0.011799915 1059 -0.021012882 1060 0.013437587 1061 -0.02275846 1062 0.0030574873 1063 0.027523017 1064 -0.015863014 1065 0.021189518 1066 0.015288224 1067 -0.011703555 1068 -0.032333106 1069 0.003477177 1070 0.02183223 1071 0.024279973 1072 -0.0044063414 1073 -0.0016150961 1074 -0.012024019 1075 -0.005522356 1076 -0.029675266 1077 0.01754466 1078 0.031192932 1079 -0.021729724 1080 -0.015231055 1081 -0.036601517 1082 -0.00863177 1083 -0.018252637 1084 0.04689705 1085 0.007382696 1086 -0.024460137 1087 -0.011940514 
14 1024 0.028194813 1025 -0.038778156 1026 -0.025450332 1027 0.096451 1028 0.042382814 1029 -0.043564755 1030 0.030717924 1031 0.0308206 1032 -0.057918392 1033 0.021216534 1034 0.054231383 1035 0.058718644 1036 -0.052457027 1037 0.053432327 1038 0.009663672 1039 -0.063269146 1040 -0.008724936 1041 -0.02466369 1042 0.058803435 1043 0.04329327 1044 -0.039881784 1045 0.034110006 1046 0.0034873064 1047 0.0214382 1048 -0.024097798 1049 0.035730693 1050 -0.015446549 1051 0.014667772 1052 -0.048535474 1053 0.027990166 1054 0.0022294782 1055 0.046057988 1056 0.05933193 1057 -0.014757296 1058 -0.06834415 1059 0.027919088 1060 0.068684384 1061 0.019945234 1062 0.035135098 1063 -0.031117676 1064 0.04046647 1065 0.015200945 1066 0.025347162 1067 0.08017469 1068 -0.017343478 1069 -0.026901986 1070 0.010690157 1071 0.012930303 1072 0.06560921 1073 -0.0020209958 1074 -0.04874736 1075 -0.04883788 1076 -0.0436118 1077 -0.025896512 1078 0.0520371 1079 0.012106366 1080 -0.041722633 1081 -0.029610313 1082 0.024302484 1083 -0.038901914 1084 0.02045375 1085 -0.022852477 1086 0.0130124455 1087 -0.0012007199 
15 1024 0.005683749 1025 -0.067677625 1026 -0.004443709 1027 0.109381065 1028 0.034773953 1029 -0.05983521 1030 0.028409434 1031 0.027883766 1032 -0.083562925 1033 0.01519989 1034 0.058677573 1035 0.018953426 1036 -0.020640245 1037 0.035993226 1038 0.020386303 1039 -0.043471087 1040 -0.012707799 1041 0.002084631 1042 0.034559656 1043 0.0025468494 1044 -0.021974344 1045 0.07153921 1046 0.04112002 1047 0.010400792 1048 0.0072217924 1049 -0.004713342 1050 -0.070285186 1051 -0.0082118455 1052 0.0003283337 1053 0.044000827 1054 0.008742041 1055 -0.017486991 1056 0.08231776 1057 -0.0448913 1058 -0.032876927 1059 0.057161674 1060 0.053653684 1061 0.049853515 1062 0.07353347 1063 0.02293878 1064 -0.020862415 1065 0.021703513 1066 0.017175596 1067 0.05518511 1068 -0.020969456 1069 -0.060924403 1070 -0.06686178 1071 -0.024287095 1072 0.06596591 1073 0.018531555 1074 -0.0008352445 1075 -0.04321552 1076 -0.083568744 1077 -0.016304897 1078 0.013594723 1079 0.0493965 1080 -0.042749215 1081 -0.027853673 1082 -0.009569065 1083 -0.043053783 1084 0.077700175 1085 -0.016361935 1086 -0.044195812 1087 -0.0040894346 
16 1024 -0.012260222 1025 -0.00782945 1026 0.0034766342 1027 0.06549901 1028 0.017234135 1029 0.012821401 1030 -0.016842885 1031 0.014651747 1032 -0.015936935 1033 -0.033441205 1034 0.016223306 1035 0.016412325 1036 0.011830205 1037 0.02516688 1038 -0.028994437 1039 -0.009474214 1040 -0.008747472 1041 -0.021108093 1042 0.021699958 1043 -0.05145346 1044 -0.02301237 1045 0.018056579 1046 0.049298786 1047 -0.016049046 1048 -0.017533343 1049 -0.011814377 1050 -0.023376454 1051 0.00075878383 1052 0.042706307 1053 0.0009181583 1054 0.04654451 1055 -0.051951766 1056 0.037619412 1057 0.04472788 1058 0.008373882 1059 -0.044563968 1060 -0.01571889 1061 0.016062945 1062 0.009113209 1063 0.014337609 1064 0.0011578561 1065 -0.01295707 1066 -0.010925727 1067 0.0072812685 1068 0.009413895 1069 0.020223381 1070 -0.0418997 1071 -0.011567838 1072 -0.018662091 1073 0.0128052905 1074 0.030307222 1075 -0.014307466 1076 -0.039236907 1077 -0.016705722 1078 0.0032030342 1079 0.019064862 1080 0.006193163 1081 -0.012059935 1082 -0.028068265 1083 -0.02983173 1084 -0.008913638 1085 0.035281006 1086 -0.024903698 1087 -0.022243334 
17 1024 0.030395625 1025 -0.018687103 1026 0.021421062 1027 0.0065978365 1028 -0.02985974 1029 -0.012657736 1030 -0.023412436 1031 0.0037702376 1032 -0.03454594 1033 -0.032210946 1034 0.0141801685 1035 0.008025214 1036 0.0017842555 1037 0.018023271 1038 -0.010242764 1039 -0.011937923 1040 -0.008356959 1041 -0.008099446 1042 -0.0018145675 1043 -0.046961498 1044 0.020026948 1045 0.023331853 1046 0.05271411 1047 -0.020313248 1048 0.019689562 1049 -0.0136688575 1050 -0.02263398 1051 -0.006144692 1052 0.017145308 1053 -0.003845585 1054 0.040087465 1055 -0.038850803 1056 -0.008048425 1057 0.045642838 1058 -0.009829789 1059 -0.014071453 1060 0.0035290327 1061 -0.025280325 1062 0.021470051 1063 -0.027439905 1064 0.00034688786 1065 0.0018556196 1066 -0.0060629444 1067 0.0062201745 1068 -0.001066412 1069 0.021936892 1070 -0.039688908 1071 -0.013135724 1072 0.026192676 1073 0.00091968453 1074 0.035595216 1075 0.020964984 1076 -0.022428421 1077 -0.0071262172 1078 0.029331395 1079 -0.007313462 1080 0.0151652405 1081 -0.042287912 1082 0.02767686 1083 -0.051992334 1084 -0.0071044047 1085 0.031671584 1086 0.0011471086 1087 0.015793527 
18 1024 0.0013483651 1025 0.003955297 1026 -0.010467198 1027 -0.010653891 1028 -0.00911735 1029 -0.012731336 1030 -0.021442346 1031 -0.019307833 1032 0.021847576 1033 0.008034617 1034 -0.030720796 1035 0.00097309425 1036 -0.0035523884 1037 0.0067586824 1038 -0.0018511266 1039 -0.029637735 1040 -0.0020694695 1041 0.0147640295 1042 -0.017102256 1043 0.02725353 1044 0.029636513 1045 -0.0053859986 1046 -0.015445147 1047 0.007626489 1048 -0.030580573 1049 0.022587605 1050 0.018725064 1051 0.0015794523 1052 -0.006449789 1053 0.012409598 1054 0.026778217 1055 0.022117987 1056 0.02726945 1057 -0.008695699 1058 -0.011988953 1059 -0.024484303 1060 0.018661898 1061 0.019511804 1062 -5.8487058e-06 1063 -0.018317759 1064 0.023498327 1065 0.020935118 1066 -0.0126135945 1067 0.024092343 1068 0.028398432 1069 0.018539138 1070 -0.018135369 1071 -0.015737526 1072 -0.009082168 1073 0.024913978 1074 -0.0059032254 1075 -0.024399769 1076 0.015811056 1077 -0.029917449 1078 0.02289714 1079 0.010710623 1080 -0.008133929 1081 -0.025665306 1082 0.023400385 1083 -0.0031629764 1084 -0.015647855 1085 0.0071601532 1086 -0.0152568 1087 -0.020157088 
19 1024 -0.010908496 1025 -0.017426189 1026 -0.030541405 1027 0.02455742 1028 0.029454485 1029 -0.01146476 1030 -0.001283057 1031 0.003207717 1032 -0.019824069 1033 0.0006589219 1034 0.017120913 1035 -0.0049319826 1036 0.030742928 1037 -0.026818994 1038 0.00064399466 1039 0.0042943694 1040 0.0033669062 1041 0.023576632 1042 -0.027339205 1043 -0.0058136135 1044 -0.00020565838 1045 0.008590274 1046 0.0028778985 1047 0.0070165507 1048 0.015946463 1049 0.0025426634 1050 0.005979862 1051 -0.030340768 1052 0.025431387 1053 -0.00835323 1054 0.0053589605 1055 -0.023145776 1056 -0.01781949 1057 -0.012195554 1058 0.012940291 1059 -0.011412498 1060 -0.024865229 1061 -0.0037421323 1062 0.029866982 1063 0.005870916 1064 0.010480866 1065 0.014433403 1066 0.014090586 1067 -0.02882303 1068 -0.0017147996 1069 -0.0161068 1070 -0.020266335 1071 -0.027124159 1072 0.0013829097 1073 0.022319142 1074 -0.023975972 1075 0.019239586 1076 -0.004179891 1077 -0.015855413 1078 0.016085234 1079 -0.002374243 1080 0.027999986 1081 -0.007918488 1082 -0.019608773 1083 0.0117447 1084 -0.01615319 1085 0.012853496 1086 0.012926746 1087 -0.0102219395 
20 1024 0.027521275 1025 -0.0035999082 1026 -0.014152117 1027 -0.021485254 1028 0.0124614425 1029 0.028171182 1030 -0.01843546 1031 0.024601322 1032 -0.016579822 1033 0.0015798397 1034 0.020386584 1035 -0.002200868 1036 0.027661871 1037 -0.028382823 1038 0.014129367 1039 0.029396415 1040 0.025459934 1041 0.01774232 1042 0.0045379065 1043 -0.004888635 1044 0.02572421 1045 -0.021334212 1046 0.02262402 1047 0.013653621 1048 -0.017153341 1049 -0.020522792 1050 0.008186623 1051 0.02131603 1052 -0.025852192 1053 -0.0112955645 1054 -0.027670048 1055 -0.006035216 1056 0.02621907 1057 -0.004885614 1058 -0.025573 1059 -0.018027063 1060 0.025052965 1061 0.007885635 1062 0.006118577 1063 0.014088601 1064 -0.023786057 1065 -0.023790464 1066 0.010024264 1067 -0.017982539 1068 0.013724539 1069 0.0024523623 1070 0.020206917 1071 0.012554351 1072 -0.019517671 1073 -0.0302445 1074 -0.024983533 1075 0.009430658 1076 0.0064741783 1077 0.0007779449 1078 0.027814135 1079 -0.03115388 1080 -0.02756413 1081 0.024684865 1082 0.012543295 1083 0.031168923 1084 -0.02047522 1085 0.0002980046 1086 0.028881907 1087 -0.015410401 
21 1024 -0.022827346 1025 -0.0030262247 1026 -0.019787215 1027 -0.025186397 1028 -0.021189563 1029 0.017584685 1030 0.031067844 1031 0.021273892 1032 -0.026958771 1033 -0.02734442 1034 -0.0042846687 1035 0.013628274 1036 0.010016289 1037 -0.0067183077 1038 -0.009448614 1039 -0.030649837 1040 0.023022573 1041 -0.0022666454 1042 0.013383951 1043 -0.01439099 1044 0.02766237 1045 0.007744584 1046 0.011298213 1047 0.0048179105 1048 -0.0038826764 1049 0.000476256 1050 0.0036951303 1051 -0.017102588 1052 -0.020259686 1053 -0.0077438205 1054 0.006481845 1055 0.023647923 1056 0.019155543 1057 0.029233731 1058 0.01343802 1059 -0.0007464923 1060 -0.02809067 1061 0.010470562 1062 -0.027493425 1063 -0.010865003 1064 0.017271236 1065 -0.02516745 1066 0.02846247 1067 0.014911383 1068 0.028303333 1069 -0.005409036 1070 -0.02115418 1071 0.016495753 1072 -0.023314971 1073 -0.011734527 1074 -0.00018757582 1075 0.010020398 1076 0.010433409 1077 0.011859488 1078 -0.0045622624 1079 -0.0136511475 1080 0.0007260032 1081 -0.024868682 1082 -0.009609006 1083 -0.024437666 1084 0.0175017 1085 -0.015008189 1086 0.030436065 1087 0.0010186173 
22 1024 0.0005539879 1025 0.027620878 1026 0.025194865 1027 -0.0016169548 1028 -0.015742369 1029 -0.00025488436 1030 0.02256073 1031 0.005878661 1032 0.0017940067 1033 -0.0077482983 1034 0.028360836 1035 -0.029689685 1036 0.005948644 1037 -0.002837386 1038 -0.022394743 1039 0.0130441785 1040 -0.028536655 1041 0.021456346 1042 -0.017637514 1043 -0.0181924 1044 -0.02308011 1045 -0.004741609 1046 -0.0056795664 1047 0.004080955 1048 -0.016709287 1049 0.009617541 1050 -0.017496701 1051 0.009802625 1052 0.008457288 1053 -0.015346311 1054 0.002427686 1055 -0.0156086795 1056 0.030848078 1057 0.023718603 1058 -0.029178627 1059 -0.002002079 1060 -0.026109595 1061 -0.011374619 1062 -0.015187118 1063 0.0021379516 1064 0.003756795 1065 0.030568387 1066 0.015537061 1067 -0.017122988 1068 0.024885114 1069 -0.011146024 1070 -0.030279793 1071 -0.010911904 1072 -0.021645974 1073 -0.029619407 1074 0.0031365044 1075 -0.0021005385 1076 -0.006754048 1077 -0.009549655 1078 4.0233135e-06 1079 -0.023146141 1080 -0.013484467 1081 -0.024413005 1082 -0.013973307 1083 -0.02566725 1084 0.022548698 1085 0.014199775 1086 -0.027815383 1087 0.005651865 
23 1024 -0.0104906075 1025 -0.0051596127 1026 -0.0036346652 1027 -0.013406467 1028 0.028259411 1029 0.015606973 1030 0.016103413 1031 0.02510788 1032 -0.020921543 1033 0.018072486 1034 -0.0027263723 1035 0.014981363 1036 0.022716917 1037 -0.024386704 1038 0.018550362 1039 -0.024101034 1040 0.0075942054 1041 -0.02558377 1042 -0.020228595 1043 -0.020452533 1044 0.012576882 1045 0.022845097 1046 0.0023942105 1047 0.023021728 1048 0.0072431155 1049 -0.0036516339 1050 0.012269404 1051 -0.00789196 1052 -0.0006308891 1053 -0.00585014 1054 -0.022579256 1055 0.011142731 1056 0.010453377 1057 0.018417206 1058 -0.029900514 1059 0.020970568 1060 0.02868697 1061 -0.02569624 1062 -0.00975363 1063 0.010950543 1064 -0.029734984 1065 -0.0073005445 1066 -0.00033695623 1067 0.012355994 1068 0.02026065 1069 0.005392324 1070 -0.00761839 1071 0.0057258196 1072 -0.026795935 1073 -0.023213066 1074 0.01638497 1075 0.021814547 1076 0.008729283 1077 0.03037104 1078 -0.0022059567 1079 0.0021240637 1080 -0.027198046 1081 0.005899895 1082 -0.03082022 1083 -0.0071206763 1084 0.008510973 1085 -0.020732116 1086 0.02480913 1087 -0.027799066 
24 1024 -0.022749204 1025 -0.0031833164 1026 0.019180186 1027 -0.009979002 1028 0.011596166 1029 0.025949165 1030 0.022894438 1031 0.004357271 1032 -0.0012690909 1033 -0.001574222 1034 -0.015627056 1035 -0.015853323 1036 -0.0030294582 1037 -0.01607509 1038 -0.023386154 1039 0.006617233 1040 -0.02271058 1041 0.029727519 1042 0.006175626 1043 -0.0087223835 1044 -0.014296681 1045 0.014300406 1046 0.006798558 1047 -0.020462815 1048 0.0060008764 1049 0.013777029 1050 0.026517373 1051 -0.012774732 1052 -0.014628198 1053 0.010333817 1054 -0.009950545 1055 -0.020828888 1056 -0.027468335 1057 -0.011609003 1058 0.024304759 1059 0.008058488 1060 0.0012652874 1061 -0.00824599 1062 -0.00407812 1063 -0.010312479 1064 0.016245734 1065 -0.006323181 1066 -0.025531866 1067 0.008502003 1068 -0.0031552017 1069 0.027822044 1070 -0.01449351 1071 -0.009733852 1072 -0.010191955 1073 0.0282384 1074 -0.02907721 1075 -0.021168321 1076 0.028787084 1077 -0.020375185 1078 -0.028338455 1079 -0.009674635 1080 0.00028607994 1081 -0.023099981 1082 -0.010360032 1083 0.017061312 1084 0.02102876 1085 0.023645345 1086 0.011195328 1087 -0.024300378 
25 1024 -0.018199716 1025 0.0032824576 1026 0.020674177 1027 -0.024341963 1028 -0.008288354 1029 0.009814341 1030 -0.029592037 1031 0.030640494 1032 -0.013331395 1033 -0.012337111 1034 -0.025957983 1035 -0.0050289445 1036 0.0030398518 1037 -0.023511447 1038 -0.029020421 1039 0.023361519 1040 0.028869677 1041 0.026453298 1042 0.016221907 1043 0.008185573 1044 -0.00083919615 1045 0.008956548 1046 0.0029184483 1047 0.011744771 1048 -0.015939683 1049 -0.017746042 1050 0.011497516 1051 0.031037189 1052 0.030655313 1053 0.012540072 1054 0.017211273 1055 -0.026511379 1056 -0.006206531 1057 0.008967649 1058 0.0113171935 1059 0.030948572 1060 0.02417804 1061 0.021500446 1062 0.02312018 1063 0.02511514 1064 -0.014617607 1065 -0.021642726 1066 -0.0010030419 1067 0.021883477 1068 -0.001850117 1069 -0.008019567 1070 0.01528246 1071 0.028945342 1072 -0.014957774 1073 -0.0030841306 1074 -0.015939813 1075 -0.016138539 1076 -0.017209075 1077 -0.016320284 1078 -0.0108063705 1079 0.007569529 1080 -0.018192723 1081 0.018815424 1082 0.02962153 1083 0.025408339 1084 -0.0100933835 1085 -0.028192949 1086 0.0047082417 1087 -0.02502241 
26 1024 0.0011780486 1025 0.022337236 1026 0.006568644 1027 0.017031588 1028 -0.01723773 1029 -0.0013231859 1030 -0.022719592 1031 -0.030401405 1032 0.0072558373 1033 0.012392342 1034 0.014085479 1035 -0.019430384 1036 -0.0050084144 1037 -0.026902009 1038 0.025710128 1039 0.0027931295 1040 -0.0058691315 1041 0.010136146 1042 0.011613019 1043 -0.01568959 1044 0.002014529 1045 0.020692982 1046 0.027708255 1047 -0.017148 1048 -0.0165339 1049 -0.0167659 1050 -0.012777187 1051 0.0062792078 1052 0.020748872 1053 0.005393002 1054 -0.02548543 1055 -0.028291646 1056 -0.017427064 1057 0.00799593 1058 -0.01389344 1059 -0.00031010807 1060 0.00059143826 1061 0.0045409463 1062 -0.027134035 1063 -0.02096976 1064 -0.017297551 1065 -0.022278465 1066 -0.010517295 1067 -0.021815062 1068 -0.01689529 1069 -0.029865507 1070 -0.022199158 1071 -0.011351548 1072 -0.020668596 1073 0.010938019 1074 -0.011182822 1075 0.017492298 1076 0.0036636963 1077 0.011947561 1078 -0.02282945 1079 -0.00464835 1080 -0.025717944 1081 0.020705089 1082 0.028387342 1083 0.0064186156 1084 -0.018625677 1085 0.0223483 1086 0.012660921 1087 0.010525409 
27 1024 0.0041898675 1025 0.026809376 1026 -0.0004563667 1027 -0.008722618 1028 -0.0018802807 1029 0.015786514 1030 0.017366089 1031 0.02720321 1032 0.024929363 1033 -0.0032326914 1034 -0.005856607 1035 0.0025539473 1036 -0.027624592 1037 -0.008666288 1038 -0.018713824 1039 -0.02228678 1040 0.022262633 1041 0.02905368 1042 -0.011605572 1043 -0.0066302493 1044 0.026919618 1045 0.030365873 1046 -0.01864541 1047 -0.021235988 1048 0.004792597 1049 -0.012341011 1050 0.009240564 1051 0.010061178 1052 -0.014418252 1053 -0.02096548 1054 0.013886798 1055 -0.0066830963 1056 0.024491582 1057 -0.031062856 1058 -0.00962878 1059 0.003331542 1060 -0.031201575 1061 0.01884006 1062 -0.013266861 1063 0.021123026 1064 -0.016023729 1065 -0.022209331 1066 0.022526588 1067 -0.028013255 1068 -0.013215292 1069 0.0134804025 1070 -0.02220469 1071 0.020295005 1072 0.016109105 1073 0.012255404 1074 -0.021306701 1075 -0.019561552 1076 -0.008562006 1077 -0.012698181 1078 -0.014002573 1079 0.0016175173 1080 -0.017411236 1081 -0.0052119195 1082 -0.0059189163 1083 -0.025804471 1084 -0.003408201 1085 0.028148104 1086 -0.0008088127 1087 -0.005323589 
28 1024 -0.026790805 1025 0.026973475 1026 -0.012004383 1027 0.023274288 1028 0.005238455 1029 -0.015782293 1030 0.007518884 1031 -0.028455816 1032 -0.022361245 1033 0.014910199 1034 -0.005891241 1035 0.001979228 1036 0.012644481 1037 -0.017044272 1038 -0.0025434159 1039 0.031091653 1040 0.030246481 1041 -0.021995205 1042 -0.025746748 1043 -0.008709509 1044 0.028910559 1045 0.0029957145 1046 0.027019944 1047 -0.022549294 1048 -0.031166423 1049 -0.010918792 1050 -0.006398082 1051 -0.014599111 1052 0.0066001453 1053 0.0025684573 1054 0.017430011 1055 -0.0135433525 1056 0.010226425 1057 -0.019153513 1058 0.022211757 1059 0.018341348 1060 0.029942587 1061 0.007109951 1062 0.013784703 1063 -0.017151184 1064 0.028640531 1065 -0.021732688 1066 0.011218522 1067 -0.01414568 1068 -0.010133494 1069 -0.01960339 1070 0.018984705 1071 0.0015845671 1072 -0.0050247237 1073 0.018281333 1074 -0.017650329 1075 0.010462683 1076 0.025915138 1077 -0.010721028 1078 0.030784935 1079 -0.02569564 1080 -0.015544567 1081 0.008667879 1082 -0.011579491 1083 0.025232427 1084 -0.019004125 1085 0.011110257 1086 0.01677908 1087 0.021523777 
29 1024 0.015956525 1025 -0.03067588 1026 -0.020296376 1027 0.0096232 1028 -0.016170405 1029 -0.016154483 1030 -0.018461585 1031 0.030615263 1032 0.0011942349 1033 0.023836527 1034 -0.02811309 1035 -0.029334363 1036 -0.020848114 1037 -0.021382682 1038 -0.028392114 1039 -0.025487974 1040 -0.021747455 1041 -0.019444209 1042 0.023956653 1043 0.017093372 1044 -0.03062788 1045 0.015324753 1046 -0.0083604455 1047 0.03113553 1048 0.025164887 1049 -0.030964978 1050 0.019909598 1051 -0.018401846 1052 -0.0151093975 1053 -0.028725952 1054 0.009443164 1055 0.019672804 1056 0.0036867894 1057 -0.00010929629 1058 -0.00016659126 1059 -0.024219602 1060 -0.02734593 1061 -0.025171936 1062 -0.01459853 1063 -0.028535478 1064 0.0071384422 1065 -0.0016283616 1066 0.005222548 1067 0.023265306 1068 -0.001563441 1069 0.011477407 1070 -0.015734252 1071 -0.022840492 1072 0.011087541 1073 -0.0018532947 1074 -0.009112373 1075 0.028843638 1076 -0.025726162 1077 -0.030955177 1078 -0.011994079 1079 0.021279547 1080 -0.027185481 1081 -0.022107925 1082 0.01872794 1083 -0.00078283995 1084 -0.0039106384 1085 0.0040773936 1086 -0.004301239 1087 0.013611741 
30 1024 -0.028478108 1025 0.027897675 1026 0.000353124 1027 -0.0018727593 1028 -0.00075109676 1029 0.003806688 1030 -0.012100637 1031 -0.017094873 1032 0.026004467 1033 0.022990387 1034 -0.017926887 1035 -0.00919513 1036 0.007217191 1037 -0.02729528 1038 0.0134684965 1039 0.0107482225 1040 0.0055866092 1041 0.011354119 1042 0.022469465 1043 0.0012373999 1044 0.017383799 1045 -0.030346375 1046 -0.028169923 1047 0.024172943 1048 -0.021596327 1049 0.012183987 1050 0.027601302 1051 0.018947233 1052 -0.01591438 1053 -0.006472703 1054 0.0021637157 1055 -0.03072169 1056 0.02022563 1057 0.008019101 1058 0.0066785924 1059 -0.026790451 1060 0.017844595 1061 0.011426266 1062 -0.015491966 1063 0.0011991523 1064 -0.02059659 1065 -0.006107077 1066 -3.527105e-05 1067 0.023335144 1068 0.0036425851 1069 -0.005024828 1070 -0.018037327 1071 -0.022440933 1072 0.021392848 1073 -0.0011105202 1074 0.0070828944 1075 -0.014607072 1076 -0.030715983 1077 -0.0019258335 1078 -0.01239131 1079 0.000521753 1080 -0.019378904 1081 0.015925687 1082 -0.0062753223 1083 0.019485682 1084 0.030038882 1085 0.014340699 1086 -0.024385218 1087 0.0069170445 
31 1024 -0.008238427 1025 0.016102687 1026 -0.028357614 1027 0.030964531 1028 -0.02772921 1029 0.009788338 1030 0.029071067 1031 0.003813874 1032 0.010291509 1033 -0.029124636 1034 0.025518607 1035 0.004497044 1036 -0.007628314 1037 -0.024172988 1038 -0.02282326 1039 0.031033128 1040 0.019183327 1041 -0.017966568 1042 0.029609479 1043 -0.011555832 1044 -0.003983874 1045 0.014773745 1046 -0.0064497143 1047 0.009689763 1048 -0.015487887 1049 0.0073296987 1050 -0.008022543 1051 0.029399216 1052 0.024961323 1053 0.011371836 1054 -0.013164237 1055 0.00012111664 1056 0.0017320737 1057 0.011253554 1058 -0.007644497 1059 0.013034288 1060 0.030916844 1061 -0.019026581 1062 -0.01858252 1063 -0.02757167 1064 0.028492916 1065 0.019557618 1066 0.023119587 1067 -0.027660519 1068 1.6577542e-05 1069 0.012588207 1070 -0.027106952 1071 0.0049235485 1072 0.019095741 1073 -0.030813765 1074 -0.027225614 1075 -0.021036878 1076 0.011783391 1077 -0.01359285 1078 -0.022889405 1079 0.0169348 1080 -0.024898361 1081 0.021402024 1082 -0.006297495 1083 0.02994981 1084 -0.012904298 1085 0.0038014017 1086 -0.024474375 1087 0.027493056 
32 1024 -0.012531225 1025 -0.018578548 1026 0.022133127 1027 -0.006638199 1028 -0.0066624507 1029 0.0061597303 1030 0.030124713 1031 -0.0036485605 1032 0.012594979 1033 -0.0009373836 1034 -0.021238163 1035 0.02456592 1036 -0.002536688 1037 -0.013683349 1038 0.00964351 1039 0.020329908 1040 0.026322834 1041 -0.021135151 1042 -0.016932942 1043 0.026202563 1044 -0.025150452 1045 -0.02328572 1046 -0.006110478 1047 0.0059801266 1048 0.01647795 1049 -0.018241897 1050 0.017050944 1051 -0.0035733208 1052 0.0171099 1053 0.0022676103 1054 -0.0077584535 1055 0.023378309 1056 0.0080688 1057 0.01523269 1058 0.024551392 1059 -0.02691361 1060 0.013228502 1061 0.010615632 1062 -0.025748108 1063 0.013210177 1064 0.0054169 1065 0.021264214 1066 0.0296305 1067 0.013741065 1068 -0.02425493 1069 -0.004360728 1070 -0.0048739053 1071 0.0083023235 1072 -0.011315238 1073 -0.010479875 1074 -0.008088585 1075 0.0066310465 1076 -0.025724195 1077 -0.017543435 1078 0.025121484 1079 -0.012027781 1080 -0.006170772 1081 -0.019277219 1082 -0.029031735 1083 0.0027243234 1084 -0.006141547 1085 0.014664274 1086 -0.031020366 1087 -0.024301779 
33 1024 -0.007996898 1025 -0.00614956 1026 -0.029759016 1027 0.0056705587 1028 0.028975341 1029 0.018692128 1030 0.021278203 1031 -0.026934274 1032 -0.0061079822 1033 0.017834418 1034 0.022128727 1035 -0.021964993 1036 -0.019268546 1037 0.0018096864 1038 0.021240067 1039 0.0060172155 1040 -0.022121683 1041 -0.023862585 1042 -0.0006501116 1043 -0.021831568 1044 -0.021590818 1045 0.029291064 1046 -0.0010697618 1047 0.016703457 1048 -0.009161249 1049 -0.012571812 1050 0.008286867 1051 0.014896475 1052 -0.0049123913 1053 -0.018092383 1054 -0.020281974 1055 -0.027492873 1056 0.0065983087 1057 0.010448255 1058 0.0045043305 1059 -0.029378582 1060 -0.01847091 1061 -0.0003220439 1062 -0.00040387735 1063 -0.025912892 1064 0.025252715 1065 0.013406467 1066 0.023975872 1067 -0.0136581585 1068 -0.02420026 1069 0.008190591 1070 -0.0050458536 1071 -0.010211412 1072 0.02601396 1073 0.0012452267 1074 -0.0132271685 1075 0.01057126 1076 0.009203523 1077 0.0128548555 1078 -0.003585022 1079 -0.029848237 1080 -0.010971297 1081 -0.01531522 1082 -0.014424834 1083 0.010564487 1084 -0.010237623 1085 0.016021088 1086 -0.022328164 1087 0.01043269 
34 1024 0.020594995 1025 0.002246201 1026 -0.029892385 1027 -0.018635988 1028 0.022790551 1029 0.031198964 1030 -0.029406331 1031 -0.013172429 1032 -0.026756141 1033 0.00846526 1034 0.0063365214 1035 0.023050789 1036 0.0026330613 1037 -0.01751136 1038 -0.010487579 1039 0.003600616 1040 0.018769257 1041 0.023740925 1042 -0.014890533 1043 -0.012417302 1044 0.023192111 1045 -0.024194386 1046 -0.0026058704 1047 -0.0032840855 1048 -0.025709108 1049 -0.014427982 1050 -0.017155968 1051 0.008545045 1052 0.031188931 1053 0.008911606 1054 -0.0015254989 1055 0.007978521 1056 0.0007192381 1057 -0.017215949 1058 -0.0070300885 1059 -0.026542623 1060 0.004587155 1061 0.031040289 1062 0.026589017 1063 -0.023542605 1064 -0.01546482 1065 -0.016998906 1066 0.017519906 1067 -0.019644462 1068 0.00953044 1069 0.009133682 1070 -0.014251731 1071 0.0104782395 1072 0.0041919835 1073 0.018674538 1074 -0.013579775 1075 -0.008842081 1076 -0.00066173077 1077 0.0025733747 1078 0.005823206 1079 -0.0057453364 1080 -0.021179348 1081 0.022636205 1082 0.021556769 1083 0.026362468 1084 0.0057603046 1085 0.025430005 1086 -0.026999399 1087 0.013176907 
35 1024 -0.024725456 1025 0.010822505 1026 0.024766658 1027 0.012491431 1028 -0.012684476 1029 0.028198745 1030 0.009591661 1031 -0.029355805 1032 0.009012036 1033 -0.027721275 1034 -0.030260675 1035 -0.012628123 1036 0.0034675263 1037 -0.026285365 1038 -0.011706345 1039 -0.029400002 1040 0.016110603 1041 -0.025183272 1042 0.017504968 1043 -0.02012286 1044 0.011356279 1045 0.0040626153 1046 0.017344318 1047 -0.004601758 1048 0.02908646 1049 0.012802865 1050 0.019946381 1051 -0.005186174 1052 -0.0011220388 1053 0.02571876 1054 -0.0020846762 1055 0.014117703 1056 0.005539093 1057 0.029639587 1058 0.004467953 1059 0.017019756 1060 0.02831531 1061 0.011962835 1062 -0.014921702 1063 -0.013783403 1064 -0.012362178 1065 -0.010452997 1066 0.025490586 1067 0.005808253 1068 0.0060019866 1069 4.602596e-05 1070 0.016461343 1071 0.00037259609 1072 -0.0139165 1073 -0.014408816 1074 0.014832113 1075 -0.012398962 1076 0.010401029 1077 0.021116417 1078 0.008360472 1079 -0.013224661 1080 0.025323186 1081 0.011376545 1082 0.025027577 1083 -0.028741267 1084 -0.014893465 1085 0.022000164 1086 0.00014068559 1087 0.026278175 
36 1024 -0.01426322 1025 -0.0019810908 1026 0.00031004846 1027 -0.017379768 1028 -0.025918636 1029 0.016270716 1030 0.025935307 1031 0.022605635 1032 -0.018327016 1033 -0.008797638 1034 0.013643764 1035 0.0077656545 1036 0.007322658 1037 0.018835701 1038 0.02799692 1039 -0.0065592527 1040 0.0005134754 1041 0.027153123 1042 -0.020243738 1043 -0.027723785 1044 -0.003651429 1045 -0.021532398 1046 -0.0077070296 1047 0.003899496 1048 0.020206563 1049 0.027760971 1050 -0.029710878 1051 0.01611394 1052 -0.022436067 1053 0.015618954 1054 0.030431878 1055 -0.010772746 1056 -0.008195523 1057 0.028916053 1058 0.0137837045 1059 0.003236387 1060 0.0018666908 1061 0.01959394 1062 -0.019120805 1063 0.010387845 1064 0.022851884 1065 0.0117370635 1066 0.020312462 1067 -0.015359234 1068 -0.0008503869 1069 0.010833263 1070 -0.027462363 1071 -0.029155638 1072 -0.024418004 1073 0.029859468 1074 -0.0151401535 1075 0.028669465 1076 -0.024435408 1077 -0.01627227 1078 -0.027358472 1079 0.007262379 1080 0.002135791 1081 0.01897132 1082 -0.029265832 1083 0.0033297725 1084 0.02907797 1085 -0.004772175 1086 -0.015489403 1087 -0.010921843 
37 1024 0.01616579 1025 -0.015765268 1026 -0.021160778 1027 0.006071143 1028 -0.023962092 1029 -0.029664434 1030 -0.01912725 1031 0.00786056 1032 0.00069468096 1033 0.008113276 1034 -0.009974401 1035 -0.022464111 1036 -0.011547666 1037 0.017727409 1038 0.0031922795 1039 0.0018020049 1040 0.01532463 1041 0.022095196 1042 -0.017431978 1043 0.017089054 1044 -0.00017793849 1045 0.013113346 1046 -0.026316416 1047 -0.024274457 1048 -0.018268 1049 -0.028794974 1050 -0.027771488 1051 0.02620215 1052 0.027886368 1053 -0.009079736 1054 -0.02322213 1055 -0.0061601438 1056 -0.019701071 1057 0.021504112 1058 -0.010023404 1059 -0.007832367 1060 7.255748e-05 1061 0.010198973 1062 0.025141448 1063 -0.026360542 1064 0.01734586 1065 -0.019693494 1066 0.026965313 1067 0.004616998 1068 0.0038295016 1069 0.026098859 1070 0.0059475824 1071 0.008014746 1072 0.0049898773 1073 0.01926316 1074 -0.025434818 1075 0.010719191 1076 -0.02258841 1077 0.02169805 1078 0.029133935 1079 -0.023963694 1080 0.020291474 1081 0.031057753 1082 -0.019514542 1083 0.015575822 1084 0.00878131 1085 0.028705683 1086 0.0055668987 1087 -0.009385791 
38 1024 0.030369606 1025 0.0026425943 1026 0.022191495 1027 0.026315093 1028 0.012225889 1029 -0.019571204 1030 0.0015048608 1031 -0.00814769 1032 -0.029859807 1033 -0.020257615 1034 0.03027697 1035 -0.002780132 1036 0.021042239 1037 0.0009693727 1038 0.010040071 1039 0.004077118 1040 0.030094538 1041 0.024653688 1042 -0.0060825944 1043 -0.010759257 1044 -0.010871768 1045 -0.0282791 1046 -0.0013006069 1047 0.012110103 1048 -0.024402648 1049 0.011587463 1050 -0.0100050755 1051 0.0021995082 1052 -0.025101349 1053 -0.004296284 1054 -0.010254499 1055 -0.023182921 1056 0.006359145 1057 0.0008501075 1058 -0.024424203 1059 -0.026634302 1060 0.013115805 1061 0.023969647 1062 -0.0015407875 1063 0.026219893 1064 -0.02049625 1065 -0.02309078 1066 -0.02942267 1067 0.020641297 1068 -0.027843703 1069 0.016125675 1070 -0.015959896 1071 0.010210648 1072 0.0010589659 1073 -0.004834801 1074 0.01736248 1075 0.019144144 1076 0.0151340775 1077 0.028501365 1078 -0.018180575 1079 -0.020043358 1080 0.01720845 1081 -0.029216021 1082 0.008697923 1083 0.029033974 1084 -0.011612494 1085 0.005982753 1086 0.012511428 1087 -0.004107766 
39 1024 0.03567776 1025 -0.07072979 1026 -0.12681213 1027 0.10324021 1028 0.119723946 1029 -0.09216435 1030 0.14816177 1031 -0.00071356323 1032 -0.12976454 1033 0.042583365 1034 0.121008635 1035 -0.02409902 1036 -0.14755769 1037 0.14889623 1038 0.0848255 1039 -0.078884356 1040 0.0054842667 1041 0.0051507414 1042 0.10137245 1043 0.058192022 1044 -0.06755337 1045 0.13102554 1046 -0.040996592 1047 -0.0009944674 1048 -0.02399383 1049 0.05804497 1050 -0.1522981 1051 -0.0001103012 1052 0.018416144 1053 0.061867222 1054 0.02480404 1055 -0.025358705 1056 0.0544566 1057 -0.053019848 1058 -0.10843259 1059 0.008163395 1060 0.15212888 1061 0.119324505 1062 0.029779684 1063 0.018597003 1064 0.09937085 1065 0.10293757 1066 -0.022681715 1067 0.09382538 1068 -0.02349931 1069 -0.118399695 1070 0.002170282 1071 -0.05760017 1072 0.1259299 1073 -0.028909398 1074 -0.04606921 1075 -0.072980486 1076 -0.11070559 1077 -0.005065345 1078 0.12668091 1079 0.04077846 1080 -0.09408879 1081 -0.049294576 1082 0.0653522 1083 -0.14509015 1084 0.10051766 1085 -0.07171683 1086 0.013734431 1087 -0.054158747 
40 1024 -0.020723328 1025 -0.068734884 1026 -0.12623869 1027 0.1549275 1028 0.06652659 1029 -0.06861152 1030 0.17786801 1031 -0.012939532 1032 -0.09455928 1033 0.04319925 1034 0.1070961 1035 0.0050803903 1036 -0.113676235 1037 0.1472021 1038 0.04597971 1039 -0.09082103 1040 -0.0007028244 1041 -0.0038287712 1042 0.08880497 1043 0.014722634 1044 -0.08128594 1045 0.1285241 1046 1.9511883e-05 1047 0.029329412 1048 -0.03838732 1049 0.054662067 1050 -0.15596712 1051 -0.033096824 1052 -0.0021276686 1053 0.0016523532 1054 0.0031711315 1055 0.016279796 1056 0.023991 1057 -0.032348152 1058 -0.08785786 1059 0.0146294795 1060 0.14510402 1061 0.09511219 1062 -0.0007566112 1063 -0.02544742 1064 0.11474026 1065 0.15752955 1066 0.010806944 1067 0.08885779 1068 -0.03089044 1069 -0.10134604 1070 -0.03733602 1071 -0.052063383 1072 0.06362644 1073 -0.034505248 1074 -0.0686121 1075 -0.03477073 1076 -0.13068135 1077 -0.034033317 1078 0.14440638 1079 -0.0011437569 1080 -0.08321664 1081 -0.10546099 1082 0.041306052 1083 -0.0953607 1084 0.13553177 1085 -0.027373087 1086 0.025110185 1087 -0.051788915 
41 1024 0.013099067 1025 -0.16488236 1026 -0.1738929 1027 0.1268877 1028 0.015117915 1029 -0.11878673 1030 0.19330418 1031 0.014582306 1032 -0.1188494 1033 0.11489901 1034 0.08861978 1035 0.035953484 1036 -0.16125254 1037 0.14055529 1038 0.044990975 1039 -0.10222605 1040 -0.029841268 1041 0.009304068 1042 0.10639943 1043 0.11341301 1044 -0.07835962 1045 0.15660734 1046 -0.010221554 1047 -0.04340174 1048 -0.06195279 1049 0.015341387 1050 -0.13597928 1051 -0.017891718 1052 0.053641364 1053 0.009713946 1054 0.06077987 1055 0.11679737 1056 -0.02435414 1057 -0.106086306 1058 -0.039515354 1059 0.103552036 1060 0.1300753 1061 0.0352804 1062 0.018900314 1063 -0.002219766 1064 0.15720494 1065 0.12167288 1066 -0.012488441 1067 0.120518 1068 -0.1447571 1069 -0.09167946 1070 -0.056850404 1071 -0.0484973 1072 0.07351767 1073 -0.02188094 1074 -0.019043624 1075 -0.056974836 1076 -0.15189303 1077 -0.03585975 1078 0.11211634 1079 0.017579852 1080 -0.10238612 1081 -0.10295816 1082 -0.063325405 1083 -0.03241198 1084 0.14878778 1085 -0.06193377 1086 0.0015509907 1087 -0.040482227 
42 1024 0.0040187347 1025 -0.11835644 1026 -0.12383766 1027 0.14147377 1028 0.033318773 1029 -0.029131288 1030 0.13673744 1031 -0.0018077913 1032 -0.12055151 1033 0.1683323 1034 0.052261956 1035 0.033506688 1036 -0.14868227 1037 0.0895627 1038 0.019116653 1039 -0.1070087 1040 -0.022611395 1041 -0.013218445 1042 0.12730177 1043 0.0687093 1044 -0.060315084 1045 0.12855804 1046 -0.05491166 1047 -0.024895083 1048 -0.020306917 1049 -0.05973021 1050 -0.11223459 1051 0.008806927 1052 0.010784706 1053 0.07577662 1054 0.08277611 1055 0.11502074 1056 -0.017448153 1057 -0.08655475 1058 -0.024571523 1059 0.1104339 1060 0.13202755 1061 0.073156014 1062 0.057032187 1063 0.0027509867 1064 0.13529883 1065 0.12489454 1066 -0.009332229 1067 0.088054925 1068 -0.13458252 1069 -0.05166871 1070 -0.018555101 1071 -0.046554994 1072 0.06294474 1073 0.0035439483 1074 -0.049382806 1075 -0.046837214 1076 -0.14986405 1077 0.023418916 1078 0.058363367 1079 0.048550848 1080 -0.10794099 1081 -0.09183213 1082 -0.044657595 1083 -0.036704328 1084 0.101340644 1085 -0.09268153 1086 -0.023874769 1087 -0.098306745 
43 1024 0.031059844 1025 -0.12551019 1026 -0.16353652 1027 0.1826098 1028 -0.023557516 1029 -0.013118332 1030 0.16597159 1031 -0.010832374 1032 -0.15535964 1033 0.09069894 1034 0.05337753 1035 0.0737963 1036 -0.16867156 1037 0.117792845 1038 -0.03125404 1039 -0.104688495 1040 0.004014142 1041 -0.06034493 1042 0.17842439 1043 0.076259956 1044 -0.035468414 1045 0.16444574 1046 -0.02336786 1047 -0.03868934 1048 -0.032315582 1049 -0.07364354 1050 -0.12821692 1051 0.008788114 1052 0.05673015 1053 0.13923866 1054 0.111924596 1055 0.07022722 1056 0.0039509325 1057 -0.116410874 1058 0.04930329 1059 0.15395166 1060 0.093084954 1061 0.06636815 1062 0.084619895 1063 -0.00041423482 1064 0.08989796 1065 0.10793368 1066 0.008052759 1067 0.14692476 1068 -0.13106921 1069 -0.13531199 1070 -0.04901544 1071 -0.13147055 1072 0.06397652 1073 0.015181066 1074 -0.05325416 1075 -0.07063959 1076 -0.13589188 1077 -0.025177248 1078 0.10445993 1079 -0.008712661 1080 -0.119180076 1081 -0.13440698 1082 -0.10006968 1083 0.017692516 1084 0.1434743 1085 -0.08601819 1086 -0.05431137 1087 -0.12495309 
44 1024 0.022427965 1025 -0.13216826 1026 -0.16059414 1027 0.14943697 1028 0.06862627 1029 -0.03474232 1030 0.16508777 1031 0.04677142 1032 -0.07793976 1033 0.06817654 1034 0.06653077 1035 0.0549197 1036 -0.14205866 1037 0.1283196 1038 0.039760746 1039 -0.085123144 1040 -0.009632631 1041 -0.028580723 1042 0.13372806 1043 0.016450157 1044 -0.0397651 1045 0.17721328 1046 0.0045701386 1047 -0.037440017 1048 -0.0023063992 1049 -0.01927747 1050 -0.14754038 1051 0.019486045 1052 0.038409732 1053 0.15142311 1054 0.05118857 1055 0.017036371 1056 0.09806826 1057 -0.10180382 1058 -0.009903196 1059 0.11560722 1060 0.078521356 1061 0.064572036 1062 0.04499444 1063 -0.010430942 1064 -0.029609673 1065 0.15148006 1066 -0.048919752 1067 0.08857049 1068 -0.09349395 1069 -0.13053471 1070 -0.06643243 1071 -0.06212101 1072 0.022142494 1073 -0.036752816 1074 0.012251085 1075 -0.037041884 1076 -0.16734733 1077 0.013029355 1078 0.08091743 1079 0.018071843 1080 -0.042530637 1081 -0.15533164 1082 -0.011850423 1083 0.037961554 1084 0.046815388 1085 -0.014415831 1086 -0.013909883 1087 -0.07991404 
45 1024 0.039902136 1025 -0.14562146 1026 -0.23338094 1027 0.07222581 1028 0.14117116 1029 -0.15810406 1030 0.1904962 1031 0.07003118 1032 -0.14816184 1033 0.08718417 1034 0.011470081 1035 0.13162227 1036 -0.1660625 1037 0.17329848 1038 0.10994081 1039 -0.054295436 1040 -0.0069647785 1041 0.04503024 1042 0.14344183 1043 -0.03856729 1044 -0.1524854 1045 0.23589323 1046 0.045240667 1047 -0.048936732 1048 -0.046104968 1049 0.038082737 1050 -0.17082486 1051 -0.031511724 1052 0.08117619 1053 0.1009829 1054 0.072228715 1055 0.15543036 1056 0.1218935 1057 -0.17197181 1058 0.01439349 1059 0.15657848 1060 0.072081044 1061 0.04043304 1062 0.009620952 1063 -0.018032806 1064 -0.07415264 1065 0.22305214 1066 -0.10570251 1067 0.06594084 1068 -0.10708383 1069 -0.0914036 1070 -0.066828914 1071 -0.102619916 1072 -0.018389802 1073 0.0018397203 1074 -0.038290724 1075 0.04599188 1076 -0.17819937 1077 0.00951758 1078 0.1135392 1079 0.028350402 1080 -0.024211356 1081 -0.19530182 1082 0.107049994 1083 -0.012210067 1084 0.021570973 1085 0.0030057996 1086 -0.049286976 1087 -0.16903798 
46 1024 0.047897566 1025 -0.1518866 1026 -0.2286199 1027 0.101172976 1028 0.22679111 1029 -0.14283065 1030 0.19188978 1031 0.070140004 1032 -0.18610017 1033 0.094412945 1034 0.04365876 1035 0.12787795 1036 -0.20319544 1037 0.23363227 1038 0.10405819 1039 -0.05497707 1040 -0.037273712 1041 0.027418997 1042 0.16277866 1043 0.02009593 1044 -0.11754651 1045 0.26152676 1046 0.03877185 1047 -0.07153167 1048 -0.020605473 1049 0.026068391 1050 -0.15640555 1051 -0.014901766 1052 0.15377511 1053 0.09862466 1054 0.117922395 1055 0.22128479 1056 0.12385971 1057 -0.19077684 1058 -0.04812041 1059 0.12660691 1060 0.107540905 1061 0.062348805 1062 0.044457264 1063 -0.01287059 1064 -0.015654506 1065 0.2077795 1066 -0.09791889 1067 0.080117226 1068 -0.15529948 1069 -0.088731945 1070 -0.07646627 1071 -0.15008885 1072 0.014044128 1073 -0.019866657 1074 -0.05653455 1075 -0.0026571357 1076 -0.21795125 1077 -0.03178983 1078 0.15060468 1079 0.023437267 1080 -0.074271396 1081 -0.26894075 1082 0.11108823 1083 -0.08303058 1084 0.014401132 1085 -0.01642636 1086 -0.0752747 1087 -0.19769605 
47 1024 0.009953311 1025 -0.102391586 1026 -0.25012204 1027 0.1501787 1028 0.16238935 1029 -0.048385974 1030 0.21264014 1031 -0.003530062 1032 -0.14228828 1033 0.10796574 1034 -0.026628492 1035 0.13609451 1036 -0.16280189 1037 0.19234502 1038 0.014537777 1039 -0.020117465 1040 -0.037920658 1041 -0.064379804 1042 0.18945548 1043 0.019670127 1044 -0.12311422 1045 0.23097283 1046 0.060579773 1047 -0.11862135 1048 -0.000821723 1049 -0.009088632 1050 -0.10396632 1051 -0.021237621 1052 0.14317334 1053 0.09854963 1054 0.13901599 1055 0.15647322 1056 0.10136553 1057 -0.13456014 1058 0.012279236 1059 0.11503776 1060 0.15756933 1061 0.0674193 1062 0.038647216 1063 -0.045076746 1064 -0.037565857 1065 0.17827684 1066 -0.072027445 1067 0.13314809 1068 -0.043905556 1069 -0.135245 1070 -0.06487159 1071 -0.11194196 1072 -0.01287909 1073 -0.03958916 1074 -0.08062318 1075 0.095817946 1076 -0.194074 1077 -0.004107901 1078 0.026209777 1079 0.05210959 1080 -0.07161357 1081 -0.22879656 1082 0.0403726 1083 -0.0657942 1084 -0.0040863827 1085 0.012489297 1086 -0.07039626 1087 -0.14755657 
48 1024 0.06283508 1025 -0.07520785 1026 0.0025739747 1027 0.095029965 1028 -0.09057339 1029 0.1178105 1030 0.05814161 1031 -0.040676028 1032 -0.050419487 1033 -0.06773342 1034 -0.065843165 1035 0.13440584 1036 -0.049089834 1037 0.00855509 1038 -0.16295695 1039 -0.008930608 1040 0.13555628 1041 0.06586395 1042 0.100601144 1043 0.010236678 1044 0.019548878 1045 -0.009054875 1046 -0.009179272 1047 -0.17418371 1048 -0.11416322 1049 -0.07544195 1050 -0.020212349 1051 0.14861797 1052 0.035788666 1053 0.006228737 1054 0.18286617 1055 0.080239035 1056 0.0010392758 1057 -0.15020637 1058 0.056806445 1059 0.11541223 1060 0.07291719 1061 -0.049237877 1062 0.028432747 1063 -0.0074414792 1064 -0.06931003 1065 -0.035639815 1066 -0.04519023 1067 0.06780638 1068 -0.002125698 1069 -0.09038256 1070 -0.15384135 1071 -0.06793711 1072 -0.14157501 1073 0.02381797 1074 -0.04848244 1075 0.005583177 1076 -0.0022770227 1077 -0.027363133 1078 -0.014298238 1079 -0.06826947 1080 -0.14562596 1081 -0.067812756 1082 -0.09600786 1083 0.07053528 1084 -0.045899507 1085 -0.14823362 1086 -0.08958887 1087 -0.033536796 
49 1024 -0.049996037 1025 -0.18587205 1026 -0.14028852 1027 0.23701052 1028 -0.00024102535 1029 0.06445559 1030 0.18177418 1031 -0.005740903 1032 -0.22274683 1033 -0.06844336 1034 -0.04775525 1035 0.11653122 1036 -0.107638694 1037 0.13586742 1038 -0.18339546 1039 -0.09293737 1040 0.080539554 1041 0.010620497 1042 0.202251 1043 -0.043512274 1044 -0.117377594 1045 0.16563073 1046 -0.06388037 1047 -0.13061419 1048 -0.110972226 1049 -0.046160508 1050 -0.057250664 1051 0.135788 1052 0.14577736 1053 0.17463237 1054 0.28786358 1055 0.0545021 1056 0.17884064 1057 -0.07026305 1058 0.0005206354 1059 -0.014329458 1060 0.07539395 1061 0.0477401 1062 0.10166799 1063 -0.00086941035 1064 -0.16615576 1065 0.006184345 1066 -0.083005525 1067 0.15913187 1068 0.07810275 1069 -0.1145328 1070 -0.16070287 1071 -0.07632162 1072 -0.12942338 1073 -0.0380118 1074 -0.08199009 1075 -0.068692684 1076 -0.18259081 1077 -0.027951596 1078 0.092512965 1079 -0.057547383 1080 -0.18614997 1081 -0.18470833 1082 0.09905287 1083 0.034449015 1084 -0.012029602 1085 -0.044583086 1086 -0.096192956 1087 -0.055329334 
50 1024 -0.07746999 1025 -0.03349431 1026 -0.19774927 1027 0.08625954 1028 0.05716182 1029 0.064490624 1030 0.1408308 1031 0.024273785 1032 -0.20047885 1033 -0.03822742 1034 -0.09392439 1035 0.0032310854 1036 -0.05630947 1037 0.09631201 1038 -0.12515226 1039 -0.005828642 1040 0.0829056 1041 -0.008614056 1042 0.15111239 1043 -0.10794204 1044 -0.13055862 1045 0.17946048 1046 0.0644431 1047 -0.107184164 1048 -0.07800804 1049 -0.116529085 1050 -0.09599884 1051 0.11551092 1052 0.17027129 1053 0.17124878 1054 0.24050127 1055 0.029996233 1056 0.1430892 1057 0.027995877 1058 0.052069783 1059 -0.020163048 1060 0.11579531 1061 0.04352069 1062 -0.010262178 1063 -0.008754265 1064 -0.15566796 1065 0.048226014 1066 -0.07394328 1067 0.07178431 1068 0.09415105 1069 -0.058302924 1070 -0.2109911 1071 -0.0919268 1072 -0.09645731 1073 -0.011697176 1074 -0.09876104 1075 0.029043142 1076 -0.118324965 1077 0.025867281 1078 0.10867613 1079 -0.06229337 1080 -0.07927748 1081 -0.21039216 1082 0.13666534 1083 -0.05167981 1084 -0.05786957 1085 0.028705195 1086 -0.16258462 1087 -0.0722141 
51 1024 -0.11995858 1025 -0.07349264 1026 -0.15527195 1027 0.10605584 1028 0.11752254 1029 -0.055035114 1030 0.20409046 1031 0.052528344 1032 -0.21490224 1033 0.07038 1034 -0.14670606 1035 -0.09817074 1036 -0.11905701 1037 0.12402507 1038 0.0039031114 1039 0.017806811 1040 -0.15639159 1041 -0.09162169 1042 0.093212426 1043 -0.15221941 1044 -0.10409541 1045 0.23087163 1046 0.14397337 1047 -0.063238576 1048 -0.04764626 1049 -0.09215413 1050 -0.09957897 1051 -0.06701563 1052 0.19240084 1053 0.136594 1054 0.15253682 1055 0.09183302 1056 0.16004494 1057 0.07013522 1058 0.03771494 1059 0.06701021 1060 0.07258806 1061 0.0057982295 1062 -0.024768202 1063 0.021149484 1064 -0.13633247 1065 0.12698065 1066 -0.09985008 1067 0.06980132 1068 0.026163269 1069 -0.091222964 1070 -0.08926785 1071 -0.089668594 1072 -0.04432713 1073 -0.019788178 1074 0.0014883553 1075 0.03719959 1076 -0.13757353 1077 0.025245763 1078 0.121065244 1079 0.034625076 1080 0.049500864 1081 -0.19902429 1082 0.054358162 1083 0.032160245 1084 -0.009428134 1085 0.092659056 1086 -0.1585271 1087 -0.023459991 
52 1024 -0.039287742 1025 -0.09811621 1026 -0.13459237 1027 0.18498482 1028 0.07927994 1029 -0.10621494 1030 0.23322392 1031 -0.07830376 1032 -0.12688962 1033 0.08975961 1034 -0.053932656 1035 0.10005999 1036 -0.21294576 1037 0.12400513 1038 0.047428854 1039 -0.11477896 1040 -0.01990909 1041 -0.07654771 1042 0.14247532 1043 0.06520568 1044 -0.124863945 1045 0.21170639 1046 0.024657376 1047 -0.06741607 1048 -0.10998532 1049 0.0008897248 1050 -0.10873883 1051 -0.051358055 1052 0.06323109 1053 0.19861983 1054 0.14027396 1055 0.15859284 1056 0.20737588 1057 -0.16212077 1058 0.082945816 1059 0.1950468 1060 0.095375195 1061 0.005001093 1062 0.19957642 1063 -0.06184007 1064 -0.059924744 1065 0.18693984 1066 -0.06094905 1067 0.15900894 1068 -0.11313344 1069 -0.12368744 1070 -0.12353315 1071 -0.04760175 1072 0.015536558 1073 0.006795696 1074 -0.016862392 1075 -0.08876979 1076 -0.22294249 1077 0.0063406066 1078 0.076049834 1079 0.006700341 1080 -0.032324467 1081 -0.25050038 1082 -0.022514947 1083 0.051682 1084 0.071766205 1085 -0.072829686 1086 -0.068159275 1087 -0.07647025 
53 1024 0.059305064 1025 -0.11742889 1026 -0.09905373 1027 0.20584647 1028 0.0027620625 1029 -0.10658108 1030 0.18767883 1031 0.07636115 1032 -0.15288967 1033 0.03987011 1034 0.049553864 1035 0.09371585 1036 -0.14531937 1037 0.11278374 1038 0.050309815 1039 -0.22116849 1040 0.0031272492 1041 -0.10560387 1042 0.12604927 1043 0.083475605 1044 -0.09191471 1045 0.23579587 1046 0.0060867807 1047 -0.035678722 1048 0.00629916 1049 -0.005102763 1050 -0.09762373 1051 -0.031017218 1052 0.037255302 1053 0.190798 1054 0.07082104 1055 0.015407205 1056 0.1649642 1057 -0.12049858 1058 -0.002848992 1059 0.11935274 1060 0.08946717 1061 0.05399805 1062 0.19131249 1063 0.004662612 1064 0.10317812 1065 0.12471797 1066 0.06827674 1067 0.16009375 1068 -0.042001422 1069 -0.09844563 1070 -0.059189245 1071 -0.049068496 1072 0.035736553 1073 -0.021697702 1074 -0.033170246 1075 -0.08047932 1076 -0.17523664 1077 -0.030536307 1078 0.15289378 1079 0.022229183 1080 -0.07048665 1081 -0.19143881 1082 -0.059730787 1083 -0.027286498 1084 0.14055264 1085 -0.10282271 1086 -0.035816602 1087 -0.047864735 
54 1024 0.103794545 1025 -0.19447829 1026 -0.13472617 1027 0.23388763 1028 0.09787768 1029 -0.14306998 1030 0.16588643 1031 0.08915122 1032 -0.16651547 1033 0.05059941 1034 0.107790254 1035 0.08189142 1036 -0.17160393 1037 0.17397386 1038 0.08364408 1039 -0.19518653 1040 -0.011472985 1041 -0.14937209 1042 0.1300569 1043 0.11607348 1044 -0.10743085 1045 0.21318424 1046 -0.101161435 1047 -0.014863994 1048 -0.023884943 1049 -0.03510253 1050 -0.17404102 1051 -0.0588346 1052 0.05867368 1053 0.18228915 1054 0.11908237 1055 0.021470243 1056 0.20607524 1057 -0.09459793 1058 -0.06517096 1059 0.08430497 1060 0.07899895 1061 0.1254049 1062 0.1866106 1063 -0.027695425 1064 0.071409225 1065 0.15715003 1066 0.15034473 1067 0.21546486 1068 -0.05888712 1069 -0.1312431 1070 -0.08788951 1071 -0.09513641 1072 0.14661798 1073 -0.0143333115 1074 -0.056556217 1075 -0.095407344 1076 -0.22046998 1077 0.013613205 1078 0.16856854 1079 0.00422103 1080 -0.15331003 1081 -0.19287266 1082 -0.007838124 1083 -0.017063964 1084 0.11997003 1085 -0.1444198 1086 -0.06894003 1087 -0.088733986 
55 1024 0.09343044 1025 -0.11976903 1026 -0.16506347 1027 0.21362697 1028 0.18053544 1029 -0.15261856 1030 0.14588885 1031 0.031825803 1032 -0.115120865 1033 0.034745593 1034 0.14680298 1035 0.05351271 1036 -0.13467613 1037 0.13247281 1038 0.02143405 1039 -0.21426606 1040 -0.065322675 1041 -0.16119842 1042 0.12089092 1043 0.07472244 1044 -0.07721714 1045 0.20923372 1046 -0.079775564 1047 -0.006661045 1048 -0.06493869 1049 -0.009741778 1050 -0.099225 1051 -0.07393135 1052 0.083817534 1053 0.13660799 1054 0.08133325 1055 -0.012607805 1056 0.19858754 1057 -0.102583416 1058 -0.118598185 1059 0.052141517 1060 0.040684678 1061 0.14495908 1062 0.11286033 1063 -0.014848041 1064 0.08557066 1065 0.11826173 1066 0.1031866 1067 0.15310393 1068 -0.07071319 1069 -0.091347456 1070 -0.06365857 1071 -0.066952355 1072 0.14720504 1073 -0.055542883 1074 -0.019152649 1075 -0.104426384 1076 -0.1593698 1077 -0.013756991 1078 0.16053464 1079 0.0007815865 1080 -0.12842548 1081 -0.1486816 1082 0.05398552 1083 -0.09891477 1084 0.13776375 1085 -0.051855188 1086 -0.053787477 1087 -0.081550725 
56 1024 0.0045757405 1025 -0.14191832 1026 -0.13969143 1027 0.18321787 1028 0.17772824 1029 -0.09903529 1030 0.16345355 1031 -0.007068723 1032 -0.10679983 1033 0.03156489 1034 0.17117456 1035 0.019013606 1036 -0.11698846 1037 0.1589658 1038 0.048186738 1039 -0.15092231 1040 -0.041792344 1041 -0.09430776 1042 0.13597465 1043 0.08117426 1044 -0.06978341 1045 0.18991438 1046 -0.023242062 1047 0.027862936 1048 -0.04077136 1049 0.01821775 1050 -0.06577906 1051 -0.012257382 1052 0.07212214 1053 0.14974567 1054 0.012919045 1055 -0.09621348 1056 0.12354062 1057 -0.10978857 1058 -0.14780657 1059 0.09489723 1060 0.03604287 1061 0.119834155 1062 0.17109174 1063 0.0008518112 1064 0.11088362 1065 0.1302139 1066 -0.0020604332 1067 0.12658252 1068 -0.0386708 1069 -0.08804613 1070 -0.04200105 1071 -0.10231989 1072 0.13291974 1073 0.010540167 1074 -0.03168581 1075 -0.06257858 1076 -0.13571459 1077 -0.027093759 1078 0.14758812 1079 0.030509183 1080 -0.055193312 1081 -0.14983341 1082 0.0911532 1083 -0.07521092 1084 0.13514939 1085 -0.044654276 1086 -0.04366234 1087 -0.050678533 
57 1024 0.0154451635 1025 -0.12660946 1026 -0.1859805 1027 0.1477737 1028 0.12909634 1029 -0.12933207 1030 0.13507193 1031 0.023963591 1032 -0.11827114 1033 -0.011646204 1034 0.1704038 1035 -0.05935773 1036 -0.09697915 1037 0.11968226 1038 0.07736832 1039 -0.13598217 1040 -0.04897827 1041 -0.10023928 1042 0.11411212 1043 -0.036759555 1044 -0.100830756 1045 0.15446763 1046 -0.029976968 1047 0.018531142 1048 -0.021504512 1049 -0.0015039231 1050 -0.07846435 1051 -0.028992403 1052 0.04514527 1053 0.14351003 1054 0.037721694 1055 -0.12317537 1056 0.07057479 1057 -0.06775762 1058 -0.13007177 1059 -0.004419844 1060 0.052389506 1061 0.15174277 1062 0.12482671 1063 -0.010384627 1064 0.03983746 1065 0.124269806 1066 0.035708524 1067 0.13152508 1068 0.06062229 1069 -0.14049198 1070 -0.07898221 1071 -0.1169656 1072 0.16926353 1073 -0.0040526744 1074 -0.043023784 1075 -0.04229526 1076 -0.18832712 1077 0.0058430647 1078 0.11998411 1079 0.012442856 1080 -0.08927748 1081 -0.12700593 1082 0.10440934 1083 -0.13946626 1084 0.11715583 1085 -0.056389015 1086 -0.05490616 1087 -0.11375868 
58 1024 0.01269697 1025 -0.10334181 1026 -0.1349569 1027 0.113973476 1028 0.078014486 1029 -0.06739521 1030 0.125938 1031 0.025469907 1032 -0.0985903 1033 0.010925615 1034 0.08522775 1035 -0.08536114 1036 -0.09061841 1037 0.11170894 1038 0.03131606 1039 -0.11211148 1040 0.011085182 1041 -0.05426735 1042 0.0966208 1043 -0.012935226 1044 -0.075782806 1045 0.08288134 1046 -0.024956552 1047 0.008803997 1048 -0.015180608 1049 -0.0035844352 1050 -0.06531497 1051 -0.02365228 1052 0.057866953 1053 0.12305863 1054 0.024243718 1055 -0.1076019 1056 0.08494284 1057 0.0045105703 1058 -0.09343552 1059 -0.03881289 1060 0.07142284 1061 0.077841535 1062 0.073739745 1063 -0.021381829 1064 -0.007661147 1065 0.08996596 1066 0.023285339 1067 0.10824755 1068 0.0703885 1069 -0.10909113 1070 -0.00867075 1071 -0.070632644 1072 0.114742205 1073 -0.023495676 1074 -4.1509997e-05 1075 -0.000584318 1076 -0.15156819 1077 -0.0322078 1078 0.08853655 1079 0.023248568 1080 -0.08116346 1081 -0.106783055 1082 0.13826832 1083 -0.076588854 1084 0.12256167 1085 -0.022083549 1086 -0.010123553 1087 -0.05132938 
59 1024 0.007907202 1025 -0.046884596 1026 -0.084347375 1027 0.079129174 1028 0.047722116 1029 0.0058884425 1030 0.082120515 1031 0.018896522 1032 -0.062352844 1033 0.030339025 1034 0.07897923 1035 -0.03216572 1036 -0.05895755 1037 0.056916747 1038 -0.006642131 1039 -0.043854453 1040 -0.036984272 1041 0.007884822 1042 0.0773823 1043 -0.032441616 1044 -0.025130467 1045 0.04171063 1046 -0.029660517 1047 -0.031922616 1048 0.0009784795 1049 0.00695911 1050 -0.06359832 1051 -0.013116678 1052 0.043371443 1053 0.038802527 1054 0.025582151 1055 -0.007706476 1056 0.028041571 1057 -0.042235658 1058 -0.012598228 1059 -0.01475092 1060 0.033004392 1061 0.07384566 1062 0.07764823 1063 -0.00050196075 1064 0.026517821 1065 0.03964371 1066 -0.017329821 1067 0.031024622 1068 0.008846532 1069 -0.03640456 1070 -0.016981952 1071 -0.03410162 1072 0.035001423 1073 0.012126875 1074 -0.03566014 1075 -0.017442558 1076 -0.079678506 1077 0.005166436 1078 0.03000718 1079 0.0019081443 1080 -0.03485575 1081 -0.06559091 1082 0.025200281 1083 -0.037164904 1084 0.034300674 1085 0.016802432 1086 -0.02838524 1087 -0.05462617 
60 1024 0.023695014 1025 -0.030612808 1026 -0.029216185 1027 0.0031189695 1028 0.0042656027 1029 -0.025278866 1030 0.030464686 1031 0.00329322 1032 -0.027977325 1033 -0.020205583 1034 0.020807609 1035 -0.017247904 1036 0.02334511 1037 -0.0070753805 1038 -0.02743167 1039 0.010369271 1040 0.0233991 1041 -0.029376268 1042 0.019302543 1043 -0.022123866 1044 -9.380281e-05 1045 0.0123946 1046 -0.0077492893 1047 -0.009128574 1048 -0.009203911 1049 -0.0055205673 1050 -0.015062988 1051 -0.020571303 1052 0.029626727 1053 -0.010496229 1054 0.008552194 1055 -0.021430075 1056 0.010750499 1057 -0.027220305 1058 -0.030005354 1059 0.010244485 1060 0.0001206696 1061 0.024756905 1062 -0.011182427 1063 0.030792031 1064 -0.023879029 1065 0.01512279 1066 -0.015857343 1067 0.024373833 1068 0.026618104 1069 -0.023477338 1070 -0.007377412 1071 6.162003e-05 1072 0.027910423 1073 -0.015661485 1074 -0.018591523 1075 0.018869806 1076 0.031174809 1077 -0.0015567578 1078 0.02363174 1079 -0.030868337 1080 0.00095387176 1081 -0.018567171 1082 -0.0061688945 1083 0.02502393 1084 -0.0075503364 1085 -0.012618981 1086 0.029457472 1087 -0.0015976839 
61 1024 -0.023808155 1025 -0.0006154105 1026 0.023569904 1027 0.027343433 1028 0.02494578 1029 -0.013096742 1030 -0.0032462887 1031 0.013204075 1032 0.00085545704 1033 0.029254638 1034 0.022293534 1035 -0.026632916 1036 -0.025710389 1037 -0.019231223 1038 -0.0070977174 1039 0.0014183037 1040 0.001666043 1041 -0.004152376 1042 0.0292871 1043 0.019212402 1044 -0.027380358 1045 0.02602379 1046 0.004160356 1047 -0.006723989 1048 -0.015866742 1049 -0.0013773888 1050 -0.021683864 1051 -0.011720996 1052 -0.008931901 1053 0.002922073 1054 0.015737787 1055 0.025883384 1056 0.017334893 1057 0.029768467 1058 -0.027713593 1059 -0.026703216 1060 0.0037534498 1061 0.012420777 1062 0.031071968 1063 0.0048367083 1064 -0.002576109 1065 -0.014862925 1066 -0.024083588 1067 -0.01040066 1068 -0.012951069 1069 -0.008500084 1070 -0.020249177 1071 -0.028816193 1072 -0.01961131 1073 -0.017435815 1074 0.016638175 1075 0.005110219 1076 0.0034186132 1077 -0.011621807 1078 0.004817363 1079 -0.027200457 1080 -0.02546778 1081 -0.026417632 1082 0.024107303 1083 -0.005319748 1084 0.018871397 1085 0.014594503 1086 -0.030731704 1087 -0.017560545 
62 1024 -0.008640178 1025 0.008337505 1026 0.030721478 1027 -0.008607198 1028 0.011332896 1029 -0.0070248693 1030 0.013208225 1031 -0.00068755075 1032 -0.00213141 1033 0.019361205 1034 0.019678805 1035 0.014747698 1036 0.0046554767 1037 0.027606819 1038 -0.029241323 1039 -0.01717832 1040 0.0180998 1041 0.020867921 1042 -0.029280264 1043 -0.007182952 1044 -0.022664223 1045 -0.023147184 1046 0.0015491098 1047 -0.0045853294 1048 -0.014754027 1049 0.011626784 1050 0.029127501 1051 -0.027551502 1052 -0.018614769 1053 0.019598652 1054 -0.010245811 1055 0.0011470541 1056 -0.019964036 1057 0.024805669 1058 0.018297069 1059 0.014967021 1060 0.008902408 1061 0.006822828 1062 -0.006615013 1063 0.00066620484 1064 0.017646313 1065 -0.022787973 1066 -0.019945707 1067 0.021331254 1068 -0.017158069 1069 -0.029974572 1070 -0.0152505785 1071 -0.027697764 1072 -0.021107845 1073 0.014625426 1074 0.025161952 1075 -0.0014010146 1076 0.0044285916 1077 0.017351002 1078 0.030463446 1079 0.026914366 1080 -0.010365203 1081 -0.023429625 1082 0.031057566 1083 0.021096222 1084 -0.014481645 1085 0.01353094 1086 -0.0063764267 1087 -0.0138558 
63 1024 0.029000055 1025 0.00070463866 1026 -0.024894062 1027 -0.025468703 1028 -0.005786024 1029 0.004210755 1030 0.031133387 1031 -0.01582446 1032 -0.019229088 1033 -0.0038241148 1034 0.010668643 1035 0.022233956 1036 -0.00868677 1037 0.011413779 1038 0.015810322 1039 0.021996949 1040 -0.021760464 1041 0.026294101 1042 -0.0064492784 1043 -0.0101954825 1044 -0.026443388 1045 0.00023309141 1046 0.0003851056 1047 0.007462729 1048 -0.022507314 1049 -0.02371864 1050 -0.0030556694 1051 -0.007534705 1052 0.0030407235 1053 -0.005604457 1054 0.02723426 1055 0.011474647 1056 0.005428467 1057 0.021188676 1058 0.022456054 1059 -0.023728896 1060 0.015269317 1061 -0.008245312 1062 0.022798564 1063 -0.026999243 1064 -0.022999976 1065 0.01391001 1066 0.001512099 1067 -0.016196776 1068 -0.020493094 1069 0.015113201 1070 0.0023662895 1071 0.021911621 1072 0.029841565 1073 -0.02604726 1074 -0.025604412 1075 -0.010583676 1076 -0.0075868554 1077 -0.028327614 1078 0.0056193806 1079 0.023563158 1080 0.027008414 1081 0.0069069862 1082 -0.017740216 1083 -0.011853803 1084 -0.029699374 1085 0.030161697 1086 0.009039335 1087 0.018108234 
64 1024 0.017494489 1025 0.01291113 1026 -0.021045927 1027 0.021451715 1028 0.011362307 1029 -0.020358413 1030 -0.018901233 1031 0.027609698 1032 -0.002976708 1033 0.012325026 1034 0.0071507655 1035 -0.016398575 1036 0.0032940656 1037 -0.026494201 1038 -0.02262406 1039 0.014147539 1040 -0.013225868 1041 0.026037224 1042 -0.0040268973 1043 0.026733208 1044 -0.011392202 1045 -0.0061137863 1046 -0.027804628 1047 0.02908688 1048 -0.02658385 1049 -0.030294646 1050 0.014771938 1051 0.026611973 1052 -0.021454263 1053 0.014928516 1054 -0.01598005 1055 0.012452394 1056 0.029440843 1057 -0.020682469 1058 0.0074226037 1059 -0.018097814 1060 0.012222286 1061 -0.02843313 1062 -0.0092445165 1063 -0.027582094 1064 -0.015726037 1065 0.017511923 1066 -0.021705192 1067 -0.00041154772 1068 0.007754285 1069 0.011627093 1070 -0.003039036 1071 0.009176128 1072 -0.0023971982 1073 -0.029908214 1074 0.004499778 1075 -0.030943695 1076 0.015442725 1077 -0.025106803 1078 0.027221877 1079 -0.0046054013 1080 -0.0034532622 1081 0.016256627 1082 -0.0011996888 1083 -0.017406762 1084 0.021366838 1085 0.031017259 1086 0.005884599 1087 0.018610079 
65 1024 -0.023594141 1025 0.011671271 1026 0.030928008 1027 -0.008467674 1028 -0.012299854 1029 0.009736907 1030 -0.028283864 1031 -0.026175633 1032 -0.01436951 1033 -0.009668902 1034 -0.022644717 1035 0.007579956 1036 -0.0037389472 1037 0.013480168 1038 0.017637834 1039 0.0032393895 1040 0.026546374 1041 0.025518306 1042 0.008731682 1043 0.023513898 1044 0.00014380366 1045 -0.00044958293 1046 -0.029465456 1047 -0.0019623414 1048 0.0042836294 1049 -0.01588957 1050 0.016908098 1051 0.0009351373 1052 0.020475049 1053 3.091991e-07 1054 -0.009932045 1055 -0.0012472793 1056 0.018289521 1057 0.00066041574 1058 0.022030376 1059 0.013041902 1060 0.018425077 1061 0.009519253 1062 0.010057695 1063 -0.0070704035 1064 -0.025875766 1065 -0.011194132 1066 0.01999645 1067 -0.022569407 1068 0.013299264 1069 0.010564093 1070 -0.0017916486 1071 0.027687985 1072 -0.0005951077 1073 0.028470937 1074 0.030678201 1075 0.013228651 1076 -0.0034019984 1077 -0.025875457 1078 0.014128745 1079 0.02583849 1080 0.030867528 1081 0.019489367 1082 0.0035828426 1083 -0.017774481 1084 -0.008120976 1085 -0.011315726 1086 0.0285981 1087 0.01719505 
66 1024 -0.0212643 1025 0.016789958 1026 0.0060592927 1027 -0.025707424 1028 0.028051727 1029 -0.01534101 1030 -0.00019775331 1031 -0.007846341 1032 0.005439412 1033 -0.012793638 1034 0.009570062 1035 -0.015011683 1036 0.0028030574 1037 -0.027877495 1038 -0.01956676 1039 -0.014787659 1040 0.0028760508 1041 0.0118862465 1042 -5.869195e-05 1043 0.030133203 1044 -0.030977517 1045 0.02654123 1046 0.021295916 1047 0.023647022 1048 0.0053387694 1049 -0.004794117 1050 -0.01785 1051 -0.026851945 1052 0.012011383 1053 0.0002455786 1054 0.020491216 1055 0.030342788 1056 0.014961313 1057 -0.0028565489 1058 -0.024073787 1059 0.02309182 1060 -0.017116062 1061 0.022780813 1062 0.007870052 1063 -0.013900407 1064 0.019050896 1065 0.016950961 1066 -0.029949628 1067 -0.029914603 1068 -0.0057395957 1069 0.02162484 1070 -0.008258667 1071 0.019235026 1072 0.0077641346 1073 0.013481829 1074 0.01787341 1075 -0.0257358 1076 0.013776783 1077 -0.009573292 1078 0.0077880844 1079 0.027709518 1080 -0.030823622 1081 -0.015458629 1082 0.027811375 1083 -0.008877069 1084 -0.0045671463 1085 0.0008721538 1086 -0.018037163 1087 0.020297345 
67 1024 0.0125024505 1025 -0.0049064904 1026 0.005046442 1027 -0.0026775263 1028 -0.012818098 1029 0.016243674 1030 -0.022288874 1031 -0.016859014 1032 -0.029773146 1033 0.029683653 1034 -0.0020202883 1035 -0.0026993006 1036 0.0066867024 1037 0.0039571486 1038 -0.021460507 1039 0.027046159 1040 -0.021859318 1041 0.02009258 1042 -0.010869786 1043 -0.010915957 1044 -0.019372895 1045 0.014668163 1046 0.021894813 1047 0.027973253 1048 0.028857704 1049 -0.014174886 1050 0.023557294 1051 -0.009934682 1052 0.020223517 1053 0.029505953 1054 0.027100723 1055 -0.013855461 1056 0.008895338 1057 0.00680482 1058 -0.0030794889 1059 -0.0058525577 1060 -0.0045455247 1061 -0.011972893 1062 0.019162722 1063 -0.023156594 1064 -0.00600655 1065 0.008132964 1066 -0.024355639 1067 -0.018569946 1068 -0.01769032 1069 -0.026483126 1070 -0.010188878 1071 -0.004956845 1072 -0.0023136437 1073 0.0064110532 1074 -0.00057955086 1075 0.026942428 1076 -0.016950503 1077 0.0043574795 1078 0.015979268 1079 0.02678027 1080 -0.016478121 1081 -0.014384102 1082 0.01385279 1083 -0.024310052 1084 0.0065174587 1085 0.011625901 1086 0.021746736 1087 -0.017247703 
68 1024 0.007061927 1025 0.0077319937 1026 -0.0038754158 1027 -0.01794753 1028 -0.0009585084 1029 -0.004603483 1030 0.037782703 1031 -0.035766635 1032 -0.019352479 1033 0.011585333 1034 -0.0066888337 1035 0.011770861 1036 -0.049769823 1037 0.025421266 1038 -0.022544866 1039 -0.028918982 1040 0.027513925 1041 -0.008873326 1042 0.028440962 1043 0.03314641 1044 -0.0069854474 1045 -0.013646028 1046 0.023740914 1047 0.0041265036 1048 -0.031629737 1049 -0.044134267 1050 -0.015825573 1051 -0.0008127985 1052 -0.019038849 1053 0.021440262 1054 0.010945109 1055 0.0039525125 1056 -0.00891642 1057 -0.011128084 1058 0.025997682 1059 0.014156394 1060 0.049604557 1061 -0.009042267 1062 0.035678104 1063 -0.029811209 1064 0.03666698 1065 0.04251904 1066 -0.016518742 1067 0.033733364 1068 -0.0630123 1069 0.0071383356 1070 -0.011853464 1071 0.013525684 1072 0.011466998 1073 -0.009239773 1074 0.016346348 1075 -0.040293973 1076 -0.03756553 1077 -0.02810916 1078 -0.0064952923 1079 0.009206953 1080 0.0023832987 1081 -0.018222062 1082 -0.0071561732 1083 0.013756102 1084 0.0041682394 1085 0.0031815676 1086 -0.04273347 1087 -0.0070617357 
69 1024 0.017692205 1025 -0.029454412 1026 -0.057504296 1027 0.04108844 1028 -0.07133543 1029 0.055436 1030 0.061166383 1031 -0.03585568 1032 -0.014351736 1033 0.03285087 1034 -0.012614657 1035 -0.021891102 1036 -0.06965474 1037 0.027727557 1038 -0.0045706406 1039 0.010237959 1040 0.0007285109 1041 -0.026393015 1042 0.05367092 1043 0.030257054 1044 -0.030276693 1045 0.020566594 1046 -0.012676035 1047 -0.028500583 1048 -0.03434188 1049 -0.05233553 1050 -0.053679325 1051 -0.028646605 1052 -0.0013565851 1053 0.05918722 1054 0.0669026 1055 0.019795107 1056 0.05615123 1057 -0.01676453 1058 0.028465444 1059 0.06625593 1060 0.0611301 1061 -0.012996998 1062 0.067203544 1063 0.0305182 1064 0.021728126 1065 0.08652294 1066 0.0023308152 1067 0.053493667 1068 -0.03929418 1069 -0.016336218 1070 -0.07250197 1071 -0.010490538 1072 -0.0010023437 1073 0.031677883 1074 -0.0014832974 1075 -0.052529365 1076 -0.0840727 1077 -0.007869621 1078 0.0044743824 1079 -0.01913992 1080 -0.033433694 1081 -0.03900091 1082 -0.066347666 1083 0.02370192 1084 0.0627784 1085 0.002643872 1086 -0.061756395 1087 -0.02775594 
70 1024 0.0020773825 1025 -0.01182996 1026 -0.0486372 1027 -0.004685104 1028 0.039322224 1029 -0.033146325 1030 0.017005332 1031 -0.002494261 1032 -0.00023881336 1033 0.011245507 1034 0.071224004 1035 -0.0016882117 1036 -0.05747453 1037 0.023535041 1038 0.0257331 1039 -0.033391215 1040 0.015952583 1041 -0.031351488 1042 0.01634289 1043 0.0331636 1044 -0.03423353 1045 0.053633 1046 -0.012803709 1047 0.055876125 1048 -0.041235093 1049 0.036800906 1050 -0.032727323 1051 -0.007817535 1052 -0.0426534 1053 0.03925828 1054 -0.028180981 1055 -0.016230335 1056 -0.007958057 1057 -5.7931335e-05 1058 -0.024870576 1059 -0.015404588 1060 0.051299356 1061 0.048572138 1062 -0.012758773 1063 -0.026672611 1064 0.027515523 1065 0.035013027 1066 0.013510662 1067 0.016325863 1068 0.0007483169 1069 -0.0007744649 1070 0.030760044 1071 -0.002086295 1072 0.021255925 1073 -0.03249749 1074 -0.0063467217 1075 -0.022856895 1076 -0.015048707 1077 0.021313488 1078 0.017839722 1079 -0.032439657 1080 -0.046126895 1081 -0.0013159552 1082 -0.025895797 1083 0.014281896 1084 0.05320442 1085 0.0076397755 1086 0.029852606 1087 -0.025378808 
71 1024 -0.019456554 1025 -0.11896054 1026 -0.18780273 1027 0.19078672 1028 0.061746825 1029 -0.09879387 1030 0.17853369 1031 0.028476918 1032 -0.13673484 1033 0.05073513 1034 0.08700017 1035 0.0017166461 1036 -0.11181371 1037 0.15280004 1038 0.005750728 1039 -0.114119545 1040 -0.030028272 1041 -0.034939885 1042 0.07655905 1043 0.044927675 1044 -0.050511017 1045 0.14224076 1046 -0.090139806 1047 0.03360453 1048 -0.050730743 1049 -0.0020593174 1050 -0.12703161 1051 -0.02891962 1052 -0.029584307 1053 0.042306747 1054 -0.028172951 1055 0.03686741 1056 -0.019905018 1057 -0.03620917 1058 -0.10618818 1059 0.099429205 1060 0.15877542 1061 0.07561046 1062 0.02150704 1063 -0.024771543 1064 0.12997027 1065 0.17425019 1066 -0.022959996 1067 0.1406762 1068 -0.097808965 1069 -0.14198872 1070 0.045469526 1071 -0.036478512 1072 0.11997245 1073 0.017070271 1074 -0.085587285 1075 -0.072163 1076 -0.18410565 1077 -0.037616007 1078 0.15467155 1079 -0.002364546 1080 -0.067713246 1081 -0.01972112 1082 -0.078588374 1083 0.01103069 1084 0.1709771 1085 -0.04951524 1086 0.008529705 1087 0.036033995 
72 1024 0.101405516 1025 -0.23965138 1026 -0.3046041 1027 0.2740186 1028 0.17635792 1029 -0.22738925 1030 0.323319 1031 0.115847856 1032 -0.2862865 1033 0.098067105 1034 0.1826322 1035 0.13552138 1036 -0.26286393 1037 0.2559173 1038 0.006353762 1039 -0.15134124 1040 -0.04340371 1041 0.042766843 1042 0.28231448 1043 -0.013177979 1044 -0.14508212 1045 0.3253666 1046 0.008613006 1047 -0.061988745 1048 -0.011236892 1049 -0.045373037 1050 -0.24456 1051 -0.011433807 1052 0.079959124 1053 0.0041255406 1054 0.08332135 1055 0.051168635 1056 0.08629332 1057 -0.097578585 1058 -0.07316387 1059 0.11344395 1060 0.25179806 1061 0.12093529 1062 -0.048576087 1063 -0.015353984 1064 0.013505184 1065 0.28970754 1066 -0.028248297 1067 0.21262757 1068 -0.13683869 1069 -0.28909063 1070 -0.048481956 1071 -0.10309843 1072 0.10342438 1073 0.010049474 1074 -0.0841178 1075 -0.09615359 1076 -0.27568766 1077 -0.036930677 1078 0.16694386 1079 0.024557037 1080 -0.20020083 1081 -0.23622248 1082 -0.025143193 1083 -0.12695602 1084 0.11013427 1085 -0.020164024 1086 -0.05272877 1087 -0.10849541 
73 1024 -0.010407564 1025 -0.24746163 1026 -0.34399906 1027 0.37008622 1028 0.19582252 1029 -0.20118351 1030 0.3075816 1031 0.08418647 1032 -0.33372334 1033 0.13131136 1034 0.22981551 1035 0.032306105 1036 -0.21328431 1037 0.22262189 1038 0.067136586 1039 -0.19186981 1040 -0.10182204 1041 -0.013856503 1042 0.2013308 1043 0.12235535 1044 -0.050521724 1045 0.31317207 1046 -0.06790865 1047 0.034509644 1048 -0.018453062 1049 -0.008012693 1050 -0.27464667 1051 -0.05816612 1052 0.1281298 1053 -0.08573985 1054 -0.025747065 1055 0.06890618 1056 -0.03010674 1057 -0.08538878 1058 -0.13278754 1059 0.0915466 1060 0.22869003 1061 0.13980941 1062 -0.068798214 1063 -0.005071648 1064 0.2376459 1065 0.27592015 1066 0.0137357805 1067 0.24353325 1068 -0.07651387 1069 -0.23469661 1070 0.07216355 1071 -0.11153966 1072 0.14990716 1073 -0.04790481 1074 -0.082424864 1075 -0.11011612 1076 -0.29603806 1077 -0.009731995 1078 0.21949261 1079 -0.01745762 1080 -0.13874519 1081 -0.17987292 1082 -0.028174534 1083 -0.043484505 1084 0.21676084 1085 -0.06427714 1086 -0.0036612377 1087 -0.06091106 
74 1024 -0.11642802 1025 -0.15102845 1026 -0.3598652 1027 0.38677412 1028 0.17577031 1029 -0.11761311 1030 0.24924545 1031 0.107571185 1032 -0.27870682 1033 0.11731756 1034 0.0833325 1035 0.06443714 1036 -0.13373694 1037 0.08010051 1038 -0.058081154 1039 -0.19323684 1040 -0.15997949 1041 -0.075037226 1042 0.13193016 1043 0.047607407 1044 -0.03267181 1045 0.27440128 1046 0.00080740877 1047 0.04823401 1048 0.06581965 1049 -0.08883148 1050 -0.22862042 1051 -0.05810518 1052 0.14813347 1053 -0.07802407 1054 -0.077682965 1055 0.057155307 1056 -0.07958088 1057 0.046297714 1058 -0.035447653 1059 0.043930914 1060 0.081495985 1061 0.025685178 1062 -0.017714353 1063 -0.033009704 1064 0.22158447 1065 0.16716836 1066 -0.034109488 1067 0.15218075 1068 -0.041553106 1069 -0.13426077 1070 0.106863834 1071 -0.08406757 1072 0.18813533 1073 -0.022554677 1074 0.025080755 1075 -0.0013246373 1076 -0.2612493 1077 -0.044923462 1078 0.19399849 1079 0.10655454 1080 -0.08127531 1081 -0.15429199 1082 -0.15708801 1083 0.12540236 1084 0.21071136 1085 -0.018537885 1086 -0.0010645706 1087 -0.013681006 
75 1024 -0.03299464 1025 -0.154482 1026 -0.45309067 1027 0.378578 1028 0.20786834 1029 -0.10111525 1030 0.23881671 1031 0.15510705 1032 -0.39866278 1033 0.13938558 1034 0.22866094 1035 -0.011111012 1036 -0.18047205 1037 0.19391927 1038 -0.09662726 1039 -0.26181635 1040 -0.26984644 1041 -0.094954364 1042 0.21974215 1043 0.071662396 1044 -0.08289642 1045 0.3955011 1046 -0.002852226 1047 0.013266657 1048 0.1616202 1049 -0.07258964 1050 -0.24893227 1051 -0.08704099 1052 0.26354638 1053 -0.022663321 1054 -0.061446924 1055 -0.026200755 1056 -0.112153515 1057 0.054430686 1058 -0.09610277 1059 0.069403715 1060 0.09174753 1061 0.14519425 1062 0.015545113 1063 -0.038323738 1064 0.16894601 1065 0.18458362 1066 -0.0138181895 1067 0.25199902 1068 0.017853802 1069 -0.1223797 1070 0.13771828 1071 -0.13037479 1072 0.2849405 1073 -0.008016659 1074 0.15190458 1075 -0.0872978 1076 -0.23236866 1077 -0.0030402532 1078 0.32276303 1079 0.10886104 1080 -0.109713614 1081 -0.15063812 1082 -0.056539007 1083 0.061728545 1084 0.29669383 1085 -0.03176423 1086 -0.0046895454 1087 -0.04333981 
76 1024 -0.058913942 1025 -0.18498588 1026 -0.5670427 1027 0.39297825 1028 0.22500932 1029 -7.15775e-05 1030 0.28949165 1031 0.05169654 1032 -0.49039668 1033 0.19252765 1034 0.26593536 1035 -0.03385156 1036 -0.17924011 1037 0.25809428 1038 -0.1066716 1039 -0.30802095 1040 -0.21446942 1041 -0.09730429 1042 0.27113494 1043 0.06984531 1044 -0.22614662 1045 0.43158242 1046 0.076973796 1047 -0.01684054 1048 0.21391115 1049 -0.08671243 1050 -0.22108993 1051 -0.11901132 1052 0.28890234 1053 0.024516266 1054 -0.027875837 1055 0.09127953 1056 -0.07992011 1057 0.05110835 1058 -0.09077261 1059 0.045403786 1060 0.18720242 1061 0.17325331 1062 -0.017445538 1063 -0.08404612 1064 0.12741679 1065 0.18605071 1066 -0.15257047 1067 0.29693413 1068 -0.052804288 1069 -0.17237768 1070 0.07864925 1071 -0.18970814 1072 0.27881253 1073 -0.00029322525 1074 0.18907031 1075 -0.15975747 1076 -0.24419993 1077 -0.019383475 1078 0.3097672 1079 0.0921201 1080 -0.14549828 1081 -0.2621619 1082 -0.017342592 1083 -0.043961078 1084 0.36449516 1085 -0.0075101196 1086 -0.110925585 1087 -0.119973175 
77 1024 -0.09895833 1025 -0.22528952 1026 -0.6568403 1027 0.5410456 1028 0.25878647 1029 0.040630355 1030 0.32882583 1031 0.068262696 1032 -0.49483332 1033 0.1332982 1034 0.19038962 1035 0.07754838 1036 -0.2596953 1037 0.33860147 1038 -0.012040042 1039 -0.30300486 1040 -0.18900959 1041 -0.11037194 1042 0.22685693 1043 0.0658825 1044 -0.2806507 1045 0.47189468 1046 0.119777575 1047 -0.059081107 1048 0.15571326 1049 -0.020957816 1050 -0.22316487 1051 -0.058988355 1052 0.32420895 1053 0.05649546 1054 0.053553212 1055 0.2173463 1056 0.024278853 1057 0.03263309 1058 -0.011422974 1059 0.1425604 1060 0.23375136 1061 0.15130974 1062 0.16952409 1063 -0.018597769 1064 0.048643116 1065 0.2597721 1066 -0.15137836 1067 0.31318292 1068 -0.20089275 1069 -0.29539496 1070 0.0019477824 1071 -0.23899241 1072 0.24045832 1073 -0.03559213 1074 0.14331669 1075 -0.10094614 1076 -0.25961825 1077 -0.010170801 1078 0.28829262 1079 0.033681773 1080 -0.20383286 1081 -0.34192047 1082 -0.0053146756 1083 -0.10058974 1084 0.28243843 1085 -0.051830374 1086 -0.13174891 1087 -0.09891807 
78 1024 -0.11049525 1025 -0.11423315 1026 -0.49724513 1027 0.39322877 1028 0.22181943 1029 0.038141914 1030 0.28222415 1031 0.104861125 1032 -0.3859835 1033 -0.00731017 1034 0.19661763 1035 0.14954752 1036 -0.33191234 1037 0.20583004 1038 -0.07719997 1039 -0.18707764 1040 -0.09995829 1041 0.010894984 1042 0.18060303 1043 0.114260115 1044 -0.37741938 1045 0.35532662 1046 0.10367301 1047 0.006715256 1048 0.092464454 1049 -0.007652927 1050 -0.14794332 1051 0.065639846 1052 0.20938279 1053 0.02850918 1054 0.03724561 1055 0.21045856 1056 -0.08413689 1057 -0.10410207 1058 -0.12284496 1059 0.15849942 1060 0.1988177 1061 0.060603365 1062 0.18606387 1063 0.08576645 1064 0.07209492 1065 0.21603695 1066 -0.19479284 1067 0.2141942 1068 -0.13996519 1069 -0.1852113 1070 -0.036529496 1071 -0.14403853 1072 0.16667937 1073 0.00258518 1074 0.0757295 1075 -0.054702576 1076 -0.13317178 1077 0.012872933 1078 0.26234543 1079 -0.099249065 1080 -0.22523333 1081 -0.27800363 1082 -0.093266614 1083 -0.022169005 1084 0.27315226 1085 -0.12347559 1086 -0.07879716 1087 -0.06495143 
79 1024 -0.023527417 1025 -0.06964217 1026 -0.35805345 1027 0.2461963 1028 0.1354749 1029 0.21152845 1030 0.20730563 1031 0.21954992 1032 -0.28281945 1033 -0.20382997 1034 0.19413236 1035 0.13870277 1036 -0.25579295 1037 0.20858155 1038 -0.1999136 1039 -0.05553291 1040 -0.11468456 1041 0.058649153 1042 0.17662024 1043 0.1314294 1044 -0.45409647 1045 0.18696949 1046 0.13920021 1047 -0.029954879 1048 0.06378599 1049 0.012080483 1050 -0.045086388 1051 0.08057122 1052 0.15095277 1053 -0.046816725 1054 0.013369549 1055 0.16950208 1056 -0.28475663 1057 -0.04549463 1058 -0.23638599 1059 0.1125659 1060 0.16382897 1061 0.02450001 1062 0.23896708 1063 0.20075719 1064 0.017107455 1065 0.08215616 1066 -0.164957 1067 0.13950333 1068 -0.03351155 1069 -0.100433215 1070 -0.12644538 1071 -0.1449076 1072 0.017390987 1073 -0.004868565 1074 0.012515854 1075 0.123341225 1076 0.008858789 1077 0.0028029399 1078 0.20540187 1079 -0.1695148 1080 -0.31255302 1081 -0.15249583 1082 -0.120201916 1083 0.15547565 1084 0.20433953 1085 -0.061809387 1086 -0.01127589 1087 -0.018951021 
80 1024 -0.19281764 1025 -0.028161276 1026 -0.25834036 1027 0.54944485 1028 0.16892554 1029 0.19594266 1030 0.19748329 1031 0.15888132 1032 -0.42940226 1033 -0.22397144 1034 0.16340926 1035 0.10421164 1036 -0.16397782 1037 0.22931656 1038 -0.28412366 1039 -0.099011555 1040 -0.16686548 1041 -0.28215584 1042 0.13197468 1043 0.1352432 1044 -0.49427623 1045 0.2633229 1046 0.06455599 1047 0.024875078 1048 0.020918552 1049 -0.0012429649 1050 0.0033184665 1051 0.14419161 1052 0.043425158 1053 0.06564912 1054 -0.11428425 1055 0.16996913 1056 -0.40326107 1057 -0.058591478 1058 -0.27926475 1059 0.11931327 1060 0.28494698 1061 0.05158927 1062 0.21721077 1063 0.14531821 1064 0.061509285 1065 0.18361123 1066 -0.14995505 1067 0.21519594 1068 -0.027965289 1069 -0.23938811 1070 -0.015124322 1071 -0.19256654 1072 0.08812999 1073 -0.011739614 1074 0.05471618 1075 0.079519115 1076 0.043759953 1077 0.019165277 1078 0.2870253 1079 -0.18541075 1080 -0.39758572 1081 -0.0778418 1082 -0.18482926 1083 0.2422921 1084 0.25368455 1085 -0.110327974 1086 -0.0353002 1087 0.10248971 
81 1024 -0.07981232 1025 0.07197626 1026 -0.1656396 1027 0.58089906 1028 0.05886123 1029 0.2398999 1030 0.107857004 1031 0.13402769 1032 -0.37442166 1033 -0.30819073 1034 0.19562568 1035 0.13773353 1036 -0.12448772 1037 0.1335113 1038 -0.2657979 1039 -0.013472818 1040 0.033757124 1041 -0.27663085 1042 0.12141266 1043 0.14318812 1044 -0.35454646 1045 0.23828132 1046 -0.0496026 1047 -0.051124398 1048 0.0071102288 1049 0.057798874 1050 0.027605474 1051 0.12803017 1052 -0.007119888 1053 0.20678516 1054 -0.026452886 1055 0.002850433 1056 -0.31962565 1057 -0.08422756 1058 -0.34111804 1059 0.079162285 1060 0.24591428 1061 0.017503913 1062 0.24795309 1063 0.050068382 1064 -0.013005431 1065 0.083791524 1066 -0.1707168 1067 0.16021995 1068 0.0068047587 1069 -0.1554008 1070 -0.12505515 1071 -0.08122308 1072 0.015263193 1073 -0.0334526 1074 0.07068855 1075 0.036765464 1076 0.008995369 1077 0.012873439 1078 0.2879339 1079 -0.25812277 1080 -0.3548222 1081 -0.10513623 1082 -0.11267142 1083 0.16824034 1084 0.24061544 1085 -0.09894556 1086 0.11175017 1087 0.13138406 
82 1024 0.08631442 1025 0.038101975 1026 -0.15791486 1027 0.23259363 1028 -0.0046400484 1029 0.20482594 1030 0.18123583 1031 0.124986246 1032 -0.16264576 1033 -0.31955528 1034 0.10751807 1035 0.10470103 1036 -0.16071515 1037 0.18737994 1038 -0.31226793 1039 -0.09359365 1040 0.15394226 1041 -0.19064018 1042 0.20128065 1043 0.08956731 1044 -0.26765102 1045 0.2156257 1046 -0.033606816 1047 -0.13121843 1048 -0.0023731063 1049 -0.010628798 1050 -0.008194251 1051 0.16181123 1052 0.053006355 1053 0.25256753 1054 0.110718116 1055 -0.021162149 1056 -0.11879601 1057 -0.110799864 1058 -0.20711024 1059 0.011309041 1060 0.3027725 1061 0.03906879 1062 0.22741291 1063 0.05381031 1064 -0.11045419 1065 -0.06757299 1066 -0.1794898 1067 0.13060549 1068 0.114023134 1069 -0.028859096 1070 -0.21551514 1071 0.0010823539 1072 -0.11723576 1073 -0.014823951 1074 0.0641497 1075 0.011280822 1076 0.009289891 1077 -0.0047858916 1078 0.17554635 1079 -0.17117359 1080 -0.35024416 1081 -0.09673822 1082 -0.059542872 1083 -0.031042999 1084 0.20618962 1085 -0.11391371 1086 0.019572672 1087 0.058808785 
83 1024 0.061206438 1025 -0.012981225 1026 -0.05846008 1027 0.1482436 1028 0.023898609 1029 0.045260914 1030 0.1388606 1031 0.13495076 1032 -0.09535302 1033 -0.15097567 1034 -0.048680406 1035 -0.028884238 1036 -0.2163282 1037 0.067161635 1038 -0.10367905 1039 -0.07875333 1040 0.03079234 1041 -0.13975604 1042 0.13581283 1043 0.052444503 1044 -0.17081788 1045 0.12859143 1046 -0.038369995 1047 -0.03527666 1048 -0.23769236 1049 -0.027459295 1050 -0.14125784 1051 0.07518174 1052 -0.12009234 1053 0.23558852 1054 0.079902634 1055 -0.08239693 1056 0.06413242 1057 -0.054489013 1058 -0.2566266 1059 0.07155532 1060 0.27489161 1061 -0.020743093 1062 0.17355555 1063 0.07590462 1064 -0.04350619 1065 -0.027538786 1066 -0.03604525 1067 0.14386076 1068 0.07952026 1069 -0.038658995 1070 -0.17681262 1071 0.035545386 1072 -0.040598232 1073 -0.028487146 1074 0.029397186 1075 -0.11376444 1076 0.004086445 1077 -0.0049642944 1078 0.12411234 1079 -0.14461593 1080 -0.18621983 1081 -0.094691545 1082 -0.14697717 1083 0.0759367 1084 0.1649334 1085 -0.1208908 1086 0.11438662 1087 0.06078831 
84 1024 -0.034114197 1025 -0.1348626 1026 -0.13042136 1027 0.16052695 1028 -0.089313984 1029 -0.01466229 1030 0.09963244 1031 0.05365558 1032 -0.047250964 1033 -0.019291492 1034 -0.056728765 1035 -0.013073342 1036 -0.22002234 1037 0.05013681 1038 -0.039085582 1039 -0.14945647 1040 -0.067198314 1041 -0.21037893 1042 -0.021606376 1043 0.066393174 1044 -0.035038985 1045 0.1420672 1046 -0.089563906 1047 0.051208407 1048 -0.2789807 1049 -0.052887205 1050 -0.10311153 1051 -0.03371151 1052 -0.061828513 1053 0.24074548 1054 0.05453158 1055 -0.04738839 1056 0.1788675 1057 -0.030414186 1058 -0.26969686 1059 0.1301893 1060 0.1805455 1061 0.00017308968 1062 0.20962994 1063 0.07539949 1064 0.10358704 1065 0.00896205 1066 0.088431574 1067 0.26346138 1068 -0.077476636 1069 -0.100146666 1070 -0.15941028 1071 0.009870067 1072 0.05964159 1073 -0.00070148084 1074 0.01854045 1075 -0.13573578 1076 -0.15152168 1077 -0.020479087 1078 0.23296422 1079 -0.11815371 1080 -0.011476601 1081 -0.13109642 1082 -0.17637834 1083 0.019854363 1084 0.19384585 1085 -0.18424079 1086 0.0865528 1087 0.024753973 
85 1024 0.010651621 1025 -0.14470805 1026 -0.10208236 1027 0.12054373 1028 -0.09732632 1029 -0.14671972 1030 0.13267463 1031 0.0009247806 1032 -0.010839138 1033 0.002474591 1034 -0.06470913 1035 0.10411873 1036 -0.20252486 1037 0.04404628 1038 0.003932902 1039 -0.18110967 1040 0.05743913 1041 -0.17867559 1042 -0.017167034 1043 0.03001823 1044 0.0589617 1045 0.27611428 1046 -0.15632245 1047 -0.022361115 1048 -0.26777142 1049 -0.04227379 1050 -0.166273 1051 -0.03222143 1052 -0.022939403 1053 0.31009525 1054 0.10436543 1055 -0.10696976 1056 0.28926763 1057 -0.016634837 1058 -0.176444 1059 0.1450118 1060 0.18554644 1061 0.07943263 1062 0.21873967 1063 0.09706032 1064 0.17487052 1065 0.024806367 1066 0.17365581 1067 0.23958336 1068 -0.12648065 1069 -0.016994253 1070 -0.16996738 1071 0.02084434 1072 0.054393727 1073 0.004251114 1074 -0.007110143 1075 -0.14120552 1076 -0.14616443 1077 -0.013550538 1078 0.305187 1079 -0.010978849 1080 0.053078778 1081 -0.18909022 1082 -0.07565738 1083 -0.058234368 1084 0.2166582 1085 -0.14819202 1086 0.10500511 1087 0.044058874 
86 1024 0.009202068 1025 -0.06875282 1026 -0.0048274165 1027 0.24698584 1028 -0.026225435 1029 -0.11777327 1030 0.26909885 1031 -0.115111314 1032 -0.12376993 1033 0.03182972 1034 0.063678056 1035 0.3216285 1036 -0.13341698 1037 -0.011258259 1038 0.0076020816 1039 -0.24498118 1040 0.061661325 1041 -0.106007606 1042 0.15264098 1043 0.120326035 1044 0.029633231 1045 0.32289344 1046 -0.17067116 1047 -0.03219142 1048 -0.2513464 1049 -0.07737076 1050 -0.17398624 1051 0.018071454 1052 0.00486274 1053 0.35272312 1054 -0.019389773 1055 -0.008314855 1056 0.2662727 1057 -0.15404794 1058 -0.10769795 1059 0.17069003 1060 0.18039703 1061 0.0538592 1062 0.33574948 1063 0.02661146 1064 0.1463863 1065 0.10968939 1066 0.13443188 1067 0.2474901 1068 -0.2851092 1069 -0.13053316 1070 -0.073787734 1071 -0.016550422 1072 0.05175265 1073 -0.001329389 1074 -0.04191526 1075 -0.13922377 1076 -0.18007647 1077 -0.0007138804 1078 0.2708551 1079 -0.080696106 1080 -0.040041097 1081 -0.20230728 1082 -0.11718212 1083 -0.01149469 1084 0.2007012 1085 -0.12233125 1086 0.028257806 1087 0.015005608 
87 1024 0.017869314 1025 -0.23874459 1026 -0.04208934 1027 0.21498069 1028 0.051106557 1029 -0.25579363 1030 0.28612158 1031 -0.07421087 1032 -0.13457003 1033 0.11336429 1034 0.07630132 1035 0.27867693 1036 -0.10568836 1037 0.050609425 1038 0.07097259 1039 -0.32453513 1040 -0.024936557 1041 -0.2549249 1042 0.07784663 1043 0.22269686 1044 0.0013491506 1045 0.31479236 1046 -0.095093496 1047 0.121286765 1048 -0.18612558 1049 -0.07778807 1050 -0.11198889 1051 -0.05687067 1052 -0.030566834 1053 0.3792869 1054 -0.10104792 1055 0.043890003 1056 0.25098288 1057 -0.16295047 1058 -0.19681647 1059 0.2267097 1060 0.19531636 1061 0.055105172 1062 0.335958 1063 0.057862706 1064 0.32821074 1065 0.16918384 1066 0.025740305 1067 0.23585291 1068 -0.33574605 1069 -0.10424303 1070 -0.012937547 1071 -0.026068645 1072 0.19124845 1073 -0.0112620415 1074 -0.0443162 1075 -0.24162301 1076 -0.21662839 1077 -0.038528968 1078 0.24764225 1079 -0.006104349 1080 -0.041953947 1081 -0.24902847 1082 -0.12453206 1083 0.0016322301 1084 0.27829045 1085 -0.16087025 1086 0.029569129 1087 -0.010484679 
88 1024 -0.014251451 1025 -0.19790506 1026 -0.102765806 1027 0.07665803 1028 0.14781222 1029 -0.30569366 1030 0.21672764 1031 -0.041292347 1032 -0.11479902 1033 0.08133121 1034 0.20331599 1035 0.23822775 1036 -0.09479384 1037 0.14973871 1038 0.10142728 1039 -0.34446493 1040 -0.14820269 1041 -0.2621501 1042 0.091981895 1043 0.23363943 1044 -0.06420114 1045 0.3244274 1046 -0.102883115 1047 0.062951595 1048 -0.14405806 1049 -0.012818904 1050 -0.101814725 1051 -0.07456736 1052 -0.024335269 1053 0.26990637 1054 -0.12100681 1055 0.03875176 1056 0.17921966 1057 -0.18340318 1058 -0.24010365 1059 0.18865618 1060 0.16354528 1061 0.15215622 1062 0.34978962 1063 0.015938483 1064 0.27955753 1065 0.157992 1066 -0.1227584 1067 0.223735 1068 -0.31346232 1069 -0.09128223 1070 0.051469017 1071 -0.061655466 1072 0.21374942 1073 -0.023655327 1074 -0.10121598 1075 -0.097875856 1076 -0.26733282 1077 0.004876004 1078 0.206932 1079 -0.031023419 1080 -0.034041956 1081 -0.20717344 1082 -0.03940853 1083 -0.008192634 1084 0.21210058 1085 -0.15940909 1086 0.10869015 1087 -0.039409194 
89 1024 -0.019346695 1025 -0.20340861 1026 -0.1818137 1027 0.12779179 1028 0.16716474 1029 -0.32070643 1030 0.30847964 1031 -0.027391769 1032 -0.07145649 1033 0.103736 1034 0.16029346 1035 0.21346441 1036 -0.12667897 1037 0.18293384 1038 0.10249925 1039 -0.30586067 1040 -0.041460842 1041 -0.23161434 1042 0.14368753 1043 0.2613318 1044 -0.028221311 1045 0.27241254 1046 -0.10743931 1047 0.06723883 1048 -0.18446754 1049 -0.0048041004 1050 -0.13949482 1051 -0.0110457055 1052 0.042903136 1053 0.28129533 1054 -0.092942916 1055 0.05481328 1056 0.2076214 1057 -0.29740387 1058 -0.16053168 1059 0.24622792 1060 0.12392406 1061 0.1346599 1062 0.36126423 1063 0.021287235 1064 0.2744666 1065 0.15452059 1066 -0.09094799 1067 0.15947816 1068 -0.27125007 1069 -0.037753634 1070 -0.032767996 1071 -0.08404043 1072 0.17328754 1073 0.015562925 1074 -0.18010806 1075 -0.18995126 1076 -0.21483475 1077 0.01309531 1078 0.19921732 1079 -0.073148474 1080 -0.09713828 1081 -0.3078162 1082 -0.029971933 1083 0.020364419 1084 0.21551628 1085 -0.22768082 1086 0.06304842 1087 -0.14584002 
