0.785837 0.33511567 2.1426673 -1.3070401 0.27056077 0.23469558 -0.013891578 0.020403555 -2.4333825 0.59737766 
-5.6505976 -0.2521617 1.2328844 -0.44235942 -2.1692295 1.280237 0.3668627 1.1282645 -0.41554105 -0.40676373 
-0.7224766 -0.0045753703 -1.6650063 1.2968317 -0.2952901 1.7880361 -1.9974285 -4.843609 1.4655184 1.1242213 
1.5566899 1.3391579 1.2171729 0.6624758 -0.5007009 0.24349415 1.4911627 -5.2330294 -0.15493396 -1.8634316 
-0.2366985 1.609998 0.3236978 1.4218931 1.3424331 1.5464933 -0.48640355 -0.83977914 -2.1401927 -0.6268022 
1.367473 2.5972993 1.5449424 0.5136551 0.8410244 -0.50560457 -2.292301 1.4835446 -1.72554 -3.3251626 
0.12365097 -0.61027575 -0.67280626 -0.46430585 3.17636 1.1567234 -2.749911 -1.8873577 -0.39132825 -0.7005293 
-1.0317864 -2.9567182 -0.09446682 -0.047902614 3.0637705 -2.292325 -1.5252428 -0.20435897 1.7341276 -1.8321306 
-0.6454401 -1.9291922 -0.23556815 -0.036115468 0.6113118 1.5207455 -0.09538565 2.423961 -0.27715737 1.1899735 
-2.1797922 -0.81284016 1.8031567 -2.0841224 -1.9888873 -0.63331103 -1.4818425 -0.52938896 0.060213946 1.3434546 
-1.0036014 0.83957905 1.3001554 2.8807273 0.06994644 -2.228188 -1.3650862 0.17365448 0.23558478 -2.3611732 
-0.11266644 0.3949192 0.3767467 -2.1863723 -1.0174831 1.7096392 -1.1456403 -0.55859065 0.42811704 2.661672 
2.93847 -0.8470496 -1.0356824 -2.3427825 -0.072199754 -2.334985 2.453355 -1.2955655 0.77996296 -0.92390585 
1.6416975 -3.13445 1.3601671 -1.0677458 1.4702642 -0.6836547 1.993407 -2.8398888 -3.4224985 2.5079541 
0.5208459 -0.12645791 -0.029877396 1.527272 -1.7116218 -2.8825538 -1.168634 -0.84500283 1.4133797 1.2317332 
-0.9434282 0.4977306 -0.91666037 1.8893081 0.89583766 3.0609367 -7.0555267 -1.09243 -4.0635796 1.5717448 
-2.2400458 3.1505008 -1.7733651 -2.6481137 2.5821118 -4.3189073 0.122154534 2.1367965 -1.5304437 -3.608586 
0.722236 0.6337736 1.398947 -2.0289016 -0.11547619 -2.8162851 1.8070831 2.0454593 2.3555954 -2.979392 
-0.8025413 0.84734195 3.677455 0.059032477 -2.2210896 1.2200323 -0.2704269 2.870174 -2.8688931 -2.4565933 
0.3884882 -0.2475906 -0.2786785 -2.4938433 -2.824843 1.3509778 0.91512907 -2.4328167 0.51024187 -4.8398 
2.6197424 -3.5899525 0.9506396 -3.697347 1.8869808 -3.5334473 -1.501002 1.6478562 -2.6512198 -0.31667733 
0.78116405 -1.7272929 0.9620571 -0.09701134 1.7017084 0.3940124 -3.0210276 -2.024382 0.683386 -1.9289106 
-2.9315345 0.82737625 2.6688075 -3.3655117 -2.6810431 -0.2790093 0.5075768 -2.9897356 -1.2770556 0.46038708 
-1.0389376 -4.0052404 1.3973607 0.58561164 1.4216174 0.86024565 2.424365 1.0334164 -0.4568878 -4.4055047 
-0.20465317 -1.5055236 -2.55544 2.5406952 -0.16751096 0.5472291 0.2010093 -0.54175806 2.0944226 -0.23878512 
0.10387933 -1.6119825 -0.21503133 -1.8806962 -0.5851798 0.67574364 1.8034292 2.1100152 -2.440918 -3.6401181 
1.3260957 1.7909954 0.35742104 -0.47990873 -1.6190856 -1.4789411 -0.101415426 1.1266392 -2.3717399 0.98293597 
-0.73982954 1.3520975 -0.54233646 0.44349 -4.5876007 -0.12509456 2.603868 -0.44543383 -2.566405 2.212956 
1.7424577 0.97270477 0.583509 0.22769873 -5.32879 -1.3980924 0.6977103 -0.44047105 -0.69372183 3.0658238 
1.3109256 2.8123271 -3.4030516 0.39501408 1.3638922 2.0797298 0.3137503 2.103037 -3.486 -1.7270569 
1.1991833 2.4158862 -0.2663155 1.4895785 -4.204696 0.18163608 0.58716637 -2.0888925 0.95120925 -1.2910385 
-1.1442227 -2.0326228 1.6282831 -0.21830446 -0.94186383 -2.0971537 0.4635176 -0.5349802 1.3318474 1.8238823 
1.457881 -1.7479373 2.361038 0.9615813 -1.5392545 -0.33636504 -1.1889564 0.5584816 -3.0615168 0.64723414 
0.20544758 0.4207798 0.92681295 1.3966274 0.48537773 -1.6420349 1.8913586 -2.8465772 0.03987816 -1.2110504 
-1.6972984 -0.21657716 1.73476 1.7746285 -6.613535 -2.381504 -6.5573688 1.5382175 -1.1997797 -2.4848275 
-3.4018478 0.40331084 1.8601072 0.89104295 -0.38701028 1.283398 -1.3953258 2.9429033 -1.6014484 -6.7766504 
-3.4224668 -1.48047 0.091418594 -1.1329511 -4.1277113 2.6781445 1.4935445 1.9669399 -1.500858 1.02763 
-1.0718181 0.6682718 -3.426717 1.4602468 0.29091552 -0.024493555 1.4145828 -3.2581735 -0.07380869 0.5440298 
-1.7089995 0.5391791 -1.7575337 -0.16493699 1.2838488 1.983313 -0.5241635 1.1532 -0.065459386 -1.8746974 
-0.6066783 -2.6557317 2.5612862 -1.185323 1.215361 -2.6176958 0.08957788 -2.8459098 -4.6680026 1.4298123 
-0.06918283 1.3301331 -1.1925753 -0.83207625 1.8023486 -2.6730099 -0.6675643 -0.22120945 0.6854518 -0.037480846 
-3.907328 -0.40146706 -0.121142395 1.2704507 3.5803173 -3.8940542 -1.2147369 -1.1105185 0.10559575 -1.4471745 
2.550707 -3.8167593 0.3116662 2.0379064 -3.420064 0.23798649 -2.8735394 -0.061830215 -1.8519666 0.596193 
0.052824225 -3.0637228 -2.2202137 -3.4923933 -0.75769895 1.221168 -0.33743915 0.0675172 2.485493 1.551658 
-0.88006 -0.864986 -1.1788934 -3.4031105 1.9049081 2.5519767 -0.5429073 1.1009511 0.22726789 -0.8671732 
0.54115665 -1.0560454 0.28319904 1.5610996 0.85706025 -0.05131644 -1.2857558 -0.43018758 2.3889422 -0.9945618 
-1.2328688 2.4734366 -0.9744215 -3.0347047 0.94715023 2.024249 -0.078255065 -1.9163721 -3.4072456 -0.06875488 
0.5818323 1.1271387 -4.619281 -0.09567145 0.98264074 0.86004066 0.20617177 0.2176423 1.6860569 0.44795105 
-3.1778843 -1.5644559 -1.013863 -0.5265207 -0.060667418 0.079374164 0.91108555 -2.498221 1.3053033 1.9674978 
-3.9889357 -1.4608177 -1.86693 2.8309915 -1.6861335 2.4156387 -6.5125775 -3.0410507 -6.4222946 2.225451 
1.75489 -3.6418645 -1.2511178 -1.5044949 -5.903131 1.2931124 -2.4870732 2.0949466 -0.8046534 -0.30240464 
0.042252168 -0.8498451 -1.2705935 2.0334823 -2.4685714 -0.038410004 1.4898669 2.1357608 -3.5434415 -4.3538437 
-0.16478127 -2.105269 0.6979364 1.4779073 -3.2264414 -1.4058717 -0.8234632 0.73620844 1.0649534 3.3106675 
1.7150968 2.7730927 0.090500206 1.2091619 0.94267124 -2.8362784 -0.407134 -1.0833586 -2.395242 0.017737938 
0.6100053 1.5009304 1.037659 -2.8906753 -0.3117367 2.8250506 -1.2204019 0.6950913 -1.6960537 -1.0472468 
-4.4340677 -0.39473197 2.3823657 -1.3302357 -0.7558122 2.6488028 -5.1173015 -1.219137 -0.35593742 1.4327557 
-4.5061893 0.5628737 -1.8217682 -3.933071 -5.491779 3.4313762 1.4777349 -1.8146815 -1.28087 -0.71070594 
-0.8881109 -2.9499972 -1.6867666 1.1690235 -1.150479 -0.8791863 -3.2837534 0.52915955 0.122245 1.082258 
-2.2000527 0.49253172 -3.470626 0.29395315 -0.5578601 -1.4887762 -1.0404665 2.2866313 0.41627902 1.6243626 
-1.9107467 1.097573 -0.37969887 -1.3604876 1.0645218 -0.5501367 0.64342844 1.1384019 0.7875543 -3.4766107 
0.0064349943 -0.9429326 1.8897383 -0.41514465 -4.9685082 0.21387789 0.093135744 -0.7883209 1.6758627 -0.0040081358 
-0.6333789 -3.5245097 -1.943847 -0.7208698 0.26889312 2.4332352 2.476928 -1.0995208 -0.08957913 -0.662054 
0.47725567 2.14735 -2.0162163 0.022230353 1.2521148 -2.3369296 -1.0890219 0.10801065 -7.353596 2.2457292 
-2.7581208 0.9029165 2.0826764 -1.5584985 -1.3333416 -1.3656912 -0.07313802 1.270634 2.2149913 -4.0339985 
