0 1024 -0.011637155 1025 0.010557193 1026 -0.0041793473 1027 -0.013205022 1028 0.012893833 1029 -0.006805893 1030 -0.0076635927 1031 0.022462524 1032 -0.022214279 1033 0.015019424 
1 1024 0.009099003 1025 0.027629394 1026 0.010059439 1027 0.0057337545 1028 -0.017224938 1029 -0.02991949 1030 -0.029941056 1031 0.00010900572 1032 -0.0020055994 1033 -0.01903914 
2 1024 0.015232779 1025 0.014331102 1026 0.0073259063 1027 -0.011754122 1028 0.030639134 1029 -0.026036058 1030 0.01470992 1031 0.012220342 1032 -0.027635187 1033 -0.025866423 
3 1024 -0.001563903 1025 0.026083838 1026 -0.015849415 1027 -0.008317154 1028 0.024668831 1029 -0.013894722 1030 0.00019029155 1031 0.012883097 1032 -0.021011572 1033 0.006190371 
4 1024 0.010106724 1025 0.007316008 1026 -0.005126398 1027 0.029192071 1028 -0.007936358 1029 -0.02455961 1030 -0.0132513195 1031 0.0016499609 1032 0.0027740411 1033 0.0019982345 
5 1024 0.025134888 1025 -0.030694157 1026 0.010842189 1027 0.00094597414 1028 -0.01564978 1029 -0.0025588274 1030 -0.021823324 1031 0.02526142 1032 0.030025415 1033 0.02155083 
6 1024 -0.005546868 1025 -0.010919385 1026 0.01687365 1027 0.029902201 1028 -0.018832684 1029 0.019147929 1030 0.02489965 1031 -0.022093803 1032 -0.0040715747 1033 0.0017949417 
7 1024 -0.008316126 1025 -0.01792096 1026 0.0015441589 1027 0.0134245865 1028 -0.0114827305 1029 -0.029112473 1030 0.0046022646 1031 -0.02275971 1032 -0.019489985 1033 -0.0151608065 
8 1024 -0.01494579 1025 0.0037891418 1026 -0.0054188743 1027 -0.0094129 1028 0.003149055 1029 0.016150422 1030 0.0240325 1031 0.01720374 1032 0.011742573 1033 -0.014328964 
9 1024 -0.031052899 1025 -0.02404856 1026 -0.020942248 1027 -0.021019232 1028 -0.008739036 1029 -0.013844635 1030 0.014817733 1031 -0.02426472 1032 -0.0073744655 1033 -0.02545296 
10 1024 -0.030681573 1025 0.013073761 1026 -0.010915637 1027 0.010624368 1028 0.00057407096 1029 -0.0056054406 1030 0.012041472 1031 -0.027600572 1032 0.021752119 1033 0.0063006952 
11 1024 -0.020978164 1025 0.023765758 1026 -0.022403438 1027 -0.02515728 1028 0.012022719 1029 -0.03084306 1030 0.025256798 1031 -0.0005751252 1032 -0.01289425 1033 -0.01567107 
12 1024 -0.007310383 1025 -0.019547295 1026 0.021257877 1027 0.015396494 1028 -0.023687903 1029 -0.017152075 1030 -0.009385783 1031 -0.030535903 1032 0.009566944 1033 0.004812386 
13 1024 0.029909108 1025 -0.011530969 1026 0.009195033 1027 -0.018392209 1028 -0.103958726 1029 0.023587488 1030 0.26146042 1031 0.02242243 1032 -0.021347206 1033 -0.040737648 
14 1024 0.029270574 1025 0.0039767995 1026 0.08361482 1027 -0.0186604 1028 -0.21456674 1029 -0.02060191 1030 0.37763298 1031 0.014485773 1032 0.0078288615 1033 -0.023345921 
15 1024 0.029135074 1025 -0.002427131 1026 0.1193887 1027 0.0154117085 1028 -0.16827619 1029 0.013608824 1030 0.2753762 1031 -0.012533914 1032 0.023946594 1033 -0.04033527 
16 1024 -0.013540514 1025 -0.025990639 1026 0.119559534 1027 0.00936719 1028 -0.034121316 1029 -0.02342309 1030 -0.11003096 1031 -0.006218184 1032 0.013626613 1033 0.02309411 
17 1024 0.029829275 1025 0.00867838 1026 0.12221005 1027 0.009839166 1028 -0.036684476 1029 -0.028379839 1030 -0.08291016 1031 0.017240245 1032 -0.006770175 1033 -0.028366461 
18 1024 0.015164364 1025 0.017038304 1026 -0.026644886 1027 -0.02981291 1028 0.006850492 1029 0.025658373 1030 -0.016427997 1031 0.029455218 1032 -0.023956843 1033 -0.0058424585 
19 1024 -0.0012788922 1025 -0.026608363 1026 -0.0020159148 1027 0.00043541193 1028 -0.0024938844 1029 0.022386443 1030 0.008698691 1031 -0.021659877 1032 -0.0020858943 1033 -0.016802046 
20 1024 -0.018179089 1025 -0.0194064 1026 0.0137339905 1027 0.004531786 1028 -0.010861967 1029 -0.026613452 1030 0.021122165 1031 -0.003774047 1032 -0.011926129 1033 -0.025150318 
21 1024 -0.024360187 1025 -0.0060320757 1026 0.009613425 1027 0.023165703 1028 0.019471832 1029 0.006325733 1030 0.016560111 1031 0.029453143 1032 0.017568707 1033 0.0024493113 
22 1024 -0.02789092 1025 -0.017320268 1026 -0.024153069 1027 0.02931168 1028 -0.0076233596 1029 0.019244988 1030 0.014326878 1031 0.021555673 1032 0.0086030625 1033 0.0010710508 
23 1024 0.014645424 1025 -0.022882096 1026 0.025091298 1027 0.019638192 1028 -0.023045398 1029 0.023419857 1030 -0.0035939962 1031 0.024586659 1032 0.013482645 1033 -0.022094723 
24 1024 -0.008481063 1025 0.004182484 1026 -0.027046632 1027 -0.021780197 1028 0.022317044 1029 0.01056651 1030 0.02071112 1031 -0.0015862398 1032 -0.029537931 1033 0.024362396 
25 1024 0.0023119375 1025 0.028711293 1026 0.020779595 1027 -0.026180591 1028 0.018634383 1029 -0.020015929 1030 -0.022786506 1031 -0.01870862 1032 -0.012655061 1033 -0.009144064 
26 1024 -0.010766406 1025 -0.01724904 1026 0.022983115 1027 -0.027203772 1028 -0.02168595 1029 0.008807942 1030 0.027232274 1031 0.0005978942 1032 -0.030996189 1033 0.02158923 
27 1024 0.012664456 1025 -0.025071282 1026 -0.010962281 1027 -0.0053993203 1028 0.007950231 1029 -0.027464692 1030 -0.003362149 1031 -0.005549088 1032 -0.0073551647 1033 -0.021899566 
28 1024 -0.029690769 1025 -0.0067982003 1026 0.0032527559 1027 -0.023224093 1028 0.0018496513 1029 0.005799178 1030 -0.011640601 1031 -0.026098508 1032 0.010371476 1033 0.0138529055 
29 1024 0.005631298 1025 0.0013752244 1026 0.018098038 1027 -0.028667808 1028 0.0019270778 1029 -0.02652071 1030 0.0009534806 1031 0.0014393926 1032 -0.00084162503 1033 -0.025875974 
30 1024 0.02978938 1025 -0.0037795529 1026 -0.028321877 1027 -0.022740472 1028 0.012925621 1029 0.014584728 1030 -0.017703522 1031 -0.020722412 1032 -0.00042934716 1033 0.029529817 
31 1024 -0.027436137 1025 0.021863695 1026 0.01054199 1027 -0.0022049434 1028 -0.01853985 1029 0.0018090904 1030 -0.008638952 1031 0.02795289 1032 -0.019638091 1033 0.009584997 
32 1024 0.013783999 1025 0.011724263 1026 -0.02802058 1027 0.0066527203 1028 -0.013649724 1029 -0.011347242 1030 -0.010637287 1031 0.0074475445 1032 -0.021067388 1033 0.02012401 
33 1024 -0.020273808 1025 -0.0038143583 1026 0.0009091906 1027 -0.03097105 1028 0.0039596297 1029 -0.02436031 1030 0.017541055 1031 -0.01421852 1032 -0.0035563372 1033 -0.006408196 
34 1024 0.027786091 1025 0.01455256 1026 -0.02019291 1027 -0.002806101 1028 -0.027996715 1029 -0.017896805 1030 0.014409274 1031 0.024500955 1032 0.005472921 1033 0.010777067 
35 1024 -0.00056808814 1025 0.02916576 1026 -0.019043747 1027 -0.014797132 1028 -0.0038166419 1029 -0.0058966354 1030 -0.0027645268 1031 0.0027662776 1032 0.029630743 1033 0.027472157 
36 1024 0.014005449 1025 -0.02377233 1026 0.02637865 1027 0.024006706 1028 -0.027797177 1029 0.013933815 1030 -0.020829663 1031 0.019089378 1032 0.014735438 1033 0.013197064 
37 1024 -0.02897678 1025 -0.028993122 1026 -0.0055535883 1027 0.012960304 1028 0.02026612 1029 -0.013925124 1030 0.02263084 1031 0.021103065 1032 -0.028849933 1033 0.008461509 
38 1024 0.02287735 1025 0.022998333 1026 0.018958151 1027 0.020337783 1028 -0.02168553 1029 -0.0063577853 1030 -0.019360509 1031 0.019047193 1032 -0.02488099 1033 0.01711873 
39 1024 0.006267725 1025 0.029354036 1026 -0.11768118 1027 -0.033340223 1028 -1.1238966 1029 -0.0047166795 1030 0.43200076 1031 -0.0108591365 1032 -0.012399834 1033 -0.0114566 
40 1024 -0.045942742 1025 0.015151922 1026 -0.545304 1027 -0.022742476 1028 -1.1754404 1029 -0.007824458 1030 0.43044445 1031 0.00756084 1032 -0.029289503 1033 0.00711424 
41 1024 -0.013641743 1025 -0.18057677 1026 -0.5179573 1027 0.012547009 1028 -1.1167922 1029 0.027048267 1030 0.47964546 1031 -0.07806258 1032 0.028570537 1033 0.0016709303 
42 1024 -0.014709917 1025 -0.16229491 1026 -0.64037746 1027 -0.019332297 1028 -1.0733068 1029 -0.021519857 1030 0.55407155 1031 -0.11084846 1032 0.021813363 1033 0.014884144 
43 1024 -0.13160826 1025 -0.18850373 1026 -0.792468 1027 -0.03889903 1028 -1.0097663 1029 -0.0243893 1030 0.2740008 1031 -0.057942063 1032 -0.006660383 1033 -0.034634147 
44 1024 0.006666888 1025 -0.053341296 1026 -0.40465957 1027 -0.0015091464 1028 -1.0691204 1029 -0.008235067 1030 0.41973677 1031 -0.33440548 1032 -0.0036923408 1033 -0.037388615 
45 1024 0.32370403 1025 -0.05347069 1026 -0.24157338 1027 -0.039085403 1028 -1.3738713 1029 -0.06032592 1030 0.6820221 1031 -0.39851797 1032 0.00805969 1033 -0.16129057 
46 1024 0.36996198 1025 -0.009174676 1026 -0.6700028 1027 0.014109268 1028 -1.6223439 1029 -0.04454387 1030 0.8497832 1031 -0.4232495 1032 0.003922258 1033 -0.1380446 
47 1024 0.29139897 1025 -0.06168636 1026 -0.67493695 1027 -0.35652557 1028 -1.8085183 1029 -0.06561297 1030 0.5200141 1031 -0.40383866 1032 0.0013269272 1033 -0.16219777 
48 1024 -0.3766063 1025 0.09953361 1026 0.0583838 1027 -0.36155102 1028 -0.21521194 1029 -0.00065274385 1030 -0.26306418 1031 -0.03135784 1032 -0.014152434 1033 -0.10889753 
49 1024 0.22156231 1025 0.07333468 1026 0.11898927 1027 -0.1543655 1028 -1.483028 1029 -0.29957828 1030 0.06500629 1031 -0.29136062 1032 -0.11406236 1033 -0.56649846 
50 1024 0.2601182 1025 -0.46156484 1026 0.311576 1027 -0.18506685 1028 -1.6638938 1029 -0.58144426 1030 -0.41171813 1031 -0.3228273 1032 -0.1205429 1033 -0.56771755 
51 1024 0.28496826 1025 -0.8283028 1026 0.30524632 1027 -0.04252551 1028 -1.670733 1029 -0.5503515 1030 -0.26392472 1031 -0.31781748 1032 -0.16345353 1033 -0.57389015 
52 1024 0.23290665 1025 -0.30195543 1026 -0.7864213 1027 0.010074656 1028 -1.2759508 1029 -0.19607805 1030 0.5931 1031 -0.2813032 1032 -0.15373741 1033 -0.7793671 
53 1024 -0.05155674 1025 0.014144945 1026 -0.9493046 1027 -0.017681478 1028 -1.0797409 1029 0.010525051 1030 0.9512029 1031 0.008838635 1032 -0.014320707 1033 -0.54606116 
54 1024 -0.025536966 1025 -0.006843014 1026 -0.64904696 1027 0.0102125285 1028 -0.9634901 1029 -0.056327596 1030 0.8257758 1031 -0.01930716 1032 -0.012289891 1033 -0.46112883 
55 1024 -0.009212885 1025 0.014225259 1026 -0.5863544 1027 -0.0032558218 1028 -1.118423 1029 -0.07314387 1030 0.86439496 1031 0.020850532 1032 0.02220361 1033 -0.50139177 
56 1024 -0.047077943 1025 0.0051563308 1026 -0.21352418 1027 -0.0049784817 1028 -0.80122143 1029 -0.028285122 1030 0.4610646 1031 -0.029063657 1032 -0.34723452 1033 -0.46707383 
57 1024 -0.04874211 1025 0.002973862 1026 -0.018232975 1027 -0.02481544 1028 -0.839422 1029 -0.02714954 1030 0.3546236 1031 -0.015108064 1032 -0.3526372 1033 -0.50636065 
58 1024 0.020089727 1025 -0.028507482 1026 -0.046895064 1027 0.00659167 1028 -0.6745407 1029 0.007579524 1030 0.08980515 1031 -0.008365314 1032 -0.32841668 1033 -0.4439741 
59 1024 0.0013975911 1025 -0.026306089 1026 0.0027664788 1027 -0.015846636 1028 -0.45532647 1029 -0.02454732 1030 0.021441113 1031 0.019004796 1032 0.020547464 1033 -0.024154013 
60 1024 -0.030216262 1025 -0.0064405687 1026 0.012922 1027 -0.011529878 1028 -0.0253455 1029 0.030006427 1030 -0.027597487 1031 0.023723055 1032 -0.015305981 1033 0.025267359 
61 1024 0.018663242 1025 0.008219857 1026 0.016905408 1027 0.00011940673 1028 -0.012217466 1029 -0.018175654 1030 0.02334153 1031 -0.015513536 1032 0.011781994 1033 0.0078889355 
62 1024 0.011766333 1025 -0.030696187 1026 0.016971942 1027 -0.002698578 1028 -0.015182037 1029 0.027785644 1030 0.02934103 1031 0.024303205 1032 0.011960492 1033 0.011698164 
63 1024 -0.028126169 1025 -0.028115496 1026 -0.02586767 1027 -0.017359052 1028 -0.0034178197 1029 -0.019954413 1030 0.010448925 1031 0.028142836 1032 -0.022779182 1033 -0.020344548 
64 1024 -0.011110626 1025 -0.013711195 1026 -0.030124132 1027 -0.025551476 1028 -0.023169152 1029 0.015103277 1030 -0.028530043 1031 0.018853672 1032 0.0072082467 1033 0.008021466 
65 1024 -0.0013038032 1025 0.02331258 1026 0.019444745 1027 -0.0075474083 1028 0.01627136 1029 -0.030428998 1030 0.025755387 1031 -0.022966463 1032 0.0266487 1033 0.022987638 
66 1024 0.025235869 1025 -0.005511936 1026 0.007530071 1027 0.024756327 1028 0.004327718 1029 -0.03027834 1030 0.0072794817 1031 -0.008783162 1032 -0.002136454 1033 -0.005321607 
67 1024 -0.010873683 1025 0.013175059 1026 -0.0242851 1027 0.010846037 1028 -0.016084906 1029 -0.010307573 1030 -0.019215848 1031 -0.013523959 1032 -0.019164488 1033 0.027870584 
68 1024 0.030244093 1025 0.013925735 1026 -0.45674962 1027 0.010307919 1028 -0.40246257 1029 0.0062148124 1030 0.13181612 1031 0.025034584 1032 0.012335788 1033 0.001799453 
69 1024 -0.024658926 1025 -0.031040072 1026 -0.4601942 1027 0.00083006173 1028 -0.44463903 1029 -0.020852912 1030 0.13983761 1031 0.024038404 1032 0.0124024525 1033 0.02524155 
70 1024 -0.16401023 1025 0.009110618 1026 0.28469098 1027 -0.4850243 1028 -0.44080535 1029 0.013573293 1030 0.3341332 1031 0.02261106 1032 0.018314496 1033 -0.026422836 
71 1024 -0.5754553 1025 -0.0033799782 1026 -0.2877857 1027 -0.5042659 1028 -1.5344567 1029 0.017937507 1030 0.5362821 1031 -0.0569599 1032 -0.013933836 1033 -0.04061676 
72 1024 -0.10306952 1025 -0.15214773 1026 -0.7697862 1027 -0.66601866 1028 -2.3045769 1029 -0.015081959 1030 0.5068789 1031 -0.16329357 1032 -0.03141736 1033 -0.14564687 
73 1024 -0.762545 1025 -0.6838952 1026 -0.8464015 1027 -0.9432662 1028 -2.7652168 1029 -0.5138362 1030 0.5432907 1031 -0.1783632 1032 -0.05046207 1033 -0.046621464 
74 1024 -1.0776961 1025 -0.7678995 1026 -0.7140126 1027 -0.99909556 1028 -2.527257 1029 -0.94108033 1030 0.31714427 1031 -0.17277059 1032 -0.14956805 1033 -0.0347226 
75 1024 -1.305293 1025 -0.8380513 1026 -0.28883424 1027 -0.8546814 1028 -2.5912158 1029 -1.2642558 1030 0.82365674 1031 -0.22768116 1032 -0.36619273 1033 -0.05917116 
76 1024 -1.2799066 1025 -0.9116145 1026 -0.53898776 1027 -0.119044915 1028 -2.7539208 1029 -1.0988746 1030 0.8533438 1031 -0.6627414 1032 -0.34133163 1033 -0.12345872 
77 1024 -0.7945211 1025 -0.84081346 1026 -0.8507025 1027 -0.089242026 1028 -3.1175559 1029 -1.2983453 1030 0.88781285 1031 -0.7807592 1032 -0.7543756 1033 -0.2111811 
78 1024 -1.331112 1025 -0.40776053 1026 -0.76428443 1027 -0.19568178 1028 -1.2711945 1029 -1.606887 1030 0.9346639 1031 -0.44167405 1032 -1.0028049 1033 -0.46495137 
79 1024 -1.330922 1025 0.25560367 1026 -0.6121164 1027 -0.5205291 1028 -0.9638192 1029 -1.8107114 1030 0.6131721 1031 -0.39324793 1032 -1.0271751 1033 -0.60944575 
80 1024 -1.5992218 1025 -0.08312423 1026 -0.5416713 1027 0.07723507 1028 -1.4176793 1029 -2.857064 1030 0.5688696 1031 -0.06274637 1032 -1.4155921 1033 -0.6019447 
81 1024 -2.2199676 1025 0.5217097 1026 -0.4894926 1027 -0.29954582 1028 -1.2293282 1029 -0.26176047 1030 0.32138404 1031 -0.037846345 1032 -1.3543259 1033 -0.5689561 
82 1024 -1.1372411 1025 0.63152283 1026 -0.44875005 1027 -0.57878697 1028 -0.8686044 1029 -0.29878417 1030 0.26612315 1031 -0.28955907 1032 -1.205358 1033 -0.9504677 
83 1024 -1.4233034 1025 0.038541537 1026 -0.59570134 1027 -0.5518174 1028 -0.58796334 1029 0.008125588 1030 0.4365452 1031 -0.25760412 1032 -1.3600882 1033 -1.1254736 
84 1024 -1.7745446 1025 -1.0497389 1026 -0.90325195 1027 -0.3522856 1028 -1.4374431 1029 0.030102154 1030 0.37679797 1031 -0.04046576 1032 -0.13438846 1033 -1.104762 
85 1024 -1.541945 1025 -0.79404765 1026 -0.6023318 1027 -0.22732776 1028 -2.0667095 1029 0.0013429096 1030 0.68651557 1031 -0.09312447 1032 0.07670005 1033 -0.88686305 
86 1024 -1.3043559 1025 -0.8558236 1026 -0.8409133 1027 -0.9712369 1028 -1.2143494 1029 -0.27101058 1030 0.712346 1031 -0.08412726 1032 -1.0874789 1033 -1.0208741 
87 1024 -1.5393138 1025 -0.9627599 1026 -1.2705605 1027 -1.0068265 1028 -1.5149584 1029 -0.53866184 1030 0.8822064 1031 -0.013898934 1032 -0.20497246 1033 -0.6700104 
88 1024 -1.0142134 1025 -0.75501543 1026 -0.4229578 1027 -0.63800246 1028 -1.5077302 1029 -0.3151339 1030 1.0046742 1031 -0.04109878 1032 -0.41529858 1033 -0.6245976 
89 1024 -0.6608954 1025 -0.6420973 1026 -0.88653624 1027 -0.6378713 1028 -1.2613875 1029 -0.27332348 1030 0.99307024 1031 0.02056006 1032 -0.46294546 1033 -0.5739943 
90 1024 -0.19535893 1025 -0.7092745 1026 -0.060740706 1027 -0.26091698 1028 -1.369088 1029 -0.79757303 1030 1.3447702 1031 -0.01975979 1032 -0.7379354 1033 -0.4908461 
91 1024 -0.100109264 1025 -0.34032378 1026 0.60193866 1027 0.019170761 1028 -1.1434996 1029 -1.1164579 1030 0.25552467 1031 -0.021176014 1032 -0.652477 1033 -0.0509845 
92 1024 -0.04779795 1025 -0.22809167 1026 0.46751198 1027 -0.018263392 1028 -0.8847578 1029 -0.68506473 1030 -0.21340613 1031 -0.029617202 1032 -0.39203918 1033 -0.03476245 
93 1024 0.02936656 1025 -0.19523716 1026 0.4816281 1027 -0.021050114 1028 -0.569955 1029 -0.5231074 1030 -0.38777345 1031 -0.027378753 1032 -0.35838827 1033 -0.00983463 
94 1024 0.0077360384 1025 -0.002495151 1026 0.020441946 1027 -0.022964187 1028 -0.014802925 1029 0.0012356751 1030 0.013536423 1031 0.029334579 1032 0.014249075 1033 0.011172526 
95 1024 0.028318025 1025 0.009116188 1026 0.027192973 1027 0.027169216 1028 0.020590324 1029 -0.013437945 1030 -0.007259425 1031 -0.02340259 1032 0.0060295276 1033 0.021841448 
96 1024 0.024059378 1025 0.010380421 1026 0.0135852285 1027 -0.0034446307 1028 -0.021095637 1029 0.013082653 1030 0.030693162 1031 -0.014011595 1032 -0.02722631 1033 -0.016029514 
97 1024 0.027398206 1025 0.027369205 1026 -0.008219317 1027 -0.030936737 1028 -0.013028633 1029 -0.022823736 1030 0.0034673624 1031 0.015694268 1032 0.012364421 1033 0.016166091 
98 1024 0.02240054 1025 0.01779053 1026 -0.019220043 1027 0.028518718 1028 -0.07343617 1029 -0.012570988 1030 -0.017122474 1031 0.027395844 1032 -0.011219077 1033 -0.07852668 
99 1024 -0.23352142 1025 -0.00994141 1026 -0.011887487 1027 0.02096016 1028 -0.06979406 1029 -0.010553386 1030 0.09479879 1031 0.011436552 1032 -0.02326341 1033 -0.12878796 
100 1024 -0.12179808 1025 -0.010630459 1026 0.02774242 1027 -0.029741481 1028 -0.45946723 1029 -0.017576262 1030 -0.06691011 1031 -0.27217832 1032 -0.002122987 1033 -0.41451222 
101 1024 -0.19525744 1025 -0.0077924207 1026 -0.5193287 1027 0.3433027 1028 -0.4321501 1029 0.00846777 1030 0.49770582 1031 -0.36470178 1032 0.022139426 1033 -0.20401914 
102 1024 -0.36962807 1025 0.0011352312 1026 -0.2632094 1027 0.36925697 1028 -0.74610764 1029 -0.51461655 1030 0.05054706 1031 -0.29751053 1032 -0.06971553 1033 -0.56914216 
103 1024 -0.73607755 1025 -0.11738691 1026 -0.2505965 1027 0.16524221 1028 -1.8201218 1029 -0.74105334 1030 0.34348267 1031 -0.056602336 1032 -0.17594256 1033 -0.5514368 
104 1024 -0.7411954 1025 -0.61395687 1026 -0.36037773 1027 0.31160364 1028 -0.4298876 1029 -1.272244 1030 0.17188801 1031 -0.24740444 1032 -0.3227218 1033 -0.23453084 
105 1024 -0.48874632 1025 -1.4093918 1026 -0.38685778 1027 0.49913883 1028 -0.75662667 1029 -1.2408168 1030 0.2798627 1031 -0.7308255 1032 -0.7789367 1033 -0.1745722 
106 1024 -1.2641407 1025 -0.6004893 1026 0.007046465 1027 -0.6862426 1028 -1.3450179 1029 -0.45469716 1030 0.028779516 1031 -0.8186656 1032 -1.2665315 1033 -0.37785205 
107 1024 -1.7520857 1025 -0.7563066 1026 0.35560066 1027 -0.7856687 1028 -1.58564 1029 0.07508867 1030 0.029868476 1031 -0.6862093 1032 -1.1686032 1033 -0.3371851 
108 1024 -0.65471715 1025 -1.3991191 1026 0.18440418 1027 -0.14804517 1028 -1.4758159 1029 -0.123238064 1030 0.08803527 1031 -0.9899681 1032 -0.34401542 1033 -0.6022657 
109 1024 -0.38342765 1025 -1.0369487 1026 -0.041097026 1027 0.08562376 1028 -2.034607 1029 -0.21294878 1030 -0.10037284 1031 -1.1550251 1032 -0.55965394 1033 -1.2451909 
110 1024 -0.45189884 1025 -0.78569126 1026 0.0703943 1027 -0.1303332 1028 -1.9335291 1029 0.08066858 1030 -0.072171785 1031 -1.1694521 1032 -0.64717007 1033 -1.6741058 
111 1024 -0.09473533 1025 -0.46649185 1026 0.3622246 1027 -0.1484441 1028 -2.0418203 1029 -0.21030256 1030 0.22380555 1031 -0.9910879 1032 -0.50505495 1033 -1.8160601 
112 1024 -0.24432938 1025 -0.39211303 1026 0.07714331 1027 0.129835 1028 -1.5975167 1029 0.009345217 1030 0.14220992 1031 -0.51501286 1032 -0.5249512 1033 -2.2458704 
113 1024 -0.77936393 1025 -0.18675357 1026 -0.049434777 1027 0.33593383 1028 -1.373314 1029 -0.1039587 1030 0.20281334 1031 -0.752753 1032 -0.22675934 1033 -2.3319294 
114 1024 -0.29087552 1025 0.2993309 1026 0.01577155 1027 0.41564092 1028 -1.3749988 1029 -0.29888666 1030 0.08985727 1031 -0.5741065 1032 -0.113983184 1033 -2.2613893 
115 1024 -0.48914996 1025 0.1019292 1026 0.057836715 1027 0.3991615 1028 -0.8482751 1029 -0.3124344 1030 0.022678295 1031 -0.5283921 1032 -0.5363951 1033 -1.9519572 
116 1024 -0.75329655 1025 -0.79899675 1026 -0.21630777 1027 0.35114852 1028 -0.60360545 1029 -0.27315637 1030 0.21225265 1031 -0.29313517 1032 -0.51186156 1033 -1.5310649 
117 1024 -0.7628487 1025 -0.8012825 1026 -0.26087436 1027 0.22962187 1028 -1.6913416 1029 -0.11306714 1030 0.4569954 1031 -0.30269855 1032 -0.39495394 1033 -1.0782428 
118 1024 -0.63214725 1025 -0.3373753 1026 -0.32668766 1027 0.5995565 1028 -0.534824 1029 -0.093426794 1030 0.40214145 1031 -0.1463751 1032 -1.294658 1033 -1.451281 
119 1024 -0.6311011 1025 -0.86189586 1026 -0.08098641 1027 0.7498701 1028 -0.4978456 1029 -0.19314335 1030 0.42681786 1031 -0.17393827 1032 -0.19000201 1033 -1.1852803 
120 1024 -0.87601435 1025 -0.71849144 1026 -0.4165404 1027 -0.04194769 1028 -0.3746758 1029 -0.36088166 1030 0.41516912 1031 -0.18736899 1032 0.046340484 1033 -0.93012094 
121 1024 -1.0576534 1025 -1.1318123 1026 -0.37261906 1027 -1.6190522 1028 -1.267132 1029 -0.31008872 1030 0.6811037 1031 -0.034630496 1032 0.30730277 1033 -0.596203 
122 1024 -0.7369159 1025 -1.2930586 1026 -0.7946485 1027 -0.8473888 1028 -1.3292699 1029 -0.45578906 1030 0.6480895 1031 -0.0005745142 1032 0.4714945 1033 -0.56367135 
123 1024 -0.1037259 1025 -1.2155889 1026 0.2395359 1027 -0.49406105 1028 -1.440134 1029 -0.10284834 1030 0.62730896 1031 0.010094833 1032 0.25762862 1033 -0.011785934 
124 1024 0.041743033 1025 -1.0059417 1026 0.3292019 1027 -0.023785884 1028 -1.4374611 1029 -1.337807 1030 0.7485703 1031 -0.028867064 1032 0.04456872 1033 -0.005340302 
125 1024 -0.4635691 1025 -0.51357436 1026 0.44617254 1027 -0.022673592 1028 -0.5899638 1029 -0.22456819 1030 -0.44759616 1031 0.00748777 1032 -0.6562425 1033 -0.034640253 
126 1024 -0.021854442 1025 -0.45570123 1026 0.024651133 1027 0.014477469 1028 -0.4870424 1029 -0.4669025 1030 0.44653606 1031 -0.0029690862 1032 -0.23972496 1033 0.026906263 
127 1024 0.030682929 1025 0.02616081 1026 -0.0089887045 1027 -0.0041553006 1028 0.007467825 1029 0.0029564388 1030 0.028257217 1031 0.003348615 1032 0.0305488 1033 0.027254123 
128 1024 0.018379398 1025 -0.02548771 1026 -0.012586195 1027 0.0011914074 1028 -0.0034624413 1029 0.019582707 1030 0.00019751489 1031 -0.013723239 1032 0.01902875 1033 -0.02963318 
129 1024 -0.025979772 1025 0.013508562 1026 -0.029537916 1027 0.010711711 1028 0.030653168 1029 -0.020520918 1030 -0.0011666864 1031 0.005768154 1032 0.005010929 1033 -0.0249203 
130 1024 -0.00043449178 1025 0.40143025 1026 -0.31278005 1027 -0.023454867 1028 -0.061302118 1029 0.010301329 1030 -0.4728178 1031 0.026850626 1032 -0.07908566 1033 -0.10442721 
131 1024 0.012212936 1025 0.39560923 1026 -0.35872483 1027 -0.002025362 1028 -0.39152712 1029 -0.004712686 1030 -0.31916106 1031 0.016779665 1032 -0.35312286 1033 -0.1759222 
132 1024 -0.36186796 1025 -0.024152527 1026 -0.6620382 1027 -0.30895206 1028 0.024486884 1029 -0.20703165 1030 0.38634974 1031 -0.012679486 1032 -0.36541605 1033 -0.25293657 
133 1024 -0.31094006 1025 -0.0038074302 1026 -0.48178202 1027 0.3601423 1028 0.10894962 1029 -1.083042 1030 0.24718475 1031 -0.15767623 1032 -0.1324387 1033 -0.17499068 
134 1024 -0.83731365 1025 -0.7960477 1026 -0.48158112 1027 0.41428933 1028 -0.9843872 1029 -1.480176 1030 0.11748325 1031 -0.8851789 1032 -1.1049054 1033 -0.5952868 
135 1024 -1.6097279 1025 -0.7150237 1026 0.36416763 1027 0.3480755 1028 -0.22588699 1029 -1.2183169 1030 -0.6181238 1031 -0.52476203 1032 -0.19034168 1033 -0.6102629 
136 1024 -0.57342774 1025 -1.616344 1026 0.20551513 1027 0.22945556 1028 -0.33381715 1029 -0.7839463 1030 -0.15932499 1031 -1.191067 1032 0.08639381 1033 -0.8057757 
137 1024 -0.28419283 1025 -0.059309296 1026 0.057598896 1027 0.26478243 1028 -0.46624562 1029 -1.2167258 1030 -0.0015978671 1031 -1.7350944 1032 0.09031088 1033 -0.96990544 
138 1024 -0.20431621 1025 0.033776116 1026 0.36451557 1027 0.20731404 1028 -0.64874566 1029 -0.25162813 1030 -0.21718206 1031 -1.936959 1032 0.19706412 1033 -1.2644532 
139 1024 -0.16089256 1025 -0.95007753 1026 0.4851499 1027 0.2959957 1028 -0.9443986 1029 -0.26826474 1030 0.04682141 1031 -2.2603369 1032 0.28995565 1033 -2.0030077 
140 1024 -0.21060348 1025 -0.7863067 1026 0.20724015 1027 0.44371665 1028 -1.206919 1029 -0.17727673 1030 -0.070390545 1031 -2.406005 1032 0.104331136 1033 -3.4291494 
141 1024 -0.18621857 1025 -0.6937779 1026 0.046975892 1027 0.37878028 1028 -0.5741235 1029 -0.15528741 1030 -0.3815411 1031 -0.99666226 1032 -0.10095639 1033 -0.60702163 
142 1024 -0.2915484 1025 -0.40010303 1026 0.16071017 1027 0.05790147 1028 -0.7482757 1029 -0.5802043 1030 -0.18800177 1031 -0.757122 1032 -0.28699005 1033 -0.49031156 
143 1024 0.0073629967 1025 0.09162574 1026 0.11523939 1027 0.13027133 1028 -0.78190583 1029 -0.50067145 1030 -0.2640122 1031 -0.7481124 1032 -0.21002921 1033 -0.667152 
144 1024 -0.11126019 1025 0.053591516 1026 0.16490093 1027 0.025942355 1028 -0.75727296 1029 0.050052997 1030 -0.18631895 1031 -1.2975403 1032 -0.16488858 1033 -1.058064 
145 1024 0.13476966 1025 0.040468305 1026 0.030324414 1027 0.1195809 1028 -0.9562538 1029 0.06861368 1030 -0.34649304 1031 -2.143235 1032 -0.18237077 1033 -0.9673684 
146 1024 -0.4055534 1025 -0.04641391 1026 0.01106271 1027 0.12049611 1028 -0.63547915 1029 -0.11237268 1030 0.017181622 1031 -2.0722024 1032 -0.20611267 1033 -0.9967497 
147 1024 -0.3821623 1025 -0.023318352 1026 -0.055390388 1027 -0.03964446 1028 -0.2881545 1029 -0.30969793 1030 0.05584384 1031 -2.1230464 1032 -0.17677532 1033 -0.8359336 
148 1024 -0.057908203 1025 -0.4893202 1026 0.10244109 1027 0.0015968898 1028 -0.5145742 1029 -0.21233457 1030 0.041682117 1031 -1.7504447 1032 -0.6212399 1033 -0.66345006 
149 1024 -0.16345719 1025 -0.2394225 1026 -0.0545949 1027 0.004546757 1028 -1.025585 1029 0.17616792 1030 -0.16872536 1031 -1.4173533 1032 -0.11330598 1033 -0.9037702 
150 1024 -0.11240332 1025 -0.15976661 1026 -0.11724718 1027 -0.01637747 1028 -0.16131565 1029 -0.020176737 1030 0.16557504 1031 -1.1896265 1032 -0.0455816 1033 -2.1719673 
151 1024 -0.087133154 1025 -0.22481167 1026 -0.076916605 1027 0.1653967 1028 -0.08363432 1029 -0.41722268 1030 0.25820616 1031 -0.6719693 1032 -0.1004369 1033 -1.2679976 
152 1024 -0.08402716 1025 -0.071398765 1026 -0.50233334 1027 -0.37923622 1028 -0.13295116 1029 0.30162743 1030 0.20428254 1031 0.22474076 1032 -0.24853884 1033 -1.5881225 
153 1024 -0.22935379 1025 -0.24283569 1026 -0.52125037 1027 -0.20142497 1028 0.2496909 1029 -0.12001954 1030 0.3470461 1031 -0.13410582 1032 -0.61315745 1033 -0.7679995 
154 1024 -0.6150167 1025 -0.056192078 1026 -0.5923907 1027 -2.8109508 1028 0.20132332 1029 0.34832552 1030 0.42556506 1031 -0.19784944 1032 -0.36901698 1033 -0.24577177 
155 1024 -1.0007557 1025 -0.90019196 1026 -1.074442 1027 -1.6704936 1028 0.42620564 1029 0.5641482 1030 0.05899943 1031 -0.03930036 1032 0.0225873 1033 -0.11576567 
156 1024 -0.52655035 1025 -1.5456698 1026 -0.29239443 1027 -0.54907924 1028 0.26283076 1029 0.09486566 1030 0.19621076 1031 -0.02996202 1032 0.10163282 1033 -0.108973525 
157 1024 -0.53365433 1025 -0.64579165 1026 0.39623377 1027 -0.06198326 1028 0.057501018 1029 -0.54393494 1030 -0.40861163 1031 -0.017700328 1032 0.09136224 1033 -0.028094104 
158 1024 -0.27265128 1025 -0.5293123 1026 0.018014953 1027 -0.005504627 1028 -0.63211703 1029 -0.33222768 1030 0.145522 1031 0.0013426617 1032 0.24431132 1033 0.0007598251 
159 1024 0.0042250715 1025 0.021990068 1026 -0.029878058 1027 -0.006361548 1028 -0.013816338 1029 0.031222232 1030 -0.01274259 1031 -0.023687333 1032 -0.016598914 1033 -0.018685061 
160 1024 -0.0038158298 1025 0.0023671575 1026 -0.0005222596 1027 -0.021738745 1028 0.019476872 1029 -0.011835482 1030 -0.020208381 1031 -0.016887207 1032 -0.028311197 1033 0.01533971 
161 1024 0.018844943 1025 -0.012748834 1026 -0.017924082 1027 -0.0015299767 1028 0.02092506 1029 0.0032148436 1030 -0.015592247 1031 -0.031108484 1032 -0.016994245 1033 0.012729496 
162 1024 -0.0088558085 1025 0.3801141 1026 -0.3153108 1027 -0.013001207 1028 0.021803629 1029 0.01279765 1030 -0.5060333 1031 -0.00093507394 1032 -0.08760706 1033 0.026199237 
163 1024 0.039055556 1025 0.41631022 1026 -0.6268017 1027 0.30295748 1028 -0.3601279 1029 -0.6041108 1030 -0.94320583 1031 0.35135126 1032 -0.29364806 1033 -0.005367787 
164 1024 -0.4193426 1025 -0.037639912 1026 -0.43538254 1027 0.1954929 1028 0.38556728 1029 -1.3188586 1030 -0.14973629 1031 0.039410867 1032 -0.48846105 1033 -0.08905255 
165 1024 -1.1881528 1025 -0.66391873 1026 -0.36160484 1027 0.5627774 1028 -0.34741974 1029 -1.8955086 1030 0.067631885 1031 -0.8682278 1032 -1.2525066 1033 -0.20283115 
166 1024 -1.7004316 1025 -1.0473323 1026 0.13992548 1027 0.39404047 1028 0.14641868 1029 -0.3547992 1030 -0.15542178 1031 0.27154848 1032 -1.6192989 1033 -0.7762295 
167 1024 0.049049493 1025 -0.8553383 1026 0.086347185 1027 0.028824624 1028 -0.14511473 1029 -0.3729703 1030 0.019716267 1031 0.09521035 1032 -0.27191526 1033 -1.2189614 
168 1024 -0.081566386 1025 -0.28980744 1026 0.008005874 1027 0.08488197 1028 -0.036950566 1029 -0.1351656 1030 -0.44075373 1031 0.056776278 1032 0.03467754 1033 -2.2453697 
169 1024 -0.15380298 1025 -0.12427783 1026 0.15616962 1027 0.09947759 1028 -0.41856143 1029 -0.29733455 1030 0.14064394 1031 -0.307171 1032 0.1194447 1033 -1.0987636 
170 1024 -0.0539256 1025 -0.093335055 1026 0.13195065 1027 -0.014050698 1028 -0.025779452 1029 -0.061964475 1030 -0.23582299 1031 -0.18877576 1032 -0.13624617 1033 -0.28696954 
171 1024 -0.1864487 1025 -0.047111105 1026 -0.06265448 1027 0.08931064 1028 -0.28198934 1029 -0.13918355 1030 -0.108961605 1031 -0.12723267 1032 -0.00043603478 1033 -0.44977143 
172 1024 -0.053356346 1025 -0.14275293 1026 0.14456545 1027 0.05432324 1028 -0.1345046 1029 0.085794345 1030 -0.043687552 1031 0.018870346 1032 -0.0018460489 1033 0.0045526484 
173 1024 -0.098763965 1025 -0.4907034 1026 0.22709933 1027 0.07990652 1028 -0.51830435 1029 -0.14117312 1030 -0.30731118 1031 -0.017959887 1032 0.20920004 1033 0.2355544 
174 1024 -0.08394147 1025 -0.15249074 1026 0.32196492 1027 -0.13496913 1028 -0.211878 1029 -0.120219804 1030 -0.45493302 1031 -0.12494165 1032 0.30223706 1033 0.0193863 
175 1024 0.09174525 1025 -0.1439536 1026 0.12801187 1027 0.006196151 1028 -0.4750732 1029 0.09268876 1030 -0.4990572 1031 -0.34118015 1032 0.22950551 1033 -0.083593465 
176 1024 -0.03217781 1025 -0.1040177 1026 0.2874974 1027 -0.0044922186 1028 -0.30587962 1029 -0.053301983 1030 -0.16549744 1031 -0.3676572 1032 -0.027973896 1033 -0.12807962 
177 1024 0.059670176 1025 -0.051797 1026 0.05953208 1027 0.16256818 1028 -0.23495214 1029 -0.04637252 1030 -0.32144427 1031 -0.1893412 1032 -0.05142958 1033 -0.0052459477 
178 1024 0.15092029 1025 -0.14834875 1026 0.110971294 1027 0.1891883 1028 -0.29644734 1029 0.14709124 1030 -0.14649035 1031 -0.22270551 1032 -0.1115693 1033 -0.18352021 
179 1024 -0.12723942 1025 -0.30191708 1026 0.057029683 1027 0.020580685 1028 -0.24871877 1029 0.045129452 1030 -0.150258 1031 -0.24958159 1032 -0.054317422 1033 -0.47256613 
180 1024 0.065269694 1025 -0.28054553 1026 0.00050968037 1027 -0.21069637 1028 -0.07602688 1029 0.13777325 1030 -0.12562941 1031 -0.12487104 1032 0.051562916 1033 -0.49192113 
181 1024 0.19745167 1025 -0.045064084 1026 -0.2473305 1027 -0.15983497 1028 -0.03799216 1029 0.09018698 1030 0.07472826 1031 -0.46482232 1032 -0.12985727 1033 -0.35479045 
182 1024 -0.029550917 1025 -0.021190964 1026 -0.28794113 1027 -0.14954914 1028 0.23538443 1029 -0.044264868 1030 0.20441727 1031 -1.0784371 1032 -0.129752 1033 -0.36665353 
183 1024 -0.28871542 1025 0.03816825 1026 -0.059026003 1027 -0.25155413 1028 0.22552353 1029 0.03347453 1030 0.11345907 1031 -2.396635 1032 -0.03987511 1033 -0.4147539 
184 1024 -0.115359694 1025 0.2662254 1026 0.03312461 1027 0.012335465 1028 -0.22401805 1029 0.51974696 1030 0.13237461 1031 -0.30345833 1032 -0.08764304 1033 -0.5785544 
185 1024 -0.031702526 1025 0.19473983 1026 -0.18219832 1027 0.004664851 1028 0.17535678 1029 0.241058 1030 0.042895738 1031 -0.15806112 1032 -0.046354488 1033 -1.1561118 
186 1024 0.056223467 1025 0.04035462 1026 -0.1593551 1027 -0.13121836 1028 0.29770032 1029 0.46297792 1030 -0.0065829707 1031 -0.91833776 1032 -0.29938152 1033 -1.9520196 
187 1024 -0.4242808 1025 0.10171188 1026 -0.85697067 1027 -0.93574196 1028 0.42546356 1029 0.64362097 1030 -0.17540218 1031 -0.36750445 1032 -0.17360303 1033 -1.1234894 
188 1024 -0.57459605 1025 -1.3559532 1026 -0.95044863 1027 -1.6893361 1028 0.37172088 1029 0.6160598 1030 -0.33363086 1031 -0.064647004 1032 0.28591424 1033 -0.57473147 
189 1024 -0.83301795 1025 -1.8526603 1026 0.30102342 1027 -0.34532028 1028 0.016693093 1029 -0.13686436 1030 -0.41063797 1031 -0.03423245 1032 0.25186375 1033 -0.14394397 
190 1024 -0.5020802 1025 -0.44044986 1026 -0.06589549 1027 -0.015485868 1028 -0.57823366 1029 -0.14505288 1030 0.16650422 1031 -0.010235884 1032 0.19576313 1033 -0.045999553 
191 1024 -0.015073612 1025 -0.415333 1026 -0.03937846 1027 -0.0060076043 1028 -0.41381603 1029 -0.57268333 1030 0.40600783 1031 0.031053927 1032 -0.26294556 1033 0.009363778 
192 1024 0.004598867 1025 0.011397753 1026 0.0018758625 1027 -0.0030449107 1028 0.029398948 1029 -0.023680393 1030 0.02087323 1031 -0.006130036 1032 -0.0026134625 1033 0.018067736 
193 1024 -0.0003339462 1025 -0.0176959 1026 -0.030219048 1027 -0.030405983 1028 0.021025207 1029 -0.013304878 1030 0.003927108 1031 -0.0038227588 1032 0.016199578 1033 -0.0045597777 
194 1024 -0.073481955 1025 0.09380195 1026 -0.44211212 1027 0.30972674 1028 -0.36183757 1029 -0.5298463 1030 0.37485692 1031 -0.1381925 1032 -0.0064438498 1033 -0.010308929 
195 1024 -0.31547436 1025 0.45703557 1026 -0.07779302 1027 0.5384199 1028 -0.78237176 1029 -0.8623933 1030 -0.72573584 1031 0.3499109 1032 -0.7842456 1033 -0.1239572 
196 1024 -0.9530401 1025 0.454256 1026 0.13699593 1027 0.2960361 1028 -0.042649627 1029 -1.4733242 1030 -0.021769065 1031 -0.2821811 1032 -0.9589138 1033 -0.21077499 
197 1024 -1.0237591 1025 -0.6411994 1026 0.14843057 1027 0.43154037 1028 0.10110144 1029 -0.3575867 1030 0.08844513 1031 -0.037961524 1032 -1.0399785 1033 -0.7230154 
198 1024 -0.034049816 1025 -0.91658777 1026 0.10781674 1027 0.41517216 1028 0.2833204 1029 -0.008788881 1030 -0.320507 1031 0.1322841 1032 -0.38645408 1033 -1.3927526 
199 1024 0.012377754 1025 0.051822808 1026 -0.0815012 1027 0.36971024 1028 0.343439 1029 -0.041032694 1030 -0.287642 1031 -0.03175273 1032 0.011940557 1033 -2.6070747 
200 1024 -0.12083563 1025 -0.55939853 1026 -0.10581299 1027 0.18579254 1028 -0.19715685 1029 -0.010209597 1030 0.0879304 1031 0.12511253 1032 -0.25263762 1033 -0.33628815 
201 1024 -0.09665726 1025 -0.22715461 1026 0.16492406 1027 0.05789542 1028 -0.0067008613 1029 -0.27465636 1030 -0.16436352 1031 0.23711044 1032 -0.43649772 1033 -0.10428025 
202 1024 -0.06744067 1025 -0.2964043 1026 0.13917443 1027 -0.09176758 1028 0.03768394 1029 -0.075638965 1030 -0.2952221 1031 0.08138458 1032 -0.28572196 1033 -0.67412335 
203 1024 -0.0245314 1025 -0.45521533 1026 0.29154587 1027 -0.056786254 1028 -0.09396845 1029 -0.20583238 1030 -0.0849124 1031 -0.08463852 1032 -0.19824527 1033 -0.23557055 
204 1024 0.033085562 1025 -0.3647691 1026 0.13015728 1027 -0.004267139 1028 -0.046719484 1029 0.088891454 1030 -0.4849751 1031 0.042997446 1032 -0.21869713 1033 0.37940854 
205 1024 -0.2803727 1025 -0.29488903 1026 0.0900516 1027 0.2273619 1028 -0.37231606 1029 -0.15088889 1030 -0.49483553 1031 -0.05470282 1032 -0.16435213 1033 0.4501668 
206 1024 0.0139973685 1025 -0.11501242 1026 0.3268821 1027 0.04291286 1028 -0.086600564 1029 -0.14096726 1030 -0.46555957 1031 -0.07081257 1032 0.27096757 1033 0.39265144 
207 1024 0.27325803 1025 -0.00953909 1026 0.46731982 1027 0.12699868 1028 -0.16613576 1029 0.018331453 1030 -0.18262962 1031 -0.13104802 1032 0.068112604 1033 0.19554944 
208 1024 0.215398 1025 -0.17479181 1026 0.11509741 1027 0.033929385 1028 0.22189735 1029 -0.07078626 1030 -0.13547686 1031 -0.061926622 1032 0.02103095 1033 -0.09868568 
209 1024 0.2160898 1025 -0.08431501 1026 0.3162064 1027 -0.000767574 1028 0.08082179 1029 -0.08133924 1030 -0.13883318 1031 -0.20372601 1032 0.16672108 1033 -0.23269564 
210 1024 0.02083905 1025 -0.18043336 1026 0.35817257 1027 -0.0014241651 1028 0.3213883 1029 -0.17669885 1030 -0.27583188 1031 -0.27031502 1032 0.23903912 1033 -0.4245709 
211 1024 0.07615111 1025 -0.31585404 1026 0.26703307 1027 -0.12301826 1028 0.3640498 1029 -0.019660087 1030 -0.10430095 1031 -0.16720222 1032 0.38587886 1033 -0.5190018 
212 1024 0.030072704 1025 -0.23462245 1026 0.2820656 1027 -0.13642785 1028 0.13766797 1029 0.04558657 1030 -0.062255222 1031 -0.39439687 1032 0.22498704 1033 -0.41943696 
213 1024 0.16456385 1025 -0.047522753 1026 0.28235734 1027 -0.052813042 1028 0.21827757 1029 0.19291414 1030 -0.045776155 1031 -0.18425584 1032 0.13705024 1033 -0.33895066 
214 1024 -0.0051733837 1025 0.0010278295 1026 0.11574567 1027 -0.2758073 1028 -0.00699785 1029 0.14145653 1030 -0.036971442 1031 -0.56364185 1032 -0.09309559 1033 -0.5831166 
215 1024 -0.16427886 1025 0.13152246 1026 -0.056821294 1027 -0.12808459 1028 0.07295027 1029 0.30704704 1030 -0.1818545 1031 -0.60379297 1032 -0.14129634 1033 -0.016181884 
216 1024 0.045188483 1025 0.3631891 1026 0.08030629 1027 -0.061559103 1028 -0.025707519 1029 0.2121982 1030 -0.40340683 1031 -1.3694237 1032 -0.17311956 1033 -0.40065548 
217 1024 0.22972554 1025 0.16086423 1026 0.022795241 1027 -0.44613937 1028 0.03645528 1029 0.0400149 1030 -0.18275951 1031 -0.8475611 1032 0.14936878 1033 -0.68802714 
218 1024 0.120858006 1025 0.38995436 1026 0.07087509 1027 -0.6531689 1028 0.2404565 1029 0.3554318 1030 0.1603683 1031 -1.5198139 1032 -0.53781533 1033 -1.5019044 
219 1024 -0.6453547 1025 0.3481119 1026 -0.22340903 1027 -0.3624998 1028 0.2400662 1029 0.4078074 1030 0.15094887 1031 -0.91423196 1032 -0.26976562 1033 -2.2085068 
220 1024 -0.7200912 1025 -0.0008207329 1026 -1.6854802 1027 -0.3555203 1028 -0.61348486 1029 0.48919618 1030 0.17415018 1031 -0.3938691 1032 -0.43753362 1033 -1.2324651 
221 1024 -1.6096762 1025 -2.1736631 1026 -0.34867373 1027 -0.9885009 1028 -0.9122223 1029 -0.12719068 1030 0.13717255 1031 -0.115289785 1032 0.07358445 1033 -0.8613195 
222 1024 -1.1453843 1025 -0.84645325 1026 -0.11758877 1027 -0.43585762 1028 -0.85615563 1029 0.42703938 1030 0.30168495 1031 -0.11447228 1032 -0.15072623 1033 -0.15174551 
223 1024 -0.5109712 1025 -0.3816843 1026 -0.06254929 1027 -0.029985119 1028 -0.3758503 1029 0.1992742 1030 0.35081574 1031 -0.009430924 1032 -0.47847846 1033 -0.015867796 
224 1024 0.014779694 1025 -0.011019498 1026 0.014199693 1027 0.01674239 1028 -0.011879254 1029 0.015336189 1030 -0.013710216 1031 0.018615793 1032 -0.029007409 1033 -0.025135227 
225 1024 -0.009916343 1025 -0.016613115 1026 0.011409745 1027 -0.0015652403 1028 -0.022279669 1029 0.00033283234 1030 0.030067038 1031 0.006477449 1032 -0.008499414 1033 -0.01937984 
226 1024 -0.04096452 1025 -0.43256247 1026 -0.5422722 1027 -0.033447437 1028 -0.48874593 1029 0.4126886 1030 0.2579726 1031 0.6269682 1032 -0.57888025 1033 -0.11852689 
227 1024 -0.16151965 1025 0.3547432 1026 0.15961678 1027 0.8385398 1028 -0.7600054 1029 -1.5305265 1030 -1.0121384 1031 0.44699144 1032 -0.98346716 1033 -0.23966686 
228 1024 -0.91146296 1025 0.3120651 1026 -0.1463982 1027 0.3169788 1028 -0.3040402 1029 -0.11040333 1030 -0.15011647 1031 0.2586043 1032 -1.1262295 1033 -0.9719502 
229 1024 -0.11823647 1025 -0.20317505 1026 -0.18717237 1027 -0.13030888 1028 0.27744257 1029 -0.19001703 1030 0.07358364 1031 -0.1684773 1032 -0.19300671 1033 -2.069591 
230 1024 0.09346029 1025 -1.5312659 1026 -0.29515368 1027 0.5275178 1028 -0.07344589 1029 -0.07882474 1030 -0.04592245 1031 0.2655973 1032 -0.018039057 1033 -2.5573704 
231 1024 -0.02734213 1025 -0.33090127 1026 -0.0045397957 1027 0.33184016 1028 0.3027978 1029 -0.08669654 1030 -0.36658183 1031 0.21343222 1032 -0.17757617 1033 -0.17508313 
232 1024 -0.1290397 1025 -0.85200495 1026 -0.05778058 1027 0.003995085 1028 0.063096836 1029 -0.41738218 1030 0.007141627 1031 0.17559212 1032 -0.19761276 1033 -0.45836255 
233 1024 -0.19694285 1025 -0.32269922 1026 0.11406541 1027 -0.06084368 1028 -0.13457587 1029 -0.063232884 1030 -0.04118148 1031 -0.03619855 1032 -0.071864046 1033 -0.65764785 
234 1024 -0.48664925 1025 -0.40182012 1026 0.13584422 1027 0.412554 1028 -0.075264506 1029 -0.14939809 1030 -0.22317965 1031 0.3142153 1032 -0.25101206 1033 0.043874007 
235 1024 -0.15468508 1025 -0.17152426 1026 -0.18018126 1027 0.24832246 1028 -0.3164105 1029 0.1802201 1030 -0.30336952 1031 0.44542772 1032 -0.10495894 1033 -0.07646777 
236 1024 -0.30704227 1025 -0.13167518 1026 -0.049211852 1027 0.18725042 1028 -0.114339314 1029 0.0072323945 1030 -0.22747405 1031 0.2834464 1032 -0.1076718 1033 -0.011123325 
237 1024 -0.08548913 1025 -0.46336702 1026 -0.09845722 1027 0.015004883 1028 -0.16755824 1029 0.0544052 1030 -0.20516981 1031 0.13235928 1032 0.020333411 1033 0.114345886 
238 1024 -0.124810904 1025 -0.26264536 1026 -0.086519465 1027 0.2906697 1028 -0.4138163 1029 0.025342619 1030 -0.10280668 1031 0.34165782 1032 0.19010052 1033 0.23231192 
239 1024 0.120626755 1025 -0.45609462 1026 -0.030735146 1027 0.14931993 1028 -0.3709547 1029 -0.0732959 1030 -0.17525014 1031 0.09793572 1032 -0.010882583 1033 0.51922 
240 1024 -0.031180065 1025 -0.4258116 1026 0.006253001 1027 0.033531215 1028 -0.86879545 1029 0.046743233 1030 -0.37828282 1031 0.07971447 1032 0.04341303 1033 0.59687173 
241 1024 0.09115506 1025 -0.50294775 1026 0.113915935 1027 0.065438166 1028 -0.69608355 1029 0.02014248 1030 -0.40613535 1031 0.21676487 1032 0.09901172 1033 0.696486 
242 1024 0.10098311 1025 -0.43394735 1026 0.07488003 1027 0.12069784 1028 -0.50245744 1029 -0.31468892 1030 -0.4159741 1031 0.10364777 1032 0.16754305 1033 0.60818833 
243 1024 0.13996066 1025 -0.3584093 1026 0.06112474 1027 0.011512678 1028 -0.6687217 1029 -0.079579815 1030 -0.35828868 1031 0.21701053 1032 -0.017276485 1033 0.5706629 
244 1024 0.10389461 1025 -0.23582552 1026 0.056146067 1027 0.012060675 1028 -0.53874314 1029 -0.08971437 1030 -0.3199082 1031 0.05571622 1032 0.045743823 1033 0.3022618 
245 1024 0.017866801 1025 -0.23913696 1026 0.20644286 1027 -0.10546381 1028 -0.4779736 1029 -0.013454076 1030 -0.444814 1031 -0.068487234 1032 -0.11613067 1033 0.2979499 
246 1024 0.09821687 1025 -0.00034719292 1026 -0.070959516 1027 -0.064355806 1028 -0.023183823 1029 0.13065526 1030 -0.2939046 1031 0.014606958 1032 0.13966769 1033 0.01815383 
247 1024 0.057012845 1025 0.25417238 1026 -0.17342915 1027 -0.060179517 1028 -0.105601944 1029 0.16199395 1030 -0.46143925 1031 0.17551778 1032 0.10002676 1033 0.036954094 
248 1024 0.08417499 1025 0.12085788 1026 -0.080923 1027 -0.22347605 1028 0.14936885 1029 0.20127268 1030 -0.2362448 1031 0.21074764 1032 0.02197354 1033 -0.2870745 
249 1024 0.19397937 1025 0.286493 1026 0.031517908 1027 -0.08431368 1028 0.2307294 1029 0.12353162 1030 -0.2234724 1031 0.013209962 1032 -0.043163795 1033 -0.55832237 
250 1024 0.117343776 1025 -0.04489872 1026 -0.19796036 1027 -0.4229879 1028 0.6489604 1029 0.24817601 1030 -0.36088008 1031 -0.32692096 1032 -0.010647746 1033 -0.741998 
251 1024 -0.21046548 1025 0.049632005 1026 -0.56144285 1027 -0.36494896 1028 0.5293549 1029 0.6194297 1030 0.043287776 1031 -0.6242953 1032 -0.10503401 1033 -1.3668847 
252 1024 -1.4961765 1025 -0.36505026 1026 -0.28234416 1027 -0.11047322 1028 -0.45031345 1029 0.9709962 1030 -0.3953572 1031 -0.60348654 1032 -0.16314194 1033 -1.4455836 
253 1024 -2.3331556 1025 -2.6474156 1026 -1.2139788 1027 -1.8251565 1028 -0.63291675 1029 0.42234138 1030 -0.04369677 1031 -0.83019745 1032 -0.031222878 1033 -0.67791176 
254 1024 -1.6193036 1025 -0.7102647 1026 -0.29120725 1027 -0.6376839 1028 -0.2863014 1029 0.3616166 1030 -0.120297946 1031 -0.5380224 1032 0.032166667 1033 -0.81870323 
255 1024 -0.7549911 1025 -0.11554039 1026 -0.02634529 1027 -0.017564218 1028 -0.5158255 1029 0.19699994 1030 0.25542483 1031 -0.44827032 1032 0.22345506 1033 -0.38229427 
256 1024 -0.004031226 1025 0.027575403 1026 -0.022592407 1027 -0.024730012 1028 -0.007138077 1029 -0.007826012 1030 -0.022137888 1031 0.0047693904 1032 6.3210726e-05 1033 -0.008786212 
257 1024 -0.36818823 1025 -0.16816983 1026 -0.23251289 1027 0.8198401 1028 -0.16528061 1029 -0.17747337 1030 -0.028233297 1031 -0.3736606 1032 -0.34620312 1033 -0.8855852 
258 1024 -0.18437313 1025 -0.5478471 1026 0.35634187 1027 -0.89987016 1028 -0.11744329 1029 0.06273974 1030 0.003036588 1031 0.2024842 1032 -0.7777194 1033 -0.727045 
259 1024 -0.22444968 1025 -0.6267085 1026 0.2323414 1027 0.21496506 1028 -0.37937397 1029 -1.695606 1030 -1.3441209 1031 0.38558826 1032 -1.0164324 1033 -0.8353677 
260 1024 -0.86369586 1025 -0.35402992 1026 -0.029839851 1027 0.22255367 1028 -0.11695186 1029 -0.32497934 1030 -0.18610781 1031 -0.06435421 1032 -0.14190963 1033 -2.1308625 
261 1024 -0.78560627 1025 -0.85804224 1026 -0.025638485 1027 0.25297332 1028 0.40021595 1029 -0.58474004 1030 0.0067858235 1031 -0.057158366 1032 -0.09764447 1033 -1.0173258 
262 1024 0.1777359 1025 -1.7204773 1026 0.11770493 1027 -0.031720012 1028 0.18359059 1029 -0.271303 1030 -0.01815093 1031 -0.12391259 1032 -0.28015897 1033 -0.71295804 
263 1024 0.1874921 1025 -1.8491663 1026 0.15761283 1027 0.26023537 1028 0.030419089 1029 -0.31241703 1030 -0.3165459 1031 0.50083464 1032 -0.25720456 1033 -0.31496778 
264 1024 -0.12211581 1025 -0.42232257 1026 -0.17470144 1027 0.12643117 1028 0.2065796 1029 -0.086686045 1030 0.054601032 1031 0.35108426 1032 -0.06186248 1033 -0.42993677 
265 1024 -0.57294333 1025 -0.6275735 1026 0.14266023 1027 0.0019524802 1028 -0.14839707 1029 0.22590856 1030 -0.23452851 1031 0.2677019 1032 0.16336726 1033 -0.2357757 
266 1024 -0.1471116 1025 -0.3778935 1026 -0.18321165 1027 -0.017308751 1028 0.16853979 1029 -0.13590135 1030 -0.13731118 1031 0.3849462 1032 -0.035735156 1033 -0.18126911 
267 1024 -0.077949926 1025 -0.29345873 1026 0.0654759 1027 -0.07847398 1028 -0.11843199 1029 0.037235603 1030 -0.34116626 1031 0.46338165 1032 0.06015092 1033 -0.26753366 
268 1024 -0.03131514 1025 -0.39985207 1026 -0.0042581013 1027 -0.026366899 1028 -0.060168874 1029 0.080609955 1030 -0.19188581 1031 0.5693998 1032 0.019898009 1033 -0.07863597 
269 1024 -0.056542333 1025 -0.2450856 1026 0.08929409 1027 0.035518248 1028 -0.27540526 1029 -0.07929553 1030 0.03330532 1031 0.3703052 1032 -0.06487198 1033 0.14990076 
270 1024 -0.08790466 1025 -0.18754826 1026 -0.028979992 1027 0.0040900763 1028 -0.39742488 1029 -0.117120035 1030 -0.2554153 1031 0.31788775 1032 -0.13963522 1033 0.2880189 
271 1024 0.049471017 1025 -0.4214355 1026 0.06421875 1027 0.07906239 1028 -0.47472107 1029 -0.105700806 1030 -0.33713445 1031 -0.09219429 1032 -0.13922948 1033 0.86778617 
272 1024 0.23311651 1025 -0.18804279 1026 0.011572176 1027 0.069538005 1028 -0.8009271 1029 -0.03567185 1030 -0.35087192 1031 -0.08998599 1032 -0.06469837 1033 0.95882064 
273 1024 0.12509699 1025 -0.3310837 1026 -0.13332392 1027 0.04921381 1028 -0.9164057 1029 -0.085524626 1030 -0.3656606 1031 -0.21107756 1032 0.24043183 1033 1.0003912 
274 1024 0.06228319 1025 -0.36462387 1026 0.07039153 1027 -0.022933122 1028 -0.63974404 1029 -0.14959005 1030 -0.31831238 1031 -0.26240346 1032 0.005858145 1033 0.94804084 
275 1024 0.34428227 1025 -0.34139615 1026 -0.05894332 1027 0.007199039 1028 -0.37084904 1029 0.073886395 1030 -0.3897892 1031 -0.047043122 1032 -0.16380318 1033 0.5293806 
276 1024 0.36575577 1025 -0.28973383 1026 -0.30567253 1027 -0.0017814839 1028 -0.18022858 1029 -0.050778817 1030 -0.28375375 1031 0.26241288 1032 -0.15850696 1033 0.20666187 
277 1024 0.02681877 1025 -0.16649687 1026 -0.13851345 1027 -0.1403373 1028 -0.12255763 1029 -0.07003859 1030 -0.520938 1031 0.2971033 1032 -0.11918782 1033 0.047992095 
278 1024 0.13067085 1025 -0.14360724 1026 -0.10143752 1027 -0.018243069 1028 -0.31039757 1029 -0.018104812 1030 -0.4053829 1031 0.15182184 1032 -0.12605472 1033 -0.07421642 
279 1024 0.23801097 1025 0.04344175 1026 -0.16674466 1027 0.049075946 1028 -0.15006499 1029 0.05479249 1030 -0.31166485 1031 0.19187891 1032 0.15302989 1033 0.015687278 
280 1024 -0.31772867 1025 -0.18665662 1026 -0.00056111347 1027 -0.2367043 1028 -0.06730913 1029 0.18121064 1030 -0.21842766 1031 0.07163954 1032 0.11693041 1033 0.00088222936 
281 1024 -0.12747352 1025 -0.073691 1026 0.1908545 1027 -0.58279705 1028 -0.0037651837 1029 0.30930722 1030 -0.544929 1031 0.2119084 1032 -0.010460759 1033 -0.36859784 
282 1024 0.09010653 1025 0.0060164495 1026 -0.08307329 1027 -0.17618895 1028 0.42963704 1029 -0.022700058 1030 -0.2626922 1031 0.13790768 1032 0.35000536 1033 -0.3018179 
283 1024 -0.04340468 1025 -0.2737073 1026 -0.43583637 1027 -0.46586254 1028 0.33014703 1029 0.49039426 1030 -0.38174796 1031 -0.21405801 1032 0.21767084 1033 -0.40460986 
284 1024 -0.43292254 1025 -0.6547062 1026 -0.616498 1027 -0.35948685 1028 -0.104652196 1029 1.0470505 1030 -0.052542493 1031 -0.37181535 1032 -0.100268826 1033 -0.7204673 
285 1024 -1.1769468 1025 -2.5284417 1026 -1.1241406 1027 -1.8786929 1028 0.04376397 1029 0.9841409 1030 0.010966859 1031 -1.0152607 1032 -0.84241056 1033 -1.7139108 
286 1024 -1.7655091 1025 -0.33312753 1026 -0.533396 1027 -0.2354944 1028 0.15000054 1029 -0.17206353 1030 0.13104248 1031 -0.6841273 1032 -0.44921282 1033 -1.3578566 
287 1024 -0.31971478 1025 -0.27126092 1026 -0.013841387 1027 0.008376166 1028 -0.7659331 1029 0.24944866 1030 0.3085172 1031 -0.46389583 1032 0.03265449 1033 -0.6236283 
288 1024 0.4110307 1025 0.008246306 1026 -0.4210846 1027 -0.0135182785 1028 -0.44392258 1029 -0.024160702 1030 -0.0010299645 1031 -0.34939724 1032 0.027186494 1033 -0.4441694 
289 1024 0.027669553 1025 0.017277695 1026 -0.3670346 1027 -0.30813006 1028 -0.45189068 1029 -0.008941608 1030 -0.020218853 1031 0.59002984 1032 -0.2991713 1033 -0.51763606 
290 1024 -0.1950876 1025 -0.47212383 1026 0.08916092 1027 -1.7129406 1028 -0.17036502 1029 -0.5894915 1030 -0.025022238 1031 0.5700433 1032 -0.56744045 1033 -0.7667827 
291 1024 -0.55650645 1025 -0.4455512 1026 -0.34510753 1027 -0.2223847 1028 -0.037192844 1029 -2.195216 1030 -1.4474809 1031 0.43359712 1032 -0.2981435 1033 -1.8481456 
292 1024 -0.8766839 1025 -0.46548867 1026 -0.040356696 1027 0.26284584 1028 -0.0013201976 1029 -0.54660314 1030 -0.16678587 1031 0.3191074 1032 0.039282016 1033 -0.9680917 
293 1024 -0.6894537 1025 -1.0696026 1026 -0.37077394 1027 0.100722484 1028 0.38740945 1029 -0.5030758 1030 -0.052204132 1031 0.2614421 1032 0.0030222645 1033 -0.5647809 
294 1024 -0.59308517 1025 -1.7741346 1026 0.19683877 1027 -0.005100009 1028 0.058535926 1029 -0.23297763 1030 -0.3746218 1031 -0.16442075 1032 -0.15040636 1033 -0.20951457 
295 1024 -0.092120975 1025 -1.2645427 1026 0.033601157 1027 -0.15886633 1028 0.005713139 1029 -0.22136675 1030 -0.18383782 1031 0.29854003 1032 0.15644617 1033 -0.09171913 
296 1024 -0.305363 1025 -0.5098089 1026 0.29535994 1027 -0.1330347 1028 0.0875036 1029 -0.31467822 1030 -0.110506244 1031 0.4498017 1032 0.24142802 1033 -0.37658244 
297 1024 -0.15574662 1025 -0.46986285 1026 -0.029787464 1027 -0.2135238 1028 -0.0137124285 1029 0.03564141 1030 -0.15088172 1031 0.3629817 1032 0.148853 1033 -0.17935151 
298 1024 0.21790959 1025 -0.38808596 1026 -0.10721978 1027 -0.12173192 1028 0.07737718 1029 0.030603742 1030 -0.10526867 1031 0.10658256 1032 0.15487272 1033 -0.5419922 
299 1024 0.09885526 1025 -0.37113202 1026 0.035108868 1027 -0.16584493 1028 -0.271424 1029 0.20244898 1030 -0.27055585 1031 0.059035588 1032 0.1830788 1033 -0.16990581 
300 1024 -0.07555703 1025 -0.20861539 1026 0.059813406 1027 -0.022882216 1028 0.08917887 1029 0.20885818 1030 -0.035547934 1031 0.19478206 1032 0.028385185 1033 -0.32917294 
301 1024 -0.05536723 1025 -0.08098287 1026 -0.027880684 1027 0.08015987 1028 -0.397105 1029 0.13283835 1030 -0.100694574 1031 0.3029461 1032 -0.028123535 1033 -0.23105437 
302 1024 -0.2760463 1025 -0.25766152 1026 -0.0219671 1027 0.055778787 1028 -0.35389873 1029 0.0862393 1030 -0.28384697 1031 0.15438686 1032 0.095295474 1033 0.026383718 
303 1024 0.11115909 1025 -0.012624293 1026 0.07076154 1027 0.008319282 1028 -0.33084527 1029 -0.20515624 1030 -0.39390466 1031 0.32912412 1032 0.024095442 1033 0.23038784 
304 1024 0.24851143 1025 -0.09544807 1026 0.21418314 1027 -0.050392836 1028 -0.745001 1029 -0.04990899 1030 -0.34873253 1031 0.1064612 1032 -0.22298807 1033 0.48455465 
305 1024 0.25972825 1025 -0.15333475 1026 0.06287158 1027 0.1291765 1028 -0.58015084 1029 -0.09317799 1030 -0.18598783 1031 0.22629538 1032 -0.13976842 1033 0.54663885 
306 1024 0.268163 1025 -0.22651325 1026 -0.048886616 1027 0.10498261 1028 -0.3833741 1029 -0.23090738 1030 -0.19034769 1031 0.021396153 1032 -0.058452915 1033 0.4991448 
307 1024 0.2959408 1025 -0.24355337 1026 -0.026087062 1027 0.07989377 1028 -0.39226893 1029 -0.08395375 1030 -0.43434218 1031 0.15264392 1032 -0.15403451 1033 0.20777027 
308 1024 0.27189797 1025 -0.023307247 1026 -0.04568439 1027 0.39073923 1028 -0.2518081 1029 0.05892813 1030 -0.5970195 1031 0.2726684 1032 -0.2150077 1033 -0.021651432 
309 1024 0.34807354 1025 -0.22183499 1026 -0.146824 1027 0.06229519 1028 0.05337168 1029 -0.06036946 1030 -0.5194006 1031 0.2302153 1032 -0.011866889 1033 -0.05063481 
310 1024 -0.20464756 1025 -0.1836672 1026 0.13657735 1027 0.11595402 1028 -0.081025004 1029 0.0031546385 1030 -0.47323874 1031 -0.010883483 1032 0.15170828 1033 -0.2989262 
311 1024 0.2078687 1025 -0.2373639 1026 -0.111055836 1027 0.080553204 1028 -0.064736746 1029 0.037060585 1030 -0.35240299 1031 0.1961699 1032 -0.053351656 1033 -0.15533635 
312 1024 -0.029508255 1025 -0.25090563 1026 0.20630248 1027 0.16401276 1028 -0.09265197 1029 0.046151154 1030 -0.26655874 1031 0.084546596 1032 0.0447362 1033 -0.07552095 
313 1024 0.13918085 1025 -0.22972219 1026 -0.031620566 1027 0.03199859 1028 -0.014361255 1029 -0.048942193 1030 -0.37675446 1031 0.10783917 1032 0.2031542 1033 -0.28272575 
314 1024 0.017691743 1025 -0.39919955 1026 0.048130576 1027 -0.14845674 1028 0.09898129 1029 0.15323012 1030 -0.33296272 1031 0.47570077 1032 0.27063262 1033 -0.33478585 
315 1024 0.008665922 1025 -0.47895142 1026 -0.023829894 1027 -0.58803433 1028 -0.064247794 1029 0.6380922 1030 -0.29644817 1031 0.20181163 1032 0.29481745 1033 -0.6154914 
316 1024 -0.9077432 1025 -0.78362757 1026 -1.4527911 1027 -1.4596893 1028 -0.0018965263 1029 1.3370633 1030 -0.5409178 1031 -0.86407524 1032 0.0059549366 1033 -0.33612618 
317 1024 -1.6099834 1025 -2.2725635 1026 -1.4860975 1027 -1.6461676 1028 -0.22561005 1029 1.2240597 1030 -1.2719933 1031 -1.0179995 1032 -0.59234434 1033 -0.45129856 
318 1024 -1.8032359 1025 -0.37068275 1026 -0.5030516 1027 -0.060836904 1028 -0.18578532 1029 0.16678391 1030 0.15304777 1031 -0.93931895 1032 0.29167134 1033 -1.3526667 
319 1024 -0.4210974 1025 -0.25229338 1026 0.027537812 1027 0.0054280385 1028 -0.7268365 1029 -0.049727563 1030 -0.59241027 1031 -0.062347464 1032 0.32334822 1033 -0.49797183 
320 1024 0.028320879 1025 0.021960642 1026 0.010988675 1027 -0.01314269 1028 -0.37173042 1029 -0.010643862 1030 0.006978687 1031 0.24458082 1032 0.016556762 1033 -0.025402013 
321 1024 0.028032701 1025 -0.23880142 1026 -0.64273226 1027 -0.29094127 1028 -0.5832143 1029 -0.025046894 1030 -0.017938681 1031 0.5586828 1032 -0.58420163 1033 -0.40940273 
322 1024 -0.06971143 1025 -0.45966333 1026 -0.4161036 1027 -0.65113425 1028 -0.10529077 1029 -0.35404375 1030 0.013659266 1031 0.37487835 1032 -0.96305764 1033 -1.0371168 
323 1024 -0.3234978 1025 -0.45170996 1026 -0.2734843 1027 -0.1362481 1028 -0.45477933 1029 -2.0027518 1030 -1.5733926 1031 0.5137246 1032 -0.26112357 1033 -0.3225243 
324 1024 -1.1688942 1025 -0.63821596 1026 -0.12642941 1027 0.08038789 1028 -0.32187954 1029 -0.77717686 1030 0.100977525 1031 0.46152875 1032 -0.43087474 1033 -1.0858625 
325 1024 -0.37786332 1025 -1.4493438 1026 0.1872848 1027 0.3622645 1028 -0.36781454 1029 -0.38443795 1030 -0.12992376 1031 0.2331708 1032 -0.06187686 1033 -0.7138004 
326 1024 -0.5773901 1025 -0.40004322 1026 0.31497627 1027 -0.033535596 1028 0.1048479 1029 0.0025744168 1030 -0.43761098 1031 0.32983074 1032 -0.12010755 1033 0.0006218748 
327 1024 0.30590686 1025 -0.23873116 1026 -0.009881837 1027 0.09977042 1028 0.06777182 1029 -0.036035657 1030 -0.23086073 1031 0.04149464 1032 0.34677812 1033 0.10163123 
328 1024 0.004768368 1025 0.026856733 1026 -0.14381753 1027 0.0977964 1028 -0.05991487 1029 0.059275337 1030 0.02746391 1031 0.15710536 1032 -0.052965965 1033 -0.324226 
329 1024 -0.12332143 1025 -0.22849642 1026 -0.22840849 1027 -0.03869078 1028 -0.047401305 1029 -0.062779725 1030 0.1243953 1031 0.36798334 1032 0.14406957 1033 -0.119236685 
330 1024 -0.0050250706 1025 -0.6598011 1026 -0.1812331 1027 0.008681359 1028 -0.12922004 1029 0.106333345 1030 -0.25900415 1031 0.027787387 1032 0.27071315 1033 -0.218324 
331 1024 0.10033319 1025 -0.22192761 1026 0.19231583 1027 -0.16723591 1028 -0.53085166 1029 -0.059796814 1030 -0.070054494 1031 0.0580382 1032 0.06416978 1033 -0.05677926 
332 1024 0.06298355 1025 -0.26818353 1026 0.162605 1027 -0.15628263 1028 -0.16652507 1029 0.35687625 1030 -0.14358798 1031 0.12832277 1032 0.08638351 1033 -0.21496275 
333 1024 -0.0075059426 1025 -0.30876994 1026 0.034181874 1027 -0.24216872 1028 -0.15850858 1029 0.29395306 1030 -0.23203644 1031 0.32606694 1032 0.30797824 1033 -0.29924598 
334 1024 -0.025465561 1025 -0.029343953 1026 -0.09469123 1027 -0.025960477 1028 -0.19554012 1029 0.21308361 1030 -0.34471533 1031 0.36612722 1032 0.060135733 1033 -0.16729726 
335 1024 0.23663014 1025 0.25902572 1026 0.085034154 1027 0.06727827 1028 -0.38112742 1029 -0.02838775 1030 -0.23137577 1031 0.18114558 1032 -0.02732189 1033 0.08533208 
336 1024 0.076483585 1025 0.054487865 1026 0.23563202 1027 0.07229191 1028 -0.75886816 1029 -0.106749766 1030 -0.19665901 1031 0.56410843 1032 0.018220227 1033 0.27401578 
337 1024 0.061878193 1025 0.2140374 1026 0.12161476 1027 0.15113659 1028 -0.36590153 1029 -0.1620901 1030 -0.39855734 1031 0.47078493 1032 -0.1332596 1033 0.26527774 
338 1024 0.40894648 1025 0.100311995 1026 0.17580442 1027 0.17920645 1028 -0.2806048 1029 -0.41162694 1030 -0.8645957 1031 0.2834751 1032 -0.1304352 1033 -0.08185912 
339 1024 0.44110772 1025 0.09175675 1026 0.02723162 1027 0.15576911 1028 -0.32727742 1029 -0.4343539 1030 -0.573179 1031 0.41243947 1032 -0.051163156 1033 0.034606535 
340 1024 0.3610139 1025 -0.0061786515 1026 0.1446765 1027 -0.05614327 1028 -0.014338264 1029 -0.28528118 1030 -0.70547503 1031 0.4282791 1032 0.042568054 1033 -0.0160475 
341 1024 0.23834503 1025 -0.17652847 1026 0.116452016 1027 0.023683934 1028 -0.05015493 1029 -0.0443183 1030 -0.5718225 1031 0.16885808 1032 0.078870855 1033 0.014209771 
342 1024 0.17991498 1025 -0.40419036 1026 -0.042817276 1027 0.02523305 1028 0.029424757 1029 0.03641388 1030 -0.68528575 1031 -0.0028031734 1032 0.027587615 1033 -0.1986189 
343 1024 0.23372923 1025 -0.6144844 1026 0.049390227 1027 0.22315136 1028 -0.20759508 1029 0.12058332 1030 -0.4565544 1031 0.14124483 1032 -0.04656011 1033 -0.14997971 
344 1024 0.034898024 1025 -0.29682723 1026 -0.06441424 1027 0.2755893 1028 0.11326097 1029 0.2549928 1030 -0.17989337 1031 -0.05292524 1032 0.23333311 1033 -0.20319775 
345 1024 -0.039374385 1025 -0.4375689 1026 -0.008626828 1027 0.32803226 1028 -0.12246477 1029 0.042607654 1030 -0.3645972 1031 0.14777954 1032 0.31185117 1033 -0.21905214 
346 1024 -0.12649634 1025 -0.42657673 1026 0.078106426 1027 0.43211383 1028 0.15059006 1029 0.21196514 1030 -0.58165115 1031 0.14658985 1032 -0.025657201 1033 -0.2629967 
347 1024 0.016730608 1025 -0.7586591 1026 0.22209992 1027 -0.7350554 1028 -0.09730586 1029 0.54052746 1030 -0.29022884 1031 0.11347949 1032 0.12671492 1033 -0.69617474 
348 1024 -0.6666703 1025 -0.4370012 1026 -3.0247848 1027 -4.5665884 1028 -0.63001627 1029 1.3091398 1030 -0.7946688 1031 -0.40546978 1032 -0.096360065 1033 -0.44891647 
349 1024 -1.2331332 1025 -2.1683855 1026 -1.6576222 1027 -0.9703898 1028 -0.78106433 1029 1.4552814 1030 -1.734171 1031 -0.35937047 1032 -0.5965066 1033 -0.5891581 
350 1024 -2.0315137 1025 -0.5434759 1026 -0.22092494 1027 -0.06962678 1028 -0.22583024 1029 0.14260578 1030 -0.53206515 1031 -0.5734693 1032 0.45799133 1033 -1.1078646 
351 1024 -0.36652017 1025 0.0016806598 1026 0.022911597 1027 -0.022593591 1028 -0.8470497 1029 -0.15024772 1030 -0.55282843 1031 0.22451955 1032 -0.020285092 1033 -0.55243313 
352 1024 -0.021526713 1025 0.0036934689 1026 0.027437296 1027 0.017787822 1028 -0.372181 1029 0.011200581 1030 0.0120137185 1031 0.26806983 1032 -0.016167998 1033 -0.04781735 
353 1024 -0.0063062385 1025 0.2043792 1026 -0.66046524 1027 -0.59223366 1028 -0.53729784 1029 -0.05726344 1030 0.014109369 1031 0.45772243 1032 -0.6382079 1033 -0.4386983 
354 1024 0.35029256 1025 -0.46206722 1026 -0.71509993 1027 -1.0442071 1028 -0.1961473 1029 -0.27646333 1030 -0.47151 1031 0.49988377 1032 -0.89828545 1033 -1.0401368 
355 1024 0.008569935 1025 -0.5172231 1026 -0.079005785 1027 0.017424472 1028 -0.60675824 1029 -1.8292663 1030 -1.7937721 1031 0.18042192 1032 -1.0893773 1033 -0.5555234 
356 1024 -0.3298285 1025 -0.7983886 1026 -0.010635562 1027 -0.12833032 1028 -0.73063964 1029 -0.39625102 1030 0.027025022 1031 0.44828212 1032 -0.122553326 1033 -0.7388616 
357 1024 -0.21369378 1025 -1.4238836 1026 0.37748846 1027 0.19423671 1028 -0.10582475 1029 -0.48388672 1030 -0.20027196 1031 0.069053054 1032 -0.108295724 1033 -0.18794866 
358 1024 -0.14578338 1025 -0.4339239 1026 0.42080113 1027 0.1893103 1028 -0.09777256 1029 -0.22143973 1030 -0.14540173 1031 0.32785645 1032 -0.02440547 1033 0.1304055 
359 1024 0.2684812 1025 -0.07354344 1026 0.15304592 1027 0.2578735 1028 -0.13674761 1029 0.026638824 1030 -0.22564192 1031 0.03663812 1032 0.16590019 1033 -0.13651612 
360 1024 0.013243841 1025 0.043984 1026 -0.13664465 1027 0.17401452 1028 -0.29953 1029 0.21421035 1030 -0.08438623 1031 0.24048476 1032 0.2866414 1033 -0.14701962 
361 1024 -0.09689635 1025 -0.069420815 1026 0.026721098 1027 0.003906147 1028 -0.060682885 1029 0.09084442 1030 -0.1292517 1031 0.06467963 1032 0.22509095 1033 0.074088484 
362 1024 0.041275565 1025 -0.43618342 1026 0.120541014 1027 -0.2652924 1028 0.10064037 1029 0.19333681 1030 -0.13734041 1031 -0.056673173 1032 0.00046010845 1033 -0.007913046 
363 1024 0.035762105 1025 -0.25302988 1026 0.07870123 1027 -0.5173331 1028 -0.38754666 1029 0.37713653 1030 -0.060962655 1031 -0.1026871 1032 0.19698118 1033 0.20823343 
364 1024 0.029458525 1025 -0.3847666 1026 0.1221928 1027 -0.30043527 1028 -0.007514181 1029 0.38077983 1030 -0.22714439 1031 0.00334131 1032 0.28933638 1033 0.15326446 
365 1024 -0.08198073 1025 0.06375992 1026 0.070421234 1027 -0.43181473 1028 -0.11785426 1029 0.37643886 1030 -0.21440622 1031 0.109677754 1032 0.12398388 1033 0.024868373 
366 1024 -0.14545895 1025 0.009516104 1026 -0.026999135 1027 -0.35212103 1028 -0.074725755 1029 0.3280904 1030 -0.06737186 1031 0.2212591 1032 0.10637559 1033 0.022190467 
367 1024 0.13125496 1025 0.21992786 1026 0.13914903 1027 -0.12741947 1028 -0.38513616 1029 0.2630872 1030 -0.08198438 1031 0.3805005 1032 0.10371865 1033 -0.10521198 
368 1024 -0.0015568167 1025 0.6501158 1026 -0.15515706 1027 0.3289969 1028 -0.8971227 1029 0.08688363 1030 -0.27424186 1031 0.40865943 1032 -0.33890414 1033 -0.042714104 
369 1024 -0.1369279 1025 0.7490787 1026 -0.25781986 1027 0.2598662 1028 -0.28181705 1029 0.11760173 1030 -0.33776483 1031 0.50741655 1032 -0.37400594 1033 0.021041838 
370 1024 0.14109966 1025 0.68204963 1026 0.10370243 1027 0.13979992 1028 -0.35597706 1029 -0.15105101 1030 -0.51450956 1031 0.4393477 1032 -0.27755657 1033 -0.24779482 
371 1024 0.42466626 1025 0.20241411 1026 0.13100113 1027 0.29126686 1028 0.028831767 1029 -0.42035314 1030 -0.6622879 1031 0.4174369 1032 -0.030526893 1033 -0.25301164 
372 1024 0.48654702 1025 -0.22752085 1026 0.16181158 1027 0.22097732 1028 -0.04764954 1029 -0.3041342 1030 -0.72114486 1031 0.3164356 1032 -0.11244196 1033 -0.30225807 
373 1024 0.19039421 1025 -0.35018274 1026 0.07109713 1027 0.034302887 1028 -0.17080095 1029 -0.20392442 1030 -0.54390293 1031 0.18880652 1032 -0.08112955 1033 0.18996727 
374 1024 0.2799267 1025 -0.65110165 1026 0.01309996 1027 -0.047241934 1028 -0.063793875 1029 -0.28017324 1030 -0.5700671 1031 0.26102778 1032 0.028415212 1033 -0.11564471 
375 1024 0.26533404 1025 -0.44451964 1026 -0.05789557 1027 0.24708967 1028 0.08494186 1029 -0.41626105 1030 -0.26215616 1031 0.39914727 1032 0.14999193 1033 -0.14101386 
376 1024 -0.08079265 1025 -0.27534014 1026 -0.10067725 1027 0.24711014 1028 -0.07242774 1029 -0.18410729 1030 -0.334209 1031 0.0940435 1032 0.38938937 1033 -0.2324038 
377 1024 0.16567785 1025 -0.2653801 1026 -0.09647345 1027 0.51995 1028 -0.027765894 1029 -0.3265409 1030 -0.5484934 1031 0.45763266 1032 0.13854063 1033 -0.044520497 
378 1024 0.15232086 1025 -0.47484267 1026 0.30738938 1027 0.2509571 1028 -0.07067852 1029 0.137508 1030 -0.64086914 1031 -0.0032595638 1032 0.16604188 1033 0.1391082 
379 1024 -0.018887753 1025 -0.34810504 1026 0.024257086 1027 -0.138413 1028 -0.3798648 1029 0.7569159 1030 -0.17958693 1031 -0.06025115 1032 0.468616 1033 -0.6960863 
380 1024 -0.3415749 1025 -0.7315529 1026 -0.4633075 1027 -3.0969596 1028 -0.39954293 1029 1.2317634 1030 -0.19218008 1031 -0.2502433 1032 -0.15589947 1033 -0.83840483 
381 1024 -1.2256747 1025 -1.2021275 1026 -0.31353974 1027 -0.08588374 1028 -0.77961046 1029 1.963275 1030 -1.513311 1031 0.097984985 1032 -0.7184979 1033 -0.74289745 
382 1024 -1.9391905 1025 -0.32559523 1026 0.18719475 1027 -0.18643633 1028 -0.36340404 1029 0.866825 1030 -0.80563754 1031 -0.34062323 1032 -0.2640906 1033 -1.2963876 
383 1024 -0.057128273 1025 -0.016664898 1026 0.0064693503 1027 0.016682595 1028 -0.5884843 1029 -0.3772969 1030 -0.6628989 1031 0.20372416 1032 0.06867985 1033 -0.6291754 
384 1024 -0.011901986 1025 0.018844664 1026 -0.14340015 1027 -0.014170863 1028 -0.40525904 1029 -0.004325077 1030 0.0060082115 1031 0.24775718 1032 -0.029522829 1033 -0.04069058 
385 1024 -0.035837956 1025 0.17661218 1026 -0.52422 1027 -0.7328109 1028 -0.7072345 1029 -0.3887601 1030 0.023570243 1031 0.6736104 1032 -0.6506262 1033 -0.79377127 
386 1024 0.31668198 1025 0.017743867 1026 -0.88707775 1027 -1.3002539 1028 -0.4399004 1029 -0.52003413 1030 -0.45128575 1031 1.1694082 1032 -0.9429001 1033 -1.8600807 
387 1024 0.023398114 1025 -0.44597065 1026 0.061573304 1027 0.34785542 1028 -0.80283356 1029 -1.9269552 1030 -1.5522795 1031 0.35758552 1032 -1.6922674 1033 -0.5788912 
388 1024 -0.17175983 1025 -0.8400883 1026 -0.021566411 1027 -0.13439138 1028 -0.20426081 1029 -0.27264017 1030 0.09507378 1031 0.109879136 1032 0.17171082 1033 -0.36841524 
389 1024 -0.13285819 1025 -1.0220852 1026 0.12456811 1027 0.3409729 1028 -0.25548086 1029 -0.08656972 1030 -0.29238808 1031 0.5071552 1032 -0.034191698 1033 -0.09581268 
390 1024 0.0028329545 1025 -0.80423003 1026 0.35745427 1027 -0.29033738 1028 -0.4937933 1029 -0.028382929 1030 0.20875755 1031 0.17994145 1032 0.31631902 1033 0.116713226 
391 1024 0.22884478 1025 -0.06813707 1026 0.07627407 1027 -0.035885904 1028 -0.2621982 1029 0.27594203 1030 -0.2210412 1031 0.119947456 1032 0.33439767 1033 -0.022904642 
392 1024 0.027670426 1025 0.08879646 1026 -0.07724934 1027 -0.07316015 1028 -0.0903736 1029 0.095469594 1030 0.1732696 1031 -0.07597356 1032 0.34113353 1033 0.1332677 
393 1024 -0.024092857 1025 -0.32890025 1026 0.054550182 1027 -0.23255223 1028 -0.15234804 1029 0.28754416 1030 0.025683299 1031 0.099089324 1032 0.1820468 1033 0.29212818 
394 1024 0.021064386 1025 -0.712974 1026 -0.29654506 1027 -0.4936268 1028 0.25471035 1029 0.45840278 1030 0.015419816 1031 0.039243422 1032 0.122994766 1033 0.16283411 
395 1024 0.025855858 1025 -0.3323972 1026 -0.24491961 1027 -0.33376873 1028 0.050347053 1029 0.300418 1030 -0.116123885 1031 -0.019093873 1032 0.3013157 1033 0.33368373 
396 1024 -0.023630321 1025 0.036290936 1026 -0.20636392 1027 -0.45731077 1028 0.02553655 1029 0.25774983 1030 -0.08302999 1031 0.085590824 1032 0.25131288 1033 0.14292136 
397 1024 0.051115014 1025 0.13358201 1026 -0.2564888 1027 -0.30467144 1028 0.056190465 1029 0.4783933 1030 -0.2340374 1031 0.17468189 1032 0.0549125 1033 0.17076206 
398 1024 -0.1650033 1025 -0.007332218 1026 -0.34000558 1027 0.033508103 1028 0.20946929 1029 0.36017442 1030 -0.035045028 1031 0.20146291 1032 0.110570155 1033 0.085158154 
399 1024 -0.030337656 1025 0.5590707 1026 -0.24209903 1027 0.12834142 1028 -0.25082928 1029 0.3320304 1030 0.11501401 1031 0.6607623 1032 0.1907976 1033 -0.29592907 
400 1024 -0.011886302 1025 0.90715617 1026 -0.32747507 1027 0.24110924 1028 -0.7504792 1029 0.23021431 1030 -0.17816733 1031 0.713509 1032 -0.084144875 1033 -0.38735324 
401 1024 -0.18105489 1025 0.9710218 1026 -0.21412715 1027 0.31519008 1028 -0.24844635 1029 0.14052899 1030 -0.32184327 1031 0.6197368 1032 -0.055908818 1033 -0.098061465 
402 1024 -0.08338577 1025 0.8594852 1026 0.15401712 1027 0.20166673 1028 0.1753227 1029 -0.012333187 1030 -0.30903327 1031 0.65019095 1032 -0.29399744 1033 -0.19056961 
403 1024 0.3834532 1025 0.011049279 1026 0.021875469 1027 0.10599678 1028 0.07327902 1029 -0.19850545 1030 -0.45046002 1031 0.5429629 1032 -0.20190404 1033 -0.054404736 
404 1024 0.3045347 1025 -0.16150141 1026 -0.059064664 1027 0.2372878 1028 -0.008155314 1029 -0.29187962 1030 -0.26706704 1031 0.38580048 1032 -0.040257115 1033 -0.13266762 
405 1024 0.037017792 1025 -0.3353526 1026 0.04365477 1027 0.24969839 1028 -0.17038384 1029 -0.3614723 1030 -0.39061373 1031 0.3731398 1032 0.0726472 1033 0.037335042 
406 1024 0.24060862 1025 -0.49553284 1026 0.27480078 1027 0.11792614 1028 -0.09656548 1029 -0.3162932 1030 -0.22210409 1031 0.259576 1032 0.19314383 1033 -0.0012832936 
407 1024 -0.002948911 1025 -0.42148143 1026 -0.0338552 1027 0.27024716 1028 -0.2057517 1029 -0.25332382 1030 -0.2826532 1031 0.1804582 1032 0.117770255 1033 0.13207303 
408 1024 0.23332995 1025 -0.27450097 1026 -0.078056715 1027 -0.27079663 1028 -0.072932065 1029 -0.38538298 1030 -0.46706507 1031 0.09599543 1032 0.15748629 1033 -0.003532175 
409 1024 0.2752641 1025 -0.20231695 1026 0.04733778 1027 -0.09476868 1028 -0.28585836 1029 -0.47821245 1030 -0.5259492 1031 0.4523123 1032 0.23121753 1033 0.12127312 
410 1024 0.3931888 1025 -0.3086371 1026 -0.05466672 1027 0.001402122 1028 -0.19761188 1029 -0.1694895 1030 -0.14609604 1031 0.139217 1032 0.3478107 1033 -0.0090292385 
411 1024 0.061897546 1025 -1.1013855 1026 -0.1968731 1027 0.1334104 1028 -0.8047492 1029 0.78677386 1030 0.057179928 1031 -0.46519718 1032 0.5497123 1033 -0.21093842 
412 1024 -0.16246025 1025 -1.3342583 1026 0.12980591 1027 -1.424299 1028 -0.24249178 1029 1.450842 1030 0.008583821 1031 -0.34107465 1032 0.4648353 1033 -0.6869626 
413 1024 -0.9924195 1025 -0.01102319 1026 0.18020795 1027 0.18087186 1028 -0.6544774 1029 2.2020726 1030 -0.86613524 1031 0.054029312 1032 -0.68650633 1033 -0.42375967 
414 1024 -1.9376844 1025 -0.1956616 1026 0.09699556 1027 -0.1651779 1028 -1.6491562 1029 0.9556702 1030 -1.1033506 1031 -0.50643206 1032 -0.33270982 1033 -1.2504977 
415 1024 -0.004934273 1025 0.23078002 1026 -0.49697083 1027 0.0063250586 1028 -0.08642926 1029 -0.09817946 1030 -0.48284572 1031 -0.09851706 1032 0.47222543 1033 -0.6015558 
416 1024 -0.024262182 1025 -0.024750441 1026 -0.13201912 1027 -0.019564476 1028 -0.018345762 1029 -0.010024708 1030 -0.009821396 1031 0.043416414 1032 0.006756514 1033 -0.06362768 
417 1024 0.0019782025 1025 0.08098728 1026 -0.26336104 1027 -0.73372 1028 -0.797548 1029 -0.5049725 1030 -0.021233473 1031 0.9649213 1032 -0.3728031 1033 -0.8476386 
418 1024 -0.41201746 1025 0.0064345608 1026 -0.6113893 1027 -0.95380497 1028 -0.7054079 1029 -0.6036296 1030 -0.02836709 1031 1.112644 1032 -1.0606847 1033 -1.8027245 
419 1024 -0.17212091 1025 -0.25708222 1026 -0.4522342 1027 0.406242 1028 -0.83456737 1029 -1.3371451 1030 -1.4993863 1031 0.38338077 1032 -0.41350538 1033 -0.31535375 
420 1024 -0.9224208 1025 -0.531054 1026 -0.07770772 1027 0.2648761 1028 -0.29169428 1029 -0.26960132 1030 -0.007102888 1031 0.5441271 1032 0.14631689 1033 -0.08711866 
421 1024 -0.38027278 1025 -0.5602204 1026 0.043711606 1027 0.17875195 1028 -0.3632334 1029 0.13029657 1030 -0.0724883 1031 0.29312173 1032 0.36749083 1033 0.13484378 
422 1024 -0.15031908 1025 -0.70559186 1026 0.038777217 1027 -0.14078492 1028 -0.30274317 1029 0.11800615 1030 0.33728153 1031 -0.056547053 1032 0.1999977 1033 0.25507846 
423 1024 0.10265249 1025 -1.5257643 1026 -0.41286007 1027 -0.5735221 1028 0.047884133 1029 0.46788427 1030 0.010816036 1031 0.14936706 1032 0.3059717 1033 0.17961125 
424 1024 -0.06508454 1025 -0.30735168 1026 -0.22857688 1027 -0.24201547 1028 -0.15274662 1029 0.19321664 1030 0.084019594 1031 0.12399724 1032 0.22489998 1033 0.2534511 
425 1024 0.04997793 1025 -0.7324162 1026 -0.24152768 1027 -0.15743972 1028 0.14322671 1029 0.18701525 1030 -0.13704464 1031 0.13037 1032 0.33703306 1033 0.12320099 
426 1024 0.025202483 1025 -0.07850298 1026 -0.20268755 1027 -0.40685344 1028 0.17481281 1029 0.055070292 1030 0.11831965 1031 0.035136644 1032 0.31457388 1033 0.4186158 
427 1024 -0.031453714 1025 -0.025008023 1026 -0.26178038 1027 -0.34982747 1028 0.3422809 1029 0.009452541 1030 0.062272467 1031 -0.14515842 1032 0.2215761 1033 0.27240235 
428 1024 0.015856339 1025 -0.17229794 1026 -0.25226203 1027 -0.32765582 1028 0.20159462 1029 0.3377954 1030 0.010412013 1031 -0.019405171 1032 0.10801707 1033 0.35478985 
429 1024 -0.03993954 1025 -0.20767114 1026 -0.46791384 1027 -0.13123748 1028 0.48967388 1029 0.346502 1030 -0.05855597 1031 0.008959653 1032 0.40424818 1033 0.21561258 
430 1024 -0.24075916 1025 0.019266777 1026 -0.67904 1027 -0.084779136 1028 0.31766453 1029 0.4145552 1030 0.030548766 1031 -0.06617827 1032 0.23775971 1033 -0.09123991 
431 1024 -0.10216258 1025 0.5104193 1026 -0.5396281 1027 0.13784428 1028 0.018063687 1029 0.5032212 1030 0.12772985 1031 0.18953317 1032 0.12245053 1033 -0.3673165 
432 1024 -0.34388614 1025 1.0675545 1026 -0.76406974 1027 0.38713267 1028 -0.61734694 1029 0.20111951 1030 -0.016640343 1031 0.19803996 1032 0.0486768 1033 0.040230043 
433 1024 -0.5661544 1025 0.9309846 1026 -0.21518931 1027 0.36326447 1028 0.070195965 1029 0.26125738 1030 -0.32525492 1031 0.34631515 1032 0.0036658535 1033 0.43852556 
434 1024 -0.31577948 1025 0.63247883 1026 -0.1694402 1027 0.25978595 1028 0.4131117 1029 -0.013710318 1030 -0.21368165 1031 0.57814634 1032 0.07237071 1033 -0.012029 
435 1024 -0.022962268 1025 -0.01205226 1026 -0.3262996 1027 0.36548406 1028 0.31814724 1029 -0.2521 1030 -0.0691397 1031 0.3677058 1032 -0.04727677 1033 0.21688339 
436 1024 -0.053512365 1025 -0.020137342 1026 -0.033919986 1027 0.23623185 1028 0.10172987 1029 -0.3741649 1030 -0.056174964 1031 0.5641937 1032 0.12253842 1033 0.21664596 
437 1024 0.06848528 1025 0.08524208 1026 0.10526916 1027 0.20881 1028 -0.074926764 1029 -0.24953584 1030 -0.30622756 1031 0.17230736 1032 0.07376077 1033 0.3750519 
438 1024 0.15434802 1025 -0.3076979 1026 0.1509192 1027 0.103545226 1028 -0.15255198 1029 -0.25745052 1030 -0.21505246 1031 -0.081456944 1032 0.25947145 1033 0.3232028 
439 1024 0.15890202 1025 -0.5298205 1026 0.03818772 1027 -0.1604191 1028 -0.27395466 1029 -0.478095 1030 -0.39742246 1031 -0.020060992 1032 0.20107041 1033 0.49601406 
440 1024 0.296705 1025 -0.12511507 1026 0.021068988 1027 -0.322028 1028 -0.094479024 1029 -0.5043627 1030 -0.033151675 1031 0.17562678 1032 0.14723083 1033 0.26040533 
441 1024 0.40936002 1025 -0.07818537 1026 -0.011610552 1027 -0.595546 1028 -0.093218535 1029 -0.7835993 1030 -0.06078715 1031 0.3124884 1032 0.36480033 1033 0.49252892 
442 1024 0.4216375 1025 -0.5770222 1026 -0.73080456 1027 -0.36004147 1028 -0.3061753 1029 -0.6806394 1030 0.25390354 1031 0.011593782 1032 0.26646248 1033 0.20453975 
443 1024 -0.021362979 1025 -0.37899664 1026 -0.571943 1027 -0.50904006 1028 -0.31557044 1029 -0.048446905 1030 0.41132557 1031 -0.36105365 1032 0.5708811 1033 -0.10080504 
444 1024 0.18471915 1025 -0.7803928 1026 0.1453993 1027 -0.92617005 1028 -0.94601756 1029 0.71522516 1030 0.035479497 1031 -1.9028639 1032 0.69335544 1033 -0.85113233 
445 1024 -0.5405557 1025 -0.17467202 1026 0.4433124 1027 0.40297252 1028 -0.98722196 1029 1.7580081 1030 -0.50018007 1031 -0.3125045 1032 0.47522146 1033 -1.5427812 
446 1024 -1.5213209 1025 -0.4349146 1026 0.59312826 1027 0.00035898015 1028 -0.9134834 1029 0.87687564 1030 -1.4603482 1031 -0.4329851 1032 0.62831354 1033 -1.3387309 
447 1024 -0.027868198 1025 0.4614413 1026 -0.49094197 1027 -0.025660224 1028 -0.061685666 1029 0.0402064 1030 -0.034141183 1031 -0.04391937 1032 -0.16281344 1033 -0.116961576 
448 1024 0.004998103 1025 0.021309253 1026 -0.11612225 1027 -0.019024126 1028 -0.017958906 1029 -0.0033258535 1030 -0.0055202805 1031 0.032613125 1032 0.0007384301 1033 -0.38823333 
449 1024 -0.013536067 1025 -0.0046969578 1026 -0.20934463 1027 -0.5248861 1028 -0.31551215 1029 -0.602422 1030 -0.01999867 1031 0.84686214 1032 -0.25104505 1033 -0.89916134 
450 1024 -0.1771813 1025 -0.0013207396 1026 -0.49689007 1027 -1.3527316 1028 -0.70583016 1029 -0.7150684 1030 -0.08943997 1031 1.0046726 1032 -0.7732012 1033 -1.6512606 
451 1024 -0.33189043 1025 0.30001873 1026 -0.23528351 1027 -0.001734012 1028 -0.9024346 1029 -0.33711958 1030 -1.5022144 1031 1.0222486 1032 -0.26697487 1033 -0.5409415 
452 1024 -0.3989288 1025 -0.03725911 1026 -0.4748711 1027 -0.011275486 1028 -0.3869593 1029 -0.14097384 1030 -0.07819075 1031 0.58234507 1032 0.28373897 1033 0.38395104 
453 1024 -0.14462967 1025 -0.49414936 1026 -0.20420651 1027 -0.007682036 1028 -0.19633062 1029 0.15264426 1030 0.040301435 1031 0.35496336 1032 0.41099712 1033 0.52149236 
454 1024 0.19440769 1025 -0.21649474 1026 -0.50025105 1027 -0.21936755 1028 -0.15282547 1029 0.3291989 1030 0.09470145 1031 0.0803256 1032 0.21197964 1033 0.20509863 
455 1024 0.15128683 1025 -0.2884482 1026 -1.0759802 1027 -0.33245042 1028 0.004557694 1029 0.33722198 1030 0.3837743 1031 -0.028120957 1032 0.1446005 1033 0.69841576 
456 1024 0.08271364 1025 -0.13970065 1026 -0.6829199 1027 -0.4049078 1028 0.37339497 1029 0.39408207 1030 0.028631898 1031 0.005413007 1032 0.0045008636 1033 0.474437 
457 1024 -0.005467656 1025 -0.086912915 1026 -0.2874557 1027 -0.3543527 1028 0.3288629 1029 0.06490484 1030 0.0028097408 1031 0.15813033 1032 0.028107416 1033 0.0833653 
458 1024 -0.061340936 1025 0.22948693 1026 -0.51783293 1027 -0.19754954 1028 0.23448297 1029 0.14941067 1030 0.19176055 1031 -0.22168326 1032 0.11922976 1033 0.10936636 
459 1024 0.18003955 1025 -0.23573484 1026 -0.48426133 1027 -0.42109632 1028 0.5027942 1029 0.034938585 1030 0.021870838 1031 -0.27743697 1032 -0.09784255 1033 0.3241282 
460 1024 -0.083253324 1025 -0.43442872 1026 -0.6171935 1027 -0.21001779 1028 0.5687648 1029 0.27711323 1030 0.14226612 1031 -0.18667479 1032 -0.44737956 1033 0.39023763 
461 1024 0.07610863 1025 -0.32557666 1026 -0.52288336 1027 0.09834904 1028 0.67664385 1029 0.30986714 1030 0.16989827 1031 -0.33763203 1032 0.22186005 1033 0.15153296 
462 1024 -0.06551708 1025 0.034814656 1026 -0.39943978 1027 0.17776576 1028 0.736966 1029 0.16358623 1030 0.20303352 1031 -0.7602881 1032 0.45333016 1033 -0.12601596 
463 1024 -0.20680399 1025 0.4950346 1026 -0.47158322 1027 -0.10734037 1028 0.10868969 1029 0.26095268 1030 0.34389436 1031 -0.36035016 1032 0.21688604 1033 0.23896064 
464 1024 -0.746647 1025 0.9100103 1026 -0.49371895 1027 0.4616138 1028 -0.11170638 1029 0.22908106 1030 -0.03510958 1031 -0.4228645 1032 -0.11272355 1033 0.5570638 
465 1024 -0.5876546 1025 1.0435828 1026 -0.17143054 1027 0.34199965 1028 0.2321534 1029 0.02778957 1030 -0.15316667 1031 0.20291081 1032 0.23936039 1033 0.41432485 
466 1024 -0.5112283 1025 0.46481887 1026 -0.21812752 1027 0.03795349 1028 0.46160227 1029 -0.07900572 1030 0.018861726 1031 0.49794632 1032 0.25074247 1033 0.036765937 
467 1024 -0.18591872 1025 0.12570508 1026 -0.2693086 1027 0.13489193 1028 0.49773186 1029 -0.0992602 1030 -0.08861221 1031 0.40320373 1032 0.2914037 1033 0.058961697 
468 1024 -0.09251992 1025 0.13457195 1026 0.067044206 1027 0.119867966 1028 0.28626782 1029 -0.13101795 1030 -0.079780996 1031 0.34764415 1032 0.036791265 1033 0.27611881 
469 1024 0.001202776 1025 0.19909072 1026 0.020161085 1027 -0.06039004 1028 0.054014526 1029 -0.3998339 1030 -0.16504318 1031 0.15263776 1032 0.06672014 1033 0.40487406 
470 1024 -0.18631622 1025 -0.81833875 1026 0.21441267 1027 0.0005886654 1028 0.05972211 1029 -0.3758821 1030 -0.3462486 1031 -0.07684094 1032 0.299494 1033 0.41453937 
471 1024 0.33852917 1025 -0.47485283 1026 -0.14794995 1027 -0.04933866 1028 0.053945597 1029 -0.32347885 1030 -0.20327516 1031 -0.057917736 1032 0.10051914 1033 0.45526263 
472 1024 0.27714986 1025 -0.16530606 1026 0.06711355 1027 -0.83276284 1028 0.22341341 1029 -0.63227576 1030 0.17379557 1031 0.13257049 1032 0.3482109 1033 0.26665422 
473 1024 0.24237217 1025 -0.11650497 1026 -0.04705606 1027 -0.56464714 1028 0.29665202 1029 -0.93735707 1030 0.3668551 1031 0.005177723 1032 0.4509032 1033 0.43367943 
474 1024 0.639481 1025 -0.30761227 1026 -0.9156476 1027 -0.498215 1028 -0.10661297 1029 -1.5141543 1030 0.75443745 1031 -0.050145276 1032 0.18304291 1033 0.45711535 
475 1024 0.1300793 1025 -0.5934176 1026 -0.50416243 1027 -3.100502 1028 -0.17612982 1029 -2.395087 1030 0.5437401 1031 -0.92313325 1032 0.11581722 1033 0.32675737 
476 1024 0.38911265 1025 -0.8814411 1026 0.20000003 1027 -0.9021065 1028 -0.31258425 1029 -3.145223 1030 0.24868034 1031 -0.27049485 1032 0.40243775 1033 -1.8345345 
477 1024 -0.1704278 1025 -0.6386282 1026 0.92226475 1027 0.1605991 1028 0.12994833 1029 0.2728545 1030 -0.2902501 1031 -0.456545 1032 0.30178812 1033 -2.4307442 
478 1024 -1.2437136 1025 -0.6814057 1026 0.83316857 1027 -0.028541368 1028 0.2285161 1029 0.66595614 1030 -1.6919639 1031 -0.87454915 1032 0.2486738 1033 -1.1539258 
479 1024 -0.030142833 1025 0.18794456 1026 0.40733615 1027 0.005814515 1028 -0.62553495 1029 -0.65281445 1030 -0.46047032 1031 -0.24102736 1032 -0.29515105 1033 -0.5207424 
480 1024 0.016077671 1025 -0.017926876 1026 0.009336378 1027 0.016083773 1028 0.00248665 1029 0.0064217076 1030 -0.014175292 1031 0.009864207 1032 0.0075373463 1033 0.028213702 
481 1024 0.29935437 1025 -0.014928691 1026 -0.04515962 1027 -0.4344891 1028 -0.1142359 1029 -0.32080877 1030 -0.40938976 1031 0.506157 1032 -0.15421471 1033 -0.76194394 
482 1024 -0.11224933 1025 -0.0012647621 1026 -0.031086612 1027 -1.2016664 1028 -1.0017384 1029 -0.7015514 1030 -0.07615378 1031 0.9815955 1032 -0.6748325 1033 -1.9236361 
483 1024 -0.23204356 1025 0.55524415 1026 -0.14095409 1027 -0.34976444 1028 -1.1336924 1029 -0.21310842 1030 -1.2401422 1031 0.84510714 1032 -0.056135464 1033 -0.63997287 
484 1024 -0.051802162 1025 0.066038124 1026 -0.9906957 1027 -0.16740087 1028 0.10073564 1029 0.36810637 1030 -0.16030443 1031 0.5609647 1032 -0.19614524 1033 0.5543942 
485 1024 -0.077132545 1025 -0.13129316 1026 -1.2763872 1027 -0.7179373 1028 0.006429865 1029 0.48158583 1030 0.36761165 1031 0.30497068 1032 0.37154827 1033 0.6406923 
486 1024 0.11636865 1025 -0.267683 1026 -0.5408429 1027 -0.640549 1028 0.2325613 1029 0.45137376 1030 0.13392363 1031 0.15652125 1032 -0.17160788 1033 0.3985708 
487 1024 0.48471266 1025 -0.004582 1026 -0.818317 1027 -0.7529941 1028 0.3455167 1029 -0.15744895 1030 0.44908756 1031 -0.015941845 1032 -0.21029514 1033 0.45538357 
488 1024 0.23005679 1025 -0.5930907 1026 -0.7495822 1027 -0.25926277 1028 0.35155794 1029 0.03253418 1030 0.007928744 1031 -0.1979007 1032 -0.117677316 1033 0.4482308 
489 1024 0.048527945 1025 -0.07519249 1026 -0.55558604 1027 -0.066852085 1028 0.3516152 1029 -0.020972135 1030 0.21242698 1031 -0.5752669 1032 -0.15208226 1033 0.37780398 
490 1024 0.05606925 1025 -0.045399167 1026 -0.44460756 1027 0.017049309 1028 0.30972952 1029 -0.05131864 1030 0.294607 1031 -0.19948499 1032 -0.2911666 1033 0.108337805 
491 1024 0.21776968 1025 -0.7580861 1026 -0.48540455 1027 -0.17531867 1028 0.4940597 1029 0.32319593 1030 0.27584767 1031 -0.24000324 1032 -0.5429553 1033 0.339382 
492 1024 0.13042434 1025 -0.91396976 1026 -0.22498034 1027 0.15953347 1028 0.6457215 1029 0.35771716 1030 0.1674632 1031 -0.27602398 1032 -0.19299753 1033 0.12536915 
493 1024 0.0048949406 1025 -0.42695594 1026 -0.073916264 1027 0.3639839 1028 0.69293493 1029 0.22276779 1030 0.32857808 1031 -0.65808153 1032 0.54174185 1033 -0.0074688015 
494 1024 -0.11099692 1025 0.017279183 1026 -0.025134519 1027 0.33103067 1028 0.48390156 1029 0.42972824 1030 0.038498443 1031 -1.1722633 1032 0.19558851 1033 0.11105472 
495 1024 -0.28330293 1025 0.5705009 1026 -0.25653654 1027 0.13266693 1028 -0.05273491 1029 0.3934838 1030 0.08653291 1031 -0.9095399 1032 0.08209828 1033 -0.01940861 
496 1024 -1.0320518 1025 0.7462781 1026 -0.08583261 1027 0.16622435 1028 -0.28183067 1029 0.059428267 1030 0.070830315 1031 -0.7012332 1032 0.06888586 1033 0.33728755 
497 1024 -0.64755255 1025 0.97501147 1026 -0.10254339 1027 0.07799155 1028 0.04422286 1029 -0.3482488 1030 0.03665582 1031 -0.12332682 1032 0.14970142 1033 0.42821637 
498 1024 -0.7668523 1025 0.43478224 1026 -0.26586246 1027 -0.17833678 1028 0.23169857 1029 -0.44473454 1030 0.01737472 1031 0.076627485 1032 -0.0095457975 1033 0.3600027 
499 1024 -0.23364882 1025 0.30116272 1026 -0.12833512 1027 0.30552164 1028 0.64226127 1029 -0.4106778 1030 -0.07899772 1031 0.0655178 1032 0.06364167 1033 0.2462459 
500 1024 -0.11679513 1025 0.3647326 1026 -0.094407916 1027 0.15550746 1028 0.28709 1029 -0.44002262 1030 -0.22623374 1031 0.15123238 1032 -0.1771612 1033 0.20935705 
501 1024 -0.16462375 1025 -0.20567325 1026 -0.020954367 1027 -0.25720334 1028 0.11948805 1029 -0.13122314 1030 -0.007698967 1031 -0.013339629 1032 -0.03137541 1033 0.14403862 
502 1024 -0.2612038 1025 -0.57897586 1026 -0.03174918 1027 0.1138706 1028 0.1264003 1029 -0.10428287 1030 0.081035696 1031 -0.1173086 1032 0.07495501 1033 0.37140504 
503 1024 -0.13090003 1025 -0.8928351 1026 -0.18205816 1027 -0.4469157 1028 0.35911775 1029 -0.092171356 1030 0.14125714 1031 0.17350973 1032 0.044468928 1033 0.33539054 
504 1024 0.17506273 1025 -0.15205976 1026 0.036170185 1027 -0.25642952 1028 0.3186407 1029 -0.44217837 1030 0.23863672 1031 0.21734652 1032 -0.10287762 1033 0.2629565 
505 1024 0.21311522 1025 -0.20350216 1026 -0.14549536 1027 -0.8291022 1028 0.16054516 1029 -0.60462576 1030 0.33895674 1031 -0.17277655 1032 -0.071138 1033 0.56365764 
506 1024 0.53070295 1025 -0.8645738 1026 -0.24407634 1027 -0.45229536 1028 -0.080579005 1029 -1.1536548 1030 0.62642306 1031 -0.04002485 1032 -0.20931137 1033 -0.08202534 
507 1024 0.2717741 1025 -0.9154444 1026 0.16991009 1027 -0.38972056 1028 -0.61400765 1029 -1.339065 1030 0.65231377 1031 0.024538085 1032 -0.4196144 1033 0.062197495 
508 1024 -0.013491576 1025 -1.0381024 1026 0.7496463 1027 -0.6711024 1028 -0.3013568 1029 -1.8662285 1030 -0.15182169 1031 0.49931666 1032 -0.33101895 1033 -2.0495334 
509 1024 0.13768448 1025 -0.8533032 1026 1.2246672 1027 -0.79926616 1028 0.15964547 1029 -0.72100705 1030 -0.5302599 1031 0.47854233 1032 -0.088252805 1033 -1.3040208 
510 1024 -0.49625346 1025 -0.7068028 1026 1.2302725 1027 -0.02661302 1028 0.3359741 1029 -0.15610473 1030 -1.7426256 1031 -0.04580804 1032 0.32349646 1033 -0.7855142 
511 1024 -0.031311773 1025 -0.0154973045 1026 0.6202268 1027 -0.24457689 1028 -0.46280307 1029 -0.48451418 1030 -0.7751442 1031 -0.44657952 1032 -0.36462077 1033 -0.12914781 
512 1024 0.027491488 1025 -0.021110158 1026 -0.027079996 1027 -0.40223834 1028 -0.016865 1029 0.4573069 1030 0.027177721 1031 -0.007154066 1032 -0.0021529272 1033 -0.4888826 
513 1024 0.000578829 1025 -0.028907798 1026 -0.64049935 1027 0.32621595 1028 0.1225206 1029 -0.3349462 1030 0.02655394 1031 0.4176177 1032 -0.017549194 1033 -0.4480258 
514 1024 -0.4898737 1025 0.007220313 1026 -0.50907075 1027 -0.44753164 1028 -0.41565627 1029 -0.61746275 1030 -0.0047502927 1031 0.83400565 1032 -0.32832006 1033 -1.3263056 
515 1024 -1.1082885 1025 0.4846306 1026 -0.24815443 1027 0.2685273 1028 -0.6716035 1029 0.26024786 1030 -0.64217997 1031 0.6403716 1032 -1.5176816 1033 -0.053687356 
516 1024 -0.27744436 1025 0.71051383 1026 -0.6351424 1027 -0.28712332 1028 0.1927622 1029 0.3435249 1030 -0.9554377 1031 0.5210562 1032 -0.19666526 1033 0.2057398 
517 1024 0.08465813 1025 0.116480924 1026 -0.5115117 1027 -0.23062852 1028 0.44406012 1029 0.1283535 1030 0.2960226 1031 0.13772176 1032 -0.11431613 1033 0.34591717 
518 1024 0.20432793 1025 -0.37781444 1026 -0.8301085 1027 -0.20587695 1028 0.38801157 1029 -0.18696365 1030 0.033447396 1031 -0.0745433 1032 -0.2822688 1033 0.3007264 
519 1024 0.27280715 1025 -0.6593648 1026 -0.54503554 1027 -0.08463355 1028 0.2870015 1029 -0.52854496 1030 0.014269266 1031 -0.29862434 1032 -0.8167563 1033 0.2548682 
520 1024 0.34566435 1025 -0.43940064 1026 -0.22580504 1027 -0.20142984 1028 0.51324534 1029 -0.3758069 1030 0.29884696 1031 -0.505933 1032 -0.5315249 1033 0.45417783 
521 1024 0.39026535 1025 0.29111576 1026 -0.37426278 1027 -0.23420256 1028 0.48133886 1029 -0.08501307 1030 0.20415086 1031 -0.35054153 1032 -0.07291932 1033 0.1412513 
522 1024 0.0937834 1025 -0.019899167 1026 -0.11017079 1027 -0.22953925 1028 0.27983236 1029 0.23515898 1030 0.25230652 1031 -0.15468395 1032 -0.51390016 1033 0.2550671 
523 1024 0.1382316 1025 -0.619931 1026 -0.15683804 1027 -0.10370006 1028 0.38519582 1029 0.4398735 1030 0.19529761 1031 -0.20198996 1032 -0.4250769 1033 0.11293641 
524 1024 0.35408464 1025 -0.6117452 1026 -0.10685333 1027 -0.21862534 1028 0.3892992 1029 0.4874527 1030 0.3665525 1031 -0.12484081 1032 0.30913165 1033 0.07188752 
525 1024 0.07795296 1025 -0.5179424 1026 0.10400334 1027 0.21868767 1028 0.7290587 1029 0.30568328 1030 0.4095338 1031 -0.47083277 1032 0.50218177 1033 0.14249517 
526 1024 -0.049083956 1025 0.015330007 1026 0.023998883 1027 0.33929634 1028 0.40926063 1029 -0.08815597 1030 0.11391535 1031 -0.88836676 1032 0.06467858 1033 0.18507048 
527 1024 -0.18654862 1025 0.4887613 1026 -0.11461494 1027 -0.11038817 1028 -0.12438298 1029 -0.0973284 1030 -0.015210197 1031 -0.85581166 1032 0.18391833 1033 0.076471396 
528 1024 -0.6868795 1025 0.6205878 1026 -0.01832743 1027 -0.030509923 1028 -0.1242365 1029 0.01789882 1030 -0.17940192 1031 -0.43610325 1032 0.18178408 1033 0.22762798 
529 1024 -0.66078025 1025 0.8613625 1026 -0.16948768 1027 -0.07924365 1028 0.06177441 1029 -0.18530697 1030 0.13184983 1031 -0.21889378 1032 -0.06959642 1033 0.09606395 
530 1024 -0.6205333 1025 0.223402 1026 -0.28435764 1027 -0.23197216 1028 0.22761598 1029 -0.3678512 1030 0.07307542 1031 -0.14599401 1032 0.11427444 1033 0.12114859 
531 1024 -0.117665485 1025 0.28803337 1026 -0.03073862 1027 0.14309187 1028 0.55001837 1029 -0.27648434 1030 -0.11680656 1031 0.08209071 1032 0.14880604 1033 0.4448833 
532 1024 -0.033517923 1025 0.0412295 1026 -0.23543872 1027 0.06376697 1028 0.3400629 1029 -0.018006485 1030 -0.26439235 1031 -0.0555147 1032 -0.1510617 1033 0.1942347 
533 1024 -0.24297848 1025 -0.47451591 1026 -0.03758606 1027 -0.004131115 1028 0.12923129 1029 0.026631337 1030 -0.1494842 1031 0.2453652 1032 -0.32978183 1033 0.09653735 
534 1024 -0.10052536 1025 -0.9358916 1026 -0.28272015 1027 -0.18540426 1028 0.23652834 1029 -0.28602815 1030 0.12713096 1031 0.48943338 1032 -0.21574098 1033 -0.016090037 
535 1024 0.07952769 1025 -0.25681472 1026 -0.12207759 1027 -0.040931746 1028 0.2696367 1029 0.04002625 1030 -0.08376955 1031 0.610833 1032 -0.39406592 1033 0.02375257 
536 1024 0.024103072 1025 0.23471971 1026 -0.20340344 1027 0.07054625 1028 0.029411096 1029 -0.17638238 1030 0.091261655 1031 0.26074216 1032 -0.06599877 1033 0.13026987 
537 1024 0.07765276 1025 0.08407242 1026 -0.35216048 1027 -0.23395622 1028 -0.13466424 1029 -0.09116015 1030 0.38675618 1031 0.38610786 1032 -0.25520802 1033 0.050128818 
538 1024 0.30242205 1025 -0.42484805 1026 -0.2162027 1027 -0.11047067 1028 0.12262425 1029 -0.38084897 1030 0.34774834 1031 0.20471923 1032 -0.6275735 1033 -0.1804604 
539 1024 0.31230268 1025 -0.14270641 1026 0.015264735 1027 0.09052929 1028 -0.41418278 1029 -0.42204282 1030 0.23161693 1031 0.1312537 1032 -0.7225465 1033 -0.5404554 
540 1024 0.12882127 1025 0.24737735 1026 -0.1460605 1027 -0.0441275 1028 -0.3120207 1029 -0.27253628 1030 -0.10930861 1031 0.00323479 1032 -0.58353895 1033 -2.7519696 
541 1024 0.2052082 1025 -0.40799406 1026 0.773934 1027 -1.7684183 1028 -0.35444865 1029 -0.8781989 1030 0.0025259564 1031 -0.4073761 1032 0.041645736 1033 -0.27862036 
542 1024 -0.8370958 1025 -0.052788477 1026 1.3395797 1027 -0.31293494 1028 -0.9905535 1029 -0.8833557 1030 -1.4272732 1031 -0.64575243 1032 -0.5773143 1033 -0.17036891 
543 1024 -0.01226696 1025 -0.01039888 1026 0.63778657 1027 -0.26675197 1028 -0.46380803 1029 0.010599399 1030 -0.6467041 1031 0.010314733 1032 -0.53246826 1033 0.02403307 
544 1024 0.0010341965 1025 -0.021619167 1026 0.027925033 1027 -0.39818603 1028 -0.014284715 1029 0.46348092 1030 -0.026743408 1031 0.017816022 1032 0.013118643 1033 -0.49369177 
545 1024 -0.03350187 1025 -0.025169786 1026 -0.4521217 1027 0.44751796 1028 -0.0069817565 1029 -0.022984626 1030 -0.017087184 1031 -0.028835088 1032 0.00755683 1033 -0.022710685 
546 1024 -0.48768237 1025 0.3439157 1026 -1.2249538 1027 0.35947734 1028 -0.10186958 1029 -0.5973142 1030 -0.007692927 1031 0.548432 1032 -0.291127 1033 -1.1216664 
547 1024 -1.2672637 1025 0.57162654 1026 0.014472844 1027 -0.35341814 1028 0.21390611 1029 0.20609465 1030 -0.7952381 1031 0.50101906 1032 -0.9294112 1033 0.058863938 
548 1024 -0.010444616 1025 0.40099603 1026 0.2376531 1027 0.22736229 1028 0.25311536 1029 -0.20429836 1030 -1.8270055 1031 -0.041216217 1032 -0.31612864 1033 0.41184103 
549 1024 0.12369117 1025 -0.58804566 1026 0.12023672 1027 -0.12678175 1028 0.18643367 1029 -0.5017887 1030 0.11748259 1031 -0.38364998 1032 -0.86610687 1033 -0.06683711 
550 1024 0.28251383 1025 -0.98810023 1026 0.21824765 1027 0.05529506 1028 0.28655645 1029 -0.5817675 1030 -0.16727395 1031 -0.16876745 1032 -0.5595702 1033 -0.13565741 
551 1024 0.16290154 1025 -0.8695855 1026 -0.22433709 1027 -0.20906757 1028 0.20015538 1029 -0.41596788 1030 0.08220292 1031 -0.13815819 1032 -0.7226012 1033 -0.021046322 
552 1024 0.5239543 1025 -0.35757604 1026 0.010209327 1027 -0.49073514 1028 0.40908656 1029 -0.24236253 1030 0.070520416 1031 -0.28571847 1032 -0.24247858 1033 -0.115556404 
553 1024 0.46070966 1025 0.48454192 1026 -0.12900314 1027 -0.3931227 1028 0.28125662 1029 0.015856434 1030 0.19868065 1031 -0.12352775 1032 -0.33436412 1033 0.22201373 
554 1024 0.26702023 1025 -0.15628225 1026 -0.17769302 1027 -0.31659284 1028 0.33289453 1029 0.087725766 1030 0.19459048 1031 -0.19177297 1032 -0.30605415 1033 0.13072568 
555 1024 0.31139842 1025 -0.44311574 1026 -0.041941043 1027 -0.17641823 1028 0.2745632 1029 0.2795262 1030 0.28386292 1031 -0.28025764 1032 -0.07429552 1033 0.12819384 
556 1024 0.18888976 1025 -0.30045107 1026 -0.029224388 1027 -0.19368792 1028 0.2157442 1029 0.19023477 1030 0.4259903 1031 -0.43465483 1032 0.35220116 1033 0.18362486 
557 1024 0.077274896 1025 -0.19855769 1026 0.053950135 1027 0.14201193 1028 0.29327115 1029 0.15063995 1030 0.30328012 1031 -0.58056545 1032 0.2718614 1033 0.087284036 
558 1024 -0.07048314 1025 0.06452396 1026 -0.0033400876 1027 -0.10330351 1028 0.19445798 1029 0.15787724 1030 -0.036721166 1031 -0.6789501 1032 -0.01756479 1033 0.21358883 
559 1024 -0.41549012 1025 0.58855903 1026 0.26024526 1027 -0.09547846 1028 -0.26939476 1029 0.02394095 1030 0.0014379823 1031 -0.58004785 1032 0.21477075 1033 0.054855805 
560 1024 -1.0699688 1025 0.48802325 1026 0.14499128 1027 0.055500492 1028 0.27372423 1029 0.019806994 1030 0.27110875 1031 -0.4794536 1032 0.15904059 1033 -0.28692725 
561 1024 -0.65519786 1025 0.5128565 1026 -0.035559516 1027 0.016058706 1028 0.31481862 1029 -0.23659529 1030 0.27884617 1031 -0.13691698 1032 -0.15456559 1033 -0.024862193 
562 1024 -0.6661009 1025 0.012058291 1026 -0.088172376 1027 0.016986012 1028 0.46532184 1029 -0.17780267 1030 0.24117945 1031 0.01649489 1032 0.11781692 1033 0.056689918 
563 1024 -0.24521074 1025 0.16929625 1026 0.115953185 1027 0.19740608 1028 0.61566144 1029 -0.09364071 1030 0.07357793 1031 0.29166353 1032 0.1514351 1033 0.37136015 
564 1024 -0.064635605 1025 -0.53553885 1026 0.0032843994 1027 0.008079399 1028 0.32543644 1029 -0.05623415 1030 -0.18152466 1031 0.26696712 1032 -0.28756645 1033 0.049624756 
565 1024 -0.16382177 1025 -1.0410148 1026 -0.055309065 1027 -0.27555716 1028 0.04806234 1029 0.09573773 1030 -0.21722421 1031 0.40550447 1032 -0.27500778 1033 -0.14226767 
566 1024 -0.07220768 1025 -1.8249435 1026 -0.022965182 1027 0.059289232 1028 0.47232157 1029 -0.15100056 1030 -0.08104046 1031 0.07452993 1032 -0.18485472 1033 -0.06607235 
567 1024 0.13804328 1025 -1.291914 1026 -0.09375771 1027 0.19803149 1028 0.31593183 1029 -0.03982423 1030 0.12007174 1031 0.42875612 1032 -0.25679082 1033 -0.052317176 
568 1024 0.033992123 1025 -0.055049956 1026 -0.036492024 1027 0.22801901 1028 0.0060087005 1029 -0.13144588 1030 0.28973696 1031 0.24565396 1032 -0.31226656 1033 -0.23042023 
569 1024 0.0067650806 1025 -0.3200666 1026 -0.28122038 1027 0.1920388 1028 -0.009399067 1029 -0.04869305 1030 0.08079361 1031 0.3758557 1032 -0.15586837 1033 -0.008906359 
570 1024 0.03044306 1025 -0.64406234 1026 -0.25424132 1027 0.37169224 1028 0.34909245 1029 0.28104416 1030 0.024677586 1031 0.26629692 1032 -0.45687917 1033 -0.3490928 
571 1024 0.23269604 1025 -0.6853357 1026 -0.062324993 1027 0.094559945 1028 -0.3144591 1029 0.08907064 1030 -0.09345263 1031 0.09983868 1032 -0.4169198 1033 -0.6085899 
572 1024 0.31950286 1025 -0.6045586 1026 -0.12396156 1027 0.31504387 1028 -0.86464244 1029 0.30809438 1030 -0.09491399 1031 -0.27480417 1032 -0.41359466 1033 -2.2216134 
573 1024 0.16441393 1025 -0.5104533 1026 0.6711616 1027 -1.874358 1028 -0.08407744 1029 -0.27553248 1030 0.39568472 1031 -1.0292153 1032 0.15258461 1033 -0.30481118 
574 1024 -0.9437277 1025 -0.14021792 1026 1.5255816 1027 0.11885273 1028 0.4117456 1029 -1.3064395 1030 -1.495868 1031 -0.61177045 1032 -1.1838541 1033 -0.064021274 
575 1024 -0.24949042 1025 -0.11136109 1026 0.7538664 1027 -0.10522104 1028 -0.6524294 1029 -0.45493734 1030 -0.5694952 1031 -0.020999648 1032 -0.2501354 1033 0.011039432 
576 1024 -0.028683335 1025 -0.0010105222 1026 -0.015806686 1027 0.00505301 1028 -0.024834178 1029 -0.02616328 1030 -0.009577792 1031 0.020551704 1032 0.02222607 1033 0.023552611 
577 1024 0.0039553903 1025 0.005390643 1026 -0.5899897 1027 0.57501477 1028 0.014274109 1029 -0.05220697 1030 -0.007163089 1031 -0.42802462 1032 -0.028950024 1033 -0.18969288 
578 1024 -0.39869234 1025 0.40476573 1026 -1.9447662 1027 0.8952905 1028 -0.31732458 1029 -0.06148459 1030 -0.01368254 1031 -0.5096577 1032 -0.50444466 1033 -0.82130486 
579 1024 -1.4493315 1025 0.23903893 1026 0.54310775 1027 0.36534163 1028 0.11224407 1029 0.20322984 1030 -0.94096994 1031 0.23576905 1032 0.1054747 1033 -0.09850818 
580 1024 0.22748195 1025 -0.03982824 1026 0.70101917 1027 0.4817416 1028 -0.22381406 1029 0.005622323 1030 -0.67615473 1031 -0.028726064 1032 -0.4730398 1033 0.27825487 
581 1024 0.15965314 1025 -0.41169173 1026 0.32750893 1027 0.3543501 1028 0.040634394 1029 -0.13105617 1030 0.017958364 1031 -0.31098628 1032 -0.33601338 1033 0.1056397 
582 1024 0.118455656 1025 -0.034331094 1026 0.28059936 1027 0.09502838 1028 0.032276217 1029 -0.16617323 1030 -0.1397086 1031 -0.19505204 1032 -0.4829309 1033 -0.20324895 
583 1024 0.0886703 1025 -0.25285625 1026 0.19635685 1027 -0.34749946 1028 -0.008612353 1029 -0.03978404 1030 0.05889678 1031 0.030125268 1032 -0.07733122 1033 -0.41657653 
