-0.017662384 0.046081834 0.058848247 -0.030541793 -0.0049227253 0.050835133 0.050430223 -0.025694273 -0.04857488 -0.058649257 -0.045166314 -0.041928127 0.028417744 -0.011245035 0.019778937 0.03991151 -0.024957761 -0.060942814 -0.040058553 -0.051495306 -0.06045744 -0.015938528 -0.03764561 0.033367015 0.044477485 -0.017514013 0.04798577 0.034091234 -0.050795242 0.02821415 0.0020116717 -0.008802362 -0.03316132 -0.03114228 -0.024629042 0.014847107 0.012034446 -0.023620196 0.062357172 0.011464059 0.057525046 -0.052956656 0.02815628 -0.011550941 -0.049839415 0.035439007 -0.050978698 -0.034192435 -0.02850321 0.018016532 -0.023696236 0.055453956 0.04614859 -0.024974816 0.010553405 -0.010336719 0.02420158 -0.010256223 0.01651305 -0.0009813458 -0.047551885 0.008000508 0.04773452 0.028255075 
0.05323875 0.0019179136 0.022525676 0.052892163 0.020659983 0.035805166 0.0054403096 0.008090772 -0.04750339 0.05797323 0.035955064 0.051316485 -0.03537348 0.056886606 0.046021193 0.0063595995 5.595386e-05 -0.040366575 -0.049639404 -0.030339308 -0.040134482 0.0031124502 -0.056845613 -0.047708116 -0.041704834 -0.033939518 0.010795519 -0.056264758 -0.047717154 -0.043997124 -0.00011976063 -0.0400505 0.011355154 0.0010503009 -0.040665366 -0.036871776 -0.04552523 0.0049904436 0.01620917 0.04042685 -0.01097472 0.054678433 0.053292654 -0.022924922 0.01802583 0.01979059 -0.036229327 -0.011564389 -0.025641501 -0.05653155 -0.031480014 -0.06155941 0.033694625 -0.002274789 -0.026093625 -0.044877462 0.042859524 0.024368912 0.025377825 -0.051955394 -0.03727021 -0.020923242 -0.04314269 0.0017641485 
-0.048124477 0.040346272 0.006915249 -0.028815813 0.040205657 -0.009202108 -0.003478326 0.061240062 0.018400311 0.0038497895 -0.03148655 -0.00529968 0.012399435 -0.0074322745 -0.0141803995 -0.02244179 -0.027970426 0.01407671 -0.058885954 0.05160688 -0.026751332 0.01868353 0.0024630576 0.019755267 0.031571753 0.013248451 0.057206355 -0.05105765 -0.0101488605 -0.03078755 0.05350247 -0.0153393 -0.04013458 -0.007086247 -0.020521574 -0.017602675 -0.008860111 -0.056410067 -0.017351985 -0.0005831346 0.056193374 0.03858286 0.0555441 -0.02148448 -0.04603061 0.009013906 -0.008249596 0.019697152 0.03058809 -0.0389693 0.01663974 -0.04763315 0.031984635 -0.018586963 0.0061185285 0.00685475 -0.024274856 0.027115338 -0.017875552 0.022916317 0.025454544 0.025377631 -0.022847705 0.036590822 
-0.22259136 -0.17258194 -0.36055452 0.27086872 0.038231827 -0.3902663 -0.15444142 -0.1930793 -0.0065307533 0.018568207 0.070845224 0.010939894 0.29818282 0.18640538 -0.00024351027 -0.16533604 -0.2194224 0.08899428 -0.017142385 0.07855398 -0.12298799 -0.05762187 0.04375179 0.14207709 -0.07085011 0.24261339 -0.013006434 0.17510524 0.024814565 0.26222718 0.16222537 0.20079088 -0.12503341 0.004208633 -0.1781229 -0.25702748 0.18725842 0.035886053 0.02336126 0.034417912 0.02659268 -0.3984222 -0.20645426 0.21368977 -0.12921229 -0.1217454 -0.10789244 0.03421891 0.03350048 -0.21981068 0.0010880538 0.21768492 -0.10770224 -0.21512821 -0.079247445 -0.0074004424 0.16725254 -0.3845378 -0.16768235 0.24707226 -0.08334716 0.1915176 -0.08725333 0.1428832 
-1.1508471 -1.043075 -0.71628594 0.47271764 -0.5141404 -1.3288062 -0.47411758 -0.7024651 0.009529439 -0.19270901 -0.34026068 -0.4800693 1.0410908 0.24825926 -0.27198765 -0.40144354 -0.4262077 0.35947153 -0.048046414 0.101516366 -0.72180706 -0.822423 -0.55967647 0.17218037 -0.011971775 0.87219864 0.052471925 0.86427087 0.028863786 1.2677629 0.69825745 0.1573035 -1.1501445 0.24927637 -1.1091331 -1.1845318 0.6669126 0.058632433 -0.06976666 -0.15358347 0.42467612 -1.4728167 -1.1695446 0.8568732 -0.25671571 -0.20477337 -0.16088782 0.575856 0.3986295 -1.0908418 0.07796912 0.76522225 -0.5665051 -0.9804625 -0.62213165 -0.16706762 0.49814135 -0.97240525 -0.5397734 0.59562504 -0.23792993 0.70798314 -0.40353376 -0.08722959 
-1.7056481 -1.8689598 -0.13774726 0.40800563 -1.0594645 -1.0001792 -0.40489703 -0.91748816 -0.10261917 -0.4597242 -1.4755585 -0.86536074 0.96169204 0.19330831 -0.43838575 -0.5335404 0.07936249 0.8191467 0.06822035 0.40959015 -0.20932639 -1.8154256 -1.0233176 0.23232368 0.60141236 0.90008646 -0.08694931 1.3136215 -0.05669868 1.4837904 1.4806255 -0.40767196 -1.7887772 0.6322545 -1.9407536 -1.687679 1.1267016 0.19291599 0.28493154 -0.33749166 1.0064505 -1.7218945 -1.5774567 1.3219156 -0.5873646 -0.08518609 -0.599323 0.7818568 0.7618503 -0.16465127 0.11698826 1.2837896 -0.018168366 -1.222384 -1.46412 -1.7416534 0.13829683 -0.21282466 0.19659804 0.42307305 -0.31044862 1.1325419 0.53828555 -0.99446476 
0.9738637 -0.058332648 0.52451986 1.3037821 -1.553595 -0.10963516 1.9241794 1.2388316 -0.38650638 0.90822 -1.6756334 0.73616296 1.180016 1.5728137 0.27794296 -0.6964375 -2.3251705 0.82702434 -0.78381103 1.2725587 1.3969828 0.6083844 1.2422285 0.8962246 -1.9216961 0.18243863 0.06667914 -0.14206783 0.51534766 -0.3988634 1.2516216 -0.20188399 0.64659953 -1.264945 -2.433592 -1.1665807 1.9605693 -1.5106859 -1.7972666 1.8524377 0.36642072 -2.598213 0.29824868 1.9786426 0.95973384 -2.011231 -1.0081027 -1.3972394 -0.59064066 -0.38356808 1.6759237 -0.5075708 -1.944382 1.6058236 1.4307393 -0.3206913 2.2148435 -0.5307727 -1.1665347 0.78034693 1.5019393 -1.0083266 2.0901752 0.17175964 
-1.7732543 -2.4745665 -1.6810368 1.3424151 -2.4434576 -0.6004649 0.73411757 1.0012573 -0.27116182 0.03017 -0.30745557 -0.48620784 1.7043697 1.2829785 0.9420882 -1.65938 -3.0207868 -0.39870808 -1.1792791 2.0502808 1.123561 0.8259164 -1.2522428 0.07703911 -0.9066525 -0.8449974 -0.45526826 1.0002003 1.9130988 1.2659642 4.2269692 0.1286297 0.7045587 0.49874443 -2.8866553 -3.8836532 1.5301462 1.890388 -1.6394025 0.5045366 0.6160817 -3.6397896 1.2413025 0.687667 -1.9547973 -2.8455074 -2.2805853 0.3664227 -0.66261786 -1.4196271 1.8946185 1.3164625 0.81418014 1.2781185 -0.4070277 -1.9307563 1.4324566 0.28589758 -0.31541893 -1.2585306 0.42903483 1.0793345 0.72477365 0.25602773 
0.9365465 -1.9114742 1.7143255 -1.6419573 -1.0755205 0.33082438 1.5491984 -1.5928508 -2.9554522 -0.31493163 1.1893357 1.5863001 -1.2834638 -3.4084609 0.6609616 1.4454789 -0.060417898 -0.7534823 -0.18318927 0.3876344 0.44361526 0.59795356 0.23018114 -2.9501958 -0.99413335 0.8379625 0.98356974 0.44639787 -1.6239898 1.8907443 2.8029935 -1.5826794 -0.6451997 -1.7396612 0.575652 -0.76593006 0.003141087 2.0688236 -0.5495156 -2.7624524 0.2983941 -0.9189599 -0.020276608 0.09061621 -0.16919261 -1.957843 1.4731114 0.5801007 -1.0505387 -0.18013793 -0.0044750264 -1.0411013 -0.46678028 0.10425222 0.33837464 0.30505875 0.7606071 1.2191037 0.7166745 0.6358269 -2.4132955 -0.9121985 0.069469124 -1.211794 
0.40952182 -1.6772441 -1.6621654 0.37170833 -3.2918005 0.26058328 -2.1094203 -1.2267454 -0.8718475 -2.1226628 -2.3277302 0.5973079 2.1454911 1.6624473 1.765706 0.79015815 -1.6875911 0.4461224 -2.3639355 2.5659168 -1.4554746 0.9786204 -1.1229936 -2.5038834 0.5909241 1.3382139 1.7967045 1.3330588 2.7425876 1.7920731 2.6730711 1.1532289 0.8207305 -2.3070076 1.0233362 -1.6857879 0.28375977 -1.3487473 -2.1725729 -1.277502 -2.0625796 -2.3135216 2.4222903 1.8266276 -1.7228272 0.65555584 -2.376653 0.5652982 -2.0911903 -0.3494533 2.6988196 1.0824233 3.2033942 1.5895883 -0.61964595 -1.2404801 1.6938193 0.66555035 -0.841112 -1.9296844 2.984254 -0.89994836 -0.0018870599 -1.8990908 
-3.285528 -0.6907647 0.911138 -0.39163843 -1.6303642 -2.216179 -1.8827393 -1.0656401 -0.050879072 -0.7503537 -1.2155911 0.0117164655 0.8904358 -0.28610155 0.61239356 -0.24155161 -1.1660912 0.9118989 0.4904985 2.6313863 -1.793982 -1.5579019 -0.22855131 -0.27787596 -0.7371339 0.09947516 0.4718805 1.9181415 1.3976327 2.1299713 1.2424477 -0.76850045 -0.96171236 -0.26875317 0.03129734 -1.4028934 1.3809013 1.8300335 -0.9475059 0.22052269 -0.11055089 -0.5265494 -0.21427953 2.163551 -1.7144811 -0.48284552 -1.4486915 1.8561747 0.0394892 -0.08258935 0.5077538 2.2255995 0.5192263 -2.3688626 -2.105772 -0.30804577 1.8714827 -1.100165 0.97889066 0.22833863 1.3146403 -0.50794566 1.3389479 0.27340764 
-2.1219254 -1.1952953 -3.2990587 1.0026932 -2.2010603 -2.7464845 -3.0346582 -2.2333307 -0.13263634 -1.4422203 -0.9511689 -0.40288764 2.1591852 0.96981066 -0.8795319 -0.3374114 -1.8428267 1.3057373 0.8426741 2.263852 -1.3491856 -2.3423474 1.1020341 0.6199901 -0.67685914 1.2525605 -0.020067181 1.528644 2.035081 0.06670986 2.0846865 0.9583102 -2.566108 1.1985197 -3.2001863 -3.3162143 1.168315 2.0875444 -0.67767626 0.37221223 0.7817239 -1.2116357 -0.89244676 1.0327853 -2.683604 -2.6742296 -2.7249246 0.1861974 0.64438736 -0.23503508 -0.98041195 1.1106555 -0.5007051 -0.8423277 -2.9970737 -2.5802805 0.56455666 -2.585529 -0.023412015 1.4832504 -0.11588443 0.86627686 0.45686078 0.41503355 
-1.515611 -0.88703275 -1.8401867 1.6528876 -0.8583189 -1.7044858 -1.9110163 -1.183587 -0.08440655 -0.89250565 -1.2023287 -0.16722468 2.03323 1.5253761 -0.98887765 -0.028126316 -1.0323362 0.5963376 -0.043604024 1.0964278 -1.8434025 -1.1040931 0.04389555 0.697093 -0.1567377 0.115969345 -0.34160778 0.37905946 0.82757527 0.770889 0.43394536 0.7119918 -1.049963 1.162757 -0.51826346 -1.1926541 1.591395 0.8026083 -0.1344044 0.024020895 0.13608618 -0.70122766 -0.18532182 0.63378817 -0.47684205 -0.386413 -0.83524 1.2086015 0.34748578 -0.059126154 -0.17330581 1.6809361 -0.44758356 -1.0931424 -1.7851332 -1.2145932 1.7086946 -0.66776055 -1.338651 0.6059771 -0.04077583 0.59269786 -1.1454904 -0.001231429 
-0.8934828 -0.6994548 -1.497939 1.1885248 -0.5094633 -1.581282 -0.5050069 -0.5599121 -0.050984826 -0.6038885 -0.8863783 -0.1047937 1.0150156 0.9259992 -0.6641904 -0.25673732 -1.0605711 0.4856684 0.47479638 0.41142124 -0.60222715 -0.5094186 0.28112063 0.7181234 -0.32649383 1.4102408 -0.23118323 1.6831623 0.028706852 1.0291802 0.53293484 0.7698396 -0.46753505 0.40510648 -0.44263396 -1.2526815 0.91865987 0.1825434 -0.9350603 0.005220782 -0.18057558 -0.6907592 -1.2172003 0.50243664 -0.8396948 -0.6302872 -0.70179904 0.49144858 0.31240937 -0.11481936 0.08910114 1.373189 -0.47141206 -0.6869052 -0.71746254 -0.8307404 0.74546725 -0.4922506 -1.4098094 0.637186 0.12646502 0.9723564 -1.1029617 0.68618053 
0.024704121 0.038049586 -0.027355932 0.025248267 0.004930243 -0.02886898 -0.0214151 0.00814943 -0.047946766 0.04717365 0.026345462 0.041220903 -0.01308959 0.02509427 -0.04448729 0.02753608 -0.04855068 0.020206146 0.04447514 0.034774132 -0.004613586 -0.0219208 0.0052184686 0.017210193 -0.059277184 0.031364627 -0.010154232 -0.06016264 -0.035644628 -0.02268248 0.04351513 -0.02239208 0.059271827 0.048576318 -0.036450237 0.027693324 -0.003284365 0.05455468 0.024475344 -0.0061485916 0.058873415 -0.06067928 0.050595015 -0.050898306 -0.027703382 -0.004377857 -0.057715654 0.054017097 -0.046065666 -0.036499716 0.048283108 0.01699964 -0.02310124 -0.04845374 0.03743557 0.043122716 -0.042368017 0.011705503 -0.040316775 -0.011585079 -0.023526445 -0.029863939 0.06022983 0.0036428422 
0.04106438 0.020939313 -0.057668194 0.022664472 0.011166193 -0.0010085776 -0.017818369 0.03077823 -0.028177463 0.0071478635 -0.031680934 -0.040934682 0.0012263283 -0.038420573 0.0144598335 -0.018533774 -0.050286688 -0.036574103 -0.05008354 -0.038333096 -0.058485687 -0.050983533 0.039582245 -0.04186207 -0.00045653433 0.041852035 -0.021080665 -0.042825624 -0.04031203 0.01750508 0.03688462 -0.038649604 -0.040790796 -0.041441627 0.04427457 -0.020769216 0.034419544 -0.037765674 -0.061523475 -0.021655753 -0.02478882 0.02552785 0.028101139 -0.021159291 -5.9604645e-06 0.0129606575 -0.0477594 -0.008443162 -0.033301488 -0.0026136115 -0.031913802 0.054362632 0.03200887 -0.039654717 0.052852996 -0.036049217 -0.061526664 0.01057861 -0.034441486 0.04969421 -0.040146522 -0.019888453 0.056186862 -0.053011745 
0.013344817 0.021828666 0.022338785 -0.056517363 -0.044289514 -0.0025955588 0.04530052 0.004048787 -0.0008174181 0.02293498 -0.04651457 -0.045788497 0.054439195 -0.009088688 0.025057323 -0.061886072 -0.05530809 0.057579435 -0.022441514 0.038518384 0.026344195 -0.017759636 -0.054011986 -0.00268659 -0.032424264 -0.01574415 0.057457834 0.05798748 0.058248878 -0.0041233376 0.056767657 -0.029069372 0.004928753 -0.018202677 -0.062468886 0.051078625 -0.028819516 -0.03636021 -0.004048586 -0.031115294 0.062018543 0.004345238 -0.0059358478 -0.048173398 -0.04155846 0.006597236 0.01958377 0.059940934 -0.0027601048 0.039863184 0.05318401 -0.037678406 -0.005395025 0.046559617 0.050760277 -0.035330757 0.027937792 0.05461824 0.006700732 -0.047344193 0.047925256 -0.055757858 -0.015922755 0.014503241 
-0.026500924 -0.007681272 -0.0096722115 0.030515643 -0.009121491 0.010299792 -0.22918336 0.0015972464 0.041559733 -0.015085199 0.08164587 -0.047137313 0.12080743 0.06439021 0.0384718 -0.050794438 0.057501838 0.006815078 -0.05215281 -0.074904405 0.13346325 0.03903511 0.05773204 0.043252833 -0.0021273158 -0.019596595 -0.02681387 0.03622322 0.0046941782 0.028803375 0.01582749 0.0067642466 0.014909268 -0.021229872 0.034652967 -0.19370127 -0.091373876 -0.03016914 0.039610103 0.04494602 0.032779377 0.18102765 0.02708911 -0.08118021 -0.14214583 0.01894736 -0.11661771 -0.051692072 0.04753102 -0.017814022 -0.055282064 -0.031456184 0.023324462 0.15490991 -0.07682375 -0.045294125 -0.1818553 0.011437265 0.078449585 0.0794681 -0.07027895 -0.0851662 0.028144194 -0.058017746 
-0.116156444 0.26879013 0.14167184 -0.016202455 -0.23272641 -0.10911063 -0.3879894 -0.56343025 -0.03923565 -0.0013966218 -0.022989055 -0.052710567 0.119347684 -0.19708167 0.31363115 0.0058965753 -0.11463496 -0.026019158 0.09290053 0.478025 -0.31413865 -0.10372896 0.22434619 -0.06311616 0.09394749 0.015952721 -0.02759884 0.08821094 0.68041706 -0.059666388 0.71077925 0.025371548 -0.042699594 -0.095556445 -0.24333411 0.061315145 0.7942058 -0.057191607 0.031967327 -0.05099439 -0.038769104 -0.6027355 -0.090980746 0.18363549 0.022421557 -0.05825 -0.13333085 0.020118633 0.051421013 0.004242832 0.04315769 0.3752039 0.04260441 -0.3613412 -0.06874046 -0.19335441 0.5669221 0.05890145 0.1123294 -0.060793854 -0.091440424 0.1484411 -0.09568143 -0.099979684 
-2.2728775 -0.5280072 -2.580588 1.181438 -2.4148066 -3.0706644 -2.9159575 -1.2906941 -1.9712898 -2.6293466 1.4560317 -1.642233 2.052503 -0.5861246 0.47980708 -0.434442 1.7822545 -0.228294 -2.0339227 -2.2398791 -1.9693657 -2.4303625 -0.5876499 1.3981382 1.6101809 0.9617599 0.61285186 3.4292068 1.1961094 0.97432595 0.4628771 1.2566917 -0.017964447 1.5003098 -0.014665033 -3.3157804 -0.19217803 0.4582623 -0.08448865 4.537052 2.3944094 1.2220954 -0.34803697 0.79124314 -0.96450806 -0.008521899 -0.458621 0.91892934 1.3547405 0.19172165 -1.9109504 1.2509321 0.55271006 -0.9660158 -1.6598643 -1.0032138 0.809086 -0.063137665 1.6714647 0.4161958 -1.1886938 0.8040626 -0.88138604 0.474453 
-2.5686915 2.1509237 -0.8748741 1.7198232 -0.13424449 -0.8702472 -1.6226027 -2.0495324 -2.1321652 -4.3753886 0.95207924 -2.690794 3.439867 -0.20390706 3.2771502 1.3058267 1.5700583 0.34922075 -2.2976675 -4.2788763 -1.6282806 -0.10018636 -0.56579715 -0.13304739 1.2091763 0.46146098 0.7233289 1.5964357 0.3909958 0.39836237 0.17840157 2.4573348 0.45454016 1.6259712 0.80862904 0.90668887 4.01099 -0.7766577 -2.4048955 2.087954 1.2110825 0.84144014 1.0712769 -1.613815 -2.102623 1.8285633 -2.6508605 -0.7196975 0.091626726 -2.7161956 -0.6120378 3.2120447 1.4943347 -0.642127 0.08134803 1.5488175 -0.23609444 0.4306266 0.7117668 0.15230508 -0.45099464 -0.25333384 -0.5917058 1.1135741 
-0.9917897 3.1213694 -4.3673205 4.3004384 -0.92626345 -4.937719 -3.4188168 -2.3222158 0.2383242 -3.4275079 -0.12933546 -1.6484175 4.3321705 0.27259505 2.3731236 1.5949886 -0.2263231 -0.48176724 0.7527842 1.2047894 -1.5739611 0.1253602 0.5402276 0.03675231 -0.045200974 2.8501132 1.9436531 1.1226488 0.657977 -0.08285954 3.658548 0.22971302 -1.3705173 -0.5163322 1.7633015 0.86829406 3.1449049 -2.3411486 -1.8645215 3.759369 2.0998678 0.8264924 -1.2207391 1.0121189 0.047724236 4.00321 -2.3312273 -0.9970884 0.8615245 -2.0775661 -1.4370929 3.8757668 -0.55330175 -1.4406087 0.9048692 -0.031211741 0.8925115 1.124778 0.97903913 0.54275274 2.1137938 -0.83776397 0.5724321 0.31838775 
-1.4992043 0.276561 -3.063722 4.022037 -0.75291896 -2.8559217 -1.4078269 0.4250327 -0.44474563 -5.4906006 0.70123446 1.1928259 5.2992554 1.5610514 2.4256704 0.09694967 1.6908896 -0.010182892 -3.891619 -1.1362351 -2.0923803 0.8862631 0.108603336 0.4293729 -1.123789 1.8989581 2.711259 1.8250118 0.8048511 0.1008662 4.020228 0.67091584 -0.8235224 1.4623611 0.9554357 -0.67072046 1.848525 -1.2264673 -1.9599029 0.005192859 0.65448946 1.2919514 -0.38310385 -0.4144865 0.10193168 1.8574271 -3.7674804 -1.6567736 1.6706839 -1.8598795 -4.602482 3.933371 -0.8223928 0.035547573 -0.54406863 -0.1699383 -0.9013291 0.6934761 1.2756177 0.6788496 -0.50243264 0.7716603 0.06848259 -0.09430639 
1.3834666 -2.2427237 -1.3088875 -0.12099957 -2.3709395 -1.5902054 -1.0508287 5.2236223 -1.7742202 -2.4933836 -0.42637894 0.31064534 3.0551147 1.2197042 0.97141325 -1.931386 0.300275 1.8426802 -3.5788038 -0.1888736 1.035386 -0.7293649 -0.07718606 -0.26320928 0.0036419746 0.4337796 -0.45126766 1.1208872 1.4224207 0.9180085 2.1645188 0.48732555 1.1357497 -1.6129194 1.5235543 -0.28223252 0.20343271 -1.9061509 1.1723921 -0.5047011 -0.465043 1.0752102 -0.7458726 0.53263545 -0.6030477 -0.551971 0.86657745 -2.5830958 1.5453371 -4.1768346 0.7258015 3.4847784 1.9118263 -0.5413976 0.6858875 0.84395015 -0.015027918 0.75043565 2.0805612 1.7130816 0.15731749 0.13128272 -2.053014 -2.1579816 
-1.2853938 -1.3767157 -2.2301447 1.0702157 -1.3267097 -0.79073805 -2.1947544 2.1226194 -0.79790455 -0.6492866 0.9776615 -1.3521041 3.0094798 -0.6152366 1.4299474 0.8807412 0.10896869 0.36438105 -0.7426603 -2.6324272 -0.07790106 -2.314615 0.09752321 0.9091465 -1.1514385 1.5767909 -0.055561952 1.3465855 -1.9725338 1.065386 1.5248178 1.5786664 0.56742567 0.8219635 0.5102138 0.2033178 0.5194808 -0.99800783 1.8371767 0.21220846 1.2598168 1.0970466 -1.9464662 -0.2753088 0.047396824 -1.2746592 1.9701278 0.07266329 1.5089602 -3.324107 -3.7175014 2.8795283 -0.21587834 0.7026833 0.7581166 0.56731886 0.28990364 0.15655677 -1.2260222 0.8677495 0.064139865 -0.01340197 -3.6770403 -1.6222558 
-1.0374031 -1.7394798 -1.8263079 0.312044 -0.83399737 -0.014715545 -0.7592469 0.72097903 -0.3179735 -1.3331664 -0.1566098 2.3337417 0.88873917 0.43460608 3.4444196 0.95674765 -0.14725739 1.2613814 -2.7225947 0.896066 -0.25962058 -2.0182393 0.33818504 0.41082063 0.7714834 -0.77273893 1.0662555 1.4319073 0.3960388 1.3335322 1.307862 2.3591661 1.3161453 1.4648914 1.4910649 0.5890297 0.8517283 -0.56144536 2.2208626 0.54848677 -1.2147433 0.6899216 -2.8129654 -1.2504216 1.2177678 -0.38903555 -0.11270618 -0.5488084 0.97230995 -0.5428615 -0.09915829 2.8503873 -0.7141181 0.07894299 -0.31958005 -0.60585046 0.9001465 0.61490405 -0.22027932 1.0520669 2.185113 -0.05010883 -3.70494 -0.68897694 
-3.4561574 0.05288331 -0.3472349 -0.33675078 -1.870677 0.15105842 -1.3172808 0.2383148 1.0393915 0.22711639 -0.41735813 2.8464112 -0.96747434 0.43200958 2.41139 -0.0035100945 0.0106757935 0.34867305 -1.3348047 -0.24869476 -0.15801135 0.20865196 -0.28106603 -0.26151672 2.341532 -2.9577928 -0.26826525 2.622887 1.3806331 1.610308 0.7443427 -0.025693597 -0.21099141 2.8477943 0.42707363 0.55776435 0.36173347 0.15264997 1.8792427 -0.86111677 -1.1219972 0.36792597 -5.008805 -1.9877903 0.9094242 1.8410516 0.48918992 -1.8773596 3.5188906 2.4181788 -2.191971 1.0599523 1.321943 -0.57856524 0.08673733 -1.3769302 1.0390924 0.0062572677 2.286212 2.0045202 1.3353791 1.1070838 -1.0515636 0.48093447 
-0.39008006 -1.4968394 -0.2244517 1.3656893 -3.180589 1.0828217 -1.5122386 -1.159167 2.3823416 0.087179266 -0.5173881 2.2332032 0.76939243 0.2857546 0.2170024 1.5644435 -1.22205 -0.00039900193 -2.30997 1.0536008 0.3951968 0.13794655 -1.1906402 -1.0854536 2.3124006 -1.8083539 1.4389954 -0.8491682 0.8831241 2.30919 2.9796796 -1.9636103 -1.0755932 2.3772228 1.2120343 0.3513694 1.5101737 0.8372995 1.6159843 -0.99178904 -0.9332322 0.39984152 -4.0961347 1.1665913 -0.90743154 0.5143397 0.16127796 -0.08392607 1.6215283 1.6377207 -1.9317093 2.105899 0.35963705 0.08738097 -1.7150782 -0.03813485 0.65172696 1.7228296 0.46867803 -0.6816687 0.13754506 4.0143743 2.8260624 -1.1634817 
-1.7601292 -0.44752476 0.93492895 -0.92720413 -2.2875352 0.43273088 -0.483722 0.9296295 0.92203546 1.8054733 1.8031044 0.7361657 -0.3272105 -0.6955083 0.058337484 -0.017772594 -0.5202675 2.26865 -0.6916429 2.920939 1.5959011 -0.5354818 1.1168722 -1.1940529 1.7872854 -2.502524 -0.80340713 -5.968921 -0.11575219 -0.4607681 1.1688081 -0.23301642 -1.9433858 1.1651348 -1.072097 0.24237895 1.7257687 -1.4036801 1.1709933 -0.35918763 2.5774364 -1.306511 -5.1701446 2.596716 -0.41523984 -0.83503836 -0.5778064 0.18222955 0.677687 1.6465737 -2.5808496 -1.3543154 -0.50248075 1.7070482 0.33831584 -0.7606578 1.260309 0.33379653 -0.5315691 1.5189365 0.30305326 2.4277225 0.12542562 -0.08848944 
-1.9792312 -0.107897826 -4.9591146 0.5796801 -2.4839752 -2.055228 0.141792 0.33258334 -0.59224945 0.49392155 -2.4850736 -0.033553027 4.664073 -1.3739917 0.8205043 -0.33853525 -0.65788656 -1.385528 -0.5704477 2.2255993 -0.26534075 0.38205296 1.498806 -0.57981384 -0.10031296 1.427701 2.253357 -0.83905727 0.51051 0.2742556 2.0845463 2.5137045 -1.4445398 2.717848 0.2566659 0.17618254 0.9099238 0.47280765 -2.4492173 -0.5660355 0.1972442 1.3530829 0.7344346 1.4306017 -1.2753131 -1.0076451 -1.8638567 0.12320888 2.035343 0.7955881 -0.8862372 0.9503001 3.3526657 -0.9154505 -2.7755716 -1.8562844 1.0817571 -2.123594 0.7485517 0.68295485 0.9428889 0.006970141 -0.6740298 2.0704 
-1.0307897 1.5891523 -0.8001064 0.95422876 0.050149776 -1.2794981 -1.7060964 -0.13365506 -0.0068964856 0.5808884 0.15838937 -0.13382503 0.6342389 1.2785878 0.22028732 1.3214214 -0.0923393 -0.8087342 1.7741823 0.30063176 0.74930555 0.24861659 -0.77293634 0.4771872 -0.28007177 0.17512368 1.243164 -1.2449902 0.9688861 -0.25252253 0.26690334 1.0402963 0.03586498 0.057272833 2.1346452 1.8425126 -0.1632718 -1.0204984 -1.4076895 0.8781722 -0.34302625 0.14817938 0.6914142 -1.8740017 -0.55334604 0.3135967 -0.65268457 -1.312879 -1.2607827 -0.39352337 -1.556595 -0.7048143 0.27936447 0.3519872 1.0455825 1.3528864 -1.6345817 0.10523796 0.2176929 0.39329156 1.5114206 -1.3612139 0.065469 -0.7996195 
-0.059004672 -0.0015851334 0.04934968 -0.005957529 -0.046066247 -0.012968704 0.054215014 -0.04038331 -0.027299203 -0.044395454 -0.013537474 0.0055605546 -0.05850721 -0.05436109 0.058409914 -0.036263235 -0.036470942 -0.0073426813 -0.022518717 0.019003794 0.0066210777 0.025008865 -0.046224967 -0.019849688 -0.018081032 -0.016855597 0.011386439 -0.007498279 -0.03145264 -0.031854212 -0.049919687 0.007567525 -0.041834526 -0.033593595 0.038689546 -0.060241446 0.03468304 0.020539701 0.040302016 0.03909707 0.056248337 0.01329495 0.0050034076 -0.006944552 -0.0036328882 -0.05085347 0.023990586 -0.036951773 -0.061670095 0.012805007 0.032433935 -0.011781141 0.0023824126 -0.021417059 -0.036358587 0.032320693 0.03221201 0.038896054 0.0007997826 0.049585633 -0.055405773 -0.015511125 -0.035084203 0.0012916252 
0.04508891 0.05886601 0.06107422 0.022019513 0.022041261 -0.013058417 0.028657645 -0.045047067 -0.020969719 -0.010067001 0.04548145 -0.005737543 0.04723157 0.034906767 0.044460513 -0.007821873 -0.029137693 -0.011942364 0.038040265 0.036558583 -0.061638176 0.004651226 -0.0063286424 -0.035851866 0.03585089 0.0009922087 0.030205868 -0.05339945 0.008627072 -0.050135292 0.018129624 0.045229204 0.021749087 -0.044986546 0.0022127032 -0.048947923 0.020260997 -0.019034147 -0.062464505 -0.037388816 0.050563015 0.053631447 -0.013236366 0.029761165 -0.05713582 0.015237965 0.015294045 0.013603181 -0.042997867 0.001016371 -0.027744666 0.03386163 0.05953575 -0.05912248 0.011525109 -0.028561115 -0.048743196 0.022074014 0.04284153 -0.053292833 0.014864132 0.045245245 -0.031639427 0.034370005 
1.5143487 1.0169255 1.0109036 -0.7038315 1.4953347 0.31529313 1.4566433 -0.9190182 -1.055771 1.1470628 0.14360155 0.6138426 -0.9640716 -1.8824294 0.5772972 2.0282614 -0.048374698 -1.4388483 -0.07976759 -1.5510328 -0.060973123 0.018959844 0.15480758 -2.0229197 -1.5379215 -0.0033828886 1.2079986 -0.37069947 -0.6879702 1.0409834 0.27729145 -0.42357028 0.7159859 -1.5880698 1.7484671 1.8934945 -1.9126642 -0.8730644 0.4167108 -1.707144 0.71351147 1.3000784 0.17270039 -0.72440505 -0.46883136 -1.0768331 1.0896859 0.40585265 -1.6895936 1.0550845 -0.12294344 -1.4929953 -0.9166748 1.5123469 1.2854514 1.680317 0.503553 0.2908424 1.3304248 -0.5222806 -0.98787504 -2.0770302 1.7565702 -0.8270646 
-1.4290237 0.078146696 0.44861686 0.80393296 -1.324973 -1.5639014 -1.8359809 1.7431097 -1.5956068 -3.3919864 0.76740336 0.15543 1.7709128 1.4587307 1.1360749 -0.29259884 2.4390411 1.8075387 -4.0077004 -4.013598 -0.6127703 -0.28469 -2.7462194 -0.45852447 1.0058979 0.31795838 1.1415918 0.95376444 -0.16928996 0.39025745 0.83961076 1.197968 0.28353503 1.0202929 2.4129007 -2.5401142 -0.51844746 -0.36473423 -1.3185925 -1.8961672 3.5385604 2.9615636 -0.84154356 -1.1390611 -1.2205603 1.1772022 -2.1930954 0.33277357 2.0924134 1.3891222 -2.351693 -0.27956584 -0.3242264 -0.6758929 -0.29766485 0.35164112 -0.7198493 0.31199396 1.7426267 0.6897274 -0.08587135 -2.073834 2.4151127 -0.9737478 
-1.0712684 1.4383736 -2.0296814 -0.62180775 -0.9805688 -0.7014756 -1.4699069 -1.3016218 1.2028024 -1.8083439 1.134815 -0.9280422 3.6373029 -1.1475381 0.019479102 1.4921601 1.0161339 -0.71325004 -2.480403 -1.5946211 -0.18851958 -0.67169136 2.1520166 -0.86745334 0.71687406 1.1692711 0.7875353 0.84484696 0.029172035 -0.3352453 0.5444302 1.4020802 -0.22964726 3.1722422 0.31950343 0.9562444 1.1653377 0.113188304 0.8201748 -0.4850462 0.63797027 -0.13286413 -0.6328285 -1.0268584 0.39285487 -0.24466956 -5.1565804 -0.39557374 1.0008 1.0123585 -1.7095999 0.23725848 -0.48087296 -1.0500023 0.21381721 0.71097285 -0.47375774 -0.56296784 -0.12668693 1.4382954 -1.2223547 -0.80759776 2.1309857 1.0886093 
-0.42580643 1.228698 -0.034196682 1.0355904 -0.9762221 -0.7207427 -1.7679665 -1.3294536 -0.9425378 -2.0108042 0.7730648 -1.2038764 1.7483958 -0.5987458 0.04565796 0.6142784 0.14893678 -0.107834965 -4.464342 -0.71877366 0.6581474 0.73817295 1.1610507 -1.1453612 -0.10968838 0.9084572 -0.24933314 0.48761475 0.042091075 0.42699474 1.6272024 1.9272704 -0.02785622 3.7579558 0.8722564 0.16289715 -0.45650667 0.18332972 -0.7733123 -0.35536075 1.4374359 -0.2997843 -0.7671726 -0.9846696 0.5643309 -0.90680134 -0.9212963 -0.900168 1.32387 1.1328701 -1.6755593 1.2447658 -1.7810466 -0.65873855 -0.47674084 -0.65754515 -0.75827014 0.45766875 -0.039824784 -0.041802958 -0.63682204 -0.36193025 1.1164824 0.85536677 
-1.0123587 0.4369842 -2.6293366 0.18885426 -1.8272916 -1.4157972 -0.6922219 -2.1543667 0.52034116 -0.93186384 0.021130687 0.91350424 1.788805 -0.7056824 0.4995577 -0.25027758 0.15889989 -0.6555725 -3.809277 -0.050093394 -0.44853297 1.4531752 0.9824726 -0.16504517 0.4608579 0.9163168 -1.6995173 -0.54352975 0.94655126 -0.7991025 2.1885698 0.013618499 0.5309249 3.4576697 1.1599296 0.1329035 0.2972255 -0.12121282 0.27417326 0.95203966 0.7428697 -0.42188978 -0.6578414 -0.9733689 0.8006256 1.1444223 -1.1124204 -0.7586547 -0.2073658 0.61278176 -1.6648303 1.0264702 -2.9224129 -0.86745596 -0.7197218 1.1994816 0.12934898 0.39305395 0.13410851 -0.25314346 0.6731316 -0.035304308 0.6656978 0.6846677 
0.2357067 -1.3784556 -2.143596 0.1883732 0.773008 0.3935719 0.35154092 3.7469969 -0.20864731 0.0020873991 -0.22010905 1.2264577 3.356554 0.022762911 0.121135056 1.1534193 0.53721905 0.07527389 -0.90491825 -0.230224 -0.63530785 1.8049632 0.36577666 0.19191092 0.26009923 0.67095023 -0.6264921 0.17289415 0.018100306 -1.0044498 1.9582986 -1.0672306 0.6125739 2.9710734 0.40758255 0.45240358 0.8053877 -1.0475093 0.5768513 0.5055088 -0.53457844 -0.022294594 -0.8309734 -0.53109777 -0.5607887 0.52154166 -0.023118654 -0.52502126 -1.4082049 -0.39107332 -1.0723659 0.027879285 -0.22043538 -1.3805435 -0.6474535 0.25135192 0.09234588 1.0039392 0.22999877 0.047562853 1.3627845 0.6538911 0.24349378 -1.2369993 
0.158214 0.13754569 0.25002465 -0.07937872 0.23597263 -0.31280598 -0.44383854 3.64078 0.6350761 0.33820698 -0.25184596 -0.10976674 1.8430717 0.018802207 0.6271988 0.33954233 0.76680577 0.0804578 -0.47727126 -0.64560914 -0.024576308 0.91946495 0.18403551 0.7236531 0.089764714 1.1575952 -0.013067425 -0.4352706 0.80352026 -0.46767965 0.55533516 0.025975754 -0.081108466 1.0501053 0.8478941 -0.52002174 -0.08034789 0.054415338 -0.49332365 -0.037144173 -0.17133838 0.40881082 -1.4194114 -0.80616987 -0.45999432 0.09770114 0.48909682 -0.32246134 -0.65139616 -0.2966013 -1.3540977 -0.4054485 3.757141 -1.6361625 0.10015425 0.121744454 -0.19987282 0.6633985 -0.46658024 0.20561561 0.02031496 -0.4617807 -0.22014454 -0.65955454 
-0.255028 0.16500437 -1.3546697 0.5614918 0.67187154 -0.50752705 0.89367175 -0.20739661 1.4161226 -0.0609167 -0.66806877 -0.84381664 2.5449715 -0.56332207 0.46721953 0.47248825 -1.6716642 -0.022489956 -0.2970431 -0.5009747 0.14242652 -0.0487412 0.0009464645 0.0122178355 0.0375156 1.0563633 0.7725632 0.24809335 1.3013163 -0.06321331 0.32275683 1.7287825 0.08363938 0.5174143 0.81495905 -0.66439915 -0.8012655 0.17029788 0.34994605 0.4550202 0.42698798 -0.044281278 -1.7199116 -0.54533595 0.50665706 -0.07606694 0.07647199 -0.01393026 -0.5665191 0.46153164 0.0859018 -0.17840166 1.5057391 -0.7064519 0.29812077 0.5109364 -0.35459533 0.21309552 -0.3513793 0.4126091 -0.31814897 0.5785272 -0.016978703 -0.63126487 
-0.7459228 -0.50062585 -1.7637929 0.6410666 -0.13908383 0.83124876 0.8099992 -0.2020551 1.1645423 -0.3905483 -0.21223377 -0.9477817 1.9382578 -0.1465451 0.25077066 0.121049725 -0.598761 -0.04882854 -0.28855693 0.1329219 -0.24695611 -0.12854546 0.08646743 -0.12467757 0.59703505 -0.89549404 0.38254797 -0.87239623 1.4728335 0.39348438 0.60380214 0.6634861 0.42832777 3.0242186 0.60738087 0.5791275 0.12659909 0.050929986 1.9098759 0.55475706 0.52553934 0.58285654 -1.6187541 0.14327542 1.5347797 0.26223946 -0.77013123 -0.1625219 -0.4376769 0.028793262 -0.31116775 0.21997002 -0.8475159 0.7621707 -0.44820508 1.0712857 0.4911332 -0.11617408 0.1468569 0.8597592 -0.041914195 1.2512246 -0.19596447 -0.025970312 
0.11234176 -0.4658316 -1.2088073 0.21400096 0.2474622 1.0436224 0.68408304 0.3629536 0.62353915 -0.92953426 0.31955382 1.236889 0.57607436 -0.12476056 0.34967017 0.43080807 0.0745333 0.22268903 -0.17440753 0.38240802 -0.16068403 0.76088554 0.13487807 -0.62638843 0.6361537 -1.5431784 0.84948784 -1.1236361 0.05822898 0.04479403 0.17517228 0.6903501 0.42823753 1.3414088 0.120462626 -0.017630167 0.23925845 -0.06225307 2.8655653 0.7426351 0.3673925 -0.6230227 -2.7382648 -0.09647131 2.8497272 -0.046316624 -0.50099385 -0.24555965 0.5257489 0.115467764 0.14795153 -0.04714465 1.4320235 0.5603585 -0.22017778 -0.27985922 0.83534384 -0.39806226 0.16268566 -0.70673144 -1.018446 0.28590533 -0.6815676 0.8546132 
-1.2520279 0.08688385 -0.6082264 1.6076795 -0.44958022 1.2956173 -0.122206286 0.20396753 1.7830311 -0.056433056 -0.64269584 3.12139 0.67011076 -0.28157446 -0.63913614 -0.22025396 0.4507114 0.28141037 -0.20571929 0.64984655 0.15983048 -0.6318118 0.10987632 0.23255774 -0.08454264 -2.2402046 -0.19776905 -0.27380744 -0.35945547 -0.32658967 1.5713952 -0.6120187 -0.2655108 1.2831482 -0.4199196 0.16979921 1.3965019 0.7268295 2.9668515 1.3621591 1.7508098 -0.103291124 -1.7663484 -0.22643873 0.8277617 -0.6627318 -1.1654243 -0.07829628 1.1841958 0.52344495 -1.2230985 0.25182298 -0.46733922 -0.06677578 -1.4196391 0.4656779 0.015269988 -1.0893135 0.5027374 -0.09411673 -0.51552415 1.1338054 0.8248185 -0.29198512 
-0.35142818 0.21966474 -1.0752509 -1.6240315 -1.125966 1.2724434 0.5550904 0.40726742 -0.1005583 -0.5002604 -0.9886008 2.2492185 -0.69237083 -0.24524796 -0.771867 -0.41785598 0.8010055 0.014371238 -0.506077 1.4274194 0.9068955 -0.5879541 -0.4678667 0.81910557 0.221015 -2.063913 -0.4201927 -0.41068405 -0.79662836 1.2570364 1.2617028 -0.545685 0.13442573 0.9733527 -0.24572152 0.6047731 0.5988053 0.36600202 3.0399282 0.14707081 0.35631698 -1.6198635 0.36130515 -0.26946932 1.0264653 0.36191812 -0.35647994 -0.0601139 -0.61500543 0.51097983 -1.1340303 0.27706364 0.3130438 -0.46812382 -1.5470723 0.29130378 0.7467467 -0.14142945 0.4398971 0.7835046 0.20915014 2.0118687 1.3552809 0.06613291 
0.01298781 0.5196325 0.08879538 -3.347112 -0.9775598 1.1220764 1.0355227 -1.0154631 -1.2653388 1.312466 -0.82415324 4.080991 0.5590289 0.5570993 -0.7276891 -0.38318554 -0.98599094 1.0891404 0.05801414 1.5584638 1.456309 -0.6057508 0.4324249 0.75207907 -0.22344254 -3.19214 0.48268083 -0.45497265 -0.45108503 0.29115734 -0.03496101 0.43192866 -0.92605007 1.7277882 -0.5917164 0.22299393 0.8157188 1.6711757 1.8899199 0.43916777 0.41338536 -1.3034396 2.2276816 1.4118438 0.4061201 0.47530782 -0.447352 1.0794572 1.0143225 1.8820169 -1.226098 -1.09921 -0.41390336 -0.147819 -0.3633699 1.0248772 1.6226355 -2.28567 0.8553667 1.5435137 -1.9140869 1.7711633 0.4812182 -0.94703305 
-0.3897796 0.4330845 -1.1951524 -1.1653454 0.82308084 -1.1024126 2.0183983 1.2896137 -0.6190219 0.08451961 -1.7856462 1.0895269 1.430545 -0.110984564 -0.26636776 0.6668256 0.9207948 1.0707967 -0.10210071 -1.0892607 -0.12556618 0.9040247 2.2310252 0.5614344 0.8858429 0.040821526 -0.2963354 0.20163763 0.12591894 0.076873176 -1.3581543 1.762239 -1.108838 0.6747412 -1.1871904 1.660407 0.12812641 1.0353333 0.9550426 -0.16725747 -1.7132623 1.9553035 3.6574974 1.3143498 2.6333585 1.374208 -0.45914644 -0.0022867199 1.9572744 4.747174 -0.7809443 0.2964593 0.7071764 -0.46394607 -1.1578798 -0.40722564 0.43455675 -1.3695004 0.98526067 1.1544785 -0.6865911 3.0784676 -1.0148702 1.1679777 
-0.08293253 -1.3054445 -0.85334 0.8320391 -0.41182303 -1.4310794 -1.3852801 1.0359583 -0.6479069 -1.2205393 -0.6772146 -0.25250688 1.0473971 0.50455296 -0.5569757 0.4405494 -1.4722538 2.2912126 -0.46303168 -0.8756031 -2.5347838 -1.2304771 -1.1872747 0.6433385 0.92387354 1.201383 -1.4953535 1.2017982 0.8645915 0.7192101 0.24287082 1.9559116 -1.9040458 0.7491215 -2.0496159 -0.97653425 0.75199133 1.4699022 -0.48407757 -0.34260273 1.2788503 0.012071911 1.2026097 0.2646432 -0.2394176 -0.53628933 -0.059083387 0.672432 1.533972 2.2308695 -1.2516726 0.89975834 -0.50878763 -0.4725248 0.3121283 -2.4306839 0.7662994 -0.9652779 0.56772166 0.043374915 -1.389638 -0.06418905 1.2805065 0.86271346 
-0.039614737 -0.0076718256 0.01700408 -0.04815343 0.04379055 0.009675078 0.04016614 -0.036979496 0.053894907 -0.043669216 0.047471218 0.02515591 0.0556722 -0.0034288988 0.028437614 -0.021674901 0.041415192 -0.008829072 -0.0005586967 0.053758807 -0.022816986 0.040129572 -0.004975751 0.023940973 -0.052362695 -0.03743103 0.057958625 -0.047470182 -0.06202864 0.04560697 0.013809219 -0.043235503 -0.026045077 -0.05023174 0.011723697 0.035990484 -0.03712888 -0.020785965 -0.04327906 0.051314637 -0.05478257 -0.013102293 -0.0022858605 -0.058292113 -0.018334761 0.005743079 -0.055323243 0.024266079 0.050831385 -0.013527267 -0.03860748 0.05266755 -0.0022478253 0.023000747 -0.05515162 -0.03774207 0.008896746 0.044884376 -0.013561413 0.036831334 -0.02201619 -0.012296304 -0.053757668 0.047129452 
-0.59793454 1.3133223 -0.25682083 -0.21775758 -1.2212696 -0.40551528 -1.2280903 -1.9081672 1.3087485 -0.64511603 -0.630589 -0.4557794 -0.09807075 -0.4181172 0.009901806 -0.7295087 0.43148485 0.5451897 0.87989473 0.20890626 0.41238067 -1.5965699 -1.9112736 0.18504885 1.6225392 -0.0898156 0.27248713 0.9749144 0.90643287 0.9137467 0.05926911 0.40991402 0.89028347 -0.024653535 -0.2754607 -0.68346536 0.3327783 -0.7269827 1.4856731 -1.7625132 -1.4437929 -0.11763119 1.4675788 0.59629613 -0.7294871 1.7693466 -0.023768147 2.0740871 -0.69867104 1.127068 0.93242335 0.7270714 1.4243909 -1.5851029 0.09695921 -0.2708174 0.15120934 1.0792453 1.1144122 -1.8464059 -1.1291142 -0.46238387 0.7969149 -0.7597865 
-0.56405866 1.1740822 0.17602651 0.6483284 0.5376261 1.5469905 -1.970769 -3.2669346 0.3262923 -1.0593218 -0.5599662 1.2967734 -0.6158713 -0.6559343 -3.2785454 0.6612636 0.808497 -0.33666727 1.3977488 -3.1029952 -0.20194133 -0.2864469 -0.96903676 1.7408553 -0.560583 0.46695462 1.3302512 1.5575076 0.6830656 0.7380286 -0.7140478 -0.20115715 -1.7062678 2.4064615 1.3715792 2.197296 -0.123757645 -0.024864335 -0.30202162 -1.6332487 -0.87845343 -0.44189474 -0.30793002 -0.111730725 -1.3682094 4.0099 -4.9315286 -1.5666318 0.6760964 -0.34432718 0.054244652 1.0212797 -0.704143 -2.248553 -1.0193136 -1.4022342 0.3523785 0.3709538 -0.992497 -0.38954815 -2.1197295 -1.5136065 -0.52306724 0.33247197 
-0.31217185 -0.7567867 0.40518472 0.2927273 -1.3205223 0.7636882 1.4150529 0.9437016 0.85640574 -0.8904982 0.012104842 -0.5057789 0.023139708 -0.88748586 -2.1487224 0.035291918 0.5186551 0.4382486 -0.8204721 -0.9705774 0.16876413 0.5357141 -0.29620007 0.87704694 1.4998093 0.8335648 -1.3453008 0.23280442 0.6948217 0.32474533 0.22341366 -0.6608742 -0.25724912 0.25385538 0.73701566 0.64324504 0.11158811 -0.15338191 0.3133428 0.57054245 0.32724664 0.4822788 0.7868574 0.35542348 -0.14811745 1.3316157 -6.2235117 -0.51394594 0.16877949 0.1377501 0.780709 0.3223127 -0.72286683 -1.4800484 -0.5236501 -0.4934578 0.33862776 0.4966921 -0.47710416 -0.6928569 0.032233294 -0.7585396 0.7721219 0.117761254 
0.9398298 0.49633998 0.39708456 -0.10972701 -1.3236393 -0.6112396 0.31108746 -0.7416861 0.058194153 0.13698626 -0.73033303 -1.0946499 0.29253662 -0.11472496 -1.1303935 -0.60537297 -0.25739956 0.06623667 -1.6131241 -0.41637152 -0.20028482 -0.25389516 -0.82150835 0.4839511 1.3081186 1.1560344 0.3577163 -0.056757964 0.81827915 -0.060104474 -0.92138463 -0.49402562 -0.8200954 -0.026614428 1.6367911 1.2951494 0.18087031 -0.38733214 -0.8138477 -0.29666242 0.7351184 0.50917214 1.05448 -0.028814875 -0.27419958 1.5015687 -0.610585 -0.022413097 0.040608045 0.58334297 0.43274042 1.1288579 -0.8227901 -1.6554599 0.01063818 0.1225095 0.27150136 0.46746916 0.9959084 -0.20733942 -0.14719516 -0.96213394 0.18169369 -0.08351632 
0.92652273 0.15863113 -0.014809259 -0.650781 -0.39566964 -0.24546014 -0.22490387 -0.51171184 -1.1720786 -0.501165 0.21875212 0.9446391 -0.011363292 -0.057192605 -0.66477454 -0.02020516 0.028956968 0.29305592 -0.891985 -0.1568781 -0.49822614 0.6010266 0.25817925 -0.11404651 0.19283998 0.2000644 -0.23116027 -0.08788041 0.16917436 -0.41053367 0.11926493 -0.4762352 -0.0016931437 -0.011713538 0.5065623 1.8429168 0.5133967 -0.46480954 -0.3287003 -0.34503874 0.28846717 0.2693284 1.029032 0.42268768 0.3057302 1.1690029 -0.36913246 -0.3345477 -0.4167087 0.42652538 -0.71191686 0.42757255 -1.3433357 -0.6297151 -0.20634754 0.16866654 -0.4195475 0.23080632 1.2968113 -0.5593248 -0.07002921 -0.53337735 0.40948433 -0.59102297 
0.22999397 0.07226151 -0.24098584 -0.5465825 0.3612876 -0.9092959 0.93851215 5.06639 -0.49131978 0.11736528 -0.8685027 1.7671661 0.96302086 -0.30681235 -0.02306132 0.42945787 0.033555336 0.23823296 -0.5936133 -0.16885297 0.5405204 0.9573063 0.6070525 -0.9654893 0.4426629 0.6845478 -1.133901 -0.11530447 -1.4016902 -0.034551598 -0.13037542 -0.92266977 0.021450182 0.40335602 0.4871998 0.283729 0.23571073 -0.7211826 -0.33740187 -1.0707836 -0.36670095 0.009020671 0.64856476 -0.047331117 -0.69345045 0.29382586 0.12944607 -0.40106243 -0.54528826 0.15240361 -0.62983775 0.93485945 2.3419952 -1.5998766 0.3938447 0.37752596 0.047214232 0.65599966 0.59723556 -0.39534557 0.32620174 -0.9059897 0.17741609 -0.053077783 
-0.5817197 -0.46107918 -0.60448533 -0.9680472 0.52882534 -0.44071454 1.3452532 2.3432708 -0.29957145 -0.40289134 -0.042470045 1.3912058 0.23960231 -0.5972786 -0.17463368 0.10781617 -0.9069003 0.6234515 0.0048872693 0.38576305 0.05921667 0.52435094 0.049341388 -0.75672174 0.0153026 0.21561281 -0.54593205 0.6916185 -0.0005298172 -0.009803314 -0.3972772 0.9512803 0.8761552 0.34700987 0.9807066 -0.06896138 0.10798729 -0.15190662 -0.082827754 -0.40148273 0.3731907 0.08673491 -0.113796964 -0.19983532 0.047729608 0.25782552 0.35258892 0.01039779 -0.9424695 0.4080254 -1.3917421 1.0974572 4.566926 -1.331602 0.50679696 -0.57410216 -0.087772645 0.80315006 0.3340853 0.44174087 0.4001555 -0.54291326 -0.018863568 0.25685856 
0.43709338 0.17255718 -0.21596506 -0.035780948 0.81811816 -0.18238921 2.3533602 0.53648907 0.011049435 0.24243888 0.14767721 0.12452094 -0.26306584 -0.33582324 0.8150793 -0.09781895 -0.50365454 0.6131309 -0.5163048 0.54329926 0.31628552 -0.17187561 -0.41184434 -0.6428056 0.14407806 -0.6768266 0.23893848 0.8589423 1.458855 0.51404643 0.27533033 2.5204136 1.0320902 -0.031005215 0.12836525 -0.7887192 0.5462075 0.09487468 -0.2856316 -0.88939965 -0.30939072 0.04634783 -0.40739626 -0.4863677 0.47144204 0.6521213 0.46731645 -0.17695813 -0.055353474 0.15159887 -1.3389529 0.42255437 -0.16210614 -0.47332624 0.18296996 0.7846125 -0.091194525 0.53966045 -0.34012046 0.5730135 1.8113866 0.46493596 -0.10712658 -0.2531252 
0.6219143 -0.115529306 -0.4079956 -0.38741788 0.0012732999 -1.2193416 1.5933676 1.1120751 1.2383006 0.1025249 0.2664561 -1.63898 0.71836615 -0.30328685 0.7714732 0.071062244 -0.2524781 -0.29542205 0.263865 0.042283993 0.29836488 -0.43806764 -0.13715285 -0.4393717 0.15870918 -0.8216007 0.95757 -0.18244596 1.2943759 0.75539446 0.27569497 0.49591818 0.48955685 -0.17632893 0.6715106 -0.093201466 1.4609002 -0.020784372 0.31104258 0.51824707 0.102571145 0.054380134 -0.054302108 -0.14013658 0.7271055 0.23646024 -0.9115099 -0.12352844 -0.74104667 -0.18620406 -0.95067245 -0.8444958 -0.8686059 -0.14603744 -0.8925997 0.1559635 0.54974866 0.3723411 0.31063852 0.1380081 1.2339152 1.1757027 -0.19276987 -0.1364965 
0.43170512 0.15930958 0.24285337 -0.48927483 -0.2170453 -0.3858588 0.42458954 0.5140404 0.8988697 0.8712276 0.72207016 -0.67195064 0.3579683 0.27099085 0.260694 -0.13563819 -0.3567602 -0.1948002 -0.042229816 0.082953736 0.022909118 0.15162247 -0.19939825 -0.87723845 0.027321756 0.09900264 0.26741377 -1.4052348 0.40836537 -0.30223674 0.45508987 -0.87946695 0.5454278 -0.048065957 0.50301826 0.005425342 1.163304 0.45152682 1.5495442 0.25013062 0.14306328 -0.00042911383 0.40647665 -0.71130186 2.0276241 -0.086240016 -1.1706544 -0.7184733 -0.32633844 0.11257776 -0.13031659 -0.84537953 -0.037212167 0.74761915 -0.9270716 0.05864385 1.2042823 0.11537451 0.18675843 -0.78218156 0.54413575 0.8957999 -0.4751149 -0.22327805 
0.007650156 0.05929595 -0.4487559 -0.115414485 -0.051570173 -0.15047586 1.4067614 0.40129378 0.026515953 0.28655085 1.5554641 1.1284827 -0.24819969 0.103602566 -0.49500933 0.43294513 -0.12675543 -0.14590082 -0.2450151 -0.2463544 0.6002937 0.08509685 -0.6771481 -0.7554929 0.034671564 -0.33354855 -0.06347688 -0.084559955 0.2298248 -0.6356951 1.1284789 -0.74479693 0.5977525 -0.08388542 0.50251603 0.39329484 1.2874677 0.26914385 5.850809 -0.42887163 -0.96380067 0.709451 -0.46857038 0.37509263 1.7459468 -0.119914405 0.36344334 0.482528 -0.4212217 -0.03300032 -0.3147172 -0.088676736 -0.21200351 0.053709425 -0.62963367 -0.33393037 0.849132 -1.0828183 0.57108223 -0.45570266 0.11707796 1.1672369 -0.7920319 0.50671256 
-0.60284126 -0.13517699 1.0927281 0.34406352 -0.4351767 0.79177403 2.9159336 0.45950416 0.90147364 0.32952124 1.2259554 2.8441505 -0.25479826 -0.25164187 -0.2618272 -0.051793385 0.016972566 0.012285111 0.37774137 0.2464185 0.048783507 0.3277565 -0.3405392 -0.14147632 -0.14820954 -0.27295285 -0.67697275 -0.55816877 -0.08476375 -0.062351543 0.29389384 -0.87988776 0.6118247 -0.064188026 -0.19540696 0.4962998 0.35810733 -0.23219596 6.4189186 0.39561036 0.03710948 0.26444933 0.2954261 0.2792089 2.0169222 0.29841283 0.113646545 -0.10784479 -0.5918469 0.08579789 0.16479862 -0.7363883 -0.7406345 0.65218467 -0.54263055 0.44106114 1.331112 -0.5834597 0.20892672 -0.2957522 0.42453036 0.8068103 0.06997864 0.5606412 
-0.16096672 -0.07736094 -0.39000297 0.9044154 -0.46918097 0.52791494 4.372416 0.11223107 -1.0397718 -0.7285009 -0.12253865 0.26432124 0.64900094 0.7346585 -0.044740044 0.34370568 -0.12334046 0.008854478 -0.59862685 -0.24526365 -0.32227865 0.45071673 -1.1901084 1.6355608 -0.44819373 -0.033119436 -1.8676348 0.006255411 0.083766825 -0.49422354 0.26208907 -0.1089196 0.07730856 0.12473191 0.016636286 -0.31448233 0.8426189 -0.24328923 2.686131 0.14696205 -0.08757866 -1.2358366 0.67194337 -0.29152763 0.20223069 1.3264899 0.5784414 -0.50001436 0.22223544 0.6178725 -0.9040338 0.5119238 -1.4096711 0.119018674 -0.45586014 0.43331152 2.19214 -0.6538434 1.049365 0.66595536 -0.22779204 4.316114 0.26423866 -0.007960265 
-0.57156575 1.6752332 -0.11510602 0.7917184 -1.5212133 -0.17565224 0.08856638 1.5845237 -1.3180257 1.7017568 -1.294687 0.83158493 1.4524226 -0.27191523 -1.1130507 1.4403865 0.4153274 1.219746 1.025114 0.27481276 -2.836931 0.059774444 0.81355894 -0.46610734 1.1446704 -0.0978638 -0.36623812 -1.1772273 0.9156648 0.7486661 0.45660764 1.1444387 0.14719345 -0.069083534 0.21832298 -0.09639926 1.8120407 0.9521771 0.50145346 0.7463418 0.3254218 1.8052118 1.7902412 0.052411597 1.5370069 3.2424257 -0.39338747 0.111980334 4.5379186 1.4927993 -1.672231 0.5364268 -1.2188488 -0.55248773 1.1844782 -2.2679152 3.721857 2.636404 0.41225964 -0.7110312 0.4454721 3.0477574 -1.2310932 1.4182696 
-0.39084676 -0.13653663 -0.7275797 0.35761186 -0.2368859 -0.8763953 1.5086281 -1.1048445 -0.3568911 -0.9647451 2.197118 -1.2912744 -0.5331066 0.65215886 -2.084718 0.5193205 -1.2749431 -1.1901238 0.6982291 0.55102307 -1.0472268 -0.121200405 -0.21586798 0.9892072 -0.9610297 -0.02079401 -3.119391 -0.41320646 -1.1702378 -1.2603049 -0.1522286 1.2190685 -1.3899257 0.37355554 -1.9658612 1.075436 -2.8256226 1.6489266 0.5641305 1.9563179 -0.19506088 0.1853348 1.2196141 -1.0495027 1.3207561 0.1641707 0.56307673 0.4005225 1.7774088 -0.11778427 -0.8070679 -0.28091025 -0.37648183 -0.37326762 1.2427609 -1.7583892 1.807984 0.9068494 0.7383433 -0.89452106 -1.7337343 1.3670611 1.7344967 1.2852316 
-0.14398526 0.025463296 -0.48356414 0.37777054 -0.34263542 -0.28280187 -0.023582026 -0.11426524 0.21591637 -0.52310276 -0.06785217 0.3594442 0.9005645 0.22345267 -0.46836182 -0.12447353 0.5689774 0.26287144 -0.039087776 -0.01229967 0.49965203 0.17065175 -0.26198572 -0.031846 0.18133378 0.7191153 -0.15199882 -0.10542765 -0.2485911 0.31038824 -0.3487836 -0.087456614 -1.0624899 -0.35666817 -0.59434384 0.24861683 -0.19982587 0.0011335394 0.2701989 -0.34086964 -0.088630766 0.04995217 0.19841729 0.61283034 0.50287724 0.06242717 -0.20744824 0.2396126 0.1693264 -0.60228294 0.6129909 0.67668086 -0.23171394 -0.5519891 0.5163318 -0.06696357 0.70561385 0.015630035 -0.0037821257 0.022640401 -0.030385915 0.85811615 -0.19566096 0.46513736 
0.008167565 1.5096776 1.4203849 -1.4103068 -0.89821213 0.6030541 -0.21336643 -0.4824701 1.9736514 -0.8227489 0.76776385 0.28696984 -0.25854173 -0.8162704 -0.59767485 -1.8601134 0.29882842 0.9200266 0.9214464 -2.7748065 2.6083317 -2.590859 -3.3475122 1.3411404 3.3357477 -0.20506868 -0.5037058 0.66775703 0.6080967 1.0808175 -1.3948693 0.08737957 -0.14440863 -0.71771145 0.2805922 0.66928184 0.18830466 -1.9188948 0.2612394 -1.4170985 -0.54623705 1.3636088 2.4316845 0.18723476 -0.79643 2.6883578 -2.4720356 1.3123535 0.5935753 -1.2408513 0.23875575 0.800418 2.3531177 -2.123361 -0.12255467 -1.0632935 0.37503675 3.5612001 -0.66691774 -2.2275746 -0.51907194 -0.87691665 3.4878204 -0.0690047 
-0.5584461 -0.83088857 0.8077043 1.0969994 -0.04417427 1.2261378 0.31275743 -0.90281796 -0.38273758 -0.60867155 0.5862728 0.6421696 -0.073907696 -0.5149056 -0.01813495 -0.8902401 0.6362956 0.8569321 -0.4705728 -2.8292446 -0.8759477 0.7147464 -1.6315563 1.0858178 0.81726444 0.6461425 1.4011725 0.3837541 0.35221684 0.8514303 -1.0247594 0.15079801 -0.22958717 1.6709893 2.5262587 0.7624212 -1.2664058 -0.06400329 0.0701642 -1.6946114 0.2303662 1.6322542 -0.1708335 -0.54678786 -0.12791742 4.502437 -2.9353347 -1.8349521 2.1468017 -0.15726173 -0.7480507 -0.39024508 -0.36340004 0.94688404 0.7155113 0.7287784 0.49537894 3.3109264 -0.26061332 1.0051519 -1.0996448 -1.3858048 0.45224202 0.0016388028 
0.67002594 0.79571766 -0.035194725 0.36009496 -1.7403446 0.34604344 0.44119215 0.25001702 -0.7143221 0.62347937 -0.24521369 0.17946696 0.4006153 0.23271467 0.28274435 0.39427948 0.6561071 -0.17288168 0.5345735 -0.06296959 0.1598561 0.7989544 -0.9974081 0.50493616 0.67610574 0.31013182 -0.5839053 0.29289877 0.98340774 0.35120344 -0.59328204 -0.25171745 0.112837344 -1.1387848 2.4944832 -0.30612174 -0.15622154 0.4526706 0.22239418 -0.37632632 0.18981464 1.0834541 -0.06548223 0.30699494 0.14791335 0.4747073 -1.2656993 -0.38095957 -0.18292962 0.46793732 0.97317576 -0.07139537 -0.8071869 -0.12157726 -0.402239 0.60517305 0.26627037 0.5609116 -0.8631767 0.66612875 -0.07937602 -0.7248348 0.6999506 -0.3761034 
0.88383484 0.4587886 0.06854001 -0.65799785 -0.029228356 1.0566646 -0.82615036 0.40454972 -0.70317024 0.31680545 -0.10454048 -0.45665568 1.0102159 0.015486463 0.056149226 0.08904315 0.15523402 0.15748243 0.15555811 -0.6211121 -1.0318321 0.8961544 -0.11838711 -0.030836102 0.9928728 0.18763287 -0.025634475 0.24445382 -1.1628153 -0.25601467 -0.044106092 0.10208388 0.56493974 0.065821156 1.9693896 -0.06809066 0.3810913 -0.20899811 0.07960887 -1.7884685 0.053973835 0.40796027 0.148207 0.60393107 0.87568414 1.9473339 -0.7323993 -0.2846816 0.17647493 0.22426201 0.018716391 -0.76037776 -0.5117777 0.17216152 -0.30404627 0.043900393 0.36596155 0.119817436 0.07544617 -0.45757008 -0.48156276 0.39480183 0.27791724 0.2200739 
0.086432934 -0.7586945 -0.1784661 -0.6633838 0.30484748 0.4277712 -1.4769236 1.7092392 0.30072528 -0.38093695 -0.6169471 0.8280408 0.19001332 -0.15309305 0.43915647 -0.17471425 -0.0076975175 -0.16136706 0.14670227 0.10467625 -0.15914664 0.71100783 0.101593785 -0.18950367 0.074606866 0.85766256 -0.34391162 0.45007163 -1.8061448 0.076799534 -0.2408625 -0.45436138 -0.014154014 0.47046387 1.9318068 0.524484 0.15134305 -0.78820556 0.17555396 -0.45365393 0.5226941 -0.077751145 0.51315266 1.0597367 0.08442208 0.7374996 -0.47899726 0.111021414 -0.077959165 0.06826501 -0.34466922 -1.1181076 -1.7116722 0.58014035 -0.46511197 -0.26276743 0.03708608 -0.24060339 0.6214915 -0.5789806 0.32399017 -0.61673725 -0.006954733 -0.7833085 
-0.818357 0.35762662 -0.94795513 0.20861024 -0.5322096 -0.42915258 0.17440893 6.427602 1.559405 -0.7341104 -0.60111445 1.9198194 0.10627776 -0.4315607 -0.6504566 0.19222993 -0.22947995 -0.3146875 -0.2565846 0.18565367 -0.063915074 0.72734547 0.2472007 -1.3103076 -0.029181411 0.84181035 -0.7875455 0.7027701 -0.7209561 -0.15997732 0.059155032 -1.1390462 0.31348038 0.27541593 0.47469953 1.511573 0.5044311 -0.4883702 -0.13889706 0.09719172 0.9963443 -0.36695856 0.38683382 0.4052137 0.23405431 0.19162808 -0.39432007 -0.104012966 -0.53663254 0.2885523 -0.17595142 -0.57647824 1.7735122 0.5682324 -0.21822974 0.0072682262 0.50711846 -0.03846737 0.6382248 -0.4475822 0.8005284 0.33068132 0.011362167 -0.27750835 
-0.021260086 0.048926994 -1.3161798 -0.2994713 -0.3746699 -1.5593675 -0.13976325 1.7707112 -0.33938694 -0.14679529 0.09883271 1.9163023 0.074334264 -0.7369292 -0.71737415 -0.055658516 -0.35148236 -0.022405567 -0.27658236 0.31022435 -0.1879482 0.71334636 -0.15708008 -0.921741 -0.2159437 -0.047924418 0.05146661 0.8976531 -0.07967119 -0.6306587 0.2071992 1.1964923 -0.027226763 -1.0460497 0.5045134 0.30560574 1.2541192 -0.08796255 -0.79723287 -0.3206733 0.5382163 -0.38185927 1.1594253 -0.23381844 -0.8153186 -0.44754463 1.0383059 0.10514521 -0.29726073 0.20076995 0.5569731 0.08505855 3.0063288 0.33525544 0.41118717 0.11363276 -0.10856999 0.35046932 -0.11713793 -0.051620696 0.99398774 -0.30501416 0.43921313 -0.22476484 
0.1611456 0.52015173 -0.74311715 -0.29135638 -0.36710072 -2.069709 -0.22728227 1.39008 -0.8324565 -0.21776292 1.0120815 -0.17175955 0.29509154 -0.35381487 0.42886043 0.21736716 -0.9353841 0.1325657 -0.5501198 0.3029881 -0.21140102 0.3825106 -1.1663736 -0.9717492 0.15607737 -0.76465243 1.159387 -0.54832506 0.89823157 0.67226833 0.327333 2.011184 0.39674276 -0.96472955 0.8115155 -0.30384672 0.96996886 0.20267048 -0.57869524 -0.6738717 0.7830163 -0.2416988 2.0364347 -0.19906133 -1.0648893 -0.09014356 0.45584592 -0.36274555 0.32422403 0.43341956 0.46757707 0.41564605 -0.19772398 -0.16586302 0.5248066 0.035741944 0.66577506 0.84608054 -0.06677499 -0.3152145 0.8293415 -0.23927552 -0.18091595 -0.38786212 
0.15612748 0.4029525 0.019658646 -0.2961202 -0.09099578 -0.5331814 0.87678117 0.30962044 0.12794542 0.79106706 0.63129497 -1.430566 0.91754395 -0.14138833 0.40276533 -0.014578217 -0.59254396 0.1600579 -0.26202446 0.48862675 -0.13349774 -0.27217364 -0.9381796 -1.1442271 0.04227085 -0.7897185 1.113726 -1.258285 2.667846 0.23118569 0.14638199 -0.4774799 1.5169196 -1.1081188 0.6785826 0.34981072 0.87898976 0.47223148 -0.40250492 -0.25137222 -0.4666449 0.6296039 1.3174087 0.67032653 0.57892656 0.03897214 -1.3800365 -0.046205264 -0.06958227 0.090226255 -0.31179687 -0.45038053 -1.7747085 0.28434637 0.14982471 -1.0016719 0.39048237 0.97363704 -0.20163374 -0.87159085 0.701478 0.20203643 -0.07450768 -0.3042371 
-0.5295575 -0.0591894 -0.41907948 -0.08635041 -0.16769432 -0.06861095 0.18982172 -0.8021359 0.6681909 0.27911237 0.66687906 -0.53086203 -0.14892314 -0.15978082 -0.59489053 -0.26920363 -0.5595426 -0.020209977 -0.22831447 0.12178705 0.849462 0.22556491 -0.7949096 -1.1337795 0.20566714 0.39359608 -0.2333316 -1.8066556 1.8751976 0.23382963 0.36651418 -0.3801788 0.7358301 -0.4572202 0.13239627 0.7755966 -0.46227935 0.46370137 1.0454929 0.23726414 -0.8530103 1.010891 0.32929587 0.6000694 2.6643105 -0.18735833 -0.16645311 0.19682826 -1.0839994 0.07563349 0.55353874 -0.12568334 -0.29252282 1.0528692 -0.35537207 -0.6156238 0.1853581 0.6850631 0.033757597 -0.85983205 0.2650177 0.8722918 0.52018356 -0.19489238 
0.041514434 0.77473384 -0.46677575 0.6011823 -0.1794701 0.47863612 1.6974194 0.098869175 1.1699221 0.46655753 0.2773673 0.32492363 -0.46904626 0.12566045 -0.9439395 -0.16906942 0.15025595 0.22633174 -0.49975517 0.060510278 0.08354194 0.16119859 -0.8137694 -1.206559 -0.336079 0.4155199 -0.44477618 -0.69157636 1.4193016 -0.18170413 -0.28186557 0.09444827 0.60539603 -0.22992659 -0.1560886 1.29992 -0.624154 0.78686154 3.1200252 -0.61807513 -0.2973366 0.45737943 -0.9420922 0.52299577 7.7782865 -0.5843141 -0.46671438 -0.046665665 -0.19942726 0.4666102 0.29056388 -1.0731137 -0.4066294 0.28839645 -0.03167096 -0.38075745 1.4493308 0.25910574 0.033345398 -0.6365337 0.081587024 1.2495149 -0.16617827 0.1066317 
-0.18362677 0.751353 0.18274032 -0.28030828 0.42968225 0.9917146 1.971596 0.15054742 0.47616223 -0.16220142 0.6425898 2.2259505 -0.82308996 0.054368533 -0.5888008 0.0497753 0.06431078 -0.19342634 0.22216354 -0.12814176 -0.10060314 -0.3995039 -1.050318 -0.6970145 0.07318895 0.2287491 0.58361405 -0.7795887 0.9924748 -0.48962954 -0.23884456 -0.14024206 0.33126396 -0.92742175 -0.17522904 0.13942754 -1.2790831 -0.048645806 5.201844 -0.5937637 -1.1482763 -0.9774491 -0.9755493 0.035886243 2.3567164 -1.3946772 0.54459906 0.3169357 -0.3733591 0.13258176 0.2961571 -0.58626837 0.05450743 0.37121725 0.7951446 -0.71207887 1.270164 -0.05198219 0.5575424 -0.28402394 0.6199136 1.9236429 0.10920059 0.763409 
0.21337171 -0.45699462 0.2889329 -1.7136046 0.38686988 -0.22710218 2.037348 -0.24968114 2.147638 -0.18653981 0.63747853 -1.046777 -0.37445953 0.026075652 -0.46039858 -0.24973726 0.4807068 0.1484976 -0.42739502 0.4713099 -0.28148493 0.4912291 -0.59469926 -0.582795 0.036711585 0.20945238 -1.0848697 -1.2180184 0.10858096 0.46740335 -1.3464957 -0.23863937 -0.03245806 -0.486203 -0.23736292 0.5836864 -3.274792 0.6840499 3.4747791 -0.7819736 -0.25107095 -1.9151059 -1.4482262 0.72649443 0.43149096 -0.351403 1.2361133 0.26420602 0.30638993 -0.53298056 0.41771826 0.43761083 -1.4125043 0.1763716 0.54295564 0.77743876 0.4793721 -0.9387527 0.6333829 0.082507975 -0.1429518 6.4159007 -0.23820896 0.76926947 
1.7454467 -0.08710477 -0.22352293 0.7143565 -0.009141892 1.2355229 1.6011643 1.5417897 0.23307662 2.1787024 -0.47832787 -2.8615289 -0.30590346 -0.47519135 -1.9637291 0.42215016 0.10184977 1.3588474 -0.07605296 1.2462174 -0.44089475 1.6372814 1.2973835 -0.12514724 -0.07227869 0.98276854 -2.4066484 -3.336022 -0.36120018 0.98873615 -0.80408233 0.6298491 1.4231734 0.5307514 -1.473603 -1.2853055 -2.9542863 2.9962454 1.227268 0.19529091 -0.5810767 -1.0848442 -2.0258353 3.7470326 0.7723147 2.4474232 0.14016536 -0.52688074 2.4871738 0.6351999 -1.0281501 -0.011011039 1.2347131 0.12745835 0.69791967 -0.59040105 0.24598935 -1.0740641 -0.01564248 -0.5274192 1.1309919 2.7150986 -0.28659913 -1.1069425 
-1.8998475 0.22836876 0.21341023 1.2723107 0.3626736 -0.2703616 -0.33465448 0.6596944 0.62087005 0.6102067 3.5466104 -2.928087 0.38293338 0.1759363 -1.9876685 -0.29986376 -2.6849601 -0.39257544 -0.41517752 -1.7767222 -1.5234861 0.99420136 1.33096 0.96221733 -0.4519962 0.14956856 -4.7612944 0.22764872 0.05637501 -1.2550913 -1.0617594 -0.05998868 -1.3816885 1.0289863 0.2915814 2.294056 -0.26455083 0.4704012 0.6589149 1.8851949 0.35105315 -0.25313073 -0.7146856 -0.7723319 1.5123131 0.6941539 0.6419806 -2.613349 4.177076 0.6486604 -1.2246004 -0.94452727 0.037552923 0.16580848 -1.7098393 1.5675933 3.398831 2.132 1.300407 2.2024643 1.9360309 2.4831033 0.315189 0.25819233 
-1.0310607 0.46850762 -0.45524654 -0.5223536 -0.93768454 -0.715751 -0.75634885 -0.27729312 0.85629994 -1.2175822 0.112226754 -0.5067968 0.73144376 -0.58036673 -0.8264375 -0.33795193 1.0549287 0.7186045 0.013322787 -0.042970058 0.5128846 -0.26469824 -0.3899349 0.37742203 0.56882054 1.4830983 -0.17971882 -0.22275971 -0.16719332 1.1764321 -0.96088237 -0.8142518 -0.8896376 -1.22108 -0.8208717 0.085664116 -0.23819533 -0.42799836 1.0661886 -1.0755113 -0.30414936 -0.24828576 0.9869265 1.1915468 0.91694313 0.10508891 -1.0421609 0.6850488 -0.16041449 -0.7435269 1.7754743 1.6758846 0.15550752 -1.0521137 -0.71266407 -0.87051505 0.60961854 1.0690783 0.86317664 0.02614351 -0.5745361 0.7511857 -0.086054966 0.15922058 
-1.3150861 -2.1589391 1.2407482 -2.1676137 -1.605056 0.21433562 1.3810923 -0.11357336 0.15437846 -2.3939824 -0.19197954 0.57083863 0.07793276 0.94245744 1.4853631 -1.2597702 0.70698965 2.2824893 -0.4964408 0.6088069 -0.37427574 0.05427622 -0.20543584 -0.99641764 -0.36339357 -0.48716718 -1.2224749 0.28532785 -0.25612664 0.32245576 0.10197556 0.32464075 0.42521343 0.16371019 -1.968612 0.7196095 -1.1318251 -3.2509563 -0.22143799 0.6734351 2.5430357 -0.21272609 1.5373933 0.576025 2.0823162 0.98105156 -0.7948364 -0.5131884 -0.39105943 0.97177076 1.053531 -1.9030396 0.87249184 0.44051963 -0.039806794 -0.90378946 -2.0060089 1.3231798 1.2664155 1.4837714 1.2365751 -1.2051327 1.4306581 -0.30111763 
-0.1352637 0.30679783 0.55678207 -0.9129824 -0.55823576 0.957124 -2.074939 -0.29989794 0.6783234 0.84964633 -0.061816856 0.4863509 1.5135292 -1.7814102 0.8195818 0.5782116 0.60383064 1.4465672 0.7364221 -0.72923017 0.05786287 -1.827771 -0.7600264 -0.84933305 1.0464362 0.64618844 1.327432 1.04911 -0.2824381 0.9503232 0.7818982 0.11049707 -0.7295985 2.1329122 0.02190275 1.4614662 -0.9860263 -1.1435646 0.3156098 -2.6833382 0.10197067 0.7538086 0.25283557 0.4174615 -0.91294 3.4973092 -2.2037272 -1.0695347 -0.10361649 0.30560398 0.04938119 -1.9344779 0.32085893 0.13894841 0.62857175 0.18489957 -0.20127042 3.2401404 -0.013186286 -0.44904196 -0.5340665 -0.23091154 0.7965155 0.0030228056 
0.33001098 0.86015755 -0.8558618 0.3194192 -2.3723629 -0.2676376 -0.717281 -0.058786012 -1.9328924 1.3530272 -0.34745967 0.10154801 1.890292 -0.2906084 1.7440785 -0.041207083 -0.39226717 0.4516136 0.45899352 -1.0978388 -0.7827457 0.42646232 -0.9035684 -0.34367105 -0.043146722 0.34707886 0.3928202 0.04934556 -1.0755373 0.27994558 -0.7649484 -0.02835846 -0.4782147 -0.19821079 0.3882543 0.40371782 -0.6244837 -0.16408981 0.36512268 -1.1660657 0.45004517 0.6214184 0.022249857 0.16710855 0.13373396 0.914146 -1.7574347 0.68243927 -0.91814643 0.23716228 0.41465557 -1.6310347 -1.3023723 0.53340197 -0.98188823 -0.07222017 -0.28810415 0.14975893 -0.57984465 -0.23049368 -0.515689 -0.19838437 1.1565456 0.6918552 
-0.8509602 -0.21887684 -0.78129303 -0.511091 -0.17344052 -0.27036217 -0.38830373 1.295894 0.0973736 0.3039089 -0.46365285 -0.25055525 0.957372 -0.5337157 1.1351931 0.61131454 0.20653023 -0.5659863 1.2935435 0.2720759 -0.3577878 -0.24195856 -0.12063215 0.22456764 0.8684662 0.26545686 -0.34316993 0.86532634 -0.44626176 0.20883584 -0.41455096 0.32325917 0.26728317 0.098585375 -0.611268 0.78365135 0.16201836 0.75787544 0.5256902 -0.46612722 0.49004078 -0.28158072 0.20680837 0.12638195 1.0908731 1.799692 -0.67714965 -0.931028 -0.090178914 -0.02323753 0.74073535 -1.873708 0.031238012 0.48469573 -0.29052168 0.06610366 0.11940103 0.6327026 0.81825835 -0.06954089 0.006984586 0.5152071 0.20189951 0.27907473 
-0.38434845 0.6461932 -0.3229431 -0.81647825 0.95610404 -1.6163073 -0.7528009 2.1445506 0.49459222 -0.06393181 -2.0319068 -0.894351 -0.34625584 -0.7545896 0.34956786 -0.15333599 0.40681562 0.18075395 0.6371525 0.8545794 -0.13653995 0.6258105 0.084384575 -0.13270521 0.14667732 0.39413634 0.00864992 0.7799305 0.3306238 0.37703937 0.014803455 -0.13958421 -0.37916076 0.47636434 -1.9546374 0.7083226 -0.090780064 -0.7625869 -0.17836615 0.27188793 0.16953006 -0.86104333 1.1097889 0.75607437 -0.361567 0.838454 0.2721382 -0.3106015 -0.094553284 0.1362642 1.6415857 -2.5233753 -1.6110833 1.2690079 -1.1906697 0.18115626 -0.14106499 -0.36579138 0.22215132 -0.4035574 -0.041411344 0.0550842 0.2840503 0.097656354 
-0.4596116 0.70969427 -0.23811018 0.07282599 -0.34608597 0.3049436 -0.7305438 0.93924093 0.5536453 0.56971157 -0.7330046 -0.08756514 -0.8186378 -0.18451247 -0.45293605 0.010723272 0.65754306 -0.25782317 0.5174755 0.33997113 -0.030424617 0.8838517 -0.3317256 -0.5668684 -0.2408181 0.8243321 -0.07062202 0.6358254 -0.28784832 -0.38911298 0.13124314 -1.768681 -0.8192872 0.108808614 -1.2152586 0.8786496 0.2750946 -0.30712208 0.05065578 -0.051291477 0.38788876 -0.7419279 1.2749305 1.5871137 0.26985386 -0.023131287 -0.15051237 0.44847387 -1.2517148 0.09815187 1.1289622 -2.0896099 1.0990399 0.824895 -0.28681046 0.63205206 0.057202216 -0.0633125 0.19311097 -0.59565914 -0.21958028 0.44722816 0.016709618 0.011625492 
0.093871936 0.90232664 -0.9987249 0.29936174 -0.6394485 -0.32463348 -1.409464 0.75274456 -0.1473533 0.9445737 2.0856612 0.008801802 0.13260885 -0.25269005 -0.6365097 -0.11779365 -0.20361285 0.215079 0.3904586 0.5962832 -0.15561669 0.88434017 -0.16080028 -0.8180236 0.23938537 -0.1985003 -0.832962 0.19592619 -0.73878 1.3578112 0.47830176 0.8079128 -2.1728683 -0.99211967 -0.6250195 0.4924949 -0.74138516 0.47271532 0.22610006 0.006356038 0.9405636 -0.536284 1.6522968 -1.1393985 -1.4120772 -0.16526182 0.92039436 0.81998944 -1.2385131 0.27467185 1.454664 -1.5928357 2.7746854 -0.5072703 1.2986032 0.028639182 -0.27277443 -0.7785626 -0.18052094 -1.3080865 -0.7726292 -0.1360175 -0.18672071 0.16060041 
0.50984406 1.6502225 -0.6982369 -0.32729393 0.36398906 -0.5705565 -1.4218729 -0.1664522 -0.7837026 0.15324043 0.13116974 -0.8365014 0.9157451 0.23730403 0.983731 0.04106007 -0.8822975 0.026899615 0.35560516 -0.52090234 -1.1562625 -0.15929449 -0.680521 -0.6904868 0.23386635 -0.17307961 0.9889166 -0.9182054 -0.07454324 1.4569849 0.040051736 2.6752386 -0.6658146 -0.9642146 0.3360534 0.07501783 -1.9338901 0.21259059 -0.22244933 -0.5050943 0.7630182 -0.32367015 1.0117195 -1.8354285 -1.8008981 -0.71405566 0.050557155 0.9452399 -0.2053679 -0.4560225 1.6553094 -0.6197456 -0.34174997 -1.713468 2.6883059 -0.27298403 -0.9612042 0.29924357 -0.5731725 -1.0795212 -1.6427886 -1.5714284 0.43143907 -0.07223164 
-0.019267803 1.0100492 0.8772907 0.07993934 0.55674785 0.37718844 1.0732646 -0.97559625 -0.41014898 -0.38398018 -0.26431993 -0.24204901 0.7828217 0.15851498 0.8886477 -0.19099562 0.45818776 -0.37087774 0.030112358 -0.23376395 -0.4499349 -0.65978974 -0.36657196 -0.18891858 0.05043176 0.86163825 0.61017406 0.96503097 0.42458278 -0.22663508 0.25427938 -0.27384755 1.1963302 -1.0655135 0.10488907 0.56491756 -2.9711804 0.5792661 0.23238154 -0.5448929 -0.48262233 0.773793 0.14248759 0.52702683 -0.5822762 0.6205951 -1.3814923 0.6015341 -0.31248388 0.07082571 1.9841979 -0.38713157 -1.2382661 -0.018522937 2.1973507 0.015843984 -1.5757877 0.9751167 -0.461377 -0.8914951 -0.34224728 -2.0846357 0.5503349 0.16945596 
-0.8716849 1.002257 0.3206823 0.6020766 -0.12810975 0.5014094 1.1809376 -0.06722893 -0.11456592 0.32601145 -0.35059172 0.72650754 -0.59278464 -0.22710425 0.26174375 -0.48087472 0.32667217 -0.09043834 0.16650769 -1.159424 0.7883429 0.6188755 -0.13007085 -0.55174434 0.71186954 1.4239208 -0.19353327 0.838077 1.5226346 -0.8075795 -0.16021511 -0.03481024 1.0131587 -0.9736484 -0.098220326 0.59681714 -2.1882346 -0.27274966 -0.34778044 -0.3216345 -0.58503836 1.1841402 -0.18932663 0.070223 2.158739 1.2794709 -0.2590271 0.25112644 -0.34501746 0.20530027 0.6127978 -0.30534586 0.10541626 0.6216828 1.9305475 -0.41069767 -3.7577896 1.1960636 -0.12259151 -0.5775175 0.56071967 -0.3737933 0.10266312 -0.43518135 
-0.40977377 0.6209063 -0.0058350395 -0.0020028856 0.18189734 0.74005115 0.19431053 -0.1418645 0.6588329 0.2780393 -0.5118876 1.1028676 -0.53250545 -0.6362036 0.38870525 -0.17763929 -0.36424607 0.16678523 0.05837607 -0.2875901 0.4753103 0.4959017 0.072899915 -0.5321905 0.8106932 0.51991045 -0.3178649 0.16362809 0.9425725 -0.7628251 -0.14346704 -0.36652774 0.32065284 -0.6366489 0.110092096 -0.28846648 -2.0939538 -0.33803168 0.7965262 -0.13406342 -0.072587766 0.61284906 0.28990835 -0.20741242 9.815396 0.8326561 -0.05520607 0.32989347 -0.08557265 -0.10166066 0.45072716 0.18918397 0.13035536 0.14689893 1.5290252 0.3034184 -4.795457 1.0163219 0.44247276 -0.01767118 0.03310557 0.82621014 -0.63914585 0.068533465 
-0.45019364 0.3069241 -0.15239052 -0.01659341 -0.121668436 0.34479645 0.74777645 -0.52209413 0.43835825 0.24216273 0.74242866 -0.38286194 -0.66379464 -0.62517697 0.24988922 0.085658446 0.611108 -0.16571535 0.1850863 -0.08201693 -0.16301557 -0.034995336 0.26714808 0.517994 0.6743072 0.36704952 -1.0109135 -0.3904328 0.93466425 -0.31924784 -0.6901255 -0.27731672 0.32816127 0.21776892 0.22803101 -0.38423872 -1.745883 0.7724065 6.103993 -0.8320379 -0.41708437 -0.57220876 -0.63236386 -0.22494452 6.287663 -0.92352515 0.760475 0.020310212 0.51045346 -0.12289893 -0.6882956 0.34816325 0.011537351 0.4763066 0.28078318 -0.36422935 -6.904937 0.8535006 0.16703677 0.6836707 0.66275835 5.631744 -0.671043 0.22487202 
0.19480954 0.20016845 1.0150472 -1.1758189 1.1260288 0.46530956 0.63337827 0.6252351 -0.8729389 1.0117563 1.8771614 -1.009167 -0.24891591 -1.6103822 0.43971074 0.20385739 -0.29467297 -0.08493385 0.16345094 0.6945236 -0.0848034 0.9910446 0.2658513 -0.7322871 0.46464747 0.7161512 -1.5707849 0.52536124 0.51008767 -0.45294526 0.6067467 -0.55593586 0.73416066 0.7005725 -0.25017834 0.20696042 -2.809819 1.00338 5.3055687 -2.2610896 -1.4032872 -4.5736933 -0.31138805 0.19243161 -0.37061223 -0.5822859 0.8581423 0.3003428 0.3698003 -0.34598598 0.6041035 -0.28547242 1.0088599 0.8164196 -0.3883803 1.0043287 -7.058095 -0.6706115 0.48396453 0.20717132 2.0468376 5.1107287 0.21415573 0.59494805 
1.2990566 0.8237908 0.17076503 0.27447408 -2.2630982 -0.35928297 2.0186396 1.060963 0.6748381 -0.55613065 -1.8779733 -3.0168672 -1.5487949 2.061286 -1.0575708 0.64191175 -0.1072399 -1.3419322 -0.17727946 1.325793 -0.17860544 2.1760464 0.79137844 0.6965854 -1.1789931 0.84463364 -1.751797 0.8024566 1.3348207 1.9975901 -0.3721686 -0.36652038 -0.36952472 -1.6863027 2.2850983 -0.1629034 -1.858245 1.9265941 1.1454271 -0.8760968 -0.892923 -5.2330894 -2.4571123 4.961778 -1.4670806 0.12672494 1.7744416 2.5271707 0.024767432 0.31769904 0.30894074 0.62135774 -0.48219654 -0.38515973 0.3063473 0.55133235 -3.5468822 0.0743011 0.37373573 0.5646225 1.4113363 1.764441 -0.4422264 0.27006534 
-1.5162588 1.5786191 -1.4272038 -1.4340086 -0.2390821 -1.16957 -0.516629 0.040903315 1.0111035 1.2714272 -1.7860389 -0.5742753 -1.9717374 -0.5978139 0.2078794 -0.29626143 -5.271328 -0.31871837 -1.7423701 -1.6714133 -1.8739864 -0.46312353 -1.4825432 1.1135687 -1.1378427 -1.1361771 -4.694923 2.7199702 0.8842935 -1.0938772 -0.86799324 -1.2192115 -0.9266073 -0.29245204 2.7207253 -2.092866 2.2339725 -0.37252912 2.0966218 -1.0283778 -0.29568633 -2.397592 -1.583965 -0.9167735 2.7101161 -0.520865 -0.3328717 -2.3703318 -1.1668475 -2.1053495 1.4675186 -0.9440968 0.23999594 -1.1583276 0.89079213 -0.96375716 1.9415333 -0.120849065 0.94075555 2.298402 1.6654711 1.6512051 -1.7670213 1.936477 
1.010534 0.5878927 -0.9685662 -1.5622032 -0.74918866 -0.1919689 -0.82034117 -0.89354616 0.4268002 0.28116736 -0.7526424 0.14805904 0.33438256 -0.22661702 -1.1212728 -1.0441285 1.1347347 1.4809706 0.7976408 0.04921017 0.96201164 -0.46037963 -0.065837555 0.061943043 -0.3374509 1.3080304 0.743824 0.5338408 0.5757488 0.18167195 -0.8611917 0.39743316 0.33129707 -1.6559697 0.12129565 0.14583424 0.96634316 -1.54162 0.18411776 -0.87468076 0.13011461 -1.3503469 0.025386829 1.091045 1.096028 -0.4112959 0.16665494 0.24146907 -1.2071083 -1.0524487 2.0291579 -0.07933102 -0.13430968 -0.45053673 -0.17303579 0.26379764 0.550653 0.16820917 0.54105896 0.18002819 -0.30093783 -0.4893269 0.6871405 1.4758139 
-1.0289294 0.13476 -1.4450465 0.32271245 -2.0810149 -0.28631824 -2.0615263 -2.2580726 0.79638624 -0.43118393 0.030780492 -1.3672395 0.7548032 0.96237093 0.29358307 -0.15113568 0.6924182 1.2485685 0.8562771 -2.8966253 1.8124207 -2.5119717 -1.7012719 0.53628945 2.748815 -2.2122502 2.2073817 0.462027 -0.5888045 0.5674419 -1.4109478 -1.0230639 0.6291293 -0.6780526 -3.3712916 -0.5699003 0.85941947 -0.97289115 1.6338663 -1.2049348 -0.8372271 0.121729866 3.7320948 0.49436575 -1.8011537 1.8123373 -1.7452077 1.6497244 0.049602117 0.49989942 1.7997882 1.547649 1.1382713 1.2060026 -1.9082147 -2.1115563 -2.1879168 1.2899055 -0.2746709 -1.9099483 -2.815646 -1.4744976 3.149734 1.0142343 
-1.095463 1.4627745 0.41962585 0.018052816 2.788398 -0.32341322 -0.796654 -0.15105729 -0.21358997 0.010730023 -0.7840818 -1.0595372 1.9804462 0.50973314 -0.6419573 0.35035348 0.3209676 0.6940514 1.3808771 -0.13929293 0.19186845 -2.1379611 -0.24430382 0.05825121 0.36706278 -0.7980705 0.22447173 -0.1457397 -1.3246797 0.8545254 0.4102135 0.45357743 -0.75157976 0.6733119 -4.999551 -1.2449409 0.6793515 -0.69753855 3.0507708 -0.068517 -0.25740522 -1.2162583 0.57296854 -0.6703176 0.21631336 1.5057067 -3.2305973 -0.80180264 -0.7227272 -0.06861198 -0.7562429 -0.49132603 -0.99644434 -0.19716015 -0.7139065 0.1856316 -0.32171524 2.543828 0.54200506 0.30602536 -0.6346863 0.30226257 0.22396907 0.7157673 
-0.76388943 1.178836 1.1186128 0.6097954 0.4397138 -0.97765267 -0.30660114 1.9348426 0.5717927 1.8069376 -0.08765533 -1.6133436 0.8069976 -0.3368358 0.052302774 0.34037194 -0.60691184 -0.4593589 0.9075826 0.7682241 0.38605434 -0.051764417 0.20193416 -0.46335804 -0.007318435 -0.35637856 -0.15020564 0.27350667 -0.82605 -0.10267528 -0.16576366 0.32720777 -1.2097989 0.27014413 -3.950843 0.2089101 0.33669573 -1.049013 -0.7423261 -0.09424745 -0.004348248 -2.0922656 0.41778105 -0.40031344 0.8850197 3.385447 -0.37337 -1.065159 -0.16671747 0.4575978 0.41076684 -0.77713925 0.100816146 0.3450299 -0.5524278 0.8660287 0.3292729 -0.03041961 -0.8463107 -0.38312462 0.42660898 -0.1896696 -0.024453428 0.918456 
-0.4968407 0.08691859 -0.40139064 -1.3907077 -0.31363693 -0.6781598 0.20655349 -0.21148439 2.375917 1.644609 -1.2112902 -1.7368221 0.04212286 -1.3406758 0.18013673 -0.11618147 -0.110506766 -0.16656071 1.6108897 0.1737589 -0.26471087 -0.0029559971 -0.7476522 -0.4135921 0.39965096 -0.4462824 -0.3477564 0.21267973 -0.39174438 -0.30406564 -0.28662452 0.29943812 -0.16251256 -0.00022765296 -5.352351 -1.0404433 -0.50692046 0.072174534 0.27666315 0.32201192 0.3973058 -0.26965886 0.16774422 0.19433694 0.42820168 1.2032096 0.73490626 -1.693103 0.0022121025 0.5462146 0.44920018 -1.2132746 -0.17656326 0.09561919 -0.74340576 -0.48712966 0.096331365 1.1199534 0.05970543 0.21491547 -0.72940904 0.6523397 0.32743216 0.4137658 
-0.55568117 -0.036274184 0.23234576 -0.9077563 -0.19988593 0.30941963 0.9154183 0.1700526 0.76665336 2.2357256 -1.6799576 -2.6650622 0.68086696 -0.51779145 -0.20236892 -0.24657112 -0.26456985 -0.004550148 1.5091265 0.42369586 -0.52850175 0.15008657 -0.3084081 -0.07098688 -0.0754816 -0.070213445 0.44004175 -0.05003922 -0.056379292 -0.6235446 -0.069727294 -1.4550984 0.22197841 0.4357989 -1.9637518 -1.501925 -0.89654064 -0.7003646 -0.47240773 0.6865983 -0.30397806 -0.53450817 0.36550665 0.53125685 -0.13149798 0.0042846976 0.52261066 0.36440468 1.1744387 0.016128378 -0.14796448 -0.27753925 -1.4781682 -0.6946071 -0.8507093 0.16696687 -0.29748604 -0.22234078 1.4772086 -0.01723911 -0.5575746 -0.14245124 -0.3889806 0.5479505 
0.5360501 -0.28283745 -0.16567533 -0.059414387 0.25911462 1.1931862 0.18245798 0.06651665 0.050581377 1.076048 0.34331226 0.13912548 0.3752396 -0.5311807 -0.5605072 -0.06399143 1.0879406 -0.12015306 2.4052768 0.32607162 -0.28201836 0.031906087 -0.4913888 -0.34240055 0.060279924 0.2811771 0.17976868 -0.58164275 -0.2826437 0.5049219 -0.26116836 -0.94636387 -0.1968128 0.17408742 -1.8886769 -1.4844154 -1.0239542 0.96520317 -0.53685933 1.4910098 -0.42328367 0.24619557 -0.06059754 3.5245256 -1.0460132 -0.040718377 0.64014137 1.5418365 0.24214144 0.25519094 0.374599 -0.008067311 1.3133116 -0.088553675 -1.1542289 0.60234576 -0.63559335 -0.028861983 -0.03890364 -0.74684906 -0.92308736 -0.27753738 -0.5992428 -0.45107773 
0.55261505 -0.8980079 -1.4570041 0.13690613 -0.19669251 1.8392038 -0.41132107 -0.2870677 1.2539403 1.3729209 2.3191574 1.2704948 0.69252163 -0.3708905 -0.2842424 0.5237345 -0.5341282 -0.26212534 2.13873 1.0523158 -0.15713435 0.8516679 -0.309074 0.24215257 -0.08092572 -1.2623584 -1.3504375 -0.41449836 -0.8880782 1.2632159 0.5908478 2.250046 -1.4877893 -0.6176641 -1.5690644 -1.2466422 -1.0724965 1.6880801 0.6735251 0.35450113 -0.20893028 -0.7201572 -0.67366827 0.12777741 -1.3653505 0.03319179 0.76402307 1.727619 -1.5316796 -0.1981149 0.69097704 1.141452 2.4047444 -0.84792006 -1.5250456 1.3940886 -0.34466228 0.04206786 0.80135983 -0.4973248 -0.7355193 -0.12317104 0.25696006 -0.21642374 
0.3258703 -1.0050075 -1.5138 -0.0028411697 1.2483598 0.33526984 0.031774063 -0.58571535 0.050997663 0.6875025 0.8560934 0.90416574 0.94800097 -0.391206 2.2970114 -0.13370518 -1.1160946 -1.1053822 0.4872472 -0.25360796 -0.8327334 -0.144014 -0.39822206 0.53203875 -0.004261776 0.0125041185 0.24284993 1.3383524 -0.42163602 0.29936513 0.3141652 0.4400566 -1.9607037 -0.8848753 -0.3283932 -0.79853684 -0.5091961 0.73007494 0.36061564 -0.5384063 -0.2642287 0.14465469 -0.54725224 -1.4520608 0.6590453 0.0009310582 0.1295332 1.0854268 -1.7322767 -0.13341293 0.637816 0.1196589 0.40649962 -1.8241708 -0.53135157 1.5887719 -0.56290364 -0.32253912 0.8611182 0.5382611 0.04776589 -1.4232535 1.1086944 0.20021111 
0.06188223 -1.5344243 -0.36609307 -0.111397654 0.16250916 -0.16515821 0.8242595 -0.29700518 0.8196157 -0.69459915 -0.36966953 0.4177296 1.1599611 -0.39278635 0.79266137 -0.15650393 0.39293435 -0.7789885 -0.56196564 -1.3946207 -2.0599189 -0.64674735 -0.80914575 0.56444865 0.11118912 1.4560864 0.6427967 2.0628269 -0.82339174 -1.3239329 -0.7182355 -0.34923747 -0.49694926 -0.4728239 0.1009667 -0.08683856 0.36410567 -0.48918903 0.52377534 -0.5911023 0.23213884 1.7616926 0.47066084 0.3965769 1.6717451 1.3560458 -0.7530786 0.4613985 -1.0916625 -0.30512375 0.8847267 -0.27607793 0.57427764 -0.20726785 0.2600443 0.7644495 0.024619104 -0.048104092 -0.00023642326 0.04136469 -0.76952994 -2.0505548 1.2089684 0.29600644 
-0.09782149 -1.1756576 -0.10687424 -0.95497954 -0.72765476 0.10245585 0.475832 0.55699444 0.39352342 0.18260768 0.10346884 0.5990084 -1.3135164 -0.2888244 0.5078978 -0.532768 0.15281926 -0.37628722 1.0298574 -0.81568694 0.49864572 1.1898276 -1.0780474 -0.15598029 1.2443924 1.0330085 0.5831319 1.3590422 -0.07181696 -1.1032959 0.49756458 -0.80827093 -0.15284687 0.17212677 0.35773188 -0.8637865 1.1667435 0.116738744 -0.7128067 -0.30462244 0.7376789 1.2958885 -0.046077617 -0.80556476 0.8895017 2.2925272 -0.14062853 0.5783092 -0.27797773 0.13738282 0.4388093 0.08329684 1.902909 0.6815183 -0.025807332 0.89407736 -0.11799077 0.16306183 0.1402227 -0.84476423 0.15312974 -0.7127693 0.95778984 -0.27979505 
-0.2574395 -0.7844987 -0.14958769 -0.22387482 0.70877075 0.04732741 -0.79797745 -0.39394468 0.7244974 0.3402912 -0.74516225 -0.18550846 -1.1712049 -0.4996981 1.6407496 -0.0664801 -0.06917184 0.2647588 -0.028614748 -0.34661505 0.809938 0.7414881 -0.1692059 -0.09964237 1.161685 0.44776148 0.041921094 1.3276138 0.26880476 -1.2409511 -0.14600237 -0.17181237 0.598159 0.49842918 0.88415855 -1.0950543 0.13010778 -0.88732404 0.13776082 -0.14292729 0.029661052 0.15302011 -0.11496776 -0.18919264 3.906724 5.0630302 -1.5425718 0.054146107 0.1370003 0.024896022 0.2779599 -0.30900794 1.7132577 0.34384936 0.11302948 0.36559686 0.015486978 0.6985434 -0.7137862 -0.08524417 -0.6225296 2.3677366 0.19556461 0.30355307 
-0.111390874 -0.6188206 -0.2510793 -0.43959308 -0.06262317 -0.53442866 0.06380439 -0.7714061 -0.2774392 1.1573954 -0.83230114 -1.4105457 -0.60886616 0.046330974 3.999099 0.13924812 -0.15239376 0.43180722 -0.45241374 0.24998926 0.5912717 0.5931584 -0.7435258 -1.2859713 0.8976365 0.6798745 0.479086 0.6248065 1.1352962 -1.0468379 0.2615623 -0.32043147 0.63506377 -0.28728175 0.0884947 -1.4825948 0.5810833 -1.3286445 2.9410675 -0.31853423 0.8412373 -3.9697587 -0.45257053 -0.07715861 6.212991 1.525265 -1.2997817 -0.14310639 0.088620216 0.2211778 0.32825372 0.15302275 1.3524208 0.2544314 0.9597779 -0.7105043 -1.2394338 0.56525165 0.58680224 0.30260494 -0.456431 4.7402134 -0.43175337 0.31283385 
-1.1677392 -0.70082206 1.1000031 -0.43118206 0.4218767 -0.9832453 0.84840846 0.07936866 0.7925645 1.3137311 -0.60886973 -0.25544387 -0.09240134 -0.50958467 7.1807914 1.0842593 -0.022070544 2.1164663 -0.1580864 -0.3367399 0.83200383 0.6468549 -0.9114024 -0.5417307 -0.087526724 0.55364114 -2.036546 0.42402512 0.79847443 -0.24048483 0.1074863 -0.5228582 0.5831991 0.11695682 -2.0852313 -2.6392894 1.4302647 -1.5377536 6.4748383 -1.3853737 -1.6372987 -6.5043726 0.33689612 0.81012636 0.93001145 -0.06860536 0.40805897 1.0901835 0.2474453 -0.013962558 1.7461314 -0.24930699 1.6983856 0.03254001 -0.19403106 -0.17900313 -1.6535474 -1.4025412 0.22401805 -0.13133425 0.18212809 2.875981 -1.335703 -0.072525024 
-0.8178995 -0.14479241 0.80238616 1.360923 0.46678442 -1.5505229 0.4154728 0.4298849 -2.992349 0.8909215 -0.5769458 -0.3975859 -1.0283002 -0.45670012 4.3993025 0.16560644 -0.37814295 0.1626311 -0.112198725 1.1966704 0.26112482 0.80065364 0.54042053 -0.42779014 -2.04727 1.1179879 -2.714491 0.94070166 -0.107496545 0.27879342 0.64697 -1.3138447 -1.3656547 1.5822014 2.3466287 -1.9145421 1.0016987 0.31351206 -2.0823603 -2.5440724 -1.3666973 -0.4802417 -1.7300955 0.37800366 -0.54602784 0.16067873 2.257055 0.098758996 -0.68350214 0.9220364 1.1126429 -0.42379373 1.0332987 1.1255655 0.20150293 0.83335114 -2.3546183 -2.642091 0.11009373 0.2691871 0.7283534 -0.4415284 -0.24019769 -0.019599065 
-0.46730658 1.5392962 1.133327 2.2709353 -0.5015747 0.9817839 0.16404858 1.0082414 -0.5831999 1.8505512 1.612002 -0.9868168 -0.8037295 -1.9021019 -1.0940893 0.7856065 -0.29318085 0.76336515 1.3047963 2.9205527 -2.3455772 1.0935651 -0.13921712 0.1144973 -0.06984825 0.5716966 -1.6658272 -0.2934558 -1.2172465 0.32102755 3.7683787 -0.19853896 -0.44466603 1.0823349 0.9341537 -0.25572604 -1.2374172 1.8569328 -0.79467267 -3.1553924 -0.2247815 -0.99779916 1.6042856 -0.7656147 -1.5990374 -0.85779816 0.9615523 -0.1507704 0.6669375 2.6538231 1.4457542 0.72931963 -1.215627 0.6304682 -0.7505196 -1.3428932 0.32456264 -1.0461847 1.7071767 1.4439367 -0.31892583 0.35328826 -1.4043838 -1.0122011 
0.2065554 -1.1655794 -0.24058978 -2.0581691 -0.76262033 -0.9015336 0.8864099 0.34927967 0.271906 0.18990298 -1.2624072 -0.15002297 0.96115094 -0.046005916 -1.0769852 -0.67809564 1.6355475 1.0606067 0.39788285 0.077379294 0.7246172 -0.7720077 -0.43176067 -1.0122148 -0.42532519 0.7345467 0.31673682 -0.95575607 -0.32678476 0.86504334 -1.1766738 0.04967054 -1.0286536 -1.0467764 -0.84128654 -0.5897382 -0.2539623 -0.8096865 0.42285022 -0.5466222 1.2905858 -0.8007474 -1.2372317 1.7690673 0.8459705 -0.3729198 0.49798065 1.4812778 -0.052111574 -0.79530233 1.4149956 -0.6190102 -1.0478354 0.41926885 -0.21073315 -0.67069453 0.8884643 -0.25847897 0.98552483 0.29366124 -0.32154402 0.9962685 1.4110595 0.39670697 
-1.3725953 0.8391299 -1.0657685 -0.5531219 1.5503019 -1.0197039 -2.0647256 -0.6282013 0.6138391 -0.07672857 0.07469043 -0.003254573 1.1766467 -1.0541923 1.1463304 -3.0232456 0.80108553 0.99070275 -0.9226113 1.17401 2.0025635 -2.1131487 -0.7109763 -0.669942 0.33994383 -1.0323709 2.1793165 0.8182846 -1.7975779 -0.57169914 1.8851231 0.95067984 -1.6075882 -1.6787093 -1.3404245 -1.0263232 1.7791203 -1.1953118 3.495682 -0.8174476 0.93958926 0.16167751 1.94731 0.30861828 -0.394642 -0.8516026 -1.8157115 0.30553505 1.560843 -1.0443872 1.7157652 1.8577602 1.0060834 0.049431883 -3.4374769 0.90973854 -1.7979531 2.4860346 1.2720509 0.45612806 -0.033950172 -0.57203114 1.53368 1.1622031 
-2.345279 0.22398819 0.124069095 -0.62217164 1.6130537 -0.37485835 0.1337442 -0.14101022 -0.86827785 1.8040963 -0.9829557 -0.39451662 -0.16216582 1.1068699 0.3792185 -0.044697642 -0.28483033 2.9491186 0.9553026 -0.24758409 -0.3511719 -2.106253 -0.6389984 -1.4469398 -0.6678395 -0.36302394 0.41785696 0.64374423 0.3105635 -0.6365152 0.73613787 1.4935777 -1.2388686 -1.4982576 -3.4912682 -5.0562315 0.49848652 -0.15225062 2.8307269 0.59020567 -0.35899997 -0.7944789 -0.536198 -0.41827428 -0.3077681 1.1218547 -3.3200166 -2.5267837 1.7514387 0.29730156 -1.1582431 1.7358521 1.0218563 -1.1206799 -1.2039866 0.66109484 -1.5328718 3.1543372 1.1891916 -0.8079676 -0.5137983 -1.4383656 -0.67200345 1.2529987 
-0.10427446 -0.9170711 1.04823 -0.3287119 1.5415169 -0.067834646 -0.2880841 -0.8992193 0.8727884 1.070486 -0.50720894 -0.41796568 0.7185313 -0.3315334 -0.31769487 0.59755474 0.26695213 0.28537887 0.13683292 -0.17151573 0.8480271 -1.6263536 -0.769054 0.0037890295 0.32308504 -0.6788342 -0.91798675 -0.5491719 0.13214274 -0.313092 -0.048201572 0.4915834 -0.55605805 -0.5704013 -2.3186572 -6.475222 -0.3985365 -2.1326315 -0.2271649 1.4793341 0.62254083 -0.5648181 -1.1940038 0.7296417 0.5048684 5.0986376 -0.22600253 -3.134695 0.50387055 -0.06714651 0.29868093 0.9804534 -0.36662704 -0.32449865 -0.63921225 -1.6684097 0.03673896 -0.16103972 -0.33617434 -0.3573823 -0.8078845 0.90282995 0.09997886 0.008341226 
1.3731545 -0.79132 0.5906512 -0.2197668 -0.62375855 0.84105515 0.76707864 0.48995787 0.7992531 0.9223169 -1.1485784 -0.9645316 0.9993383 -0.6780543 -0.47588125 0.6147192 0.08156198 -0.704272 0.20087475 0.27487996 -0.31629992 -0.43438238 -0.39354542 -0.033404738 0.46004996 -0.36585426 0.087042056 -0.7120644 -0.44001335 0.25354204 -0.12885754 -0.611824 0.31621563 -0.35636628 0.36552534 -3.9653683 -0.1499476 -1.3537871 -0.48091504 0.98096806 -0.71581167 -0.18071982 -0.6513706 0.55925876 0.3064468 2.7341776 0.7176296 -0.7367852 1.2944162 -0.5380967 -0.2555932 1.4148875 -0.7603889 -0.1573238 0.24331048 -1.6396896 -0.5203566 0.08191465 0.4479804 0.118692614 -0.4199656 -0.18543649 0.20564227 0.95974326 
1.2094564 -1.3288063 0.51429856 -0.16264744 0.42966303 1.5662616 1.0509292 0.42279664 0.7735828 0.62668675 -1.4419413 0.745987 1.1914928 -0.72133046 0.13097645 0.75717276 -0.04651304 -0.13443881 0.36426398 0.025022522 -0.17261241 -1.1823308 -0.46632886 0.5157197 0.21797904 -0.5976858 -0.06769448 -0.7149357 -0.22087649 0.7420065 -0.3668555 -0.11219117 0.44254842 -0.2615673 0.38879183 -1.775432 -0.37657776 -0.8160508 -0.3050724 1.170586 -0.39200372 0.45987353 -0.82891244 0.67812496 -0.210242 -0.2723477 0.9328481 1.4392599 1.4404721 -0.31060454 -0.15512957 1.632599 -0.5616221 -0.57974553 0.12113866 -0.8400219 -0.46389428 0.08633075 0.234574 -0.14144365 -0.5502494 0.69684356 -1.0651277 0.74083954 
1.3809546 -1.7336128 0.2853733 -0.4105656 0.13275918 1.7507236 1.117053 0.35826403 1.3006564 0.2155754 0.62167054 2.606489 0.1874509 -1.3928494 -0.37748775 0.32377785 0.6509821 -0.019819032 -0.15629715 0.25856972 -0.37854627 0.1552443 -0.3454409 1.5452402 0.31538466 -0.3039832 -0.3424618 -0.37731454 -0.38811302 0.6999958 -0.7932828 -0.49837106 0.09412033 0.6664652 0.032376803 -0.51016563 -0.09121234 1.0849446 0.20090632 1.3272482 -0.59002244 -0.057571396 -0.97547865 1.8135501 -0.16793256 -0.06370111 1.4171091 0.38257354 2.211725 0.24880044 -0.11264036 1.2421081 0.4799982 -0.58779377 -0.77644706 -1.4632527 -0.007865909 -0.17609276 -1.1064032 0.049678784 -0.4970676 0.042117134 -0.211875 -0.9654378 
0.91188425 -1.8161622 -0.6352121 0.024456391 0.9388001 0.7312663 0.26360682 -0.93980366 0.6016202 0.29121345 1.3730593 1.5656275 -0.69461817 -1.0804732 0.08925971 -0.0662781 -0.9569648 -0.5780392 -0.9819255 0.6693823 0.6677493 1.6844176 0.05995113 1.2886064 0.12266648 -1.9059304 -0.9404788 -0.016758846 -0.24464573 0.45474055 -0.11215807 0.15314686 -0.31439805 0.40678647 -0.32065606 0.462633 0.6792965 1.2071732 0.7433331 0.27362105 -0.2548367 0.19223247 -1.2415149 0.48896125 0.1273477 0.15006898 1.1574367 -0.15303248 0.7283914 0.7022964 -0.66787773 0.4616621 -0.1365226 -0.40438613 -0.8744023 -0.7079614 -0.73135954 0.3311229 0.42073113 0.86937106 0.9739865 -0.12502286 0.80420667 -0.76648164 
0.11404324 -0.62862957 -0.77813274 0.5292722 0.45777196 -0.28727716 -0.7467578 -1.5089179 -0.25833163 0.59620464 1.8200263 -0.3109912 -0.36011615 -1.7906824 1.1680322 0.59028834 -1.1679596 -0.81401867 -1.7351094 -0.2578015 -1.7688178 -0.7254506 -0.35816684 0.09589118 -0.20873943 -0.91787326 0.08512623 0.617895 0.5125827 -1.3013726 0.336935 -0.20553465 -1.3552264 -0.22448835 0.43053225 0.20672022 1.092881 1.233585 0.3337867 0.30806386 0.35649294 0.48011506 -0.3340663 -0.31604394 1.0367765 -0.14573209 0.5563397 0.20250499 -0.0043453574 0.37890717 -0.2003032 -0.42303783 -0.53091323 -1.3242818 0.022443406 -0.8067963 -0.123688355 -0.03211814 1.579446 1.0333809 0.46482077 -0.20589773 1.2783692 -0.2652916 
0.18974511 -0.18003528 -0.8662842 -0.38184416 0.06837421 0.34782028 -0.43880293 0.35757792 0.4768665 0.38868055 0.36827412 -0.45199102 0.44477007 -0.2655939 0.5821935 -0.5250766 0.6499532 -0.14682417 -0.59113264 -1.1046271 -1.9811134 -0.7841802 -0.49877477 0.61961204 -0.5933616 -0.055756994 0.5210927 0.013456155 -0.19871004 -0.3844369 -1.1529022 0.10797267 -0.6786711 -0.07741931 0.26124257 -0.22840576 0.4900018 0.10818686 -0.57717717 0.15360968 1.4120808 0.43970773 -0.09179834 0.5787815 0.60427773 -0.9248664 -0.17394938 0.3513698 -0.20149395 -0.27766284 -0.7917906 -0.47996992 0.4024311 -0.34126562 0.14199045 -0.2336954 -0.40612566 -0.008161917 0.6747291 0.44089788 -0.61835605 -0.17374323 0.7758691 -0.9759186 
0.25039655 -1.0037365 -0.5208999 -0.31164542 -0.69697946 -0.07192214 -0.24736221 0.25554198 -0.029203814 0.18341924 -0.236119 -0.5056253 0.3921495 -0.6459235 0.016464472 -0.5391564 0.15569265 -0.018728215 -0.36648682 -0.575867 0.05035852 0.25008407 -0.5882006 0.33262283 -0.56559557 -0.16367577 0.63222414 0.41395384 -0.93589395 -0.8242415 -0.19677134 -0.14602 -0.38696066 0.65666986 0.20729917 -0.3174585 0.7655873 0.03911123 -0.559509 0.42337835 1.9113075 -0.5924703 0.23747079 -0.30768865 -0.25513157 0.75191736 0.038446706 0.29252037 -0.0559054 -0.31400996 -0.48851544 -0.26732838 0.61185837 0.20641376 0.5697849 -0.25094482 1.0432554 0.12514879 0.32379577 -1.0144628 -0.51412195 -0.3278389 0.7546647 -0.1178823 
-0.14943843 -0.46190158 0.6830682 -0.7229295 -0.015483763 0.3524691 0.0070842993 0.6657819 0.9313319 0.79759496 -0.080969214 -1.1644409 -0.10619139 -0.11766855 -0.42124364 -0.43419442 -0.253289 0.017783416 -0.91562253 -0.69037974 0.23069203 0.32353917 -0.685023 0.6506928 2.2828803 -0.80886877 0.5395187 0.04459146 -0.20114426 -1.3765681 -0.18609107 0.38976017 0.34464702 0.5832686 -0.20799123 -0.24428697 0.05570443 -0.83033144 0.46379572 0.25933507 0.9688113 -2.3128357 -0.3467851 -0.38920924 0.82710874 5.5254235 0.049668938 -0.49618345 -0.32696807 -0.4929478 -0.2728089 -0.2564816 0.77949274 -0.3540498 -0.14119436 -0.18986559 0.55879307 0.02118811 -0.072133645 0.05993315 -0.6620793 3.2876122 1.0349214 -0.32207665 
0.061763886 -0.5445 -0.20678554 -0.16829334 -1.0689926 0.27153563 -0.08166914 1.1100178 2.448625 0.7449436 -0.8237455 0.49281806 0.52709115 -0.26342368 1.0091041 0.4389388 -0.13555373 0.88733256 -1.445648 -0.30305493 -0.13141358 0.3214421 -0.37934595 0.04846698 2.6239145 -0.45340726 1.5331707 0.1839362 -0.08031378 -0.9089399 -0.47661638 -0.60278857 0.012139677 -0.04210837 -1.0404168 -0.2996946 -0.30077913 -1.0530514 2.2646792 0.3958665 1.675566 -2.3781993 -0.36366147 -0.16555952 0.9217855 2.502325 -2.5495672 -0.73856354 0.4874623 0.023057543 -0.59279716 -0.18548352 -0.017383473 0.8478262 0.3538198 0.21871859 0.66285455 -1.1640068 0.14498511 0.30564252 -0.7892088 1.9029596 -0.4972159 -0.3460592 
-0.25842792 -0.5588604 -0.5720094 0.051325936 1.0472208 -0.5725731 -0.6102731 1.0195831 -0.52663994 0.6840555 -0.35395235 -1.0065436 2.2082036 0.4096959 2.6848946 0.34922352 -0.17968057 2.711403 -3.2232172 -0.087528884 0.27002722 1.2010001 0.44450188 -0.11926544 0.53870577 -1.2851099 1.4963195 0.35126972 0.33742404 -0.13509393 -1.6924331 -0.30905136 -0.9192107 1.9721209 -1.1539268 0.45516118 0.0006118856 -5.292097 1.3420776 -0.4749722 -0.69989705 0.42086363 -0.26066518 0.394856 -0.8275031 0.10220196 -5.660029 -1.4039463 0.20830278 0.1590592 0.2839876 0.6514 0.9586246 1.1892704 -0.4948373 -0.23940568 0.48744607 -1.8433497 -0.50505984 0.39297336 -0.47974324 -0.799031 -2.635251 -0.7998692 
-0.88999027 0.73429793 -1.769729 0.31806365 3.850634 0.5463261 0.45646554 -1.6950448 -4.5214286 0.2835124 0.063538104 -0.59588516 0.63519007 -1.3651142 3.6515076 0.16100739 0.38152847 1.5165431 0.98633194 1.7325397 0.4806857 2.193241 0.22377571 0.003936984 -1.9041743 0.041599337 0.98567295 -0.29868567 -1.8445233 -1.3801988 -0.23149371 -0.79095876 -2.2029934 1.217133 1.1109854 -0.22867876 -0.27530932 -4.853178 -1.0428797 -0.3944499 -2.9054844 2.9485867 -0.6719248 -0.33216795 0.63965166 -0.083292775 -4.1816273 -1.3634564 0.5430559 -0.7109698 -1.4351612 1.2026976 0.7387704 2.098522 0.444249 0.09382387 0.9001371 -1.6050456 0.34651935 1.0304742 1.8164318 -2.1115108 0.062051367 0.37443373 
0.20497547 1.0608535 -0.09448289 -0.8113988 0.2095339 1.0057813 1.3385906 -2.1992145 0.6116488 -1.2270131 2.4243212 1.7772875 -2.846534 -1.7233651 1.7039107 2.1125994 -0.6020792 -1.8536927 1.9787825 -0.43441793 0.20352566 1.9347359 -0.9112341 -1.0343673 -0.5521421 -0.46466303 -0.87250644 -1.3761472 -1.4987998 -3.5176232 -0.29244372 0.94944054 -2.041241 -0.57630074 -1.7587136 -1.4364966 -0.056546804 -3.2669356 -1.8015468 -1.6461663 -1.415342 1.0264877 -0.32395136 0.49794382 1.2338085 -0.06484844 -2.1922998 -0.021247966 0.5855749 -0.20739473 -0.23745361 -1.5315503 0.08326265 -0.8987788 1.8006573 1.5513481 0.8593613 -1.3851769 0.9109998 2.0626464 -1.2123839 -0.13807386 -1.9240637 -1.0052701 
-0.938737 -1.2998972 -0.4202426 0.9678471 0.047275577 0.7852159 -0.6593758 0.4137273 -0.43178537 -1.4219037 1.5929943 -1.4333748 -1.1584132 -0.6276648 1.6332513 0.9213159 -0.4106729 -0.91465145 -0.41995856 -0.4173251 -1.3495984 0.5303284 -1.7688534 1.1558523 0.859837 -0.68428415 -0.15687491 -0.33993867 0.5803551 1.1178123 0.39063972 -0.49582264 0.7786558 0.64358515 1.1763968 0.7437842 -1.8593855 1.0839902 -0.041272733 -0.4002992 -0.11692858 1.905256 -0.2979134 -0.37977144 -0.13324827 0.3563587 -0.7824862 -0.9413911 -1.1025951 0.97133833 0.25860712 1.7902142 0.3385182 0.4670832 -0.6179721 -1.9721357 -1.7801489 1.2105539 0.39237726 -1.1338977 -0.11737318 0.13836 0.2569027 -0.37986097 
0.36688522 -0.06294013 -0.0025109707 0.50688565 2.376904 0.6545318 0.19400558 0.5913378 -0.28838274 -0.5441732 1.1482133 -1.0781848 -3.6349936 -0.23968168 0.20893167 -2.0103788 1.4635587 -0.2692861 -1.4931618 -1.9096098 0.02060415 -1.8671452 1.354262 0.64837116 1.1959572 0.8283096 0.5214397 1.8041091 -2.5596685 -0.26611403 -0.11379461 0.27956104 -1.3620265 0.17893007 0.78593415 -1.6698002 -0.6322405 -1.2911 1.6768014 0.35324597 1.2444478 1.4300531 -0.76647323 0.80502355 -1.8681607 -0.66040015 0.5093026 1.6413554 1.4037607 -1.2671113 1.4315233 1.8814914 1.2259744 0.82083714 -0.83596843 1.9626896 -0.7369627 0.7738383 1.0954881 1.583904 -2.5884302 -3.1541126 3.7829254 1.1224822 
-0.8307989 -0.21658236 -0.22731523 0.045438614 2.4098837 1.1663715 1.9008611 -1.0291626 -0.04521642 -0.335594 -1.6013541 -0.73778754 -1.1605558 -0.3234878 -1.5076042 -0.32038638 0.11132917 0.32649437 -0.33074427 0.8747697 0.6543005 -0.23859389 0.3245551 -0.19625476 0.9697871 -1.0487987 -0.17655955 0.4662837 0.57813853 1.2146702 -0.16683692 -0.48760125 1.3117834 -0.36914313 1.4805048 -1.8777425 -0.3522874 -0.22205272 4.3426166 0.5054501 -1.1882629 1.0232592 -1.202839 1.1178596 1.821861 2.5735686 0.09450383 0.3914105 1.4115257 -0.5270892 -0.3290254 0.045736987 -1.5352683 -0.034224465 -0.014855452 -1.0734892 -1.4437512 0.2702195 -0.22019418 -1.7064705 -0.01144774 0.63117987 1.2547361 -0.2318073 
0.38685805 -0.46239606 0.46427765 0.47166258 1.661976 0.8246308 0.21939334 -0.880442 0.39577922 -1.218824 -0.70632195 0.31296816 -2.312699 2.5556211 -0.36860457 0.41924104 -0.17195792 1.7507306 -0.9147073 -0.2712244 1.0566969 -1.692621 0.15314212 0.8653769 0.2649127 0.12902535 -0.27930987 -0.56086767 -0.7371393 1.0266207 0.3277534 0.04614567 0.17910722 -0.96803945 1.6229647 0.3868867 0.058729257 -1.708405 0.9800927 0.99279076 -1.4795557 0.8269574 0.023877552 1.7243413 1.2559451 4.7670507 -0.50576675 -1.7514232 0.87566745 0.024835361 0.17324494 1.3514646 -0.57887 -0.16503794 -0.36424783 -4.759445 0.18006381 0.6768157 -0.11207515 -0.20706078 0.2274123 0.8895393 -0.4549291 -0.26493818 
1.0632483 -0.7690859 1.1476877 1.5419184 1.6675682 0.9908606 0.8409432 0.43030563 1.179627 -1.6627457 -0.7870715 1.0010481 -2.1350365 1.5211732 0.042372793 0.49740314 0.19380508 1.5691257 -1.0273049 -0.16816099 0.59626096 -1.4860789 -0.12896644 0.5375611 -0.016156169 0.46487272 -0.36558682 -0.52813506 -0.78085417 0.16044149 0.47132468 -0.18531957 0.14898007 0.0028616625 0.7128868 0.06613301 0.40662408 -0.2669673 -0.26484418 0.95059454 0.25788572 0.55992055 -0.48790815 1.7131615 -0.6713336 0.3656572 -0.27749398 -0.8550882 1.3099127 -0.0071350303 0.031220863 0.41907865 -0.3752932 0.8882583 0.24380285 -3.8032098 -0.56887764 0.03962092 1.1066685 -0.23653086 -0.06497837 -0.042513352 0.014074668 -0.1951099 
0.4732809 -0.31343117 1.0700947 0.68485606 0.059394997 1.2151529 0.6853134 -0.1567642 2.321717 -0.8541384 -0.93148595 2.9606457 -0.42354757 0.29248196 0.11603585 0.10048877 0.9607932 2.1445246 -1.1862152 -0.43455198 0.58884084 -1.3678532 -0.02164347 0.355312 0.69812435 0.12082901 -0.46877056 -0.71459407 -0.12577985 0.1887505 -0.2899532 -0.4262032 -0.15034355 -0.6860541 0.044888783 0.24895038 -0.050110314 -0.9070786 0.3111795 0.29974598 -0.05519217 0.15147962 -0.4845435 0.7230378 -0.52648 -0.9183465 0.66668713 0.09798825 0.29036534 0.94195855 -0.25884116 0.16391176 -0.6183465 0.15324323 0.45372286 -1.8440349 -0.18927896 -0.1773583 -0.8106112 0.2462993 0.12025003 -0.059048984 0.024451913 -1.9176984 
0.6378164 -0.135305 1.695398 0.40072355 0.67042154 0.3048768 0.004814795 -0.81772304 5.67572 -1.0258914 -0.5231895 2.090381 -0.14840414 -1.5663568 -0.03482444 0.31982714 -0.028413782 0.4880481 -1.2881858 0.9194362 0.16542983 -0.5372032 1.1377522 1.2980525 0.0150713995 0.27848503 -0.5375174 -1.4987086 -0.3133453 -0.15614966 -0.988157 0.7232852 0.03891547 0.6597047 0.12503982 0.960026 0.1821914 0.35581967 0.17055744 0.3648752 -0.38018793 -0.28477746 -0.18049987 1.0908582 -0.38662764 -0.74361837 0.03645378 -0.36817807 1.5934683 0.44796172 0.2296305 0.18369092 0.56634974 0.83153886 -0.07757856 -1.4238809 -0.38848352 -0.60707134 -1.40159 1.0842149 0.002229585 -0.36115775 0.8984119 -2.0907702 
0.77917784 -0.22467795 1.6295751 0.092892885 0.01869724 0.045197025 -0.47740456 -0.9271824 -0.48754987 -0.7289744 1.4353191 -0.6855351 -0.23672993 -0.9756275 0.7940699 -0.021466583 -1.9738983 -0.4631922 -1.1056755 0.7111174 0.25387076 0.75369453 1.1171725 0.32355928 0.7387631 -0.87697893 -0.9773748 -1.0064483 -0.01918828 -1.3181881 0.10187249 0.09038687 0.39782703 0.95909894 -0.6279456 0.334773 0.08106116 0.9205284 0.22176617 1.0128384 -0.6527288 0.039796017 -0.31311068 0.120868996 0.17767493 0.17954797 0.39653978 -0.6904073 1.342361 0.09956758 -0.105443336 -0.41659698 0.2943108 0.06927423 0.54056543 -1.0790038 -0.39352846 -0.08686409 -0.46699482 1.4100913 0.21056564 0.17856869 0.93522197 -0.70782286 
-0.3540612 1.1360503 0.45139733 -0.27150768 -0.06428315 -0.18248467 -0.40003344 0.9829844 -1.0041512 0.6119791 1.9699103 -0.7387203 0.32555363 -0.82946974 0.86304647 0.79450303 -0.13738911 0.18029779 -0.47452936 -1.355586 -1.8726428 -0.818176 0.9049399 -0.016643856 0.016129868 0.37206328 -0.9208753 0.10352484 -0.03982195 -1.397241 0.50190705 0.36673343 -0.33615753 0.33756208 0.5593752 -0.29372263 0.13894685 0.6762396 0.15526319 -0.22408575 1.305852 0.3220929 -0.2694168 -1.0876597 0.3386502 -0.35453692 -0.19847643 0.4247311 1.3896158 0.15601638 -1.179724 -0.36617535 -0.37032455 -0.60666895 0.33094957 0.21889567 0.36189017 -0.7355431 1.0076483 1.2501577 -0.07817082 -0.22116871 1.0758955 -0.23187643 
0.44179896 0.33887073 0.5155517 -0.40015715 0.3534184 0.6698155 0.6102387 0.11785411 0.02631215 -0.41792074 0.40305924 -0.80531424 -0.34941828 -0.32018223 0.3724726 -0.67453605 0.3957347 0.03558044 0.16434355 -1.4640625 -0.5495575 -0.5125293 -0.18268849 0.975616 -0.61669284 -0.017149635 -0.120026305 -0.5210126 -0.43988198 -0.5155583 -1.1041598 0.9384372 -0.33924857 0.047829706 0.0014464654 0.29020867 0.10599494 -0.16811793 -0.045079075 0.6146859 1.0384067 0.18597305 -0.7776733 0.39068967 0.024254095 -1.6533929 0.5253663 0.45259887 0.5816232 6.928312e-05 -1.1879063 -0.6757678 -0.62292284 0.13834396 0.104054235 -0.180323 -0.07846803 0.24512488 0.024485081 0.4037588 0.0662268 0.06940081 0.8362443 -0.7038841 
0.4585525 0.7576467 -0.34926283 -0.36009496 -0.44065547 0.34575212 0.116453126 0.5518463 -0.17200218 -0.056437004 -0.3601654 0.09268594 -0.4456808 -0.58703876 -0.44187045 -0.3417467 0.09971215 0.07150229 -0.1284354 -0.74885225 0.62439436 -0.13189062 -0.31947967 1.4692943 -1.19748 -0.21546933 0.73420614 -0.1649663 -1.0343246 -0.33646226 -0.7620471 0.6837087 -0.08016535 -0.63427466 -0.26580527 0.6297843 -0.2593484 -0.24265799 0.74332404 0.33366492 1.4099187 -1.1909099 -0.36018333 0.23338675 0.823197 -0.03388886 -0.23730543 0.6276276 -0.15530275 0.01567998 -0.6041547 -0.54807425 0.9906223 0.91860497 -0.0048130983 -0.18331648 -0.05660559 0.47870067 0.15472594 -0.4621456 -0.3543578 0.2308064 1.604775 -0.004823632 
0.9710046 0.26941723 -0.9332444 -0.2588103 -0.73226106 0.72580874 -0.9789855 0.05288126 -0.5841435 0.37764066 0.103896126 0.62871444 0.1923842 0.11843766 -0.55268514 0.24514687 0.5273897 0.044054188 -0.76136446 -1.5741171 -0.1118589 -0.21440263 0.04701668 1.2884146 7.678515 -0.3242773 0.91996217 -0.365538 -0.34705415 0.009110956 -0.2179382 0.5108062 0.6225535 0.07455568 -0.4778875 -0.20365271 0.02262107 -0.40914106 0.06291136 0.07152319 0.18210192 -0.13812168 0.5546194 0.39157903 -0.19699809 1.7042068 0.592831 0.034258395 -0.08749013 -0.49259272 0.10779126 0.47998652 0.25401527 0.35951406 -0.7697155 -0.56267345 -0.08159296 -0.15777518 0.47044092 -0.13451034 -1.0058144 1.364182 1.0865959 -0.38945773 
0.3530852 -0.42801297 -0.4589892 0.13699588 -0.94939995 -0.3322553 -0.99878514 0.6290195 0.79625684 -0.69940525 -0.34407768 1.434212 0.9169414 -0.21481869 -0.08780101 0.71071184 0.5954034 0.44351584 0.3341145 -0.43167025 -0.079489104 -0.2829441 0.47029677 1.2965881 1.6772215 -0.12580432 2.463323 0.81488025 0.51950324 0.4726684 -0.5944366 -0.07002489 -0.033906937 0.05551742 0.0051488685 0.43610376 0.14063892 1.9027673 1.5331811 -0.12552294 0.38259402 0.65356416 0.23356558 0.886553 -0.2611281 1.4897811 -0.44888258 -0.10027608 -0.14905792 -0.027642269 0.16672035 0.09688637 0.39736378 0.69256425 -0.772836 0.19937737 -0.0874965 -1.0783458 0.37545276 0.14343192 -0.44989675 -0.088708185 0.9501515 -0.25432873 
