0 1024 0.0047417134 1025 0.026245743 1026 -0.020508636 1027 0.022297751 1028 -0.0055664144 1029 0.0055092312 1030 -0.012242932 1031 0.020612366 1032 -0.002939172 1033 -0.010759354 
1 1024 0.027649965 1025 -0.013667766 1026 0.022281807 1027 0.022549942 1028 -0.017723769 1029 0.005818706 1030 -0.0012563504 1031 0.0008679703 1032 -0.0026234165 1033 -0.01357102 
2 1024 -0.018647306 1025 -0.0027939267 1026 -0.027175456 1027 -0.019720268 1028 -0.019591838 1029 0.017856833 1030 -0.014367502 1031 -0.028133407 1032 -0.003561698 1033 -0.014079895 
3 1024 -0.015999071 1025 -0.014408734 1026 -0.006854214 1027 0.02636208 1028 0.008118011 1029 -0.028491389 1030 0.018629022 1031 0.013592936 1032 -0.012313258 1033 -0.01765266 
4 1024 0.028171405 1025 0.019782018 1026 0.027251843 1027 -0.01306995 1028 0.025963254 1029 -0.0051946044 1030 -0.01629202 1031 -0.019184038 1032 0.028505366 1033 -0.030484602 
5 1024 -0.020559713 1025 0.019319784 1026 -0.020194285 1027 0.0016186312 1028 0.02907348 1029 0.024643097 1030 -0.026405055 1031 0.0100799315 1032 0.0011195391 1033 0.0058617964 
6 1024 0.016916018 1025 0.018450078 1026 -0.025459815 1027 -0.02845357 1028 0.028348155 1029 0.02751365 1030 -0.010787722 1031 -0.00760388 1032 0.0027363263 1033 -0.015472468 
7 1024 0.0039062276 1025 -0.0032862797 1026 0.014131069 1027 0.0026260354 1028 0.02703781 1029 0.0049741343 1030 -0.019818395 1031 -0.020694632 1032 0.003560733 1033 0.004845191 
8 1024 0.006213397 1025 0.01915674 1026 -0.026883978 1027 -0.011110932 1028 -0.0081571005 1029 0.0073206797 1030 -0.01033796 1031 -0.008591175 1032 -0.007757917 1033 0.027439307 
9 1024 -0.012860328 1025 0.0025574155 1026 0.0010272376 1027 -0.017278701 1028 -0.026896995 1029 -0.007005278 1030 0.0020211749 1031 -0.0030865297 1032 0.026863582 1033 0.010118477 
10 1024 0.024248827 1025 0.03017798 1026 0.010665759 1027 -0.021289013 1028 0.022703145 1029 0.007566873 1030 0.022771169 1031 0.022492453 1032 0.024147946 1033 -0.013046838 
11 1024 0.027682144 1025 -0.019809771 1026 -0.013366081 1027 0.010294791 1028 -0.018352903 1029 -0.008491352 1030 0.020892277 1031 0.022863578 1032 -0.02634839 1033 0.0058448873 
12 1024 -0.0071583427 1025 0.015491035 1026 -0.010126058 1027 0.01567581 1028 -0.022499952 1029 0.0133777 1030 7.842481e-05 1031 -0.015198771 1032 0.010792002 1033 0.029122755 
13 1024 0.020112086 1025 0.025889277 1026 -0.019578062 1027 0.015355293 1028 -0.0061988984 1029 0.029785845 1030 0.11396236 1031 0.023587797 1032 0.015545446 1033 0.017278548 
14 1024 0.02403038 1025 -0.015848268 1026 0.73091465 1027 -0.010567218 1028 -0.022266367 1029 -0.0006273277 1030 0.25959563 1031 -0.012515571 1032 0.016880907 1033 0.013238031 
15 1024 -0.0011403635 1025 0.009824906 1026 0.99313885 1027 -0.01467637 1028 -0.02802339 1029 -0.012478594 1030 0.19352183 1031 -0.029526997 1032 0.015216973 1033 0.0047532283 
16 1024 -0.019090652 1025 0.024430916 1026 0.99941343 1027 0.02455075 1028 0.007716272 1029 0.023245264 1030 -0.11677565 1031 0.01197039 1032 0.0074250735 1033 0.0129886605 
17 1024 0.0074209087 1025 0.027246475 1026 0.7199862 1027 -0.020269156 1028 -0.014159728 1029 0.0156621 1030 -0.054635644 1031 0.0019652843 1032 0.01516429 1033 -0.011304945 
18 1024 0.027211968 1025 -0.004111409 1026 -0.013107784 1027 0.014061045 1028 0.01878234 1029 -0.022093605 1030 -0.0032373928 1031 0.017967898 1032 0.004252918 1033 -0.028620131 
19 1024 -0.00032159314 1025 0.004990261 1026 0.008053727 1027 0.024487346 1028 -0.027589373 1029 0.021184865 1030 -0.020048752 1031 -0.0047055855 1032 -0.01143869 1033 -0.019282628 
20 1024 0.029158797 1025 -0.014094099 1026 0.009459034 1027 0.027191259 1028 -0.026916232 1029 0.010371953 1030 0.0128338225 1031 0.02407892 1032 -0.016556975 1033 -0.022914652 
21 1024 -0.029021028 1025 -0.0044871382 1026 -0.022060938 1027 -0.0023093335 1028 0.00033209845 1029 -0.010498092 1030 -0.006877113 1031 -0.016341835 1032 -0.0016124323 1033 0.023630481 
22 1024 0.00057156757 1025 0.00245855 1026 0.02185003 1027 -0.030316155 1028 -0.026638858 1029 -0.009182222 1030 0.018186469 1031 -0.027413823 1032 0.006699618 1033 -0.029677197 
23 1024 0.0091774985 1025 -0.0105519965 1026 0.007576458 1027 -0.0068995133 1028 0.0014833324 1029 0.026585754 1030 0.025395006 1031 -0.023996249 1032 0.004144907 1033 0.007998165 
24 1024 0.02167672 1025 0.027357385 1026 -0.017909415 1027 0.008258641 1028 0.0064440593 1029 -0.00582077 1030 -0.0025092512 1031 -0.005358435 1032 0.019282661 1033 -0.010098156 
25 1024 -0.019972082 1025 -0.0068501383 1026 0.010740269 1027 -0.020957462 1028 -0.0059524067 1029 0.017129492 1030 0.021432314 1031 0.0035281181 1032 0.015579537 1033 0.017514125 
26 1024 -0.015000965 1025 -0.024860151 1026 0.025116991 1027 -0.028750848 1028 0.0066119097 1029 -0.025611822 1030 -0.008645594 1031 -0.02601327 1032 0.029974755 1033 0.027063854 
27 1024 0.001879923 1025 -0.009073626 1026 -0.009437706 1027 -0.01634128 1028 0.01278349 1029 -0.01755578 1030 0.023351654 1031 -0.028330311 1032 -0.016442627 1033 0.028567597 
28 1024 -0.019549321 1025 -0.023593605 1026 -0.028209385 1027 0.02049378 1028 0.023508955 1029 -0.0064578243 1030 0.019514762 1031 -0.0021366514 1032 0.0042022057 1033 0.020612556 
29 1024 -0.021316078 1025 -0.029349566 1026 -0.019488953 1027 -0.02912984 1028 -0.00493316 1029 -0.022330936 1030 -0.014982875 1031 -0.005749617 1032 -0.020559661 1033 -0.012730006 
30 1024 -0.0027095377 1025 0.030213695 1026 0.013548683 1027 -0.023101643 1028 -0.00039374083 1029 -0.016152158 1030 -0.010858338 1031 0.027147666 1032 0.014337841 1033 -0.010894652 
31 1024 0.025202654 1025 -0.0016805381 1026 -0.011537559 1027 0.011094596 1028 0.01015795 1029 -0.031160139 1030 0.005757455 1031 -0.014370199 1032 -0.022252701 1033 0.027598865 
32 1024 0.0030510537 1025 -0.0280453 1026 -0.015561555 1027 -0.007632058 1028 -0.021535728 1029 0.027816415 1030 -0.012206107 1031 -0.013475917 1032 0.017460838 1033 0.007017784 
33 1024 -0.026793655 1025 0.0016338564 1026 0.003607031 1027 0.019410215 1028 0.007454276 1029 -0.0025824234 1030 -0.028846975 1031 0.004567787 1032 -0.029041525 1033 0.02496703 
34 1024 -0.012297992 1025 0.0070376173 1026 0.02574088 1027 0.025209945 1028 -0.03065794 1029 0.026040643 1030 0.02071245 1031 -0.013221707 1032 0.024105765 1033 0.029880472 
35 1024 0.013867687 1025 -0.015145518 1026 0.0021733195 1027 0.019592065 1028 -0.02773901 1029 -0.0032608248 1030 -0.003199298 1031 0.0075014196 1032 0.025711019 1033 0.0098041 
36 1024 0.0068746507 1025 -0.006661713 1026 -0.023312364 1027 -0.028021533 1028 0.009083025 1029 0.0048783533 1030 0.0026251003 1031 0.027082875 1032 0.030893292 1033 0.024816811 
37 1024 0.03111574 1025 0.0092416145 1026 -0.019856717 1027 -0.023181599 1028 -0.0058776326 1029 -0.020702906 1030 -0.0047041886 1031 -0.020599201 1032 0.019449856 1033 0.0024283752 
38 1024 -0.0046361648 1025 0.01284888 1026 -0.013828941 1027 -0.017205246 1028 -0.011517525 1029 0.01676644 1030 0.028215244 1031 0.01553848 1032 -0.003425669 1033 -0.0041836984 
39 1024 -0.016884875 1025 0.029870003 1026 -0.18788137 1027 -0.009337027 1028 -0.38922957 1029 0.01055222 1030 0.65522945 1031 -0.010205016 1032 -0.01882862 1033 -0.0067530163 
40 1024 -0.01217594 1025 -0.026826877 1026 -0.2316337 1027 -0.011501521 1028 -0.44868284 1029 -0.021182854 1030 0.9518497 1031 -0.007687483 1032 0.027098287 1033 -0.020948071 
41 1024 -0.034683757 1025 -0.11182573 1026 -0.023624845 1027 -0.025293969 1028 -0.14375521 1029 -0.007880978 1030 0.35736176 1031 -0.050930716 1032 0.031194273 1033 0.012640074 
42 1024 0.024125932 1025 -0.12336629 1026 -0.9152715 1027 0.021892816 1028 -0.119289644 1029 0.0227599 1030 0.6947695 1031 -0.05697781 1032 0.030226085 1033 0.023103878 
43 1024 -0.43959516 1025 -0.13713455 1026 -0.5197508 1027 -0.017520338 1028 -0.24974461 1029 -0.05143677 1030 -0.9068599 1031 0.0019035265 1032 -0.0805498 1033 0.0050654784 
44 1024 1.3200861 1025 -0.009672649 1026 0.84141636 1027 0.002701208 1028 -0.30866787 1029 -0.017103229 1030 0.8200399 1031 -0.11115362 1032 -0.1004251 1033 -0.07316625 
45 1024 2.1350725 1025 -0.019376539 1026 -0.34579548 1027 0.0030406192 1028 -0.33113432 1029 -0.032449443 1030 -0.44965956 1031 -0.056059454 1032 -0.094411746 1033 -0.111685015 
46 1024 2.264379 1025 -0.0014733076 1026 -1.9410481 1027 0.02979733 1028 -0.38167733 1029 -0.016668621 1030 0.7626287 1031 -0.052424546 1032 -0.0034315921 1033 -0.08023064 
47 1024 3.651436 1025 -0.008737203 1026 0.13791507 1027 -0.10126436 1028 -5.70704 1029 0.0044812113 1030 0.04695506 1031 -0.097332984 1032 -0.021541592 1033 -0.060246937 
48 1024 -2.4325392 1025 1.168373 1026 -0.06074464 1027 -0.22847743 1028 2.6057637 1029 0.02366064 1030 -0.2082407 1031 0.029630572 1032 -0.021879427 1033 -0.04132051 
49 1024 1.591865 1025 0.6451989 1026 -0.23286717 1027 -0.21328852 1028 -0.9721797 1029 -0.09798315 1030 0.45499247 1031 -0.016171027 1032 0.006498851 1033 -0.62576044 
50 1024 1.5487529 1025 -0.1637738 1026 0.4047455 1027 -0.179782 1028 -2.1096992 1029 -0.112325884 1030 -0.5020608 1031 0.014322035 1032 -0.014702249 1033 -0.6168846 
51 1024 1.2976278 1025 -5.3654304 1026 0.13501786 1027 0.023998141 1028 -2.859541 1029 -0.15057525 1030 -0.3426874 1031 0.026390359 1032 -0.13358817 1033 -0.61714464 
52 1024 1.7585382 1025 -0.12598588 1026 -0.87502265 1027 0.012216289 1028 -1.8894947 1029 -0.053203378 1030 0.6143999 1031 0.024296653 1032 -0.15460435 1033 -0.8682029 
53 1024 -0.13003235 1025 -0.018305335 1026 -0.3970785 1027 -0.022737913 1028 -0.98396045 1029 -0.08518935 1030 1.770519 1031 -0.014893789 1032 -0.113110416 1033 -0.4514117 
54 1024 0.028219499 1025 0.00733928 1026 -0.14722072 1027 -0.021602724 1028 -1.0453392 1029 -0.06439299 1030 1.0104431 1031 0.03113405 1032 -0.009953879 1033 -0.36824256 
55 1024 -0.030537065 1025 -0.029203378 1026 -0.09235537 1027 0.021685477 1028 -4.860081 1029 0.011824388 1030 4.6760616 1031 0.01448717 1032 0.0145451315 1033 -0.40389746 
56 1024 0.0077236947 1025 -0.0015325397 1026 -0.031248832 1027 -0.018070087 1028 -2.3949165 1029 -0.00741864 1030 0.2605769 1031 -0.029047072 1032 -0.033583857 1033 -0.41408724 
57 1024 -0.03734952 1025 -0.02918354 1026 -0.0018686056 1027 0.0077430457 1028 -2.4857695 1029 0.013529297 1030 0.24266203 1031 -0.027122483 1032 -0.047173474 1033 -0.45295447 
58 1024 -0.020911496 1025 -0.0048114397 1026 -0.022654884 1027 -0.019142713 1028 -2.3067436 1029 0.020696625 1030 0.011579659 1031 -0.010909904 1032 -0.051782425 1033 -0.3783221 
59 1024 0.025832716 1025 -0.0030708201 1026 0.028665189 1027 0.01626103 1028 -0.37664127 1029 -0.014145993 1030 0.011682488 1031 0.002698578 1032 -0.021566775 1033 0.017955985 
60 1024 0.027117938 1025 -0.029594291 1026 -0.00010950491 1027 0.017001435 1028 0.024809279 1029 -0.022627454 1030 0.009471022 1031 0.005430773 1032 -0.023935389 1033 0.028959788 
61 1024 0.021130174 1025 0.02163577 1026 -0.023569673 1027 0.003046874 1028 0.0058293007 1029 0.020667385 1030 0.014763836 1031 -0.01677801 1032 -0.0038009174 1033 -0.011887755 
62 1024 -0.028368134 1025 -0.009954702 1026 -0.028883386 1027 0.0067255236 1028 0.022471 1029 -0.018447958 1030 0.013351291 1031 0.021466244 1032 -0.004444707 1033 -0.0052241385 
63 1024 0.012007609 1025 0.027096257 1026 0.030685112 1027 -0.0012972467 1028 0.0034468956 1029 -0.0071278177 1030 0.0005360991 1031 0.0076927133 1032 0.023753457 1033 0.028041378 
64 1024 0.0048463084 1025 0.026279919 1026 0.011614431 1027 0.013206318 1028 -0.014257204 1029 -0.023364194 1030 -0.0036435872 1031 -0.01596095 1032 -0.011876874 1033 -0.023600258 
65 1024 -0.008313175 1025 -0.015380584 1026 0.009526502 1027 0.000880491 1028 -0.02239079 1029 -0.014381375 1030 0.0024566837 1031 0.0051524118 1032 0.014806867 1033 -0.010212481 
66 1024 0.025662415 1025 0.013089631 1026 -0.003519185 1027 0.013506919 1028 0.031184532 1029 0.026341707 1030 -0.029057432 1031 0.019203737 1032 -0.015860595 1033 -0.007819425 
67 1024 -3.0521303e-05 1025 -0.023064606 1026 -0.026348252 1027 -0.012651876 1028 -0.023398194 1029 0.0045935176 1030 -0.0292135 1031 -0.024811115 1032 -0.030709788 1033 0.024292357 
68 1024 0.0067679174 1025 -0.008502763 1026 -0.8587834 1027 -0.02513605 1028 -3.9448836 1029 0.014484338 1030 0.08731613 1031 0.012599554 1032 -0.01894544 1033 0.025750011 
69 1024 -0.017413594 1025 -0.011767007 1026 -1.1062244 1027 -0.008059736 1028 -4.2800097 1029 -0.009930279 1030 0.18738209 1031 -0.016268749 1032 -0.016189951 1033 0.02582154 
70 1024 -0.06290935 1025 -0.02178334 1026 1.2696805 1027 -1.2154722 1028 -0.10139482 1029 -0.015712745 1030 0.06308796 1031 -0.018853806 1032 0.031150296 1033 0.030268189 
71 1024 -2.0950596 1025 -0.012683738 1026 0.79477304 1027 -1.3613151 1028 -0.46570945 1029 -0.023975182 1030 0.13318717 1031 -0.6352077 1032 0.01864859 1033 0.030572012 
72 1024 3.2794435 1025 -0.034279075 1026 -0.5145775 1027 -1.4907974 1028 -1.046715 1029 0.029772758 1030 0.37674922 1031 -0.29949853 1032 -0.03445267 1033 0.018726565 
73 1024 -0.18215041 1025 -0.43392104 1026 -0.07563795 1027 -0.3802131 1028 -0.99616385 1029 -0.5961213 1030 -0.2272345 1031 -0.22956966 1032 -0.04121104 1033 0.014274087 
74 1024 -3.671757 1025 -0.44563502 1026 -0.1454679 1027 -0.38524976 1028 -0.91508657 1029 -1.8421047 1030 -0.21698225 1031 -0.01368501 1032 -0.2841737 1033 -0.017900342 
75 1024 -1.9068799 1025 -0.99565434 1026 -0.09087554 1027 -2.9496865 1028 -5.652761 1029 -2.4810622 1030 0.80245817 1031 -0.05300386 1032 -0.40355054 1033 -0.0034169282 
76 1024 -2.0010874 1025 -0.68567127 1026 -0.26960737 1027 0.10831693 1028 -5.952652 1029 -2.2148314 1030 0.05074814 1031 -2.1819546 1032 -0.2382153 1033 -0.04891556 
77 1024 -0.8203337 1025 -0.33720398 1026 -0.102088675 1027 0.37359414 1028 -3.9785728 1029 -0.995793 1030 -0.029638624 1031 -2.2215395 1032 -0.50202596 1033 -0.055477593 
78 1024 -2.9982178 1025 -0.45405182 1026 -0.09260756 1027 -0.53379524 1028 -4.025222 1029 -4.1897545 1030 0.31084996 1031 -0.061440375 1032 -0.7683321 1033 -0.067613505 
79 1024 -0.327415 1025 1.5024455 1026 -0.04710325 1027 -0.29930368 1028 0.18586282 1029 -5.0503616 1030 0.1922653 1031 -0.08363317 1032 -0.6769315 1033 -0.11274262 
80 1024 -1.8617961 1025 -0.60853016 1026 -0.18835902 1027 0.92176425 1028 -0.64931834 1029 -5.0580816 1030 -0.04674123 1031 0.018522404 1032 -1.4012129 1033 -0.07014982 
81 1024 -2.1741037 1025 -0.2419495 1026 -0.23511763 1027 -0.64876854 1028 -2.52074 1029 -4.63805 1030 -0.02516504 1031 0.00676497 1032 -1.5003809 1033 -0.0724331 
82 1024 0.07116274 1025 1.1891283 1026 0.11444509 1027 -0.18269718 1028 -0.847049 1029 -0.46759897 1030 0.123533905 1031 -0.028400656 1032 -2.0202534 1033 -0.72398955 
83 1024 -1.6687778 1025 0.9583074 1026 -0.33647746 1027 -0.26043844 1028 0.6382197 1029 -0.28377968 1030 0.18631606 1031 -0.0360478 1032 -5.9274845 1033 -4.442651 
84 1024 -8.217379 1025 -3.7986114 1026 -0.023681615 1027 -0.07456527 1028 -1.8297625 1029 -2.5078125 1030 0.24568932 1031 -0.020928731 1032 -0.06888296 1033 -4.390619 
85 1024 -1.1974856 1025 -4.3826594 1026 -0.0221102 1027 -0.050266802 1028 -4.0293655 1029 0.39303496 1030 0.30343655 1031 -0.045802183 1032 0.41235986 1033 -0.47076547 
86 1024 -0.47559744 1025 -2.3452497 1026 -0.46913671 1027 -0.71705425 1028 0.77115667 1029 -0.1688724 1030 -0.06734962 1031 -0.016605984 1032 -9.491781 1033 -0.7806701 
87 1024 -3.9367316 1025 -2.7161694 1026 -0.564005 1027 -0.9344544 1028 -1.4040532 1029 -1.2753131 1030 0.53590924 1031 -0.030898415 1032 -0.06546238 1033 -0.495071 
88 1024 -0.94705707 1025 -2.6804261 1026 0.17723884 1027 -0.13214137 1028 -0.5309303 1029 -1.1552693 1030 0.514011 1031 -0.026699139 1032 -0.4954654 1033 -0.5041334 
89 1024 -0.30256248 1025 -1.7711421 1026 -4.7479033 1027 -0.111429796 1028 0.2831961 1029 -0.15495774 1030 0.38911268 1031 -0.023799254 1032 -0.75721383 1033 -0.48321253 
90 1024 -0.3028355 1025 -1.7269256 1026 0.1387218 1027 0.011945032 1028 -2.239839 1029 -4.032181 1030 3.6091528 1031 0.019989401 1032 -1.58551 1033 -0.44600675 
91 1024 -0.28354073 1025 -0.03639656 1026 0.8078043 1027 0.021969978 1028 -2.7024548 1029 -1.210983 1030 -1.1679189 1031 -0.002223663 1032 -1.1868678 1033 -0.00041354075 
92 1024 -0.09490482 1025 -0.029943753 1026 0.078004755 1027 0.009122431 1028 -0.22853893 1029 -0.39535934 1030 0.9055158 1031 -0.018614307 1032 -0.6268827 1033 0.0066563226 
93 1024 -0.00202699 1025 -0.030990427 1026 1.507591 1027 0.018528301 1028 -0.09704608 1029 -0.02930697 1030 0.02454442 1031 0.027628511 1032 -0.11101594 1033 -0.030747294 
94 1024 0.01408596 1025 -0.002034463 1026 -0.030887302 1027 0.021616392 1028 0.014883563 1029 -0.00484531 1030 0.02304263 1031 -0.021739323 1032 0.026089065 1033 0.018295575 
95 1024 -0.012372423 1025 -0.0017789118 1026 0.0037039258 1027 0.0008771755 1028 -0.018219031 1029 -0.022054985 1030 7.342175e-05 1031 0.014397651 1032 -0.010505464 1033 -0.027954973 
96 1024 -0.010189567 1025 -0.018131666 1026 0.013039105 1027 0.0031285286 1028 -0.027157906 1029 -0.012766968 1030 -0.0022384785 1031 0.02003399 1032 0.013367206 1033 -0.0058509596 
97 1024 -0.014404461 1025 -0.00757467 1026 0.009849615 1027 0.016658105 1028 -0.003981862 1029 -0.023395926 1030 -0.030329425 1031 0.016315773 1032 0.030061249 1033 0.00165103 
98 1024 0.013357636 1025 0.019637376 1026 0.010607485 1027 -0.011409387 1028 0.018753897 1029 -0.012452766 1030 0.9100684 1031 -0.027101405 1032 -0.003574971 1033 -0.009085983 
99 1024 -1.2066151 1025 0.008133788 1026 -0.009580553 1027 -0.0043361858 1028 0.010337301 1029 -1.3990092 1030 1.3459362 1031 0.017853152 1032 0.0051677376 1033 -0.0026787668 
100 1024 1.6889871 1025 0.0052122474 1026 -0.05177558 1027 -0.007491447 1028 -4.6119175 1029 -2.9203188 1030 0.56777775 1031 0.00037151505 1032 0.017509036 1033 -1.3168234 
101 1024 2.6753008 1025 0.010101646 1026 -1.647356 1027 2.2658672 1028 -4.27187 1029 -0.8366165 1030 1.9118216 1031 -0.16431825 1032 -0.0069357455 1033 0.019431237 
102 1024 1.0539886 1025 -0.008542035 1026 0.44465795 1027 2.148297 1028 -0.63421285 1029 -0.6341317 1030 -1.8511933 1031 -0.07841508 1032 0.00721661 1033 -0.22254764 
103 1024 -0.5101259 1025 -0.051798362 1026 -0.17787017 1027 -1.6433312 1028 -2.9745958 1029 -0.79764396 1030 1.2714877 1031 -0.21513984 1032 -2.3088152 1033 -0.23772049 
104 1024 -2.1180036 1025 -0.13852714 1026 -0.09154611 1027 -0.0769157 1028 -6.310984 1029 -6.0780444 1030 -0.4743604 1031 -0.26861155 1032 -0.23523441 1033 -0.04931591 
105 1024 0.70006186 1025 -4.7372475 1026 -0.094487205 1027 1.1240482 1028 -9.657087 1029 0.79090416 1030 0.5560376 1031 -0.2679894 1032 -3.536113 1033 -0.016984971 
106 1024 -1.1836154 1025 -1.0039333 1026 0.1247998 1027 -1.0059344 1028 -3.7143574 1029 -0.5451877 1030 -0.07130565 1031 -0.051004544 1032 0.44139838 1033 -0.051832512 
107 1024 -2.436753 1025 -1.9745967 1026 0.09700914 1027 -0.061128613 1028 -0.6455904 1029 1.0005941 1030 -0.16195634 1031 -0.08102689 1032 -0.7438939 1033 -0.07171367 
108 1024 -0.06526341 1025 -0.69470286 1026 0.1279051 1027 -0.19052923 1028 0.1510968 1029 0.31204274 1030 0.13602696 1031 -1.8982868 1032 0.11159981 1033 -0.041004714 
109 1024 -0.23582806 1025 -1.8465598 1026 -0.021129819 1027 0.35305858 1028 -2.0145378 1029 -1.5322267 1030 0.015191698 1031 -2.0412734 1032 -0.21694997 1033 -1.0976455 
110 1024 -0.4897521 1025 -0.27942008 1026 -0.10099119 1027 -0.0017283227 1028 -0.5161339 1029 0.28062126 1030 -0.118695274 1031 -2.2604575 1032 -0.17208761 1033 -1.2087655 
111 1024 0.04760554 1025 -0.634793 1026 0.25088203 1027 -0.24578477 1028 -2.984923 1029 -0.09250692 1030 0.18064414 1031 -2.4236567 1032 -0.030332673 1033 -1.143781 
112 1024 0.21068326 1025 -0.8074641 1026 -0.14727935 1027 0.19798589 1028 -0.9603205 1029 0.026914593 1030 -0.052336328 1031 -0.3489614 1032 -0.22812472 1033 -1.409797 
113 1024 -0.74171484 1025 -1.5406427 1026 0.02588696 1027 0.052970015 1028 -0.6043075 1029 0.048907064 1030 0.049122665 1031 -0.80488265 1032 0.03773883 1033 -1.2365853 
114 1024 0.14899953 1025 0.25276974 1026 -0.21369578 1027 0.09913908 1028 -1.2972833 1029 -0.7423434 1030 -5.883087e-06 1031 -0.78789884 1032 -0.09942993 1033 -0.60222864 
115 1024 -0.4587717 1025 -0.45637682 1026 0.26300296 1027 -0.0034584394 1028 -0.43865034 1029 0.443466 1030 -0.2091093 1031 -0.64447725 1032 -0.29283035 1033 -3.4735565 
116 1024 -0.26182213 1025 -0.4389557 1026 -0.3941133 1027 0.23917016 1028 -0.34275553 1029 -0.6954593 1030 0.088048205 1031 -0.026235595 1032 0.056077875 1033 3.1885045 
117 1024 -0.3968092 1025 -1.4692978 1026 0.0048447656 1027 -0.10878493 1028 -0.8881929 1029 0.1694888 1030 -0.010868248 1031 -0.0421232 1032 -0.009091346 1033 4.10797 
118 1024 -0.21194819 1025 0.73231673 1026 -0.15330572 1027 0.27635887 1028 0.29568326 1029 0.043973483 1030 0.14623542 1031 -0.0676477 1032 -0.3521693 1033 -0.8338858 
119 1024 -0.08936201 1025 -1.5098898 1026 0.0038766244 1027 0.5769881 1028 -1.7186397 1029 -0.052820653 1030 0.05836706 1031 -0.37550002 1032 0.19321169 1033 -0.48314467 
120 1024 -0.46048823 1025 0.17749876 1026 -0.06570409 1027 0.13029586 1028 0.43409237 1029 -0.6927209 1030 -0.122982986 1031 -0.33987102 1032 -0.07030901 1033 -0.7046612 
121 1024 -0.6615939 1025 0.0010692904 1026 0.0522294 1027 -1.9117888 1028 -1.6660459 1029 1.0955449 1030 -0.0696748 1031 0.005294421 1032 0.12240096 1033 -0.4760793 
122 1024 -0.4734224 1025 -1.7324654 1026 0.1007919 1027 -0.5931942 1028 0.4887388 1029 -2.1051102 1030 0.26108554 1031 -0.0037179105 1032 0.74674106 1033 -0.42699718 
123 1024 1.5314984 1025 -3.8881729 1026 0.45124865 1027 -0.15355633 1028 -2.66398 1029 1.4856147 1030 -0.3386777 1031 -0.005022064 1032 -0.136035 1033 0.01562982 
124 1024 -0.54752994 1025 -2.8341174 1026 -0.87473243 1027 0.005527422 1028 -4.233673 1029 -3.1398253 1030 2.1977313 1031 0.0053946823 1032 0.16900395 1033 -0.014952917 
125 1024 -3.263759 1025 -0.480408 1026 3.5067537 1027 0.025101475 1028 -2.6865664 1029 5.0058174 1030 -2.857954 1031 0.015983518 1032 -3.6449127 1033 0.001814045 
126 1024 0.0117334165 1025 -0.49564335 1026 -0.023712456 1027 -0.023733865 1028 -4.215033 1029 -4.097289 1030 4.6878304 1031 -0.006672837 1032 -1.7388822 1033 0.022549886 
127 1024 0.029667195 1025 0.014221676 1026 -0.02824777 1027 0.021167371 1028 0.02424946 1029 0.016227726 1030 0.012999523 1031 -0.008492835 1032 -0.00031603873 1033 -0.01273578 
128 1024 -0.03103768 1025 -0.027844772 1026 -0.014523856 1027 -0.025866758 1028 -0.025408357 1029 -0.023942698 1030 -0.0074070506 1031 0.01784867 1032 0.008912668 1033 0.022963952 
129 1024 0.022403862 1025 0.027280346 1026 0.019872643 1027 -0.0034247823 1028 0.011726081 1029 0.022845406 1030 -0.008348566 1031 0.025725089 1032 0.018225607 1033 -0.014089536 
130 1024 -0.028511588 1025 3.8606477 1026 -0.13564141 1027 -0.714774 1028 -0.020173725 1029 -0.0015456639 1030 -1.7618064 1031 -0.018104035 1032 -0.028792264 1033 0.005733546 
131 1024 0.011634915 1025 3.6406116 1026 -0.11665667 1027 -0.67682016 1028 -1.1067772 1029 -0.020735292 1030 0.79892075 1031 0.0029032975 1032 -4.1409516 1033 -0.04897228 
132 1024 -1.4530821 1025 -0.49385464 1026 -2.5934672 1027 -1.6324402 1028 -1.2154331 1029 -2.9695072 1030 1.7893038 1031 3.212616 1032 -4.133392 1033 -0.4009992 
133 1024 1.9857724 1025 0.14852986 1026 -0.106008284 1027 -0.21410583 1028 0.8910323 1029 -3.005209 1030 0.9364675 1031 3.2901716 1032 0.012665942 1033 -0.012271954 
134 1024 1.8161608 1025 -4.2037954 1026 -0.5711946 1027 0.0724746 1028 -0.424405 1029 -2.4087005 1030 0.5148021 1031 -5.0869913 1032 -3.3879313 1033 -0.5620941 
135 1024 -3.1534903 1025 -5.1695247 1026 0.60277754 1027 0.034676097 1028 -1.4503188 1029 -0.41639885 1030 -1.4158695 1031 -5.546763 1032 -0.41997516 1033 -0.2750971 
136 1024 -1.3039966 1025 -9.009544 1026 0.2723231 1027 0.12093445 1028 0.24489865 1029 -0.123242095 1030 0.93308157 1031 -2.8218138 1032 0.54210216 1033 -0.58412814 
137 1024 0.4269767 1025 0.60149866 1026 -0.20613591 1027 -0.1445142 1028 0.3648166 1029 -0.90251136 1030 -0.28500506 1031 -2.9022925 1032 -0.47587866 1033 -0.76069313 
138 1024 0.94814205 1025 2.0870278 1026 0.12514025 1027 0.43121988 1028 -0.2882797 1029 -0.33465362 1030 -0.39744225 1031 -5.700025 1032 0.16152118 1033 -1.2614821 
139 1024 0.0334198 1025 -1.1944263 1026 0.115465164 1027 -0.13490154 1028 0.08773979 1029 -0.3438834 1030 0.076777965 1031 -8.01541 1032 0.050090335 1033 -4.67936 
140 1024 -0.43247724 1025 -0.14891666 1026 0.1700767 1027 0.1464953 1028 -0.5771081 1029 0.043631658 1030 0.11754548 1031 -8.450227 1032 -0.023297027 1033 -8.975826 
141 1024 1.0337796 1025 -0.46722627 1026 -0.015160197 1027 0.048562568 1028 -0.089734584 1029 -0.031593904 1030 -0.3969897 1031 -1.6425836 1032 0.047943767 1033 -10.549606 
142 1024 -0.9606163 1025 0.5053243 1026 0.022916015 1027 0.06197756 1028 0.059850074 1029 -0.11611532 1030 -0.14408293 1031 -0.61013097 1032 -0.08220383 1033 -13.651566 
143 1024 0.44852403 1025 0.26514804 1026 0.04915838 1027 0.09920736 1028 -0.23937231 1029 -0.4113785 1030 -0.11461335 1031 -0.79458284 1032 -0.09172995 1033 -5.868029 
144 1024 -0.4272884 1025 0.4153618 1026 0.1314755 1027 0.005684186 1028 -0.19951652 1029 -0.14165737 1030 -0.08211995 1031 -3.8574202 1032 -0.0038626208 1033 -7.071173 
145 1024 0.5835892 1025 0.08285386 1026 0.03806499 1027 -0.007646993 1028 -0.35655832 1029 0.18856688 1030 -0.011131862 1031 -7.332562 1032 0.021112131 1033 -14.752442 
146 1024 -0.5535609 1025 -0.04954678 1026 0.029160535 1027 0.04949856 1028 -0.04860854 1029 0.012673611 1030 -0.0013502272 1031 -11.468328 1032 -0.10076256 1033 -12.416256 
147 1024 -0.10086343 1025 0.40931538 1026 -0.01900926 1027 0.09486515 1028 0.62989855 1029 -0.26552552 1030 0.12336777 1031 -15.175306 1032 0.09943938 1033 -17.838758 
148 1024 0.01153882 1025 -0.8825387 1026 0.015407841 1027 -0.09375211 1028 -0.6383174 1029 -0.132438 1030 0.22805835 1031 -16.886702 1032 -0.14967668 1033 -5.2235017 
149 1024 -0.19678363 1025 0.47720474 1026 0.023958754 1027 0.047867853 1028 -0.6084778 1029 0.1977971 1030 -0.3527689 1031 -13.32943 1032 0.022691114 1033 -2.3832877 
150 1024 -0.21902843 1025 -0.23179434 1026 0.06037854 1027 -0.03991372 1028 0.2454795 1029 -0.18836649 1030 0.08990114 1031 -5.082953 1032 -0.045016147 1033 -13.673778 
151 1024 0.14041252 1025 -0.050704345 1026 0.10398376 1027 0.07313204 1028 -0.04147514 1029 -0.5145332 1030 0.055484187 1031 -2.5533848 1032 -0.08215678 1033 -5.3854547 
152 1024 -0.043439962 1025 0.1938041 1026 -0.1902768 1027 -0.55977595 1028 0.2991917 1029 0.40727535 1030 0.07063269 1031 2.0253828 1032 -0.111567594 1033 -5.912327 
153 1024 -0.6418738 1025 -0.39668635 1026 -0.026605029 1027 0.15416494 1028 0.7543872 1029 -0.2815011 1030 0.39136097 1031 -3.633464 1032 -0.03001226 1033 -2.9562876 
154 1024 0.1786322 1025 1.1782568 1026 -0.08402382 1027 -7.039549 1028 -0.37646666 1029 0.044256054 1030 0.6763839 1031 -0.062080685 1032 -0.40246475 1033 -0.10722314 
155 1024 -1.1711189 1025 -0.6720662 1026 -1.4016602 1027 -4.896093 1028 1.3881598 1029 0.6087256 1030 -0.08942646 1031 0.00032310662 1032 0.08864371 1033 -0.068455845 
156 1024 -0.07460499 1025 -1.6193191 1026 -2.639881 1027 -0.054924604 1028 0.8752846 1029 -0.85442615 1030 0.9298612 1031 0.010545799 1032 -0.38811994 1033 0.014107261 
157 1024 0.9340522 1025 -1.3831019 1026 0.049703658 1027 0.011582401 1028 -0.044015743 1029 -0.14369564 1030 -0.7039469 1031 0.0025150366 1032 0.090200745 1033 0.019547217 
158 1024 -1.1714619 1025 -0.4814222 1026 -1.8080835 1027 -0.024982434 1028 -1.2056496 1029 -0.36408633 1030 2.0631332 1031 -0.022666182 1032 0.66639787 1033 0.014190428 
159 1024 -0.018417686 1025 -0.025371429 1026 -0.0057647415 1027 -0.030777376 1028 -0.0264908 1029 -0.01761461 1030 0.0053767264 1031 -0.0071863495 1032 -0.03058339 1033 0.021934945 
160 1024 0.017331205 1025 -0.02785195 1026 -0.009323675 1027 0.008263435 1028 -0.012571212 1029 -0.024007201 1030 0.019398198 1031 0.01600739 1032 0.0042934567 1033 0.010182522 
161 1024 0.020340335 1025 -0.0032428466 1026 -0.029792685 1027 -0.009066347 1028 0.012110461 1029 -0.009636436 1030 -0.018548172 1031 -0.024794105 1032 -0.008784711 1033 -0.011444524 
162 1024 0.018690202 1025 4.0114985 1026 -0.11293601 1027 -0.7414791 1028 -0.0006047748 1029 0.0011447109 1030 -2.5668066 1031 -0.014798641 1032 -0.022208072 1033 -0.013503414 
163 1024 1.9689933 1025 3.7590923 1026 -4.0337024 1027 0.78384495 1028 -4.3015795 1029 -2.1563652 1030 -3.651979 1031 1.8883404 1032 -0.39287066 1033 -0.023785025 
164 1024 -0.6734278 1025 -0.5227897 1026 0.4386168 1027 0.034772106 1028 0.6648317 1029 -1.8986323 1030 -1.0589818 1031 1.9361129 1032 -0.1589469 1033 -0.03318491 
165 1024 -1.0932277 1025 -4.320016 1026 0.014218018 1027 0.5196762 1028 -0.09030004 1029 -4.1821275 1030 -0.019301083 1031 -1.8553184 1032 -2.6906044 1033 -0.020040646 
166 1024 -3.7615187 1025 -0.028784163 1026 -0.03875084 1027 0.033812515 1028 0.6966561 1029 1.42775 1030 -0.0473393 1031 2.3445914 1032 -0.08559901 1033 -0.7796222 
167 1024 1.7345225 1025 -0.5577901 1026 -0.17243092 1027 -0.117206976 1028 -1.4219137 1029 -0.169427 1030 0.9681558 1031 1.3880887 1032 -0.58367425 1033 -0.56585026 
168 1024 0.11719579 1025 -0.15629973 1026 -0.04390996 1027 -0.13815628 1028 1.054793 1029 0.5232404 1030 -1.210345 1031 -0.19365974 1032 -0.17210782 1033 -12.955704 
169 1024 -0.85078526 1025 -0.76556903 1026 0.02033754 1027 0.053250678 1028 -1.0064973 1029 -0.40513247 1030 0.7240973 1031 -1.3982959 1032 0.1566419 1033 -0.36129227 
170 1024 0.3156649 1025 0.00034940886 1026 0.046861302 1027 -0.11023771 1028 0.091449775 1029 0.47528222 1030 -0.15540428 1031 0.33055246 1032 -0.11602909 1033 0.16736703 
171 1024 -0.4296117 1025 0.72704047 1026 -0.20323896 1027 0.17764607 1028 -0.5473023 1029 -0.3744738 1030 -0.07441629 1031 0.61123914 1032 0.07843014 1033 -0.38116518 
172 1024 -0.23509593 1025 0.74466324 1026 -0.0016975367 1027 -0.04826977 1028 0.19925672 1029 0.22184026 1030 0.040228296 1031 0.6258767 1032 -0.20340031 1033 -0.093454175 
173 1024 0.070495486 1025 -0.78113955 1026 0.00625926 1027 0.07059125 1028 -0.41760716 1029 -0.02110339 1030 -0.025555028 1031 -1.2716767 1032 0.21258931 1033 0.88176805 
174 1024 -0.31464353 1025 -0.5341759 1026 0.19018759 1027 -0.07596591 1028 0.47636285 1029 0.15499608 1030 -0.20514494 1031 0.021413116 1032 0.06899396 1033 -0.7972384 
175 1024 0.22460169 1025 -0.22780022 1026 -0.09105496 1027 -0.028426794 1028 -0.21221519 1029 -0.06178477 1030 -0.16683316 1031 0.2590613 1032 0.020030582 1033 0.46731925 
176 1024 -0.1560156 1025 -0.6257692 1026 0.047193047 1027 -0.012254998 1028 -0.25907683 1029 -0.007534817 1030 0.054498315 1031 -0.6079807 1032 -0.023198016 1033 -0.012778407 
177 1024 -0.1115859 1025 -0.113318674 1026 -0.06399109 1027 0.020141618 1028 0.17078298 1029 -0.040394057 1030 -0.19065826 1031 0.3867183 1032 0.03318199 1033 0.59954077 
178 1024 0.33252022 1025 0.12653187 1026 0.02913332 1027 0.06584902 1028 -0.91507757 1029 0.10858906 1030 -0.013900141 1031 -0.45063457 1032 -0.114727765 1033 0.3135888 
179 1024 -0.1112236 1025 -0.23430371 1026 -0.01654738 1027 -0.021999326 1028 -0.17071328 1029 0.08715894 1030 -0.27864662 1031 0.6189106 1032 0.017066117 1033 0.046227496 
180 1024 0.15746215 1025 -0.097277656 1026 -0.02840085 1027 -0.1412026 1028 -0.19464925 1029 0.0716368 1030 -0.061932303 1031 0.48938584 1032 -0.046728123 1033 0.48136044 
181 1024 0.3993765 1025 0.32962203 1026 -0.087261416 1027 0.04765187 1028 0.124965705 1029 0.15643293 1030 0.060715295 1031 1.3061804 1032 -0.02916202 1033 0.009216208 
182 1024 -0.122000016 1025 0.024841031 1026 -0.16981228 1027 0.06521258 1028 0.54562837 1029 -0.291853 1030 0.2567948 1031 -0.8070612 1032 0.013099048 1033 0.35388774 
183 1024 0.24940918 1025 -0.15376514 1026 -0.10111212 1027 -0.20975564 1028 -0.17086308 1029 0.31572962 1030 -0.024284588 1031 -1.8850462 1032 0.07098761 1033 -0.28302425 
184 1024 -0.46522382 1025 -0.014161533 1026 -0.10276961 1027 -0.07233775 1028 -0.4402045 1029 0.13917011 1030 0.028518476 1031 0.29031208 1032 -0.009444554 1033 -0.23245762 
185 1024 0.14668602 1025 0.27885544 1026 0.11878027 1027 0.36939228 1028 0.45276594 1029 0.2639339 1030 -0.37013018 1031 0.6831682 1032 0.07360639 1033 -1.4480357 
186 1024 0.7152203 1025 -0.30789313 1026 -0.69073147 1027 0.52512544 1028 -0.7191019 1029 -0.005811377 1030 -0.42321536 1031 -6.4747763 1032 -0.05531096 1033 -6.600613 
187 1024 -0.37761214 1025 0.19428328 1026 0.10538503 1027 -0.59098154 1028 -0.22457682 1029 -0.10903214 1030 -0.33972588 1031 -0.080668345 1032 0.15726678 1033 -0.52333844 
188 1024 -0.08549859 1025 -2.4183712 1026 -0.60799265 1027 -5.842328 1028 1.1146523 1029 0.8350379 1030 -1.4402353 1031 -0.040046923 1032 0.20793879 1033 -0.08164738 
189 1024 0.21587607 1025 -5.600146 1026 1.223873 1027 -0.06318124 1028 -2.237643 1029 0.47480616 1030 -0.5705161 1031 0.0073141987 1032 0.19207725 1033 -0.030268326 
190 1024 -1.2948731 1025 -0.07903329 1026 -2.748461 1027 0.010351017 1028 0.6370609 1029 -0.013104381 1030 -0.43110138 1031 0.0031215437 1032 -0.21789901 1033 0.015158209 
191 1024 -0.025095522 1025 -0.07249218 1026 -0.529961 1027 -0.00023046136 1028 -0.36410338 1029 -3.7153575 1030 4.5446815 1031 -0.007042352 1032 0.33520845 1033 -0.023702107 
192 1024 0.027510323 1025 0.017210163 1026 0.003320735 1027 0.029296514 1028 -0.002276618 1029 0.008084469 1030 -0.018025141 1031 -0.028981812 1032 -0.016531173 1033 -0.014281411 
193 1024 0.027766846 1025 -0.00010396913 1026 0.0055115633 1027 -0.023852073 1028 -0.016253121 1029 -0.019890048 1030 0.02785585 1031 0.022144087 1032 -0.01377932 1033 0.006183304 
194 1024 -0.063044935 1025 -0.21154983 1026 -3.418144 1027 1.1153119 1028 -1.0416337 1029 -1.4212847 1030 2.0964963 1031 -0.41477236 1032 0.027823389 1033 -0.010704771 
195 1024 -0.15809366 1025 2.9152217 1026 0.8156604 1027 0.38465607 1028 -2.7753801 1029 -1.7480032 1030 -1.4918398 1031 -0.08236386 1032 -0.3970611 1033 -0.023804916 
196 1024 -0.5424952 1025 0.58871204 1026 0.50538635 1027 -0.29539812 1028 1.7611238 1029 -3.1678047 1030 -0.7171052 1031 -1.1083741 1032 -0.7283684 1033 0.0005241967 
197 1024 -0.63728154 1025 2.6584916 1026 -0.13776383 1027 0.12839986 1028 -0.8730494 1029 -0.61866593 1030 0.53258723 1031 -1.5004691 1032 0.031377345 1033 -4.0877028 
198 1024 -0.21800849 1025 0.11431309 1026 -0.07457279 1027 0.26140732 1028 0.4481313 1029 -0.8401708 1030 -1.0272121 1031 0.75860953 1032 -0.0017579285 1033 -0.24136016 
199 1024 -0.14477833 1025 2.4722989 1026 -0.0142681785 1027 0.1578231 1028 0.640033 1029 -0.14260943 1030 -0.37298787 1031 -1.1214163 1032 0.2444994 1033 -8.551024 
200 1024 -0.2533233 1025 0.19314684 1026 -0.03148573 1027 0.18100633 1028 -0.61979604 1029 0.026996585 1030 0.07165768 1031 0.018932581 1032 -0.08071563 1033 0.3797416 
201 1024 0.17412472 1025 -2.1805613 1026 0.06816532 1027 0.021182094 1028 0.4783935 1029 -0.12852965 1030 -0.30346984 1031 1.049849 1032 -0.13734922 1033 0.0060503487 
202 1024 -0.17392184 1025 -1.0210629 1026 -0.010179063 1027 0.01017762 1028 0.067324474 1029 0.0159289 1030 -0.39833236 1031 -0.0952876 1032 -0.012172566 1033 -0.00840548 
203 1024 0.31509528 1025 -1.2732941 1026 0.09372712 1027 -0.026477965 1028 -0.1265355 1029 0.04530201 1030 0.13302308 1031 -0.89925706 1032 0.011224312 1033 -0.44648725 
204 1024 0.4467256 1025 -0.9877531 1026 0.20099111 1027 -0.04535591 1028 0.13679652 1029 0.055695485 1030 -0.2825172 1031 0.5612621 1032 -0.058789972 1033 0.032862965 
205 1024 -0.25453633 1025 -0.33034086 1026 -0.116649605 1027 0.1293564 1028 -0.21885377 1029 -0.1531811 1030 0.0487635 1031 -0.49585116 1032 -0.08871414 1033 0.10247253 
206 1024 -0.058097374 1025 -0.49759862 1026 0.01215985 1027 0.040355492 1028 -0.081235886 1029 -0.17737353 1030 -0.22098605 1031 0.07820433 1032 0.10168755 1033 -0.041922163 
207 1024 0.25426555 1025 0.079384506 1026 0.22519505 1027 0.03163698 1028 -0.28973106 1029 0.08753249 1030 -0.09061541 1031 -0.26630124 1032 -0.03971219 1033 0.13566925 
208 1024 -0.0311993 1025 -0.24914084 1026 -0.03783308 1027 -0.020934884 1028 0.37591198 1029 0.007950546 1030 -0.113286644 1031 0.34816873 1032 0.038571797 1033 -0.2866768 
209 1024 0.3749391 1025 0.02688655 1026 0.0698618 1027 0.028774861 1028 -0.002025643 1029 -0.101748146 1030 -0.08814917 1031 -0.39532742 1032 0.017654814 1033 -0.14032874 
210 1024 -0.28250805 1025 -0.35318297 1026 0.16979495 1027 0.021817926 1028 0.1725621 1029 -0.10419652 1030 -0.2722012 1031 -0.1623142 1032 0.017848516 1033 -0.27778462 
211 1024 -0.063508645 1025 -0.5352405 1026 0.069820814 1027 0.019833425 1028 0.41332886 1029 0.0055478895 1030 0.089358695 1031 0.1196598 1032 0.11123003 1033 -0.28902248 
212 1024 0.010257995 1025 -0.39478976 1026 0.03874317 1027 -0.057903282 1028 0.05066001 1029 0.16220759 1030 0.0067099603 1031 -1.0595367 1032 0.030238219 1033 -0.10753798 
213 1024 -0.06624915 1025 -0.29569766 1026 0.08958982 1027 0.013028605 1028 -0.067195825 1029 0.044623014 1030 -0.045758527 1031 -0.4013542 1032 0.011181016 1033 -0.3579357 
214 1024 -0.17521547 1025 -0.52823216 1026 0.03808879 1027 -0.094538875 1028 -0.04069062 1029 0.04231627 1030 -0.3043758 1031 -0.47408766 1032 -0.043182127 1033 -0.12868083 
215 1024 -0.11536378 1025 -0.1632347 1026 -0.05394363 1027 0.07802407 1028 0.13024706 1029 0.14478055 1030 0.11684291 1031 -0.47268593 1032 -0.058169786 1033 -0.010570249 
216 1024 -0.100339994 1025 0.15314837 1026 0.12265862 1027 -0.027504334 1028 -0.08416256 1029 -0.07422437 1030 -0.23252273 1031 -0.8830845 1032 -0.061796334 1033 -0.17870529 
217 1024 0.21275954 1025 -0.3323759 1026 -0.029079938 1027 -0.10773225 1028 0.40057415 1029 -0.026904348 1030 0.017012188 1031 -0.3592805 1032 0.061592184 1033 0.033350613 
218 1024 -0.32921416 1025 0.3249998 1026 0.0727971 1027 -0.46584493 1028 -0.37956375 1029 0.38889527 1030 0.22611612 1031 -0.8698688 1032 -0.16053908 1033 -0.40483958 
219 1024 -0.4391583 1025 0.18816438 1026 0.27298027 1027 -0.5565698 1028 0.35258263 1029 -0.16725156 1030 -0.029174473 1031 0.09726762 1032 0.01980773 1033 -3.8753915 
220 1024 0.14238228 1025 2.3994162 1026 -0.69584966 1027 0.24519019 1028 -0.21849938 1029 -0.2118198 1030 1.4051476 1031 -1.128747 1032 -0.29647937 1033 -1.6487108 
221 1024 -1.1552188 1025 -7.7983894 1026 1.4886818 1027 -0.3309689 1028 0.023821304 1029 0.21830653 1030 -0.29307288 1031 -0.08038634 1032 -0.036078237 1033 -5.233952 
222 1024 -2.5130944 1025 -0.053372107 1026 -0.8998486 1027 -0.1895498 1028 -1.5106412 1029 -0.116607904 1030 0.30391964 1031 0.01854939 1032 0.112605944 1033 -0.0811919 
223 1024 -1.1315355 1025 -0.072481476 1026 -0.53140247 1027 0.006850373 1028 -0.47825578 1029 0.6225588 1030 2.2748065 1031 0.029014122 1032 -1.0988024 1033 0.010420132 
224 1024 0.018238015 1025 0.027514212 1026 -0.022257552 1027 0.0031603314 1028 -0.029626314 1029 0.0098105855 1030 0.006443735 1031 -9.555742e-05 1032 -0.0121161565 1033 -0.020385835 
225 1024 -0.02617209 1025 -0.015052907 1026 0.012446232 1027 -0.0233615 1028 0.0049747825 1029 0.030634053 1030 0.022622973 1031 -0.0032871626 1032 0.024005137 1033 0.019064978 
226 1024 0.004621379 1025 -0.7549527 1026 -2.5869648 1027 0.07886868 1028 -0.11473857 1029 4.175248 1030 1.8054949 1031 0.25225925 1032 -2.8207843 1033 -0.07005033 
227 1024 -0.5317784 1025 0.4518368 1026 -1.1089115 1027 0.6812406 1028 -1.0648375 1029 -2.041618 1030 -1.034648 1031 1.5432205 1032 -1.0200706 1033 -0.01700521 
228 1024 -0.014259537 1025 0.61924756 1026 -0.24999948 1027 0.1402268 1028 -0.40679824 1029 0.81435686 1030 0.19113913 1031 0.97977763 1032 -0.57695806 1033 -0.095901996 
229 1024 -0.83297586 1025 1.8593827 1026 0.27459234 1027 -0.3907617 1028 0.5603687 1029 0.45450822 1030 -0.1411076 1031 -0.8649848 1032 0.044912454 1033 -6.2251368 
230 1024 -0.019209111 1025 -1.6132097 1026 -0.13912773 1027 0.17171665 1028 -0.61786616 1029 0.17055218 1030 0.48892167 1031 0.55386585 1032 -0.06501449 1033 -4.050964 
231 1024 -0.27430442 1025 0.98711926 1026 0.06814409 1027 0.008677938 1028 -0.05514318 1029 -0.25044915 1030 -0.14732707 1031 -0.011615044 1032 -0.06813909 1033 0.77700114 
232 1024 -0.17714801 1025 -2.8252714 1026 -0.049920164 1027 -0.08807744 1028 0.26597464 1029 -0.20128709 1030 -0.005186455 1031 -0.040580217 1032 0.00060550665 1033 -0.65183467 
233 1024 0.13249314 1025 1.0854548 1026 -0.016301882 1027 0.014005173 1028 -0.21419291 1029 -0.11873756 1030 0.04372219 1031 0.061284788 1032 0.0108135035 1033 -0.17730244 
234 1024 -0.78768146 1025 -0.281131 1026 0.098804355 1027 0.10250359 1028 0.008723982 1029 -0.027587915 1030 0.12728204 1031 0.06585149 1032 -0.0686301 1033 0.10885913 
235 1024 0.018768638 1025 0.18399279 1026 -0.20796967 1027 0.062188786 1028 -0.32010975 1029 0.055700313 1030 -0.16024072 1031 0.3186401 1032 -0.018412692 1033 -0.0709791 
236 1024 -0.22984868 1025 0.21902691 1026 0.09104859 1027 0.045218226 1028 -0.14157388 1029 -0.023204908 1030 -0.060459305 1031 0.09659586 1032 -0.02219465 1033 0.013311879 
237 1024 0.040675025 1025 0.08285984 1026 -0.05591235 1027 -0.028124169 1028 -0.12881777 1029 -0.047421493 1030 -0.056304347 1031 0.11915689 1032 -0.014847046 1033 0.040606484 
238 1024 -0.27524525 1025 -0.23267278 1026 0.0025149565 1027 0.05016659 1028 -0.39264095 1029 0.0064918357 1030 -0.06376366 1031 0.20277566 1032 0.048672523 1033 0.08515153 
239 1024 0.20722827 1025 -0.26986796 1026 0.027178533 1027 0.06358933 1028 -0.20315038 1029 -0.09894368 1030 -0.14715147 1031 -0.061393496 1032 -0.021302467 1033 0.14851741 
240 1024 -0.110942475 1025 0.18670142 1026 0.01715034 1027 -0.01606531 1028 -0.41952008 1029 0.096407875 1030 -0.08840816 1031 -0.0049357177 1032 0.010049657 1033 0.18505657 
241 1024 -0.072567396 1025 -0.6610528 1026 0.027077585 1027 -0.011325109 1028 -0.35024467 1029 -0.02284059 1030 -0.07581817 1031 0.18000764 1032 0.05189164 1033 0.19368719 
242 1024 -0.10585238 1025 -0.36425856 1026 -0.016244054 1027 0.08937692 1028 -0.2815418 1029 -0.19611351 1030 -0.12566745 1031 -0.069014445 1032 0.043717194 1033 0.05437666 
243 1024 0.13155088 1025 -0.069866545 1026 0.010432335 1027 -0.026850473 1028 -0.27171642 1029 0.116154544 1030 -0.10525684 1031 0.17738877 1032 -0.036985 1033 0.18889457 
244 1024 0.27319488 1025 -0.14132613 1026 -0.009696893 1027 -0.009116735 1028 -0.43693206 1029 -0.07619357 1030 -0.12375476 1031 0.20809142 1032 0.01608912 1033 0.16649847 
245 1024 -0.22491996 1025 -0.09159058 1026 -0.012014886 1027 0.017108908 1028 -0.26545817 1029 -0.046354793 1030 -0.15829892 1031 -0.010750176 1032 -0.045009118 1033 0.12709078 
246 1024 0.15491432 1025 0.17557362 1026 -0.022371078 1027 -0.01775863 1028 -0.0543916 1029 0.12648886 1030 0.09814383 1031 0.20643982 1032 0.032491058 1033 0.02309057 
247 1024 0.10272306 1025 -0.27037746 1026 0.013300565 1027 -0.042592764 1028 -0.08216034 1029 0.22682461 1030 -0.08048711 1031 -0.003960956 1032 0.034045063 1033 0.02152335 
248 1024 0.02072887 1025 -0.01191052 1026 -0.0729896 1027 -0.002274925 1028 -0.093411684 1029 -0.05263062 1030 0.07586567 1031 0.2563029 1032 0.009922766 1033 0.013377642 
249 1024 0.23753674 1025 0.34095085 1026 -0.076224044 1027 -0.0017824058 1028 -0.079900086 1029 0.18336165 1030 0.29022074 1031 -0.08081856 1032 -0.023151796 1033 -0.25038043 
250 1024 -0.17723043 1025 -0.55621725 1026 0.07272704 1027 -0.16686715 1028 0.3232203 1029 0.12007429 1030 -0.50897807 1031 0.24594902 1032 -0.0414147 1033 0.091555886 
251 1024 0.20842698 1025 0.39303467 1026 -0.31420037 1027 0.27761295 1028 0.5016887 1029 0.020917976 1030 0.14171863 1031 -0.60382533 1032 0.015017008 1033 -0.61160785 
252 1024 -1.2523965 1025 -1.5391592 1026 -1.0825151 1027 -0.044633184 1028 -0.6145032 1029 0.67279685 1030 -0.8773372 1031 0.27393126 1032 -0.008971716 1033 -0.30862188 
253 1024 -1.2936133 1025 -10.076581 1026 -1.0354018 1027 -5.9000845 1028 -0.07687673 1029 -0.31038073 1030 -0.2397232 1031 -6.718173 1032 0.12533323 1033 0.8753307 
254 1024 -1.3611141 1025 -0.036878813 1026 1.2607452 1027 -0.35932288 1028 0.7008244 1029 0.43944326 1030 -1.4450107 1031 -4.6241255 1032 -8.8230925e-05 1033 -1.9820486 
255 1024 0.031154659 1025 -0.01800127 1026 -0.19931044 1027 0.02684252 1028 -0.58595186 1029 -0.710926 1030 1.2425587 1031 -0.911701 1032 0.47487158 1033 -0.14118029 
256 1024 0.027307488 1025 0.0076562054 1026 0.006435223 1027 -0.36407077 1028 0.002688583 1029 -0.01914756 1030 0.020176522 1031 0.07670568 1032 -0.022853717 1033 -0.0031377114 
257 1024 -0.022979673 1025 -2.725089 1026 -0.55702275 1027 2.4441636 1028 -0.16262065 1029 -0.75470126 1030 -0.02786167 1031 -0.10583254 1032 -2.8918295 1033 -1.466192 
258 1024 -0.6482059 1025 -1.0782096 1026 1.3466966 1027 -1.0800221 1028 -2.1772165 1029 3.6715355 1030 0.030503493 1031 -1.0340822 1032 -4.679274 1033 -1.1074295 
259 1024 -0.6435387 1025 -1.6042932 1026 0.7360972 1027 0.3213706 1028 -0.8742181 1029 -2.2791517 1030 -5.0872107 1031 0.5770526 1032 -2.1660092 1033 -0.42670372 
260 1024 -0.17583035 1025 2.5685606 1026 0.26946414 1027 -0.12758847 1028 -0.47127002 1029 -0.603102 1030 0.19262199 1031 -0.12489667 1032 -0.2901866 1033 -6.986235 
261 1024 -0.23102272 1025 -4.542792 1026 -0.3728578 1027 0.29988405 1028 0.43912503 1029 -1.1009325 1030 -0.3849401 1031 -0.21828029 1032 -0.11751299 1033 -0.8603866 
262 1024 0.905945 1025 -0.765025 1026 0.16614997 1027 -0.14541425 1028 0.5862467 1029 0.12113659 1030 0.8713378 1031 -0.33703986 1032 -0.17108138 1033 -0.5441027 
263 1024 0.24707934 1025 -2.8370552 1026 0.046335403 1027 0.12145876 1028 -0.16203721 1029 -0.21854696 1030 -0.48213133 1031 0.57003254 1032 -0.11360253 1033 -0.32796317 
264 1024 -0.0747881 1025 1.2272466 1026 -0.12413509 1027 0.035025187 1028 0.28025708 1029 -0.041145235 1030 0.26694706 1031 -0.03591383 1032 -0.05883725 1033 -0.10791196 
265 1024 -0.47565272 1025 -0.92649436 1026 0.16057505 1027 -0.05130733 1028 -0.024252243 1029 0.14596897 1030 -0.072029434 1031 -0.06372229 1032 0.040207036 1033 0.004481588 
266 1024 0.3160912 1025 -0.7165354 1026 -0.029018642 1027 0.04109769 1028 0.17099716 1029 -0.10706565 1030 -0.10879915 1031 0.068058945 1032 0.0100078685 1033 -0.05200675 
267 1024 -0.2791278 1025 -0.27742556 1026 -0.0027563178 1027 -0.039898098 1028 -0.013927487 1029 0.062411815 1030 -0.25154868 1031 0.1581964 1032 -0.0036457435 1033 -0.012325252 
268 1024 0.35357183 1025 -0.4747749 1026 0.03491204 1027 -0.033509135 1028 0.034865748 1029 0.17894325 1030 0.011530176 1031 0.1133547 1032 0.0031616758 1033 0.01954539 
269 1024 0.029351043 1025 -0.26118213 1026 0.0463745 1027 0.053662036 1028 -0.089504994 1029 -0.054676067 1030 0.04119675 1031 0.075462386 1032 -0.034154568 1033 0.056472294 
270 1024 -0.06716185 1025 0.31758967 1026 -0.07878145 1027 -0.008911078 1028 -0.10578517 1029 0.0072365203 1030 -0.19868623 1031 0.1814017 1032 -0.02016188 1033 0.018373962 
271 1024 -0.0103641525 1025 -0.38161093 1026 0.056148645 1027 0.020049935 1028 -0.17625633 1029 -0.09335844 1030 -0.16104893 1031 0.015379955 1032 -0.024377596 1033 0.21078093 
272 1024 0.24305677 1025 -0.25863248 1026 0.075684905 1027 0.048795223 1028 -0.11098424 1029 -0.02349772 1030 -0.011142099 1031 -0.059175797 1032 -0.03566492 1033 0.1585352 
273 1024 0.0014212085 1025 -0.2606924 1026 -0.115637936 1027 0.083691254 1028 -0.27605855 1029 0.07029635 1030 -0.0450744 1031 -0.022103317 1032 0.076818734 1033 0.21114378 
274 1024 -0.15883943 1025 0.11354379 1026 0.124362625 1027 -0.05826855 1028 -0.37891993 1029 -0.15010071 1030 -0.1293618 1031 -0.13930097 1032 0.04400383 1033 0.28926715 
275 1024 0.19235682 1025 -0.13131294 1026 -0.050529793 1027 0.031058127 1028 -0.1283822 1029 0.21477394 1030 -0.123452514 1031 0.08438657 1032 -0.060958583 1033 0.07773949 
276 1024 0.2104145 1025 -0.35983968 1026 -0.10588192 1027 0.021359079 1028 0.18021306 1029 -0.099007435 1030 -0.048357368 1031 0.14779218 1032 0.02272314 1033 -0.011708796 
277 1024 -0.08197438 1025 -0.13488384 1026 -0.0062254486 1027 -0.054291412 1028 0.034940045 1029 0.084569804 1030 -0.18211661 1031 0.0018570027 1032 0.0033018885 1033 -0.0067031886 
278 1024 0.23558682 1025 -0.023628032 1026 -0.04755674 1027 -0.022372246 1028 -0.122195266 1029 -0.053848535 1030 -0.15858838 1031 0.121481135 1032 -0.053940564 1033 0.018722434 
279 1024 0.07790156 1025 0.54598314 1026 -0.12049236 1027 -0.065191865 1028 -0.086849526 1029 -0.014477744 1030 -0.40920976 1031 0.03049745 1032 0.053770706 1033 0.013833905 
280 1024 0.21149155 1025 -0.32025972 1026 -0.050796118 1027 0.031890925 1028 -0.01318119 1029 -0.00067439314 1030 -0.14214955 1031 0.057550926 1032 0.01187911 1033 0.05874529 
281 1024 -0.16560952 1025 -0.15695786 1026 0.10547803 1027 -0.345236 1028 0.25924268 1029 0.45420352 1030 -0.37549964 1031 0.122276194 1032 -0.018534409 1033 -0.11118408 
282 1024 -0.18513413 1025 0.07989451 1026 -0.11953672 1027 0.12809841 1028 0.076803915 1029 -0.1723945 1030 0.50022227 1031 0.20358889 1032 0.063600205 1033 0.04307746 
283 1024 0.05486395 1025 -0.33422947 1026 -0.49269736 1027 -0.19909249 1028 0.27886158 1029 0.65412784 1030 -0.29529405 1031 -0.57180697 1032 0.056765787 1033 -0.13759357 
284 1024 -0.28112137 1025 -0.7716678 1026 -0.39192197 1027 -0.24998827 1028 -0.2535656 1029 0.26827297 1030 0.3737485 1031 0.33703464 1032 -0.04425073 1033 -0.11235689 
285 1024 -0.17903815 1025 -6.469666 1026 0.29280427 1027 -3.9025319 1028 -0.20942385 1029 0.50375515 1030 0.21385202 1031 -0.56902426 1032 -0.12766087 1033 -0.7339982 
286 1024 -2.3805401 1025 -0.030501777 1026 0.45835865 1027 -0.2132229 1028 0.28061134 1029 -0.3850136 1030 0.58438414 1031 -0.6502028 1032 -0.21112444 1033 -2.5043805 
287 1024 1.6018001 1025 -0.025416657 1026 -0.15230443 1027 0.020006526 1028 -0.65636367 1029 1.2341734 1030 0.2366622 1031 -0.90242344 1032 -0.36974686 1033 -0.0898009 
288 1024 4.5051503 1025 0.0002604276 1026 -0.18717645 1027 -0.43675315 1028 -0.8344479 1029 -0.025952678 1030 -0.0076336265 1031 -4.6136703 1032 -0.022303805 1033 -4.5664606 
289 1024 -0.008367695 1025 0.026004594 1026 1.0028254 1027 -1.6368018 1028 -4.439484 1029 -0.008875012 1030 0.0062623024 1031 1.3070736 1032 0.030305862 1033 -0.06292813 
290 1024 -0.64421284 1025 -1.050024 1026 0.48268613 1027 -0.39083752 1028 0.2026842 1029 -1.2266847 1030 -0.012956746 1031 0.15290359 1032 -0.24304008 1033 -1.5913452 
291 1024 1.5337343 1025 0.2426141 1026 -1.1885095 1027 -0.15916231 1028 1.3386538 1029 -5.8594327 1030 -2.3075712 1031 -0.00917959 1032 -0.39100733 1033 -10.196362 
292 1024 0.3419962 1025 4.0017333 1026 -0.22577494 1027 0.3035365 1028 -0.39423847 1029 -0.31690666 1030 -0.899405 1031 0.007258518 1032 0.51161915 1033 -0.02229648 
293 1024 -0.97636527 1025 -2.8335972 1026 -0.36905798 1027 0.05655449 1028 0.6904034 1029 0.044170685 1030 0.41559878 1031 0.6200604 1032 0.190552 1033 0.70814544 
294 1024 -0.8112688 1025 -1.1445208 1026 0.21351917 1027 0.10073513 1028 -0.37563837 1029 -0.341662 1030 -1.0904028 1031 -0.7560741 1032 0.03867625 1033 0.08611925 
295 1024 0.08830077 1025 -1.652838 1026 -0.083315395 1027 -0.0765327 1028 -0.09473166 1029 -0.18744135 1030 -0.015481748 1031 0.1463257 1032 0.07054833 1033 -0.100034185 
296 1024 0.04608406 1025 -0.9134377 1026 0.20355767 1027 -0.01412208 1028 -0.16439518 1029 -0.014434561 1030 -0.3006717 1031 0.4246534 1032 0.11597771 1033 -0.1152776 
297 1024 -0.04805583 1025 -0.66816247 1026 -0.11021777 1027 -0.025579242 1028 -0.31117484 1029 -0.010713381 1030 -0.3548115 1031 0.29707718 1032 0.019498086 1033 -0.027997134 
298 1024 0.32299462 1025 0.3821796 1026 -0.037289992 1027 -0.073757306 1028 0.052731093 1029 0.01017106 1030 0.11841712 1031 0.056741994 1032 0.016422093 1033 -0.12087735 
299 1024 0.11671377 1025 -0.24322495 1026 0.0038952597 1027 0.011606331 1028 -0.15773924 1029 0.021852355 1030 -0.037648015 1031 -0.03905458 1032 0.044055875 1033 0.04686952 
300 1024 -0.3830453 1025 -0.44214943 1026 -0.0048078094 1027 0.016682409 1028 0.25159997 1029 0.05337474 1030 -0.20125534 1031 0.17075633 1032 0.007069918 1033 -0.1969208 
301 1024 -0.035395008 1025 0.15259242 1026 -0.027174896 1027 -0.025476566 1028 -0.1355107 1029 0.07469078 1030 0.06969218 1031 0.16021779 1032 -0.0120718395 1033 -0.0008875703 
302 1024 0.3269085 1025 -0.10508645 1026 0.030189283 1027 0.02338911 1028 -0.1874642 1029 0.0478357 1030 -0.20093592 1031 -0.050756037 1032 0.018296046 1033 0.015306846 
303 1024 -0.15599915 1025 0.08425465 1026 0.052399863 1027 0.009802765 1028 -0.107353635 1029 -0.12016283 1030 0.0054910635 1031 0.0179946 1032 0.050449908 1033 0.037349626 
304 1024 0.19830373 1025 -0.071673185 1026 0.012617456 1027 -0.022529623 1028 -0.20027485 1029 -0.049121525 1030 -0.13125683 1031 0.0981106 1032 -0.06778492 1033 0.14631075 
305 1024 0.34974483 1025 -0.352506 1026 -0.004674726 1027 -0.02326367 1028 -0.035060007 1029 -0.10824794 1030 -0.08647493 1031 0.22896215 1032 -0.052013047 1033 0.09807729 
306 1024 0.0100783715 1025 -0.11419263 1026 -0.116407335 1027 0.06448436 1028 -0.31508696 1029 -0.078327194 1030 -0.064033 1031 -0.22894326 1032 0.005739773 1033 0.19569112 
307 1024 0.34005436 1025 -0.3390069 1026 -0.065445684 1027 -0.026166804 1028 0.08141183 1029 -0.1331326 1030 -0.117063716 1031 0.07827566 1032 -0.0028438508 1033 -0.005003348 
308 1024 0.16403857 1025 0.45167747 1026 0.016043218 1027 0.13251175 1028 -0.28521758 1029 0.12152234 1030 -0.28644857 1031 0.17837587 1032 -0.053428404 1033 -0.036627855 
309 1024 0.2064733 1025 -0.519463 1026 -0.1551325 1027 -0.010569998 1028 -0.1094088 1029 0.030057967 1030 -0.2761872 1031 0.10333739 1032 0.037735768 1033 0.024183586 
310 1024 -0.12319414 1025 0.38449705 1026 0.12661831 1027 0.044925325 1028 -0.14672932 1029 0.12847087 1030 -0.16317874 1031 -0.0067100427 1032 0.02400888 1033 -0.054628465 
311 1024 -0.0010203862 1025 -0.13756567 1026 0.0014419399 1027 0.026630739 1028 0.26904663 1029 0.03797596 1030 -0.099732846 1031 0.17103212 1032 -0.023374401 1033 -0.1216359 
312 1024 -0.11181439 1025 -0.07156105 1026 0.07316475 1027 -0.03144196 1028 -0.22693405 1029 0.23244247 1030 -0.38955358 1031 0.18470402 1032 -0.014134379 1033 0.074909225 
313 1024 0.28300336 1025 -0.27201092 1026 -0.07867973 1027 0.13011548 1028 0.015332943 1029 -0.2090232 1030 -0.33375004 1031 -0.018698096 1032 0.072382264 1033 -0.05191566 
314 1024 -0.24785368 1025 -0.52122843 1026 0.2536003 1027 0.009572864 1028 -0.38291663 1029 0.15192921 1030 -0.782194 1031 0.1748414 1032 -0.0053007067 1033 0.092527576 
315 1024 0.31191444 1025 0.7983918 1026 0.21048015 1027 -0.37744537 1028 -0.2302002 1029 -0.07647229 1030 -1.2413703 1031 0.832492 1032 0.14275296 1033 -0.22150353 
316 1024 -0.46409678 1025 -3.407849 1026 -10.996303 1027 -0.5817281 1028 0.10184806 1029 0.30365717 1030 0.7141269 1031 -0.68135387 1032 -0.02255845 1033 -0.004587267 
317 1024 -2.4576952 1025 -6.1433067 1026 -1.9469569 1027 -2.3908975 1028 0.34473976 1029 0.43976417 1030 -0.18442065 1031 -0.53914106 1032 -0.14820653 1033 0.04233317 
318 1024 -1.5933906 1025 -0.035238102 1026 -0.6187589 1027 -0.034147598 1028 -0.37698245 1029 -0.28185257 1030 0.89793116 1031 -4.4686055 1032 -0.020398168 1033 -1.7163543 
319 1024 -0.06422498 1025 -0.026356053 1026 -0.01041773 1027 0.01460737 1028 -2.9262698 1029 -1.1538184 1030 -1.5521677 1031 -0.010919634 1032 0.5052699 1033 -0.026662124 
320 1024 0.0059631057 1025 -0.035279103 1026 0.00645867 1027 -0.6435744 1028 -0.084600665 1029 -0.004328225 1030 0.00859987 1031 0.23976538 1032 -0.01744144 1033 -0.012748395 
321 1024 -0.013001844 1025 -4.4928236 1026 -2.122624 1027 1.2258087 1028 -2.9499688 1029 -0.033217646 1030 0.0025388673 1031 2.2301512 1032 -4.7974324 1033 -0.065409034 
322 1024 -3.929058 1025 -1.0478979 1026 -0.03274102 1027 -0.2940781 1028 2.1475036 1029 -1.1550101 1030 0.003674415 1031 0.6499158 1032 -1.9426126 1033 -3.9588053 
323 1024 -0.013870767 1025 -0.9253809 1026 -0.01134686 1027 0.18295628 1028 -0.7370739 1029 -4.4775662 1030 -3.969894 1031 0.8590375 1032 0.7076614 1033 1.6134034 
324 1024 -2.5807106 1025 -0.76884925 1026 0.5509305 1027 -0.1981076 1028 0.051284812 1029 -0.9006483 1030 1.3640703 1031 -0.078364156 1032 -0.54272693 1033 -1.3977149 
325 1024 0.8508092 1025 -8.446163 1026 0.38795725 1027 0.19870132 1028 -0.40615112 1029 -0.82370245 1030 -0.6624657 1031 0.26124504 1032 -0.06642908 1033 -0.4841687 
326 1024 -0.25194007 1025 1.3567324 1026 0.00026859765 1027 -0.25697327 1028 0.43821046 1029 0.37651378 1030 0.1863163 1031 0.39675298 1032 0.03900492 1033 0.11437335 
327 1024 0.0052929134 1025 0.15925379 1026 -0.23753686 1027 0.07182879 1028 0.35459748 1029 -0.037004806 1030 -0.3824449 1031 -0.12388117 1032 0.042422254 1033 0.08127243 
328 1024 0.19864602 1025 0.348699 1026 -0.08574572 1027 0.048536155 1028 0.24083953 1029 -0.10572586 1030 0.46621776 1031 -0.16728613 1032 -0.060146283 1033 0.007703958 
329 1024 -0.063514754 1025 -0.45294183 1026 0.045782544 1027 -0.008397723 1028 -0.116910964 1029 -0.012831726 1030 0.35107476 1031 0.09407695 1032 0.016382206 1033 0.060162485 
330 1024 -0.42324588 1025 -0.8606179 1026 -0.106279895 1027 0.040489357 1028 -0.012276743 1029 0.037878085 1030 -0.06299783 1031 -0.030063128 1032 0.10594334 1033 -0.062089484 
331 1024 0.10969145 1025 0.20930956 1026 0.16580498 1027 -0.045243457 1028 -0.39061558 1029 -0.19489655 1030 -0.09033132 1031 -0.055875685 1032 -0.0004967884 1033 0.052058738 
332 1024 0.18499328 1025 0.33674252 1026 0.00020776778 1027 -0.022170868 1028 -0.22530052 1029 0.26039273 1030 0.043824926 1031 -0.0163101 1032 -0.007917141 1033 -0.07244755 
333 1024 -0.15534762 1025 -0.20207912 1026 0.03081478 1027 -0.090020455 1028 0.09084913 1029 0.19984841 1030 -0.09542039 1031 0.17687885 1032 0.060426716 1033 -0.11828055 
334 1024 -0.10303941 1025 -0.21378945 1026 -0.09899606 1027 -0.020181255 1028 -0.11988456 1029 0.15756997 1030 -0.021103973 1031 0.37075454 1032 0.010925981 1033 -0.017121412 
335 1024 0.19354829 1025 0.12719484 1026 -0.1250544 1027 0.04105932 1028 -0.293531 1029 -0.15118176 1030 -0.1763023 1031 -0.22546807 1032 -0.038574614 1033 0.001542822 
336 1024 -0.21155216 1025 -0.22648495 1026 0.06933965 1027 0.013308655 1028 -0.30568105 1029 0.11169847 1030 -0.18614803 1031 0.31542572 1032 0.038108382 1033 0.122386426 
337 1024 -0.11130912 1025 -0.071347125 1026 0.027244993 1027 0.10870995 1028 -0.12772137 1029 -0.25455856 1030 -0.1425213 1031 0.23118255 1032 -0.029877996 1033 0.022636311 
338 1024 0.29781693 1025 -0.41737524 1026 0.14734367 1027 0.05145372 1028 -0.032776285 1029 -0.28519866 1030 -0.5130317 1031 0.03532833 1032 0.007777759 1033 -0.11859224 
339 1024 0.23640294 1025 -0.22976507 1026 0.010221155 1027 0.002934342 1028 -0.2780714 1029 -0.06522423 1030 -0.09721379 1031 0.3356672 1032 -0.019225528 1033 0.10342597 
340 1024 -0.10644175 1025 -0.02544602 1026 0.0747306 1027 -0.06786813 1028 0.11454627 1029 -0.16989766 1030 -0.11810414 1031 0.161113 1032 -0.01113662 1033 0.055608254 
341 1024 0.13359621 1025 0.34877062 1026 0.086946934 1027 0.074338935 1028 0.0348516 1029 -0.1260646 1030 -0.20723434 1031 0.02254415 1032 0.03375508 1033 -0.03740108 
342 1024 0.25378314 1025 -0.40070993 1026 -0.089135155 1027 0.10320363 1028 0.09166665 1029 0.06345385 1030 -0.40418527 1031 -0.056543157 1032 0.012215365 1033 -0.025772696 
343 1024 0.080557026 1025 -0.46301758 1026 0.14350632 1027 0.025021752 1028 -0.43879816 1029 0.16088201 1030 -0.19588521 1031 -0.14030679 1032 -0.015220216 1033 0.06090017 
344 1024 0.06059705 1025 0.27489263 1026 -0.13224478 1027 0.09011418 1028 0.23832917 1029 0.62268794 1030 0.09430552 1031 -0.21085328 1032 0.021960966 1033 -0.055386223 
345 1024 -0.2890385 1025 -0.2733691 1026 0.1694361 1027 -0.4380847 1028 -0.20007035 1029 0.37122434 1030 0.018655734 1031 -0.1320265 1032 0.09897157 1033 -0.10546501 
346 1024 -0.12800613 1025 -0.46576867 1026 -0.35615426 1027 0.26766744 1028 0.38707954 1029 0.8073117 1030 0.059581406 1031 0.12961324 1032 0.0015824767 1033 -0.34194922 
347 1024 0.28499302 1025 -1.914055 1026 0.17446314 1027 -0.51794356 1028 -0.01116361 1029 0.28441706 1030 0.009791753 1031 0.18286905 1032 -0.09382444 1033 -0.32864416 
348 1024 -0.73106825 1025 0.7519145 1026 -2.4542153 1027 -8.252899 1028 -0.94561315 1029 0.50123596 1030 -2.0228348 1031 -0.24023324 1032 0.031613298 1033 0.44374338 
349 1024 -2.5906253 1025 -6.5519476 1026 -4.9599557 1027 -0.60473365 1028 0.06772474 1029 0.22756624 1030 -0.070214 1031 -0.28268316 1032 -0.025159612 1033 -1.4147177 
350 1024 -2.0156193 1025 -0.3648309 1026 -1.6058221 1027 -0.033733305 1028 0.17198439 1029 0.3660406 1030 -0.6089424 1031 -0.08084154 1032 0.40202725 1033 -4.2963285 
351 1024 -0.052056387 1025 -0.17457506 1026 -0.035250325 1027 0.0065008663 1028 -3.2905116 1029 -0.46364456 1030 -0.25822642 1031 1.7886997 1032 -0.4084677 1033 -0.19891521 
352 1024 -0.008510426 1025 -0.0474728 1026 0.008065559 1027 -0.23700279 1028 -0.07154443 1029 0.008027978 1030 -0.015460506 1031 0.14505562 1032 0.011792906 1033 -0.037656676 
353 1024 0.025339939 1025 2.943131 1026 -2.5528085 1027 0.34608424 1028 -0.028064644 1029 -0.0013006111 1030 -0.01375353 1031 -0.24331897 1032 -0.26972312 1033 -0.06463367 
354 1024 1.3587492 1025 -0.2900985 1026 -0.9514301 1027 -0.20999315 1028 -0.0043337494 1029 -0.10400125 1030 -2.108958 1031 -0.6385613 1032 -1.6680062 1033 -4.901689 
355 1024 -0.096379 1025 -0.85285336 1026 0.31734473 1027 -0.08320297 1028 -0.40233245 1029 -3.628111 1030 -5.5573254 1031 -1.2850447 1032 -0.6307145 1033 -0.022422906 
356 1024 -0.3021243 1025 -0.96727604 1026 -0.04734245 1027 0.008895945 1028 -1.3551368 1029 0.70247316 1030 0.39075354 1031 1.1588655 1032 -0.00686504 1033 0.06890098 
357 1024 0.37590227 1025 -6.1757975 1026 -0.459982 1027 0.04095886 1028 0.71097666 1029 0.39297986 1030 -0.48808128 1031 -0.5267023 1032 -0.11984621 1033 -0.1542802 
358 1024 -0.10530266 1025 -0.17462882 1026 0.113549866 1027 0.27145505 1028 -0.6277264 1029 -0.34757608 1030 -0.03759263 1031 0.33962438 1032 -0.15461004 1033 0.17573088 
359 1024 -0.2735018 1025 -0.26949093 1026 -0.05494104 1027 0.11409502 1028 -0.44956115 1029 -0.28774256 1030 -0.30550557 1031 0.11354451 1032 0.09975038 1033 0.021484517 
360 1024 0.016864581 1025 -0.81081 1026 0.017830605 1027 -0.011761138 1028 0.01212255 1029 0.11101237 1030 -0.2732117 1031 0.29980356 1032 0.06640951 1033 -0.14621952 
361 1024 -0.04853479 1025 1.375933 1026 -0.014524537 1027 -0.0581729 1028 0.09753139 1029 0.06111099 1030 -0.25413278 1031 0.12663439 1032 -0.027268022 1033 0.051264316 
362 1024 0.16198705 1025 0.7546825 1026 0.13294749 1027 -0.08068595 1028 0.21751077 1029 0.27579224 1030 -0.03935997 1031 0.055942986 1032 -0.032227214 1033 -0.050730374 
363 1024 -0.06579214 1025 -0.14540689 1026 -0.05139262 1027 -0.11240853 1028 -0.21831365 1029 0.19776434 1030 -0.018614938 1031 0.059924606 1032 0.029551614 1033 0.08942959 
364 1024 0.044096947 1025 -0.37715578 1026 0.11505026 1027 -0.080805086 1028 -0.06470717 1029 -0.20868175 1030 -0.004997953 1031 0.06624783 1032 0.05500904 1033 0.093413554 
365 1024 0.080503136 1025 0.011383474 1026 0.1647692 1027 -0.098712236 1028 -0.10771595 1029 0.14550442 1030 -0.06412625 1031 -0.14733562 1032 0.020252611 1033 0.06911472 
366 1024 0.09813587 1025 -0.019489048 1026 -0.06197642 1027 -0.11806683 1028 0.023795558 1029 0.10334766 1030 0.06609701 1031 0.29132926 1032 0.07916618 1033 -0.08879654 
367 1024 0.01654646 1025 -0.114328116 1026 0.06005262 1027 -0.03849266 1028 0.022001969 1029 0.08697229 1030 -0.04109492 1031 0.1145991 1032 -0.016028263 1033 -0.050258406 
368 1024 0.17228189 1025 0.82285535 1026 0.003882392 1027 0.13099037 1028 -0.50121874 1029 -0.0796553 1030 0.0058248625 1031 0.08686599 1032 -0.11303172 1033 0.08747119 
369 1024 -0.2702659 1025 0.7451178 1026 -0.08184707 1027 0.102326386 1028 0.14564826 1029 -0.015060988 1030 -0.0514685 1031 0.13035199 1032 -0.09754806 1033 0.010194984 
370 1024 -0.015955223 1025 0.70373106 1026 0.0066132117 1027 0.031110434 1028 -0.44682595 1029 -0.1658928 1030 -0.002266765 1031 0.20044966 1032 -0.06383214 1033 0.0071786377 
371 1024 0.30098486 1025 -0.0908855 1026 0.034325533 1027 0.17269944 1028 0.095951915 1029 -0.16155268 1030 -0.17901355 1031 -0.0194199 1032 0.06034505 1033 -0.09701584 
372 1024 0.18929681 1025 -0.5512831 1026 0.08925648 1027 0.11209482 1028 -0.12880027 1029 -0.23981635 1030 -0.25560725 1031 0.11180994 1032 -0.027930625 1033 -0.09086197 
373 1024 0.122484736 1025 -0.67743814 1026 0.020170705 1027 -0.07577783 1028 -0.07469244 1029 -0.10904494 1030 -0.22490376 1031 0.0022065942 1032 -0.015369511 1033 0.12746002 
374 1024 0.104452044 1025 -0.19441223 1026 -0.035121184 1027 -0.08931236 1028 -0.12319063 1029 -0.2504824 1030 -0.1838712 1031 0.17746665 1032 0.022632824 1033 -0.07104991 
375 1024 0.2564841 1025 -0.18111345 1026 -0.15868971 1027 0.05649525 1028 0.2991055 1029 -0.9135383 1030 0.079563774 1031 0.4215636 1032 0.058726244 1033 -0.06794925 
376 1024 -0.2596437 1025 0.48809537 1026 0.093668304 1027 0.09234653 1028 -0.07912285 1029 0.26302055 1030 -0.031888988 1031 0.2495209 1032 0.06488914 1033 -0.112629704 
377 1024 0.20546481 1025 -0.10954636 1026 -0.15412463 1027 0.5120157 1028 0.1735902 1029 0.09242311 1030 -0.510534 1031 0.2134869 1032 -0.048251968 1033 0.10296666 
378 1024 0.41074595 1025 0.85413635 1026 0.1804305 1027 -0.13477378 1028 -0.060748268 1029 1.0765241 1030 -0.54416126 1031 -0.51804435 1032 0.047199216 1033 0.42409325 
379 1024 -0.06576326 1025 0.2492733 1026 -0.019780584 1027 0.0374781 1028 0.16534264 1029 1.4635038 1030 0.5547274 1031 0.15980163 1032 0.20135994 1033 -0.28926086 
380 1024 0.29963684 1025 -2.6658475 1026 -0.58362746 1027 -11.931624 1028 0.38236338 1029 1.0714726 1030 0.005656651 1031 -0.41585645 1032 -0.2637626 1033 -0.47594908 
381 1024 -0.37675408 1025 -1.523873 1026 0.3051375 1027 0.895121 1028 -1.4208076 1029 -1.1533991 1030 -0.7559095 1031 0.05246093 1032 -0.161269 1033 0.22341165 
382 1024 -3.71045 1025 1.2053728 1026 1.5642734 1027 -1.6267607 1028 -0.12558131 1029 0.74284476 1030 -0.7115268 1031 -0.8333156 1032 -0.09634346 1033 -2.3045428 
383 1024 0.015983004 1025 -0.25424019 1026 -0.016072314 1027 -0.0010390915 1028 -0.92368126 1029 -0.5061856 1030 -4.438459 1031 2.6715581 1032 -0.3775331 1033 -0.2108513 
384 1024 0.0153648555 1025 -0.046230108 1026 -0.019912291 1027 -0.2613369 1028 -0.08086068 1029 0.0044375695 1030 0.019390952 1031 0.16187268 1032 0.017922241 1033 0.017398868 
385 1024 -0.006358683 1025 2.612675 1026 -2.0851586 1027 -0.9765871 1028 -2.7892911 1029 -0.023414664 1030 -0.029685132 1031 -0.58828175 1032 -0.24266738 1033 -0.6027694 
386 1024 1.0577321 1025 -0.011006538 1026 -0.5835754 1027 -1.4098465 1028 0.11519982 1029 -0.026866505 1030 -1.9694135 1031 1.5476474 1032 -0.5721457 1033 -5.5908875 
387 1024 0.46596506 1025 -0.60817295 1026 0.8949216 1027 0.23719041 1028 -0.4378039 1029 -7.335065 1030 -4.0490785 1031 0.8298402 1032 -0.9687674 1033 -0.36120412 
388 1024 0.75607216 1025 1.04172 1026 -0.4486304 1027 -0.09954423 1028 1.2051555 1029 0.30468726 1030 0.40444124 1031 -0.651052 1032 0.43379596 1033 0.109319605 
389 1024 0.54159224 1025 -0.93987215 1026 -0.5735492 1027 0.39439967 1028 -0.21217857 1029 -0.44993865 1030 -0.4696285 1031 0.5437401 1032 0.110685244 1033 -0.040532503 
390 1024 0.2622464 1025 -0.74177074 1026 0.4804654 1027 -0.28996783 1028 -0.3552874 1029 0.1204582 1030 0.7135016 1031 0.23819812 1032 0.19804257 1033 -0.18585485 
391 1024 0.3091086 1025 0.47757098 1026 0.4259836 1027 0.0984104 1028 -0.21317862 1029 0.15509032 1030 -0.21722554 1031 -0.004042702 1032 -0.0056545204 1033 -0.109495595 
392 1024 0.17796667 1025 0.29603225 1026 -0.06555769 1027 -0.055702087 1028 0.11574564 1029 0.11176873 1030 -0.058102746 1031 -0.36631814 1032 0.03788979 1033 0.09181353 
393 1024 -0.16480441 1025 -0.8073622 1026 0.12916616 1027 -0.033104636 1028 -0.29961935 1029 0.12369135 1030 0.06095097 1031 -0.17710884 1032 0.0942912 1033 0.13693355 
394 1024 -0.13526255 1025 -1.8519071 1026 -0.23892775 1027 -0.090215124 1028 0.2151546 1029 0.18427786 1030 -0.05291594 1031 -0.043604117 1032 0.015507359 1033 -0.08016491 
395 1024 -0.02341661 1025 -0.26353765 1026 -0.0131146675 1027 -0.048858598 1028 0.07621168 1029 0.1897071 1030 -0.32147864 1031 -0.00857395 1032 0.08575005 1033 0.0072354884 
396 1024 0.13879614 1025 0.5239734 1026 -0.28900355 1027 -0.15712993 1028 -0.17357974 1029 0.26677507 1030 -0.12975919 1031 0.060807135 1032 0.0472428 1033 0.0010340142 
397 1024 -0.013982232 1025 0.369537 1026 -0.12965044 1027 0.0032089092 1028 0.06812992 1029 0.29357776 1030 -0.005780715 1031 0.066755876 1032 -0.0326007 1033 0.05649034 
398 1024 -0.32077602 1025 -0.069700554 1026 -0.029178506 1027 0.04135491 1028 0.12868032 1029 0.071070865 1030 -0.23043822 1031 -0.22145392 1032 0.029646864 1033 -0.040036205 
399 1024 0.014599087 1025 0.8081689 1026 -0.05170964 1027 0.04297068 1028 -0.38700485 1029 0.17296758 1030 0.14811589 1031 0.31442958 1032 0.0568315 1033 -0.047411222 
400 1024 0.13848856 1025 0.19311272 1026 -0.009988712 1027 0.007181016 1028 -0.369392 1029 0.11138178 1030 -0.14211233 1031 0.36934018 1032 0.028046994 1033 -0.019212343 
401 1024 -0.17163412 1025 0.22739308 1026 -0.023174869 1027 0.09700034 1028 -0.047418863 1029 0.04000036 1030 -0.12829489 1031 0.13906896 1032 0.007322942 1033 -0.04928955 
402 1024 0.035176586 1025 0.7503167 1026 0.052294027 1027 -0.018667664 1028 0.25076488 1029 -0.15615945 1030 -0.039880015 1031 0.27391404 1032 -0.093990415 1033 -0.071608804 
403 1024 0.18457423 1025 0.047804244 1026 0.0801118 1027 -0.0658077 1028 -0.20770068 1029 -0.13360551 1030 -0.18531118 1031 0.3500039 1032 -0.037945304 1033 -0.015283834 
404 1024 -0.018157084 1025 -0.09844336 1026 -0.0642552 1027 0.07539849 1028 -0.09771793 1029 -0.033132076 1030 -0.03896881 1031 0.09588036 1032 0.029844835 1033 -0.026994875 
405 1024 -0.08781518 1025 -0.30758813 1026 -0.00941899 1027 0.09804025 1028 -0.26860154 1029 -0.40211922 1030 -0.12770763 1031 0.19611941 1032 0.03814535 1033 -0.12540308 
406 1024 0.16310763 1025 -0.12901388 1026 0.08087749 1027 0.01656611 1028 -0.009718725 1029 -0.24274589 1030 0.08053976 1031 0.2598475 1032 0.06533952 1033 -0.0032007846 
407 1024 -0.2919865 1025 -0.55863506 1026 -0.011117033 1027 0.09309742 1028 -0.15997514 1029 -0.83263654 1030 -0.2908791 1031 -0.17792442 1032 -0.022904145 1033 0.052624766 
408 1024 0.3159281 1025 0.6204155 1026 -0.13391018 1027 -0.08354368 1028 -0.06980629 1029 -1.4160715 1030 -0.39193174 1031 0.15005225 1032 0.05530326 1033 -0.030654162 
409 1024 -0.13720264 1025 0.091233365 1026 -0.14823447 1027 -0.00557271 1028 -0.07846467 1029 -0.3036394 1030 -0.038725432 1031 0.14719301 1032 0.14816801 1033 -0.19784726 
410 1024 0.39002663 1025 -0.2635526 1026 0.056940924 1027 0.3582513 1028 -0.02044058 1029 0.3307614 1030 0.26684082 1031 0.7243025 1032 -0.0021990805 1033 -0.2502214 
411 1024 0.3735407 1025 -1.678382 1026 -0.22906531 1027 0.9254218 1028 -1.1486735 1029 3.0259912 1030 0.19565283 1031 -0.40495166 1032 0.19641481 1033 0.25701535 
412 1024 -0.31741413 1025 -3.422217 1026 0.14721127 1027 -4.890491 1028 0.8229955 1029 3.5787425 1030 -0.20514676 1031 0.47512373 1032 0.013423873 1033 -0.39478126 
413 1024 -1.6872205 1025 1.54145 1026 -0.13716437 1027 1.0228354 1028 0.3692569 1029 1.363671 1030 0.29714665 1031 0.30134338 1032 -0.26056656 1033 0.5842746 
414 1024 -1.1309869 1025 0.30478168 1026 -0.16433579 1027 -1.8575863 1028 -7.649117 1029 -0.3840967 1030 -0.75687504 1031 0.18346411 1032 -0.26648682 1033 -1.235758 
415 1024 -0.02618698 1025 1.5571724 1026 -1.8180084 1027 -0.021665571 1028 -0.024844289 1029 -1.4515121 1030 -0.4368694 1031 -2.9192028 1032 1.2399162 1033 -0.2272405 
416 1024 -0.020470615 1025 0.0007449128 1026 -0.020900067 1027 -0.022911258 1028 0.015688349 1029 0.0015703924 1030 -0.0201707 1031 0.009724544 1032 0.015005503 1033 0.018700121 
417 1024 -0.06669057 1025 0.047169283 1026 -0.9741723 1027 0.6848681 1028 0.035661217 1029 -0.037238024 1030 0.01355673 1031 1.7804315 1032 -0.7945902 1033 -0.7267036 
418 1024 -3.9185696 1025 -0.31867892 1026 -1.8580996 1027 0.06863696 1028 -1.1753936 1029 -0.054827075 1030 -0.009284031 1031 1.2074252 1032 -0.5781812 1033 -0.8742835 
419 1024 0.38209563 1025 -0.072790794 1026 -2.4031398 1027 0.59870577 1028 0.47559834 1029 -2.9577968 1030 -3.221352 1031 -0.7719791 1032 0.18451725 1033 0.41757697 
420 1024 -1.7983636 1025 1.8636723 1026 -0.1939955 1027 0.7067485 1028 -0.9470119 1029 -0.33098367 1030 0.9540861 1031 0.6490428 1032 -0.22421665 1033 -0.32474703 
421 1024 -0.81190294 1025 0.81556773 1026 0.6833109 1027 -0.5670287 1028 -0.13482356 1029 0.069057405 1030 -0.047559153 1031 0.07177267 1032 0.027316624 1033 -0.26597255 
422 1024 -0.23252054 1025 -1.1696316 1026 0.5112267 1027 0.06339465 1028 0.54637605 1029 -0.2252687 1030 0.27959746 1031 -0.79918796 1032 -0.15381646 1033 0.34600827 
423 1024 -0.32496414 1025 -2.7324295 1026 -0.13700873 1027 -0.24142514 1028 0.045198917 1029 0.37366495 1030 -0.083395585 1031 0.19640635 1032 0.05932129 1033 0.03689112 
424 1024 -0.043778453 1025 0.1548179 1026 -0.22225998 1027 -0.07000274 1028 -0.3305282 1029 -0.18849863 1030 0.08283747 1031 0.39446244 1032 0.06937134 1033 0.022749195 
425 1024 0.041410636 1025 -1.1017548 1026 -0.20999697 1027 -0.14254715 1028 -0.030221963 1029 0.042052362 1030 -0.070181325 1031 -0.051058576 1032 -0.0036045176 1033 0.09999043 
426 1024 -0.025772607 1025 0.92552423 1026 0.08752627 1027 -0.06507067 1028 -0.035368063 1029 -0.06677153 1030 0.18546762 1031 0.037882205 1032 0.12221931 1033 0.18496564 
427 1024 0.028490815 1025 -0.5171339 1026 -0.22947258 1027 -0.104867145 1028 0.3100931 1029 -0.037451528 1030 0.16661127 1031 -0.008572014 1032 -0.0036722424 1033 0.013649546 
428 1024 -0.08350625 1025 -0.38167143 1026 -0.044234358 1027 -0.04143563 1028 0.17428653 1029 -0.1416877 1030 -0.10009527 1031 0.053346973 1032 0.06356765 1033 0.054562956 
429 1024 -0.06908381 1025 -0.54769605 1026 -0.14751358 1027 0.029422533 1028 0.019423317 1029 -0.07082812 1030 -0.045468215 1031 -0.0243686 1032 0.067941405 1033 0.075112455 
430 1024 -0.012814205 1025 -0.5587002 1026 -0.26733223 1027 -0.10258573 1028 0.16930538 1029 0.20990272 1030 0.21498336 1031 -0.14503364 1032 0.0585909 1033 0.018284855 
431 1024 0.0061366167 1025 -0.17043436 1026 -0.25079903 1027 0.09548957 1028 -0.043635827 1029 0.17366426 1030 -0.04703828 1031 0.010915571 1032 0.030897366 1033 -0.11736329 
432 1024 -0.20023248 1025 0.8435384 1026 -0.23363131 1027 0.13382366 1028 -0.38655102 1029 -0.10368133 1030 0.13680331 1031 0.028427862 1032 0.06294971 1033 0.01880199 
433 1024 -0.5010699 1025 0.21626566 1026 -0.10260667 1027 0.008538123 1028 -0.16473426 1029 -0.009324358 1030 -0.110480405 1031 0.25486982 1032 0.002801955 1033 0.065016344 
434 1024 -0.07656448 1025 0.14767304 1026 -0.12872043 1027 0.122494124 1028 0.1800358 1029 -0.009659936 1030 -0.22751091 1031 0.19137457 1032 0.014239199 1033 -0.017612303 
435 1024 0.19685252 1025 0.0024123564 1026 -0.16388386 1027 0.06683092 1028 0.16775993 1029 -0.08744164 1030 -0.024321955 1031 -0.041408677 1032 -0.029986007 1033 0.17778246 
436 1024 -0.32721877 1025 0.11104595 1026 0.025531588 1027 0.04126058 1028 -0.04845 1029 -0.21309751 1030 0.049517605 1031 0.24763313 1032 -0.0029197596 1033 0.13135463 
437 1024 -0.012525272 1025 -0.055033945 1026 0.055730663 1027 0.07553467 1028 0.07839728 1029 0.049838666 1030 -0.29841614 1031 -0.06483939 1032 -0.022347672 1033 0.13875407 
438 1024 0.1445458 1025 -0.15711069 1026 -0.06549667 1027 0.079469785 1028 0.074171916 1029 -0.06717993 1030 0.09279396 1031 -0.11100257 1032 0.004314079 1033 0.06342962 
439 1024 0.0062349536 1025 -1.0183274 1026 0.02822319 1027 0.0065920847 1028 -0.16923714 1029 -0.39851612 1030 -0.05076677 1031 0.28230208 1032 0.03155402 1033 0.19673683 
440 1024 0.34654182 1025 -0.012921393 1026 0.07853569 1027 -0.0030167103 1028 -0.2603832 1029 -1.3835055 1030 0.42815575 1031 -0.11782325 1032 -0.043583777 1033 0.14789627 
441 1024 -0.01351908 1025 -1.2805694 1026 0.011850598 1027 -0.3494993 1028 -0.32337758 1029 -4.8859406 1030 -0.25243255 1031 -0.13805878 1032 0.050333515 1033 0.31550315 
442 1024 -0.037790608 1025 0.2631724 1026 -0.22677723 1027 -0.24277897 1028 -0.24073969 1029 -1.4356036 1030 0.10978118 1031 -0.0753833 1032 -0.13229457 1033 0.12717414 
443 1024 -0.081785515 1025 1.8253022 1026 -0.21356986 1027 0.05071722 1028 0.09774828 1029 2.4292574 1030 -0.0761096 1031 0.40569177 1032 0.056617532 1033 -0.6640169 
444 1024 -0.49868596 1025 -2.6820595 1026 0.11902932 1027 -1.0255015 1028 -1.6917065 1029 2.680768 1030 -0.15776198 1031 -0.43640023 1032 0.27341846 1033 0.09339633 
445 1024 -0.665118 1025 1.1330463 1026 0.13982657 1027 1.322526 1028 -0.10440913 1029 1.1445819 1030 -0.887173 1031 -1.2975577 1032 0.056722615 1033 -1.8916392 
446 1024 -0.58549964 1025 -0.41014707 1026 -1.4460362 1027 -3.3293877 1028 -0.3669353 1029 -1.1042404 1030 -0.6927155 1031 -1.4855789 1032 0.7522316 1033 -2.010881 
447 1024 -0.0026475303 1025 3.5405734 1026 -3.2895582 1027 -0.0915595 1028 0.01016308 1029 -0.2811147 1030 1.1815794 1031 -0.6168199 1032 -1.0060389 1033 -0.07740814 
448 1024 -0.02402766 1025 0.013001423 1026 -0.013205875 1027 -0.042294793 1028 -0.008204684 1029 -0.007902317 1030 -0.0118277855 1031 -0.02259297 1032 0.0007802509 1033 -0.08877287 
449 1024 -0.26532236 1025 -0.41998914 1026 -0.010810606 1027 -0.3477023 1028 0.8117461 1029 -0.0855589 1030 0.009959221 1031 3.604453 1032 -0.007450741 1033 -1.3784503 
450 1024 -0.36572424 1025 -0.867261 1026 -0.7901165 1027 -5.0323153 1028 -0.59219134 1029 -1.2448353 1030 -1.6593848 1031 -0.7293199 1032 -0.62732315 1033 1.1512399 
451 1024 -0.47471341 1025 0.064640954 1026 -3.3457963 1027 -0.26740184 1028 -0.23825133 1029 0.10519898 1030 -5.3091393 1031 1.5413038 1032 -0.44755003 1033 -1.194989 
452 1024 -1.0956464 1025 -1.5772656 1026 1.8918362 1027 -0.4472491 1028 -0.3460824 1029 -0.487351 1030 -0.81362665 1031 -0.61434495 1032 0.3983854 1033 0.27680317 
453 1024 0.14907014 1025 -3.01669 1026 0.4980784 1027 -0.026917767 1028 -0.20084237 1029 -0.37340263 1030 -0.3629135 1031 0.39850515 1032 -0.123557456 1033 0.26059875 
454 1024 0.33004832 1025 0.15905038 1026 -0.9079302 1027 0.006787622 1028 -0.203447 1029 0.24889468 1030 -0.5346335 1031 0.35384923 1032 0.22891511 1033 -0.021514433 
455 1024 0.025526978 1025 1.7481973 1026 -0.69015485 1027 -0.07681446 1028 -0.05436562 1029 0.24777403 1030 0.050432935 1031 -0.27119008 1032 0.11528565 1033 0.24302761 
456 1024 -0.099037446 1025 0.46400174 1026 -0.37385392 1027 -0.15950751 1028 0.4379529 1029 0.12054047 1030 -0.25252956 1031 0.016312174 1032 0.031992693 1033 0.06092775 
457 1024 -0.10862282 1025 -0.21370429 1026 -0.08585635 1027 -0.057904374 1028 0.30995974 1029 -0.0022952897 1030 0.19263375 1031 0.23582186 1032 0.07709312 1033 -0.045507256 
458 1024 0.09133583 1025 1.0458169 1026 -0.44920683 1027 0.012511158 1028 0.08779533 1029 -0.017066663 1030 0.006725386 1031 -0.24794668 1032 -0.014509166 1033 -0.016368529 
459 1024 -0.07962421 1025 -0.20842804 1026 -0.1285673 1027 -0.06121158 1028 0.19812039 1029 0.056993604 1030 -0.13440716 1031 -0.2243547 1032 0.017237365 1033 0.09717541 
460 1024 -0.01009025 1025 -0.7914485 1026 -0.2235994 1027 -0.021345528 1028 0.120920174 1029 0.28567612 1030 0.08864905 1031 -0.0045228396 1032 -0.12087372 1033 0.046093438 
461 1024 0.06452968 1025 0.51450914 1026 -0.14739078 1027 0.053082854 1028 0.31031558 1029 0.1841401 1030 0.036730386 1031 -0.0034742348 1032 0.050180662 1033 -0.018631617 
462 1024 0.12570328 1025 0.26084062 1026 -0.11167479 1027 0.14070296 1028 0.5183728 1029 0.009249571 1030 0.008186674 1031 -0.44172126 1032 0.038101994 1033 -0.023071062 
463 1024 -0.0125234965 1025 0.3603151 1026 -0.11925363 1027 -0.11662599 1028 -0.18957813 1029 0.09283638 1030 0.12051531 1031 -0.22820224 1032 0.06932566 1033 0.054019142 
464 1024 -0.30431193 1025 0.6323291 1026 -0.15882859 1027 0.18253368 1028 0.044975128 1029 -0.030029707 1030 -0.1835577 1031 -0.31641233 1032 -0.025589218 1033 0.18441655 
465 1024 -0.34494293 1025 0.42840514 1026 -0.11525 1027 0.13940431 1028 0.13032506 1029 0.05502377 1030 0.04310945 1031 0.0946584 1032 0.045767672 1033 0.07523447 
466 1024 -0.30433592 1025 -0.105812885 1026 0.046237685 1027 0.019816197 1028 0.26838484 1029 -0.017454129 1030 0.09833349 1031 0.098813035 1032 0.058000542 1033 -0.062610686 
467 1024 -0.10768847 1025 0.042554915 1026 -0.0573274 1027 -0.0148369 1028 0.33842042 1029 -0.15065819 1030 -0.13606018 1031 0.315484 1032 0.067779675 1033 -0.08204008 
468 1024 0.058815222 1025 -0.16059247 1026 -0.044927318 1027 0.019239867 1028 0.034034494 1029 -0.08017463 1030 0.10604631 1031 0.19528137 1032 0.022656921 1033 0.06409779 
469 1024 0.041786477 1025 0.24832228 1026 -0.019823994 1027 -0.04412292 1028 -0.14538248 1029 -0.25689206 1030 0.08528943 1031 0.14169602 1032 0.008095728 1033 0.11671509 
470 1024 -0.08240359 1025 -0.94471705 1026 0.16503356 1027 -0.06931183 1028 0.0778025 1029 -0.27161 1030 -0.17276523 1031 0.02655637 1032 0.1005718 1033 0.061682623 
471 1024 0.5015825 1025 0.13052519 1026 -0.08292903 1027 0.041349176 1028 0.012581611 1029 -0.13749065 1030 -0.1684851 1031 -0.11846576 1032 0.035436153 1033 0.07704882 
472 1024 -0.14774196 1025 0.04876064 1026 0.004662946 1027 -0.28749478 1028 0.18406422 1029 -0.19122022 1030 0.0113801 1031 0.0801349 1032 0.15562196 1033 0.035287734 
473 1024 0.16750455 1025 0.5535875 1026 0.029263524 1027 -0.085609525 1028 0.56388277 1029 -1.8249718 1030 0.11067741 1031 0.20849213 1032 0.1456272 1033 -0.13176243 
474 1024 0.22498462 1025 2.953429 1026 -0.08406557 1027 -0.5788891 1028 -0.9425247 1029 -12.581143 1030 0.4731854 1031 0.14217 1032 0.18393445 1033 0.4183167 
475 1024 -0.16028899 1025 -1.4446976 1026 -0.1561878 1027 -4.4742074 1028 0.4153561 1029 -5.6757092 1030 -0.023820702 1031 -2.110495 1032 0.08826108 1033 0.7983829 
476 1024 1.0556221 1025 -4.1074085 1026 0.13852789 1027 2.7660208 1028 0.12719923 1029 -1.235214 1030 0.12601122 1031 -0.655413 1032 0.12559007 1033 -1.1582235 
477 1024 -0.53075284 1025 0.29504386 1026 0.35913405 1027 1.2170576 1028 -0.19860351 1029 -0.6473236 1030 0.4157174 1031 -0.13565654 1032 -0.1526093 1033 -3.562434 
478 1024 -4.3634534 1025 -4.3738565 1026 1.5091565 1027 -2.4910827 1028 -1.5042557 1029 2.6615298 1030 -1.6954049 1031 -6.2421575 1032 -0.6633312 1033 -2.0826645 
479 1024 -0.049146544 1025 -0.76700425 1026 -2.4332805 1027 -0.03786495 1028 -5.856298 1029 -0.37125748 1030 0.4889867 1031 0.27744547 1032 -0.25169584 1033 -0.1404245 
480 1024 0.0248366 1025 -0.023522116 1026 0.020388972 1027 0.023301702 1028 -0.028604738 1029 0.023499593 1030 0.020527158 1031 0.011855856 1032 -0.0030259266 1033 -0.0003589429 
481 1024 2.179679 1025 -0.39175043 1026 -0.014644771 1027 -0.18376762 1028 1.2403997 1029 -0.0414705 1030 -1.7963293 1031 -1.8413727 1032 -0.024555877 1033 -3.8819482 
482 1024 -0.37534577 1025 -0.8603594 1026 -0.3411554 1027 -2.7549088 1028 -1.2168926 1029 -2.5588348 1030 -1.7921329 1031 2.3603404 1032 -0.6819128 1033 -1.7978601 
483 1024 1.1990279 1025 -0.0052062203 1026 0.719458 1027 -0.9260042 1028 -0.7379072 1029 -0.35555348 1030 -2.6638997 1031 0.25265852 1032 0.90919983 1033 0.41782594 
484 1024 1.155591 1025 0.19305791 1026 -1.5728068 1027 0.53533196 1028 -0.16363665 1029 0.7886659 1030 0.17409296 1031 0.5025762 1032 -1.5559293 1033 0.064290956 
485 1024 -0.021481821 1025 -1.7584431 1026 -3.8967319 1027 -0.5265335 1028 -0.54235893 1029 0.5678931 1030 0.39865878 1031 -0.53570646 1032 0.69078815 1033 0.36374605 
486 1024 0.04488627 1025 1.2649978 1026 -0.23914303 1027 0.047659412 1028 0.17768653 1029 0.3479436 1030 -0.048964113 1031 -0.11985636 1032 -0.3258269 1033 -0.009927708 
487 1024 0.7353909 1025 1.0658616 1026 -0.50722206 1027 -0.11710773 1028 0.18411127 1029 -0.2227723 1030 0.7974141 1031 0.078193724 1032 0.103279956 1033 -0.0053361645 
488 1024 0.3145726 1025 -0.66033 1026 -0.113520294 1027 0.05211659 1028 -0.023157166 1029 0.048222203 1030 -0.2102423 1031 -0.09736145 1032 0.0010292032 1033 0.041013792 
489 1024 0.23598105 1025 -0.32516965 1026 -0.23729111 1027 0.0030830223 1028 0.008635052 1029 -0.11403566 1030 -0.1648708 1031 -0.14621092 1032 -0.009796361 1033 0.13827492 
490 1024 0.0066851047 1025 0.41370603 1026 0.018113313 1027 0.04054408 1028 0.21737705 1029 -0.043981165 1030 0.17865045 1031 -0.010516175 1032 -0.017037377 1033 0.023083692 
491 1024 0.33752462 1025 -0.9409253 1026 -0.0059653902 1027 -0.04985593 1028 0.1302587 1029 0.034279447 1030 0.25318903 1031 -0.11270677 1032 -0.1392532 1033 0.09460595 
492 1024 0.20971347 1025 -0.82453763 1026 -0.047583606 1027 0.027328882 1028 0.38385174 1029 0.15935344 1030 0.058396544 1031 -0.020493388 1032 -0.008154285 1033 0.059651732 
493 1024 -0.43556732 1025 0.26456693 1026 0.009503587 1027 0.0726912 1028 0.2790644 1029 0.004470951 1030 0.14311646 1031 -0.19682214 1032 0.1146372 1033 0.012674642 
494 1024 0.011780893 1025 0.20715854 1026 -0.004018054 1027 -0.0050489684 1028 0.2143616 1029 0.047561705 1030 -0.165651 1031 -0.37049603 1032 0.018334238 1033 0.051519945 
495 1024 -0.20839271 1025 -0.13754512 1026 -0.06297516 1027 0.07325026 1028 -0.1334746 1029 0.06644712 1030 0.036975496 1031 -0.5056654 1032 0.07758238 1033 -0.013982858 
496 1024 -0.52325356 1025 0.527351 1026 0.057982747 1027 0.08383882 1028 -0.0871814 1029 0.07548668 1030 0.08061799 1031 -0.14778462 1032 -0.025344117 1033 0.07887936 
497 1024 -0.33538786 1025 0.5048394 1026 -0.05768817 1027 -0.021063488 1028 -0.032312974 1029 -0.26100525 1030 0.011185395 1031 -0.16193436 1032 0.053799223 1033 0.123722054 
498 1024 -0.51749724 1025 0.44998038 1026 -0.06784099 1027 -0.009715264 1028 -0.13323185 1029 -0.17749359 1030 0.06565513 1031 0.21323843 1032 0.0073045013 1033 0.09544148 
499 1024 -0.14991428 1025 0.67690575 1026 -0.03663508 1027 0.09949645 1028 0.3398852 1029 -0.3420948 1030 -0.12596048 1031 -0.15713549 1032 0.019705854 1033 0.00978192 
500 1024 0.17226171 1025 0.4310275 1026 -0.10554533 1027 0.035055745 1028 -0.06091313 1029 -0.19653009 1030 -0.108004786 1031 0.16679956 1032 -0.038940273 1033 0.04467981 
501 1024 -0.10451956 1025 -0.19579518 1026 -0.025433574 1027 -0.06502466 1028 0.11068677 1029 0.026311113 1030 0.00611622 1031 -0.10616287 1032 -0.040593177 1033 -0.005774823 
502 1024 -0.118918486 1025 -0.58820814 1026 -0.1728554 1027 0.056920353 1028 0.013418571 1029 0.04918849 1030 0.013445137 1031 -0.36562973 1032 0.011556633 1033 0.09036125 
503 1024 -0.5475139 1025 -1.0105398 1026 0.050230533 1027 -0.2953606 1028 0.20890653 1029 0.21308173 1030 0.17914335 1031 -0.003113825 1032 0.026504543 1033 0.0717223 
504 1024 0.10248554 1025 -0.24886632 1026 0.04268067 1027 0.015594494 1028 0.12965965 1029 0.28226474 1030 0.18794644 1031 -0.04105133 1032 -0.08268609 1033 0.09520417 
505 1024 -0.19290628 1025 -0.11630408 1026 -0.037281327 1027 -0.3586097 1028 0.027948922 1029 0.7246683 1030 -0.006082767 1031 0.05453188 1032 -0.04028654 1033 0.25722027 
506 1024 0.54497755 1025 -2.764519 1026 -0.18713342 1027 -0.27947888 1028 0.07394956 1029 1.5239817 1030 0.113848016 1031 -0.027169969 1032 -0.048419837 1033 -0.56585485 
507 1024 0.008041065 1025 -1.3078711 1026 -0.072232075 1027 0.7852121 1028 -0.8568969 1029 -4.058834 1030 0.30227232 1031 0.41737416 1032 0.02650468 1033 0.20263566 
508 1024 -0.4587242 1025 -4.0449457 1026 0.44404015 1027 -2.8392704 1028 -0.5496128 1029 -12.048499 1030 0.031350795 1031 0.5956318 1032 -0.04476632 1033 -0.7087599 
509 1024 0.37924474 1025 0.16401686 1026 0.3674977 1027 -0.46881965 1028 -0.28570798 1029 -8.0022545 1030 -0.7913494 1031 1.2137169 1032 -0.017143952 1033 -0.32665303 
510 1024 -0.06934261 1025 -1.0234649 1026 1.1174545 1027 -0.021051038 1028 0.8558917 1029 0.13768575 1030 -1.5969653 1031 1.3047653 1032 0.46125305 1033 0.23383242 
511 1024 -0.020447414 1025 0.031241309 1026 4.2023706 1027 -0.0013185143 1028 -3.366467 1029 -0.028940428 1030 0.22943383 1031 -2.1550145 1032 -0.46599814 1033 -0.003206827 
512 1024 0.015418764 1025 -0.022666398 1026 -0.02352519 1027 0.022639502 1028 0.020956587 1029 4.2787495 1030 -0.018535066 1031 -0.027865775 1032 -0.002846837 1033 -3.966484 
513 1024 -0.009534705 1025 -0.4490379 1026 -3.7060974 1027 4.427278 1028 1.1186789 1029 -0.05549374 1030 -0.010143723 1031 1.0059587 1032 0.024950959 1033 -1.7626238 
514 1024 -0.8426775 1025 -0.57518643 1026 -0.07879782 1027 -2.5020852 1028 -1.2432035 1029 -1.5384825 1030 0.004332904 1031 -0.061668206 1032 -0.42929634 1033 0.311429 
515 1024 -1.9335426 1025 1.5428739 1026 0.020174982 1027 1.9571958 1028 -0.6198692 1029 1.9235485 1030 -0.015116574 1031 -0.62374383 1032 -8.225945 1033 0.4900877 
516 1024 -0.8132482 1025 2.0580857 1026 1.3019102 1027 -0.6916612 1028 0.7109025 1029 0.5817508 1030 -1.1178185 1031 0.4390376 1032 0.48602453 1033 -0.21876436 
517 1024 0.15690511 1025 -1.056155 1026 0.15347736 1027 0.20003283 1028 0.65208024 1029 -0.09875514 1030 0.3001859 1031 0.432258 1032 0.13468741 1033 -0.26346803 
518 1024 0.06844934 1025 1.885699 1026 -0.5250688 1027 -0.05190099 1028 0.017057443 1029 -0.18447234 1030 0.0070736646 1031 -0.055641014 1032 0.019420614 1033 0.27183905 
519 1024 -0.13847312 1025 0.041309398 1026 -0.35742873 1027 0.1583724 1028 0.20316558 1029 0.5081055 1030 -0.082016475 1031 -0.087952614 1032 -0.22682115 1033 0.01948743 
520 1024 0.23340477 1025 -1.3292869 1026 -0.02790233 1027 -0.02223944 1028 0.22252999 1029 0.018593231 1030 0.38939098 1031 -0.07951629 1032 -0.15953451 1033 0.07244611 
521 1024 0.02738219 1025 0.3621036 1026 -0.09520307 1027 0.01727105 1028 0.2588776 1029 0.06178076 1030 0.083606526 1031 -0.09072293 1032 -0.07048442 1033 -0.07136671 
522 1024 -0.07928988 1025 0.2821234 1026 0.063064046 1027 -0.07627827 1028 0.016840238 1029 0.070079185 1030 -0.038732063 1031 0.035451405 1032 -0.122038424 1033 0.032282118 
523 1024 -0.03839798 1025 -0.64641064 1026 -0.13241436 1027 -0.0017508758 1028 0.21506234 1029 0.1748071 1030 -0.032025047 1031 -0.17610015 1032 -0.07269944 1033 0.05435277 
524 1024 0.35174403 1025 -0.047113698 1026 -0.06500606 1027 -0.13110624 1028 0.0038842326 1029 0.22633833 1030 0.07947507 1031 0.06826476 1032 0.12499947 1033 -0.025666803 
525 1024 -0.059699442 1025 -0.44063848 1026 0.03817508 1027 0.06657479 1028 0.3391825 1029 -0.05368466 1030 0.18111539 1031 -0.14302985 1032 0.02957514 1033 0.06617705 
526 1024 0.14595674 1025 0.057084076 1026 0.0071610436 1027 0.09693478 1028 0.073773675 1029 -0.10741586 1030 0.054165304 1031 -0.42042518 1032 0.005199781 1033 0.0038856852 
527 1024 0.22454856 1025 -0.052411653 1026 -0.03120767 1027 -0.06720471 1028 -0.00021411551 1029 0.06670341 1030 -0.01977463 1031 -0.40480894 1032 0.10065672 1033 0.034028936 
528 1024 -0.64593714 1025 0.6484743 1026 -0.06377997 1027 0.04372797 1028 -0.02404328 1029 0.03872435 1030 -0.060488332 1031 0.029005395 1032 0.038781863 1033 0.07094165 
529 1024 -0.051655807 1025 0.5655825 1026 0.010503134 1027 0.04887126 1028 -0.025855066 1029 -0.13526581 1030 -0.022836074 1031 -0.1738868 1032 -0.00093608204 1033 0.0506899 
530 1024 -0.40230379 1025 0.2544802 1026 -0.06858594 1027 -0.0927463 1028 0.106673375 1029 -0.10488792 1030 0.026433578 1031 -0.20352799 1032 0.023023468 1033 -0.0068117827 
531 1024 0.27552205 1025 0.124726065 1026 0.059265137 1027 -0.003333776 1028 0.23398905 1029 -0.17462656 1030 -0.036048654 1031 -0.14820738 1032 0.024706028 1033 0.16322507 
532 1024 -0.24763522 1025 -0.10032995 1026 -0.11721664 1027 0.031457108 1028 0.14727102 1029 0.239208 1030 -0.021195723 1031 -0.19095884 1032 0.005942093 1033 0.001734447 
533 1024 -0.009904424 1025 0.114012726 1026 0.11843325 1027 0.047890175 1028 0.07245603 1029 -0.028493615 1030 -0.15774463 1031 0.115497164 1032 -0.077240996 1033 0.09323412 
534 1024 0.07718577 1025 -0.45411795 1026 -0.10659262 1027 -0.10090642 1028 -0.027981194 1029 -0.26951703 1030 0.1651255 1031 0.42756075 1032 -0.052748255 1033 -0.095596366 
535 1024 0.21345948 1025 1.4535213 1026 0.015972778 1027 -0.053530503 1028 0.036756523 1029 0.35726875 1030 -0.20588452 1031 0.17207597 1032 -0.10928582 1033 -0.026947847 
536 1024 0.16053441 1025 1.0780445 1026 -0.22629072 1027 0.12833017 1028 0.22275645 1029 -0.13423106 1030 -0.16731963 1031 0.09351428 1032 0.024119597 1033 0.0122319665 
537 1024 -0.0021913415 1025 -1.6443858 1026 -0.07140648 1027 -0.13826773 1028 0.18620561 1029 0.1830217 1030 0.13292131 1031 0.33293304 1032 -0.16692553 1033 -0.045169305 
538 1024 0.18039668 1025 0.16321234 1026 -0.14111796 1027 0.20354109 1028 0.0155159235 1029 -0.20980574 1030 0.34388968 1031 -0.20832327 1032 -0.15258044 1033 0.081312485 
539 1024 -0.032325856 1025 1.6327631 1026 0.14100318 1027 0.053637125 1028 -0.1844719 1029 -0.2784961 1030 0.027964987 1031 0.09628983 1032 -0.17915118 1033 -0.39336866 
540 1024 -0.32041147 1025 3.273813 1026 -0.47606993 1027 0.0037295723 1028 0.31266856 1029 0.95845336 1030 -0.20972407 1031 -0.9983389 1032 -0.19028835 1033 -1.9613814 
541 1024 0.2132666 1025 -1.7420299 1026 -0.074527636 1027 -5.8683767 1028 0.68090147 1029 -3.0495977 1030 0.2841319 1031 0.15490703 1032 0.16583775 1033 2.0736334 
542 1024 -0.7634317 1025 -1.6208413 1026 1.7953956 1027 -0.057476003 1028 -4.093774 1029 -0.104243554 1030 -0.65492064 1031 -4.7469406 1032 -0.40562043 1033 -1.1588862 
543 1024 -0.01871559 1025 -0.027740322 1026 4.1889052 1027 -0.0039724465 1028 -2.5095088 1029 -0.026941597 1030 -2.461949 1031 -0.015053261 1032 -3.5200543 1033 0.0012875013 
544 1024 -0.013433613 1025 0.02700124 1026 0.0041323267 1027 -0.021049216 1028 -0.00073007494 1029 3.6252165 1030 0.023195814 1031 0.019793395 1032 0.01806685 1033 -3.6280715 
545 1024 -0.025503784 1025 -0.008862242 1026 -0.06700811 1027 0.64883804 1028 -0.028221913 1029 -0.024410125 1030 -0.0043969005 1031 -0.024360735 1032 0.010956574 1033 0.0030247085 
546 1024 -0.85199577 1025 2.980045 1026 -0.091713764 1027 0.039415404 1028 -0.17299026 1029 -0.057538692 1030 -0.015433643 1031 0.103532635 1032 -0.03762046 1033 -2.077268 
547 1024 0.19309735 1025 5.2213354 1026 0.2567876 1027 -1.1521626 1028 0.4981996 1029 -0.95012724 1030 -0.10107804 1031 1.2121402 1032 -5.401433 1033 -0.26732638 
548 1024 -0.0015671754 1025 1.8752154 1026 -0.15375921 1027 0.45903382 1028 0.4840347 1029 -0.7511572 1030 -2.9410312 1031 -0.50219864 1032 0.52978915 1033 0.40028507 
549 1024 0.26221386 1025 -2.5989387 1026 0.45386294 1027 -0.4717126 1028 0.17205234 1029 -0.57941437 1030 -0.11556633 1031 -0.030331846 1032 -1.4338709 1033 -0.07479721 
550 1024 0.1246461 1025 -4.9953094 1026 1.1414276 1027 -0.14110547 1028 0.30026814 1029 -0.08832572 1030 -0.49102643 1031 0.025259702 1032 -0.20662105 1033 -0.004866391 
551 1024 -0.19643989 1025 -1.7281249 1026 0.09409429 1027 -0.15726988 1028 0.10548497 1029 -0.739428 1030 0.035215475 1031 -0.11699701 1032 -0.25560564 1033 0.041831005 
552 1024 0.36635104 1025 -0.027697884 1026 0.021188578 1027 -0.23139703 1028 0.1912383 1029 -0.15879333 1030 -0.07073741 1031 -0.15854754 1032 -0.029332977 1033 -0.046823166 
553 1024 0.20367885 1025 0.69884646 1026 -0.1546538 1027 -0.056996275 1028 -0.17098294 1029 0.031029278 1030 0.21426201 1031 -0.19730121 1032 -0.118524805 1033 0.1427611 
554 1024 0.16837788 1025 -1.2078875 1026 -0.02888195 1027 -0.02539585 1028 0.21564393 1029 0.057042286 1030 0.100208625 1031 -0.23243134 1032 -0.033355523 1033 0.060221214 
555 1024 0.126754 1025 -1.3125697 1026 0.05015215 1027 -0.054719087 1028 0.046301246 1029 0.21825589 1030 0.11959804 1031 -0.124736495 1032 -0.017060712 1033 0.052371778 
556 1024 0.11446158 1025 -0.21083538 1026 0.032234747 1027 -0.03167122 1028 0.025693407 1029 -0.23272514 1030 0.07128804 1031 0.053023394 1032 0.0780128 1033 0.074688196 
557 1024 -0.21952805 1025 0.13033696 1026 0.029423224 1027 0.08529947 1028 0.20630932 1029 0.1674828 1030 0.047476374 1031 -0.19324347 1032 -0.020648507 1033 -0.044725478 
558 1024 0.013758497 1025 0.19676973 1026 0.0064238985 1027 -0.029321847 1028 0.16166289 1029 0.12861419 1030 -0.03202341 1031 -0.35256222 1032 0.008112 1033 0.07921845 
559 1024 -0.20632635 1025 0.34084898 1026 0.14949968 1027 -0.01923399 1028 -0.3811731 1029 -0.0034848598 1030 -0.08376803 1031 -0.10496879 1032 0.094338685 1033 0.018260581 
560 1024 -0.8342962 1025 0.21285662 1026 0.091767505 1027 0.04351733 1028 0.23819922 1029 -0.14878352 1030 0.15814112 1031 -0.16672777 1032 0.03416763 1033 -0.027899444 
561 1024 -0.22423097 1025 -0.07552436 1026 -0.028333902 1027 -0.0020258185 1028 0.02265497 1029 -0.0020111273 1030 0.064270325 1031 -0.053958938 1032 -0.034558304 1033 0.015392252 
562 1024 -0.50909656 1025 -0.1532172 1026 0.02672133 1027 -0.024085699 1028 0.23790497 1029 -0.10615509 1030 0.08170681 1031 -0.0024982577 1032 0.026242802 1033 0.07324571 
563 1024 -0.29782197 1025 0.16576824 1026 -0.019495977 1027 0.060840655 1028 0.45599037 1029 0.19315384 1030 0.050481554 1031 0.11326886 1032 0.04445442 1033 0.11264554 
564 1024 0.03781257 1025 -0.31336504 1026 -0.08045875 1027 -0.091742314 1028 0.13821499 1029 -0.049793776 1030 -0.061331704 1031 0.226318 1032 -0.002212139 1033 0.0044591753 
565 1024 -0.17943758 1025 -0.30216962 1026 -0.15136658 1027 -0.19273144 1028 -0.10502173 1029 0.018430872 1030 -0.059864342 1031 0.33269513 1032 -0.05418954 1033 -0.058338776 
566 1024 -0.11911001 1025 -2.29532 1026 0.06646179 1027 -0.022214442 1028 0.34333965 1029 -0.068070434 1030 -0.09751175 1031 -0.037314437 1032 -0.0035067517 1033 0.031402577 
567 1024 -0.16407277 1025 -2.1732602 1026 -0.017449848 1027 0.091012076 1028 0.121034324 1029 0.06886023 1030 0.07309406 1031 -0.028850814 1032 -0.032992065 1033 0.07294258 
568 1024 0.070992075 1025 -0.44502974 1026 0.028869597 1027 -0.012776643 1028 -0.5881888 1029 -0.05142107 1030 0.33911142 1031 0.12731287 1032 -0.071050294 1033 -0.04924653 
569 1024 0.009609271 1025 -0.15142825 1026 -0.14500347 1027 0.17757712 1028 0.022189287 1029 -0.051599044 1030 0.14649324 1031 -0.09541462 1032 0.23669238 1033 -0.019360159 
570 1024 -0.039978035 1025 -1.614586 1026 -0.096412934 1027 0.23882145 1028 0.5372257 1029 0.13990703 1030 -0.406649 1031 0.7318064 1032 -0.074804366 1033 -0.2744157 
571 1024 0.18974046 1025 0.9082516 1026 0.046858475 1027 0.17749538 1028 -0.045973655 1029 -0.73477334 1030 0.10789624 1031 0.41794443 1032 -0.214487 1033 -0.16271073 
572 1024 0.84368575 1025 0.096690945 1026 -0.04911508 1027 -0.6660776 1028 -1.1523689 1029 0.7389526 1030 -0.17798139 1031 0.06251549 1032 -0.05806834 1033 -1.5680653 
573 1024 -0.22374043 1025 -2.244444 1026 0.15680304 1027 -4.923165 1028 0.08937977 1029 -0.42413992 1030 0.57286566 1031 -0.20783205 1032 0.051990844 1033 1.1887506 
574 1024 -0.78195065 1025 -1.2405449 1026 0.2789355 1027 4.945345 1028 -0.2220909 1029 -2.511013 1030 -1.3308046 1031 -4.6533084 1032 -6.550866 1033 -0.16750848 
575 1024 -0.021036893 1025 -0.005482666 1026 1.581034 1027 0.011491935 1028 -0.566866 1029 -0.021718718 1030 -0.05372427 1031 0.024207652 1032 -0.027540259 1033 -0.39322263 
576 1024 0.028539225 1025 0.013472844 1026 -0.017245535 1027 -0.014458224 1028 -0.019150935 1029 0.004246205 1030 0.024881639 1031 0.0057733767 1032 -0.0062029064 1033 -0.0003700927 
577 1024 0.016410682 1025 -0.01422869 1026 -1.4787016 1027 4.3645387 1028 -0.029049743 1029 0.0015695281 1030 0.02017441 1031 -4.4048443 1032 -0.006550342 1033 -0.037896566 
578 1024 -0.65590733 1025 1.8793981 1026 -3.527765 1027 1.7730898 1028 -1.4180257 1029 -0.02658624 1030 -0.008566059 1031 -0.3029034 1032 -4.629377 1033 -0.98481596 
579 1024 -1.849621 1025 -0.0073371334 1026 0.86602014 1027 -0.107608244 1028 0.3234022 1029 -0.18823865 1030 -3.9398148 1031 -0.09809355 1032 0.99298006 1033 -0.5164806 
580 1024 0.4532883 1025 -0.10923393 1026 -0.19990872 1027 0.5947403 1028 -0.8076591 1029 0.06889109 1030 -0.30726036 1031 0.34924668 1032 -0.6123334 1033 -0.31850523 
581 1024 -0.13774873 1025 -3.1800058 1026 -0.35658562 1027 -0.1715575 1028 -0.00063831365 1029 0.09442077 1030 0.13263111 1031 -0.6280346 1032 0.1968808 1033 0.2554369 
582 1024 -0.06905454 1025 0.58179826 1026 -0.1206731 1027 0.2894375 1028 -0.3638628 1029 0.15797482 1030 -0.07964662 1031 -0.2768788 1032 -0.070153415 1033 -0.01228264 
