0.01176639 -0.12399502 0.020509243 0.00081409625 0.05851129 -0.09324851 -0.051926844 0.007889325 -0.015166355 -0.020180607 
-0.009156619 -0.119852394 0.021914734 -0.13604406 -0.13161124 0.009161724 -0.07537284 -0.008511411 -0.049875893 -0.017106364 
-0.01938224 -0.0064723333 0.75552213 0.014885231 0.07788518 0.026861958 0.06470769 -0.06344977 0.0342359 0.032476682 
0.013282004 -0.045189723 0.307393 -0.23819785 -0.047666743 -0.15511811 0.24445312 0.023330474 0.8332648 -0.020104848 
-0.022046117 -0.18630108 -0.000938159 -0.013694873 -0.017117241 -0.010619485 -0.036372256 -0.016968045 -0.0035781628 -0.060041748 
-0.053637456 0.07447547 0.04783207 0.07132335 -0.13272816 -0.039184906 -0.031526428 -0.011001851 0.102436565 -0.044824637 
-0.056233607 0.029038304 0.022868503 -0.08152168 -0.08967653 0.006498991 -0.037434984 0.30669072 0.0041821525 0.010392212 
-0.053854857 0.018215494 0.43744266 -0.06068257 0.0037998266 -0.08731874 -0.08311066 -0.12617153 -0.00488374 -0.018978082 
0.15319571 -0.10040916 0.012674532 -0.0068776556 -0.08803995 -0.13630667 -0.09851645 -0.053788118 -0.120283656 -0.055658273 
-0.024364676 0.19872843 -0.038228687 -0.025569627 0.012000815 0.0005228084 -0.003954883 -0.017896594 -0.040201895 -0.0329604 
-0.059318166 0.35993126 -0.08413642 -0.06308728 -0.05358077 -0.018809425 -0.035921205 -0.045229647 -0.14021526 -0.060462292 
-0.0056610308 -0.13651349 -0.19273879 0.071015455 0.038611084 -0.024578495 0.008362681 -0.1440629 1.5607544 0.017333414 
-0.032420468 -0.025720496 -0.037240617 -0.012650016 -0.00069696916 -0.0015767213 -0.022479387 -0.013120646 -0.0031085736 -0.03506134 
-0.018625475 0.33882788 -0.036235314 -0.0222018 -0.00880228 -0.0022130557 -0.0063179685 -0.020639783 7.604813e-05 -0.0010181764 
0.072263815 -0.12880287 -0.08421355 -0.02805217 -0.17388418 -0.06381198 0.03362247 0.055996407 -0.15923923 -0.088116385 
-0.027981311 0.054825835 -0.027836666 -0.0074876538 -0.014120152 -0.0056586573 -0.033055566 -0.028434617 -0.017350206 -0.031862177 
-0.055511203 0.0041263206 -0.018395295 -0.046037264 0.002386437 -0.08432312 -0.05171168 -0.023523241 -0.0039973278 -0.06502921 
-0.01008737 -0.1129116 -0.10837916 0.010407644 -0.10042354 -0.056904722 0.0208102 -0.061195422 -0.09308249 -0.054118432 
-0.10379222 -0.01002232 0.025453381 -0.10199907 -0.025170792 -0.08043397 -0.0564847 -0.020063037 -0.0026126977 -0.014099308 
0.014163918 0.080417946 -0.023909645 -0.024533905 -0.03615204 0.019684033 -0.02940403 -0.0180202 -0.063097015 0.0074200975 
-0.06183667 -0.16613546 -0.052455217 0.056273274 -0.022612218 0.86567765 0.030504039 -0.005090288 0.039598107 0.0705865 
-0.028003888 -0.12779379 -0.020005303 -0.010243542 0.0068263453 -0.011382247 -0.036738288 -0.0019783287 -0.016703555 -0.010904162 
0.020468596 -0.05143874 0.03671263 -0.025451606 0.07099645 0.22906503 -0.04353028 0.033124715 -0.035308585 -0.011881032 
-0.0060517886 0.0028045406 -0.07663262 -0.00056671165 0.008660976 -0.087111235 -0.0944605 -0.06714672 0.0060700164 -0.08640641 
-0.022166561 -0.00021057158 -0.020773096 -0.04839768 0.005060729 -0.06111957 -0.06427493 -0.078931555 -0.002339411 0.007061581 
-0.024733348 -0.13566463 -0.07866262 -0.08409201 -0.11694838 0.92280304 -0.0426505 -0.0638148 -0.051439624 -0.10474288 
0.040393583 -0.12326386 0.023366613 0.004369709 -0.11700633 0.0089840675 -0.08037441 -0.010758883 -0.13095696 -0.07426631 
0.4996693 -0.047939304 0.0016642285 0.0075818924 0.03817655 0.02845981 -0.017194418 -0.07971097 -0.02345324 0.072891 
-0.012980996 0.079572715 -0.030149559 -0.031294595 0.0044374927 -0.0038396697 -0.024469364 -0.016353123 -0.060435776 -0.059733592 
-0.04045397 -0.015782842 -0.031076973 -0.053288344 -0.01724294 -0.069137365 -0.04319874 -0.012767488 0.018291747 -0.0135311065 
-0.09720095 0.35902333 -0.106674396 0.3213404 -0.07082696 0.016573349 -0.037285227 -0.14604196 -0.07404635 -0.075793445 
-0.031225046 -0.11955777 -0.13172182 -0.091182165 -0.012973088 -0.09902649 0.04024298 0.11543489 -0.12384603 -0.03342295 
-0.004713988 -0.015325595 -0.017317569 -0.0148708 0.41227245 -0.00489692 -0.02195819 -0.020052688 -0.0024387662 -0.049402747 
-0.037055515 -0.08596986 -0.0063773887 -0.002224926 -0.069318414 -0.043462485 -0.037660908 -0.0635849 -0.082658626 -0.07008972 
-0.022029147 0.073985256 -0.02900969 -0.06142188 0.041689906 0.009025742 0.038105447 0.0014176703 -0.03136656 -0.05722585 
0.5817523 0.022846911 0.060236577 -0.021642867 -0.08065203 0.05535452 0.09535074 -0.044000015 0.0070146522 0.02406484 
0.071682796 -0.04590344 0.09359476 0.023468483 -0.032102622 0.03297118 -0.1777666 -0.13533312 0.020628491 -0.101116106 
-0.014720844 -0.0056435103 -0.04360282 -0.015952392 0.3938943 0.00047727677 -0.006329087 0.0581336 -0.05860117 -0.019606845 
-0.025617674 -0.16343908 0.008300778 0.008318214 -0.0036201437 -0.008900988 -0.041657567 -0.0033361064 0.04609394 -0.052286457 
-0.057871133 -0.006722359 -0.059140705 -0.021372965 -0.016610522 0.010825125 -0.09111412 0.008796488 0.010001145 -0.117546506 
0.030602908 -0.109492816 -0.17038073 -0.062179193 0.037548397 -0.09583667 -0.14627683 0.45107356 -0.015262202 0.8850257 
-0.11297644 0.0130629875 0.023302853 -0.096726 -0.050997827 0.030756528 -0.03724875 -0.050689954 0.02399079 -0.05360892 
-0.060088795 -0.0037070396 -0.0064009908 -0.05041031 -0.2486597 0.0036456834 0.0023775117 -0.020294107 -0.11333252 0.85628015 
0.037347943 -0.08277479 -0.07868951 -0.04476432 -0.048452236 -0.036280457 -0.025507215 -0.012567733 -0.09445344 -0.093663275 
0.29156613 -0.0097541595 -0.14356147 0.015147259 0.08955535 0.021331074 0.6623833 -0.26136443 -0.0582522 0.8038428 
-0.020332089 0.24187922 -0.03895838 -0.024708766 0.039019957 0.0059384666 -0.021968834 -0.022641761 -0.05806054 -0.0100115165 
0.020710658 -0.03580757 0.14032967 -0.09285181 -0.04160435 -0.0846823 0.04292882 0.029422248 0.009381712 -0.086180106 
-0.08712443 0.10789502 0.47214827 -0.033209242 -0.014794175 -0.055431966 -0.025913276 0.0037554838 0.028467217 -0.05188909 
-0.11911643 -0.030375032 -0.084227264 -0.07874896 -0.052466698 -0.084063284 0.9014522 -0.06355509 -0.0977891 0.034814965 
-0.03303147 0.07926341 -0.04396835 0.0009933362 0.019199321 -0.0020370812 -0.014105923 -0.026091069 -0.0277131 -0.06295655 
-0.04023275 0.3330589 -0.020752763 -0.030860666 -0.044418484 -0.008062716 -0.032560825 0.0060842247 -0.026714487 -0.057709564 
-0.032863475 -0.01961323 -0.038212683 -0.028279778 0.17192441 -0.009333084 0.00021553753 -0.0003092931 -0.055278834 -0.029032214 
0.0335192 -0.033942014 0.034330066 1.0075307 -0.0033947541 0.04578091 0.03152976 -0.10837071 0.008006488 0.062217545 
-0.05473228 -0.13178852 -0.017662052 0.61410546 -0.09113497 -0.12299744 -0.10609674 0.60130715 -0.12349853 -0.08735733 
-0.03543239 0.020785235 -0.045705114 -0.018911887 -0.038253818 -0.0023608627 -0.011640155 -0.02589133 -0.033149436 -0.046009716 
-0.021458115 -0.10697047 0.36325988 0.40199187 -0.14306286 0.025556559 -0.08783501 -0.10965311 -0.024246687 -0.05120468 
-0.034199193 -0.02543674 -0.09958739 -0.037516292 0.46272665 0.04583287 -0.03280736 -0.06503233 -0.060117442 -0.067407645 
-0.03306782 0.07008834 -0.022292214 -0.021658273 -0.023522748 -0.006421375 -0.028534293 -0.00938817 -0.016329525 -0.062078696 
0.92550343 -0.005484607 -0.10103971 -0.0015884549 -0.05876261 -0.006691101 -0.050830092 0.012227199 -0.11340739 -0.07025456 
-0.12203118 -0.042514842 -0.0664511 -0.04271567 0.106723666 -0.07178799 0.057915486 -0.042107947 -0.09085529 0.049354225 
0.039196905 0.03928091 -0.014037894 0.038048025 0.034458246 0.042657927 0.027910471 0.9848895 0.01708131 0.07406372 
-0.1110877 -0.058573004 0.045593135 -0.07369557 0.33770263 -0.084558085 0.08900319 -0.061410777 -0.100134015 -0.004977052 
0.021073334 -0.1426114 0.010432792 0.0122979 -0.13540605 -0.03210049 0.7159664 -0.11001778 0.030378696 -0.107844025 
-0.029642103 -0.015689265 0.08017992 -0.047397044 0.06802978 -0.007625109 -0.08471429 0.05761036 -0.10673937 -0.106281735 
